{"conv2d_1": {"bias": [0.0005562422447837889, 0.0004584893467836082, 0.0012141996994614601, -0.00042372290045022964, 0.007558421231806278, -0.027197206392884254], "weights": [[[[-0.1501171886920929, -0.18961331248283386, 0.28388547897338867, 0.13420608639717102, 0.22887444496154785], [-0.16299456357955933, 0.12378620356321335, 0.1733274608850479, 0.30929166078567505, 0.291713684797287], [-0.20429933071136475, 0.22814558446407318, 0.42503392696380615, 0.5424293875694275, 0.05202343314886093], [-0.010069780051708221, 0.31101366877555847, 0.5258992314338684, 0.3136448562145233, 0.27066341042518616], [0.3046254813671112, 0.44144198298454285, 0.30958279967308044, 0.36909419298171997, 0.23991276323795319]]], [[[0.12422624975442886, 0.012569594196975231, 0.19126412272453308, 0.24265868961811066, 0.1733444631099701], [0.18272501230239868, -0.018345598131418228, 0.40604349970817566, 0.23666790127754211, 0.33379077911376953], [-0.07007626444101334, 0.14216819405555725, 0.38323739171028137, -0.00738545274361968, 0.11741567403078079], [0.005187932401895523, 0.20685526728630066, -0.020682480186223984, 0.0626353770494461, -0.12090393900871277], [0.12822188436985016, 0.14118631184101105, -0.12438646703958511, 0.12938182055950165, 0.03571321815252304]]], [[[-0.14283084869384766, -0.13368548452854156, -0.18629486858844757, -0.19848360121250153, -0.005934460554271936], [0.012378804385662079, -0.05960507690906525, 0.03571059927344322, -0.290109246969223, -0.24193927645683289], [-0.022837145254015923, -0.18405838310718536, -0.0451669804751873, -0.06851953268051147, -0.05610542744398117], [0.10555834323167801, 0.25323593616485596, -0.012088119052350521, 0.24362626671791077, -0.005017525982111692], [0.2386467605829239, 0.3049072027206421, 0.35189923644065857, 0.21922755241394043, 0.15071268379688263]]], [[[0.09184580296278, 0.21612334251403809, 0.31606242060661316, 0.25324007868766785, 0.08040016889572144], [-0.01672213338315487, 0.1271936297416687, 0.3215111792087555, 0.23994497954845428, 0.4146471619606018], [0.015211564488708973, 0.04364922270178795, -0.12517529726028442, 0.03631536662578583, -0.07010909169912338], [-0.20379187166690826, -0.04596317932009697, -0.21166422963142395, -0.2784426808357239, 0.05860787257552147], [-0.0867876261472702, -0.3088453710079193, -0.30787163972854614, -0.16318434476852417, -0.25736016035079956]]], [[[-0.1729412078857422, -0.1513439565896988, -0.11262194067239761, 0.07248786091804504, 0.10501634329557419], [-0.18948444724082947, 0.04294580593705177, 0.1708073914051056, -0.021065527573227882, 0.0252753384411335], [-0.22525665163993835, 0.10827051103115082, 0.16800467669963837, -0.028274986892938614, 0.07447891682386398], [-0.032786086201667786, -0.15721964836120605, 0.08113159984350204, 0.18713349103927612, 0.09215380996465683], [-0.1525445282459259, 0.14864285290241241, 0.0913565382361412, 0.2506749629974365, -0.06788098067045212]]], [[[0.1548386514186859, 0.365227073431015, 0.3675498962402344, 0.3134942352771759, 0.14037925004959106], [0.32545000314712524, 0.4089631736278534, 0.30222293734550476, 0.40145906805992126, 0.030066542327404022], [-0.18221434950828552, -0.05669497698545456, 0.10118109732866287, 0.24654865264892578, 0.18821296095848083], [-0.15080732107162476, -0.30699530243873596, -0.2719031274318695, 0.10316815972328186, 0.22801996767520905], [-0.3317444324493408, -0.2640104293823242, -0.1678665429353714, -0.20804041624069214, -0.007512371055781841]]]]}, "conv2d_2": {"bias": [0.03315681219100952, -0.0371975414454937, 4.094310133950785e-05, 0.022776484489440918, -0.0228496752679348, -0.02418319508433342, 0.012692929245531559, 0.02633649669587612, 0.02609075978398323, 0.018841871991753578, 0.01884332485496998, -0.07126600295305252, 0.013936169445514679, 0.04030948132276535, 0.01928042247891426, 0.024341821670532227], "weights": [[[[-0.1930028796195984, 0.008467933163046837, 0.24308839440345764, 0.20653484761714935, -0.0995517149567604], [-0.18979758024215698, 0.23410198092460632, 0.32773852348327637, -0.03120279684662819, -0.10228408128023148], [0.08538646996021271, 0.18904425203800201, 0.16462397575378418, 0.02770482562482357, -0.08415325731039047], [-0.08859312534332275, 0.04858344420790672, 0.06002701818943024, -0.02550344541668892, -0.006836579646915197], [-0.015819573774933815, -0.0925125703215599, -0.048063673079013824, 0.006718033459037542, -0.014051118865609169]], [[-0.11243340373039246, 0.056656621396541595, 0.09608662873506546, 0.1708955466747284, 0.08262694627046585], [-0.0779220461845398, 0.008448977023363113, 0.20235009491443634, 0.10361232608556747, -0.09968318790197372], [-0.125276118516922, 0.028918318450450897, 0.05602676048874855, -0.1137593612074852, -0.05909198522567749], [-0.001879944116808474, -0.01634090580046177, 0.042004723101854324, -0.044361602514982224, -0.09730223566293716], [-0.03679264709353447, 0.07698121666908264, 0.06717856973409653, 0.09007710963487625, 0.05563574656844139]], [[0.04025347903370857, -0.08257777243852615, -0.09667828679084778, -0.1241057887673378, -0.08113028854131699], [0.052078038454055786, -0.14853475987911224, -0.015017705038189888, -0.13163691759109497, -0.11210044473409653], [0.027152812108397484, -0.07602903991937637, -0.06867031753063202, -0.051170315593481064, 0.050656940788030624], [-0.12646251916885376, -0.0072708213701844215, -0.058168452233076096, 0.10533419996500015, 0.11017083376646042], [-0.1229173019528389, -0.08627856522798538, 0.060298655182123184, 0.0834752768278122, 0.10257191210985184]], [[0.08303899317979813, -0.190323606133461, -0.041329797357320786, -0.14561490714550018, -0.12957428395748138], [-0.0981951504945755, -0.23123663663864136, -0.07074136286973953, 0.0096199382096529, 0.055933550000190735], [-0.05048462375998497, -0.19938907027244568, -0.11053919792175293, 0.00896365288645029, -0.042855385690927505], [-0.13725827634334564, -0.07216688245534897, -0.09159702062606812, 0.07821621745824814, 0.08213560283184052], [-0.03897888585925102, 0.021248377859592438, 0.13329248130321503, 0.07644312083721161, 0.14474551379680634]], [[-0.03093699738383293, 0.12873253226280212, 0.12222382426261902, 0.0513647124171257, -0.08016451448202133], [0.08354701101779938, 0.04157038405537605, 0.006077939178794622, 0.04297032579779625, 0.04053657874464989], [-0.07556456327438354, 0.1295156329870224, 0.13000454008579254, -0.06035812199115753, 0.055447544902563095], [0.04429361969232559, 0.08971795439720154, -0.03272398188710213, -0.044773705303668976, 0.07894892245531082], [0.09080973267555237, 0.07409635931253433, 0.04106203839182854, 0.05379403755068779, -0.04657747223973274]], [[-0.015462707728147507, -0.11653055995702744, -0.03990880027413368, -0.13782472908496857, -0.09080686420202255], [-0.0030265876557677984, -0.10445776581764221, -0.17190372943878174, -0.08688530325889587, -0.11355248093605042], [-0.1160779595375061, -0.03433503583073616, 0.040037818253040314, -0.16524474322795868, -0.1611769050359726], [-0.03176098316907883, -0.042939964681863785, 0.025173397734761238, -0.0788160189986229, -0.1112077385187149], [-0.12245321273803711, -0.0935625284910202, 0.10029870271682739, 0.16185598075389862, 0.1495862454175949]]], [[[-0.042383722960948944, 0.10587980598211288, 0.08536969870328903, 0.09160082042217255, -0.015459537506103516], [0.06503612548112869, -0.1004791334271431, 0.1205570176243782, 0.15032930672168732, -0.06117256358265877], [-0.11121082305908203, -0.16605010628700256, 0.18992497026920319, 0.10872577130794525, -0.07143110781908035], [-0.024020230397582054, 0.07175736874341965, 0.06097836419939995, 0.18658560514450073, 0.02705170400440693], [0.12770576775074005, 0.1725679636001587, -0.002333504380658269, -0.11804717779159546, -0.11047457158565521]], [[-0.06113860383629799, 0.015001553110778332, 0.05016017705202103, 0.03813385218381882, 0.03700648620724678], [0.0058981082402169704, -0.06153994798660278, -0.05067482963204384, 0.059487637132406235, 0.004491511266678572], [0.01378675177693367, 0.02834450639784336, -0.07078063488006592, 0.06519731879234314, 0.05309075489640236], [-0.06595636159181595, -0.0317033976316452, 0.06201109290122986, -0.013804047368466854, 0.02572805806994438], [0.08584513515233994, 0.12045959383249283, 0.12706834077835083, -0.10132366418838501, -0.07478749752044678]], [[0.10800257325172424, 0.08926945179700851, 0.031166058033704758, 0.05885753408074379, -0.057566192001104355], [-0.05073527619242668, -0.06725358217954636, -0.10724668204784393, 0.017529532313346863, 0.04471367597579956], [-0.04958018288016319, -0.024811754003167152, -0.043500516563653946, -0.07482742518186569, 0.061781734228134155], [0.00999467633664608, 0.060013577342033386, 0.04178256541490555, -0.048877228051424026, -0.04548222944140434], [-0.04283854365348816, -0.06838928908109665, -0.060332734137773514, -0.118906669318676, -0.13135236501693726]], [[0.06002029404044151, -0.012969094328582287, -0.05232364311814308, 0.028940925374627113, -0.09802073985338211], [-0.04323562979698181, 0.04390067234635353, -0.10792461782693863, 0.03504500165581703, -0.1539369821548462], [-0.014120502397418022, -0.036768753081560135, -0.08402610570192337, -0.01813509315252304, 0.031871337443590164], [-0.00734428595751524, -0.060895469039678574, 0.047489311546087265, 0.1151857003569603, 0.0746055617928505], [-0.02819853648543358, 0.02348197251558304, 0.027224447578191757, 0.06358310580253601, -0.08651848137378693]], [[0.10819429904222488, 0.00405167555436492, 0.03561103343963623, -0.02803628519177437, -0.006783754099160433], [-0.06771387159824371, 0.06348730623722076, -0.08865264058113098, 0.007567800581455231, 0.07530244439840317], [-0.03590022027492523, -0.05448275804519653, 0.009921809658408165, 0.10731211304664612, -0.10426796227693558], [0.02793388068675995, -0.0726219043135643, 0.011219807900488377, 0.018326299265027046, -0.10889611393213272], [-0.06622011214494705, 0.05014828220009804, -0.03168374300003052, -0.03202376514673233, -0.017070895060896873]], [[0.05406935140490532, -0.019344039261341095, 0.00454299570992589, -0.03364059701561928, -0.07901301234960556], [-0.07814709842205048, -0.056290317326784134, 0.11999545246362686, 0.11912625283002853, -0.02692166529595852], [0.06477745622396469, -0.007086727302521467, 0.05316440016031265, 0.04845008626580238, -0.02220192551612854], [-0.04882426559925079, -0.048045020550489426, 0.07516098022460938, 0.04860701784491539, 0.06340696662664413], [-0.02867829240858555, -0.011322750709950924, 0.008082689717411995, 0.02169780805706978, -0.07034467160701752]]], [[[0.06018226221203804, 0.033887602388858795, 0.1120130643248558, 0.03694259375333786, -0.0644054263830185], [0.05957004055380821, -0.05687401443719864, 0.07194523513317108, -0.0018847795436158776, -0.1279357373714447], [0.09027543663978577, -0.07815336436033249, -0.055405013263225555, -0.13298262655735016, -0.08004142343997955], [0.032865799963474274, -0.11130477488040924, -0.007729497272521257, 0.04402218759059906, -0.025952478870749474], [-0.07130979746580124, -0.12174053490161896, -0.02690023183822632, 0.004364731255918741, 0.029603680595755577]], [[-0.0027989065274596214, 0.11043790727853775, 0.06623455882072449, 0.05578981339931488, -0.07798384130001068], [0.06141040101647377, 0.12018110603094101, -0.040892794728279114, -0.07051749527454376, -0.0955180674791336], [0.025176672264933586, -0.044986654072999954, 0.06988764554262161, -0.06288605183362961, 0.0837317407131195], [0.06620874255895615, -0.10907243937253952, 0.06028592959046364, -0.02976767159998417, 0.08394341170787811], [-0.06644812971353531, 0.06878981739282608, -0.09166668355464935, 0.005380711052566767, -0.0611233189702034]], [[-0.01052483543753624, 0.0966777503490448, 0.03874453157186508, 0.06207464635372162, 0.03502355143427849], [-0.03494776412844658, 0.016350775957107544, 0.0003335891233291477, -0.08257051557302475, -0.026650378480553627], [-0.09771005809307098, -0.04748260974884033, -0.02200460433959961, -0.0744621530175209, 0.056422118097543716], [-0.038713179528713226, 0.07441110163927078, 0.07021096348762512, -0.0036049208138138056, -0.03938668221235275], [-0.04230593144893646, 0.032063089311122894, 0.06307884305715561, 0.09214252233505249, 0.014841683208942413]], [[-0.05803907290101051, -0.0570431649684906, -0.07451044023036957, -0.054390694946050644, -0.0522426962852478], [-0.08826620131731033, 0.09728003293275833, -0.02400345914065838, -0.1039113849401474, -0.08963923156261444], [0.04354875162243843, -0.07212208211421967, -0.0771985650062561, -0.0452362559735775, -0.011223048903048038], [0.03375571221113205, -0.07002914696931839, -0.03981185331940651, -0.0391530841588974, -0.0694737359881401], [0.012417036108672619, -0.010805114172399044, -0.10428375005722046, -0.055156365036964417, 0.0360901914536953]], [[-0.032550372183322906, 0.04984121024608612, -0.09218881279230118, 0.059029001742601395, -0.06386863440275192], [0.012587593868374825, 0.0903378576040268, -0.0703679770231247, -0.10365017503499985, -0.07670345157384872], [-0.05998075008392334, -0.09949133545160294, 0.07971049100160599, 0.07875929772853851, 0.02225389890372753], [0.06054755672812462, -0.01871730200946331, -0.02678092010319233, -0.103114552795887, -0.08972503989934921], [0.007213081233203411, -0.03227972984313965, -0.005481570027768612, -0.04546764865517616, -0.08887208253145218]], [[0.03155479207634926, -0.12456964701414108, 0.08587541431188583, -0.04559733346104622, 0.08189929276704788], [0.09484289586544037, -0.0229505505412817, 0.06375132501125336, 0.036168958991765976, -0.08377566188573837], [-0.09901764243841171, -0.06510037183761597, -0.04051204398274422, 0.07476108521223068, 0.012879941612482071], [-0.0713997557759285, 0.029263107106089592, -0.08099003881216049, -0.10277580469846725, -0.07665620744228363], [-0.013281508348882198, -0.09254010021686554, -0.0982508659362793, -0.022351859137415886, -0.06468138843774796]]], [[[0.004824166186153889, 0.04319991171360016, -0.05987866222858429, 0.07914452999830246, 0.09225261956453323], [0.0065781488083302975, -0.07219623774290085, 0.021414300426840782, -0.029083820059895515, 0.0611247643828392], [-0.028032759204506874, -0.019444847479462624, -0.08565133810043335, 0.01572279818356037, 0.11482828855514526], [-0.05636985972523689, -0.03863786906003952, 0.008102457970380783, -0.02912263572216034, -0.045452315360307693], [-0.06605512648820877, 0.00551702082157135, 0.026054471731185913, 0.004082614555954933, -0.019422629848122597]], [[0.07219242304563522, 0.12145227193832397, 0.13521243631839752, 0.02719547413289547, -0.03037443198263645], [-0.07797081023454666, -0.05379079654812813, 0.10327601432800293, 0.052713409066200256, -0.013869079761207104], [0.060285534709692, -0.06607232987880707, -0.09568841755390167, 0.009182298555970192, -0.07584836333990097], [-0.061948854476213455, 0.060541097074747086, -0.046942148357629776, 0.0029545666184276342, 0.052974242717027664], [0.05404726415872574, -0.004509527701884508, -0.07487007230520248, -0.07105649262666702, -0.07591748982667923]], [[-0.04409202188253403, -0.07023118436336517, 0.12307227402925491, -0.040560171008110046, 0.005540003534406424], [0.09502019733190536, -0.08655931055545807, -0.07650434225797653, 0.028764715418219566, 0.08997137099504471], [0.008363217115402222, 0.04292572662234306, -0.05849303677678108, -0.0731358453631401, -0.08005200326442719], [0.007462020497769117, -0.04438061639666557, -0.03916196897625923, -0.014967826195061207, -0.04206354171037674], [0.02192523144185543, -0.04444825276732445, 0.01162025611847639, 0.01432921551167965, 0.09791119396686554]], [[0.13053925335407257, 0.08609722554683685, 0.016018332913517952, 0.08263476192951202, -0.06667913496494293], [0.04183415696024895, 0.0796143189072609, 0.0849372148513794, -0.014724546112120152, 0.0856216624379158], [0.03902078792452812, 0.09435486793518066, -0.09316761046648026, -0.06286299228668213, 0.03814676031470299], [0.0596531517803669, 0.050814516842365265, 0.08843962848186493, -0.005307483486831188, 0.026353219524025917], [0.07015909254550934, -0.058677613735198975, 0.06619776785373688, 0.03528410568833351, 0.03738515079021454]], [[0.03551381081342697, -0.007256239652633667, -0.016775961965322495, 0.07064223289489746, 0.01360584981739521], [-0.10664710402488708, 0.08499814569950104, -0.10514704883098602, -0.11086683720350266, -0.09230748564004898], [0.09414517879486084, 0.0694010928273201, -0.08538466691970825, -0.015314949676394463, 0.0707036629319191], [0.05717139318585396, -0.038858745247125626, 0.0682976022362709, 0.07208390533924103, 0.027543459087610245], [0.03379467874765396, -0.0030356671195477247, -0.027398323640227318, -0.06325868517160416, 0.03626357018947601]], [[0.11469167470932007, 0.2109900563955307, 0.1565399318933487, 0.16686180233955383, 0.08308874815702438], [0.09264196455478668, 0.12199757993221283, 0.1362207531929016, 0.022733785212039948, 0.16159604489803314], [-0.08814631402492523, -0.04835142940282822, -0.08134988695383072, 0.014624698087573051, 0.002421243814751506], [-0.020503269508481026, -0.04008825495839119, 0.03613375499844551, 0.06823495775461197, -0.0010722875595092773], [-0.057263147085905075, -0.02047126553952694, -0.12281129509210587, 0.009626106359064579, 0.033546365797519684]]], [[[-0.07037168741226196, -0.033910367637872696, -0.08014324307441711, -0.23961694538593292, -0.18151499330997467], [-0.028154252097010612, -0.21064944565296173, -0.07423938065767288, -0.0328759029507637, 0.06867947429418564], [0.050534240901470184, 0.06359265744686127, 0.12922979891300201, 0.1020478755235672, 0.14672070741653442], [0.02203650400042534, 0.1643550992012024, 0.1577882170677185, 0.0903984010219574, -0.032644014805555344], [0.001958017935976386, 0.005337106063961983, -0.03439317271113396, -0.13451102375984192, -0.1323099583387375]], [[-0.0394064225256443, 0.07968146353960037, -0.029701903462409973, -0.06916895508766174, -0.049255769699811935], [-0.09893814474344254, -0.13656187057495117, -0.11910659074783325, -0.12219217419624329, -0.09758254140615463], [0.06198185682296753, 0.007461687549948692, -0.132243350148201, -0.09332888573408127, 0.07616302371025085], [-0.059765975922346115, 0.01806022599339485, 0.16577544808387756, 0.10488906502723694, -0.03326015546917915], [0.0594140850007534, -0.03714681789278984, 0.15007726848125458, 0.057387519627809525, 0.08391965180635452]], [[0.06277915090322495, -0.07614313066005707, -0.06087946146726608, 0.007317257579416037, -0.07971055060625076], [0.06342929601669312, 0.07811755686998367, -0.03623126819729805, 0.039349090307950974, -0.014531009830534458], [-0.0027352774050086737, 0.1593339592218399, 0.12537631392478943, 0.03611571714282036, 0.06024381145834923], [0.09314614534378052, 0.1302037090063095, 0.09044934809207916, 0.06939604133367538, 0.023229079321026802], [-0.09810718894004822, 0.0555150993168354, 0.08482027053833008, -0.055736344307661057, -0.03557540103793144]], [[0.07899550348520279, 0.14083175361156464, 0.16469846665859222, 0.13014207780361176, 0.1402529627084732], [0.1123303696513176, -0.0010563679970800877, 0.0558103583753109, -0.03220367059111595, -0.04477233067154884], [-0.11835302412509918, -0.05447681248188019, -0.14148512482643127, 0.00775149604305625, 0.09699166566133499], [-0.08133963495492935, -0.007689479272812605, 0.023410486057400703, 0.1801927089691162, 0.07963018119335175], [0.1386408805847168, 0.0020711831748485565, 0.16972099244594574, 0.11580776423215866, -0.06547968834638596]], [[-0.001428781426511705, -0.012223917990922928, 0.03161400556564331, -0.0962161049246788, 0.003973209764808416], [0.03893648460507393, -0.0666435956954956, 0.02108372189104557, -0.043570615351200104, 0.07231291383504868], [0.0888841301202774, -0.001468120259232819, 0.09353885054588318, 0.056881748139858246, -0.007273799739778042], [0.020133836194872856, 0.045998070389032364, 0.02766198292374611, 0.06720215082168579, 0.021089142188429832], [-0.05159591883420944, -0.050221338868141174, -0.026438072323799133, 0.011513925157487392, -0.04371250048279762]], [[-0.033636510372161865, 0.07691188156604767, 0.04445008561015129, -0.0029429374262690544, 0.0008319310145452619], [-0.02644442953169346, -0.10767170041799545, 0.008754448965191841, 0.05328149348497391, 0.024299273267388344], [-0.14242888987064362, -0.06527727097272873, -0.12357910722494125, -0.04622006416320801, -0.1112171858549118], [0.07689785212278366, 0.0016263992292806506, -0.09358493983745575, 0.12454671412706375, 0.19042205810546875], [0.1326848566532135, 0.09755825996398926, 0.10846924781799316, 0.05163941532373428, 0.019917283207178116]]], [[[0.01278815045952797, 0.04885545372962952, 0.004102909471839666, 0.07911750674247742, 0.058969732373952866], [-0.03565675765275955, -0.07449448853731155, -0.04215110465884209, 0.06841591000556946, 0.11865468323230743], [0.016793442890048027, 0.05082019045948982, -0.07880648225545883, -0.06705701351165771, 0.07088609039783478], [0.016246167942881584, -0.03169838711619377, -0.11012345552444458, -0.12314406782388687, 0.02904542163014412], [-0.032808464020490646, -0.12676337361335754, -0.17648059129714966, 0.07383216917514801, 0.08979520201683044]], [[0.051905952394008636, 0.131320059299469, -0.008395416662096977, 0.028938453644514084, 0.062105584889650345], [-0.0771581381559372, -0.06157431751489639, 0.11033898591995239, -0.0817304402589798, -0.010089361108839512], [-0.1001163050532341, 0.10047902166843414, 0.08368927240371704, 0.11466608941555023, -0.006128261797130108], [-0.04667392373085022, 0.02834899164736271, 0.0773383378982544, -0.011200295761227608, -0.01583677902817726], [0.04014996066689491, -0.11375873535871506, -0.06360088288784027, 0.044003237038850784, 0.025684980675578117]], [[0.09807512909173965, -0.011650027707219124, -0.0894487127661705, 0.04747096821665764, 0.11962390691041946], [0.0027468595653772354, 0.06311990320682526, -0.031682852655649185, 0.11264894157648087, 0.10397090762853622], [0.09540236741304398, 0.03627059981226921, 0.05525515228509903, 0.007156862411648035, -0.04084453359246254], [0.02639640122652054, -0.006460968405008316, -0.10703437030315399, -0.05151300132274628, 0.035827942192554474], [0.0215465035289526, -0.07918955385684967, -0.10528255999088287, -0.11568507552146912, -0.06958968192338943]], [[-0.005647983402013779, 0.08081895112991333, 0.07386799901723862, 0.10373403877019882, 0.04267112538218498], [0.01725863479077816, 0.13949036598205566, -0.03390086442232132, 0.0539555698633194, -0.05971597507596016], [0.09248893707990646, 0.11308201402425766, 0.020322831347584724, -0.028297536075115204, -0.0619538277387619], [0.0845201313495636, 0.0175598356872797, -0.02991887927055359, 0.076217420399189, -0.06369733810424805], [0.010334409773349762, -0.09826524555683136, -0.015080706216394901, 0.013246964663267136, 0.006756032817065716]], [[-0.05993208661675453, 0.026528943330049515, -0.030014554038643837, -0.0891871377825737, -0.05601692572236061], [0.017834942787885666, 0.025727882981300354, -0.07361438125371933, 0.05399266630411148, 0.07914397865533829], [-0.023293498903512955, 0.05714034661650658, 0.06658272445201874, 0.052808959037065506, -0.03867432847619057], [0.012720074504613876, -0.04033241793513298, -0.05670030787587166, 0.036483995616436005, -0.046739496290683746], [-0.029685312882065773, 0.08798959851264954, -0.05592004582285881, 0.021412573754787445, 0.03515026718378067]], [[0.10901650786399841, 0.024801647290587425, -0.04578626528382301, 0.10983408242464066, 0.07700720429420471], [0.06767052412033081, 0.14545974135398865, 0.03577622026205063, 0.035176727920770645, 0.06314493715763092], [-0.06430131196975708, 0.059007398784160614, 0.15917910635471344, 0.11499232053756714, 0.07175109535455704], [0.06396595388650894, 0.03686106950044632, 0.04730822518467903, 0.1736227124929428, 0.0360860712826252], [-0.02941771037876606, -0.015645718201994896, 0.029562825337052345, -0.04824425280094147, -0.09125613421201706]]], [[[-0.023373881354928017, -0.0009915148839354515, -0.0535581149160862, 0.027251195162534714, -0.04177750647068024], [0.029626449570059776, 0.08144523203372955, 0.11749248206615448, 0.08864934742450714, 0.06862512975931168], [0.059264350682497025, 0.04976857081055641, 0.04008385166525841, 0.0094310836866498, -0.015628335997462273], [-0.08511164039373398, -0.14662548899650574, -0.01500082015991211, -0.041051145642995834, -0.07238560914993286], [-0.09626897424459457, -0.13713449239730835, -0.16535364091396332, -0.0741209089756012, -0.012643958441913128]], [[0.0038032797165215015, -0.0038562798872590065, -0.09437596052885056, -0.16363467276096344, -0.12747563421726227], [0.006979116704314947, -0.13042360544204712, 0.055819861590862274, 0.024177327752113342, -0.05108299106359482], [-0.007320676930248737, 0.09210885316133499, 0.05530409514904022, 0.03177258372306824, 0.10322082787752151], [-0.07776429504156113, 0.09684401750564575, 0.1567559838294983, 0.10579842329025269, 0.10076741129159927], [-0.049846429377794266, -0.04051070660352707, -0.010544687509536743, 0.014298283495008945, 0.0497034415602684]], [[-0.022645801305770874, -0.005619581788778305, -0.0014482580590993166, -0.021765321493148804, 0.09219001233577728], [-0.0018272611778229475, 0.12263894081115723, 0.09076357632875443, 0.08163651823997498, 0.08645353466272354], [0.10498058050870895, 0.019962020218372345, 0.06765277683734894, 0.019582882523536682, -0.012476077303290367], [-0.10345038026571274, 0.09399759769439697, -0.09158661961555481, 0.03233464062213898, -0.006992252077907324], [0.017800278961658478, 0.06644842773675919, 0.06436946243047714, 0.10337891429662704, -0.08686240762472153]], [[0.07619083672761917, -0.043780356645584106, -0.04980529472231865, -0.13066691160202026, 0.01641247421503067], [0.03134492039680481, -0.05150715634226799, 0.0061955018900334835, 0.0646476298570633, 0.04784014821052551], [-0.05716598406434059, 0.10301042348146439, 0.06950613111257553, 0.17841941118240356, 0.005125232040882111], [0.05456937476992607, 0.09292015433311462, 0.10226946324110031, 0.16573837399482727, 0.02644347958266735], [0.0898025780916214, 0.037113580852746964, -0.035018064081668854, -0.05101746320724487, 0.0051721143536269665]], [[-0.10086854547262192, 0.06455928832292557, -0.06197690591216087, -0.07591480016708374, -0.12045495957136154], [0.10829341411590576, 0.060661494731903076, -0.015857737511396408, 0.024426927790045738, -0.03675321862101555], [0.10884791612625122, -0.04151420667767525, 0.003149907337501645, 0.03323312848806381, -0.10612449049949646], [0.06572575122117996, 0.01665298081934452, -0.07990413904190063, -0.04743008315563202, -0.0906541720032692], [-0.10449884831905365, -0.04262985289096832, -0.02007112093269825, 0.02235674299299717, 0.03561611846089363]], [[-0.04991275817155838, -0.042788468301296234, 0.027918575331568718, -0.0012370183831080794, -0.04045475274324417], [-0.06578350812196732, -0.0966324433684349, -0.13547396659851074, -0.0524582676589489, -0.11566898971796036], [0.11153396219015121, 0.0853644609451294, 0.04438433423638344, 0.10021387040615082, 0.17723916471004486], [0.16069267690181732, 0.17407125234603882, 0.08247250318527222, 0.11372626572847366, 0.12975548207759857], [-0.09515590220689774, -0.06201175972819328, -0.049894481897354126, -0.00827473122626543, -0.006197737529873848]]], [[[0.16570590436458588, 0.13378731906414032, -0.08828680962324142, -0.059059470891952515, -0.11498487740755081], [0.0025950551498681307, -0.06909703463315964, -0.04497874528169632, -0.06307053565979004, 0.05738663673400879], [-0.03975949436426163, 0.04189136251807213, -0.06367085874080658, -0.09057599306106567, 0.10318069159984589], [-0.0877457782626152, 0.05807730183005333, -0.06568136811256409, -0.05119936913251877, 0.07332143187522888], [0.08371743559837341, 0.06465562433004379, -0.0051160939037799835, 0.057519275695085526, 0.038363419473171234]], [[0.008788662031292915, 0.13890688121318817, 0.022292006760835648, 0.06965388357639313, -0.10405320674180984], [0.1389625072479248, -0.06979166716337204, 0.03748154640197754, -0.0423860177397728, -0.09832745045423508], [-0.03153298795223236, 0.03766946867108345, -0.06299056112766266, -0.0651484802365303, -0.09914693981409073], [-0.028401203453540802, -0.04822619631886482, -0.09579958766698837, -0.01324028242379427, 0.0820707455277443], [-0.1068793535232544, -0.06589214503765106, 0.0929085910320282, 0.029421351850032806, 0.1188904345035553]], [[-0.07441594451665878, -0.049543242901563644, 0.06132875755429268, -0.03329084441065788, 0.06921379268169403], [-0.08854798227548599, -0.06325406581163406, -0.07305605709552765, -0.02458018995821476, -0.04418818652629852], [-0.051399797201156616, -0.06414911895990372, -0.007681235671043396, -0.08763669431209564, -0.004341749474406242], [-0.0746445283293724, -0.09302987903356552, -0.034182388335466385, 0.07637239247560501, -0.07330290228128433], [0.015093715861439705, 0.09259890764951706, -0.012005331926047802, -0.02089090645313263, 0.030869033187627792]], [[0.05929969251155853, -0.06851746141910553, 0.11369968950748444, -0.04678051173686981, -0.04631726071238518], [0.08408675342798233, -0.08542373776435852, -0.05212700739502907, 0.06263940036296844, -0.09239285439252853], [-0.06322833895683289, -0.0976187139749527, -0.10126040875911713, -0.08603283017873764, -0.01561612356454134], [0.07987532019615173, 0.04118386283516884, -0.054870251566171646, 0.02974000945687294, -0.01957923173904419], [0.08985208719968796, -0.09924273192882538, 0.006761581636965275, -0.1050095185637474, -0.0529693104326725]], [[-0.061048008501529694, -0.004355785436928272, 0.051079366356134415, -0.029809731990098953, -0.0986408218741417], [-0.020117998123168945, 0.049763571470975876, -0.04825872555375099, -0.10591892153024673, 0.016093716025352478], [0.005758807063102722, 0.05107497423887253, 0.059169501066207886, 0.07877282053232193, 0.0027878182008862495], [-0.0289937611669302, -0.08547234535217285, 0.04145748168230057, 0.08013023436069489, -0.027239814400672913], [-0.013841550797224045, -0.0686223953962326, -0.010388694703578949, -0.05359774827957153, 0.07316448539495468]], [[-0.035846490412950516, 0.051415324211120605, 0.11460956186056137, -0.08722934126853943, -0.08644705265760422], [0.131992906332016, -0.04711848869919777, 0.03862026333808899, -0.027090104296803474, -0.09461741894483566], [-0.08643079549074173, 0.0327918566763401, -0.06224330514669418, 0.01999661698937416, 0.06439661234617233], [0.10194697231054306, 0.015171313658356667, -0.0642642229795456, -0.09016324579715729, 0.04916548356413841], [-0.033598486334085464, -0.01907121203839779, 0.0400339812040329, 0.014035751111805439, 0.06011631712317467]]], [[[0.03727879375219345, 0.15481536090373993, 0.05146990343928337, -0.16424070298671722, -0.07684565335512161], [0.08870435506105423, 0.11181679368019104, 0.016662416979670525, -0.07093852013349533, -0.03303305804729462], [0.11090345680713654, 0.17093560099601746, 0.0408204160630703, 0.1491127759218216, 0.044339489191770554], [0.051451366394758224, -0.0062690312042832375, 0.09235518425703049, -0.08903337270021439, -0.06991323083639145], [-0.10027031600475311, -0.05244624614715576, -0.2045394629240036, -0.10684062540531158, -0.19341732561588287]], [[0.0407765731215477, -0.025073973461985588, 0.013080500066280365, -0.08559945225715637, -0.08097387105226517], [-0.021242491900920868, -0.07029763609170914, 0.05769868567585945, 0.05952046439051628, 0.02644212171435356], [-0.07130132615566254, 0.09189778566360474, 0.10508061200380325, -0.03027717024087906, -0.08266053348779678], [-0.0723625123500824, 0.04434233158826828, 0.08281543850898743, 0.15224973857402802, 0.08876515924930573], [-0.028509866446256638, -0.012029699981212616, -0.059212084859609604, -0.08833729475736618, -0.07499448955059052]], [[0.02088034898042679, -0.03197184205055237, -0.09542237967252731, -0.07129038125276566, -0.01349957287311554], [0.02077854797244072, -0.04878642037510872, -0.045674845576286316, 0.0541149340569973, 0.11024206876754761], [-0.01180409174412489, -0.009547777473926544, 0.08023654669523239, 0.16769298911094666, -0.000328953901771456], [-0.03851630166172981, 0.08174252510070801, 0.01902555301785469, 0.041261542588472366, -0.014694099314510822], [-0.10825454443693161, -0.09253066778182983, 0.0714336559176445, 0.04876585677266121, -0.10577670484781265]], [[-0.09891938418149948, 0.0015899190912023187, 0.054857026785612106, -0.09611272811889648, -0.05578747019171715], [-0.02041914500296116, 0.03908570855855942, -0.020032227039337158, -0.03180452436208725, -0.006123845465481281], [0.07081138342618942, 0.11120832711458206, 0.04870818555355072, -0.004653449170291424, -0.017782097682356834], [0.10203805565834045, 0.1390063762664795, 0.19112390279769897, 0.11144484579563141, -0.007891971617937088], [-0.09160337597131729, -0.003236541524529457, 0.11023937165737152, -0.0483364574611187, -0.022928593680262566]], [[-0.0082540949806571, 0.1109192967414856, -0.008478381671011448, 0.04061497747898102, 0.029048897325992584], [-0.017757663503289223, 0.12607645988464355, 0.031546395272016525, -0.01660986803472042, -0.05640740692615509], [0.005026249215006828, 0.1030144914984703, -0.007858965545892715, -0.0072219413705170155, -0.03998566418886185], [0.00317462463863194, 0.07080203294754028, 0.006854038219898939, -0.020962858572602272, 0.06881087273359299], [0.04395526275038719, 0.005686063319444656, -0.029960831627249718, -0.015976373106241226, -0.0062896995805203915]], [[0.02962508611381054, 0.04617829993367195, 0.0321732796728611, 0.08460105210542679, 0.01887264847755432], [0.072688989341259, 0.060098011046648026, -0.11307648569345474, -0.08592157810926437, -0.035088058561086655], [0.1474379003047943, -0.03276711702346802, 0.11959859728813171, -0.06708414852619171, 0.07814142107963562], [0.1619596779346466, 0.07597395777702332, 0.08007656037807465, 0.12066533416509628, 0.18288198113441467], [-0.11247917264699936, 0.07567255944013596, -0.04980791360139847, 0.15239614248275757, 0.09082328528165817]]], [[[-0.05691233649849892, 0.07703947275876999, 0.05475575476884842, -0.0798792913556099, -0.019973207265138626], [0.13432644307613373, 0.13791856169700623, -0.02716556377708912, -0.011320715770125389, -0.03715940937399864], [0.14071790874004364, 0.14868904650211334, 0.06193025782704353, -0.11611823737621307, -0.1639585793018341], [-0.06336567550897598, 0.2203403264284134, 0.024873603135347366, -0.009698621928691864, -0.13054442405700684], [0.09471997618675232, 0.1973051279783249, 0.14224407076835632, -0.08003593236207962, -0.04883471131324768]], [[0.05836564674973488, 0.09069593250751495, -0.06592436134815216, 0.08469758927822113, 0.025261690840125084], [0.09074774384498596, 0.08163087069988251, 0.012661287561058998, -0.023828964680433273, -0.03999751806259155], [0.11138021945953369, 0.037187181413173676, -0.014944356866180897, -0.09816725552082062, -0.008947697468101978], [0.07964079827070236, 0.15214267373085022, 0.06745896488428116, -0.09277186542749405, 0.004791806917637587], [0.007926546968519688, -0.012780727818608284, 0.08294807374477386, 0.015933023765683174, -0.010610684752464294]], [[-0.06305946409702301, -0.07416801154613495, 0.09602629393339157, -0.11142011731863022, -0.13157357275485992], [0.09675326943397522, 0.025607246905565262, 0.0873909667134285, -0.11617785692214966, -0.1475311815738678], [0.016351714730262756, -0.023978330194950104, 0.05519472807645798, -0.11560817807912827, 0.06649547815322876], [-0.03737037256360054, 0.003557788208127022, -0.07417885214090347, 0.06490138918161392, -0.018991241231560707], [-0.02046431414783001, -0.041432321071624756, 0.02629375457763672, -0.003179617691785097, 0.06721945106983185]], [[-0.12316739559173584, -0.03029857948422432, 0.02633567526936531, 0.06756718456745148, 0.11092885583639145], [0.06569578498601913, -0.13487380743026733, -0.03347451612353325, -0.045644842088222504, 0.04325032979249954], [0.010339304804801941, -0.10603819787502289, -0.10030537843704224, -0.0871458500623703, -0.04177885875105858], [0.04581679776310921, 0.033448055386543274, -0.10220345109701157, -0.10958150029182434, 0.03595386818051338], [-0.10171622037887573, -0.041600797325372696, -0.009924599900841713, 0.06848389655351639, 0.054891593754291534]], [[-0.0442342683672905, 0.09806831926107407, -0.0017912940820679069, -0.011157622560858727, -0.07950791716575623], [0.06353038549423218, -0.06178846210241318, 0.07352826744318008, -0.027745839208364487, 0.002790330210700631], [-0.0019255424849689007, -0.011448145844042301, -0.046868108212947845, -0.047012053430080414, -0.05008147656917572], [0.09106463938951492, 0.0802813172340393, 0.03192273527383804, -0.09931515902280807, 0.03812909126281738], [0.06404667347669601, 0.008102473802864552, 0.015765836462378502, -0.07382889837026596, 0.040011946111917496]], [[-0.031041886657476425, -0.03564733266830444, -0.007835269905626774, -0.0329495370388031, 0.05921943113207817], [-0.010560459457337856, 0.0007438775501213968, 0.0029210869688540697, 0.06630747765302658, -0.04327091947197914], [0.14789007604122162, 0.046804770827293396, -0.09343946725130081, -0.13155139982700348, -0.03001343458890915], [0.1308174580335617, 0.03688260167837143, -0.010494266636669636, -0.029168931767344475, -0.11486765742301941], [-0.017847640439867973, 0.07018449902534485, -0.003794297808781266, -0.023920096457004547, 0.0132637619972229]]], [[[-0.13999730348587036, -0.22953137755393982, -0.049752894788980484, -0.18340429663658142, -0.16472569108009338], [0.07454787194728851, 0.07972250133752823, -0.012749277986586094, 0.10154471546411514, 0.09586865454912186], [-0.02462654560804367, 0.153408020734787, 0.058345992118120193, 0.02194892056286335, -0.01378664281219244], [0.018635274842381477, 0.11569446325302124, -0.007073328364640474, 0.07050126045942307, 0.03617138788104057], [0.10160574316978455, 0.12386232614517212, -0.055188316851854324, 0.01113297138363123, -0.09762877225875854]], [[-0.06988488137722015, -0.0031339216511696577, -0.10968781262636185, -0.06581248342990875, -0.05252530798316002], [-0.1207926943898201, -0.008617793209850788, 0.03799692913889885, -0.030257925391197205, -0.0203845277428627], [0.042042896151542664, 0.07242941856384277, -0.02685537561774254, -0.04534208029508591, 0.056577567011117935], [0.08662396669387817, 0.09642693400382996, 0.03749212622642517, 0.08900174498558044, 0.07759180665016174], [-0.0631851777434349, 0.02094065025448799, 0.08598119020462036, 0.006800612900406122, 0.04348200559616089]], [[-0.010244850069284439, -0.014899984933435917, -0.012962395325303078, 0.06757798045873642, 0.051695894449949265], [-0.044762466102838516, 0.13692699372768402, 0.012670419178903103, -0.016112016513943672, 0.05468869209289551], [0.08892863243818283, 0.10752557963132858, 0.08541865646839142, -0.070465587079525, -0.019801246002316475], [0.02779265306890011, -0.015409658662974834, -0.054331470280885696, 0.08896870911121368, 0.0588529072701931], [-0.1073569655418396, 0.0644589513540268, 0.007080098148435354, -0.05877872183918953, 0.03567439690232277]], [[0.02049127407371998, 0.09809719026088715, -0.045098356902599335, -0.03238825872540474, 0.10048151761293411], [0.02920757420361042, -0.029959337785840034, 0.02633189782500267, 0.08833292871713638, 0.09062718600034714], [0.01351433340460062, 0.08009056001901627, 0.03320854902267456, 0.026878776028752327, 0.09654834866523743], [0.09159355610609055, 0.06339617073535919, -0.08362126350402832, 0.12179913371801376, 0.15261873602867126], [0.07383880764245987, 0.014316949062049389, -0.0733179897069931, 0.03795086592435837, 0.035479478538036346]], [[0.007758886553347111, -0.10266083478927612, 0.07550068199634552, 0.09073777496814728, 0.028157738968729973], [0.06802820414304733, 0.09146805107593536, 0.0906183198094368, -0.0789218470454216, -0.10667572170495987], [-0.00466153584420681, 0.06055988371372223, 0.07374890893697739, 0.06179256737232208, -0.03219486400485039], [0.015237926505506039, 0.11532119661569595, 0.06893912702798843, 0.023771580308675766, -0.04105134308338165], [0.009051394648849964, 0.06777726858854294, -0.09437524527311325, -0.07275441288948059, -0.08021554350852966]], [[0.00576041592285037, -0.07877762615680695, 0.016565319150686264, 0.0903090089559555, -0.05657673999667168], [-0.11334508657455444, -0.002397689735516906, -0.02674882300198078, -0.09193643927574158, 0.06147896498441696], [0.09647557884454727, -0.041621915996074677, -0.06270941346883774, -0.027825340628623962, -0.0858815386891365], [-0.0019867517985403538, -0.043062973767519, -0.07465317845344543, 0.027312036603689194, -0.029429228976368904], [0.04268380254507065, 0.11193760484457016, 0.10628750175237656, 0.08655422925949097, 0.08051536232233047]]], [[[0.02301982045173645, 0.14966291189193726, 0.07920172065496445, -0.06451626867055893, -0.0952896773815155], [-0.034625910222530365, -0.11660593003034592, -0.035803742706775665, -0.018298495560884476, 0.021732497960329056], [-0.0758473351597786, -0.048123836517333984, -0.057452719658613205, 0.00852429959923029, 0.011557860299944878], [0.028906118124723434, 0.13840393722057343, 0.13163064420223236, 0.14370408654212952, 0.08120739459991455], [-0.032331857830286026, 0.034555308520793915, 0.01863730326294899, 0.05381324887275696, -0.12604497373104095]], [[0.07808104157447815, 0.11102912575006485, 0.06607471406459808, 0.08044175058603287, -0.07231613248586655], [0.05357876420021057, 0.1155913844704628, -0.03255048394203186, 0.06836996227502823, -0.0317668691277504], [-0.0729295015335083, -0.0064588203094899654, 0.10795268416404724, 0.05154651403427124, -0.06268079578876495], [-0.0008945999434217811, 0.0034118657931685448, 0.032268475741147995, 0.00952138565480709, 0.0894971415400505], [0.02537623979151249, -0.014144050888717175, 0.11100898683071136, 0.026610424742102623, 0.0549466572701931]], [[-0.07026033848524094, 0.10808504372835159, -0.00555763766169548, -0.05272015556693077, 0.029955055564641953], [-0.061297859996557236, 0.03333495184779167, 0.11673719435930252, 0.05797554552555084, 0.10749554634094238], [-0.0018314056796953082, 0.058897119015455246, 0.08589671552181244, -0.012617062777280807, 0.027802255004644394], [0.04672413319349289, 0.04610145837068558, 0.13178347051143646, 0.03445885330438614, 0.08529449999332428], [0.10736005753278732, 0.006621425040066242, -0.04507919028401375, -0.06491316854953766, 0.008432283066213131]], [[0.11861813813447952, 0.10705360770225525, 0.040189336985349655, 0.07867756485939026, 0.06971516460180283], [0.0748620480298996, 0.14872874319553375, 0.11844705790281296, 0.0790553167462349, -0.08837053924798965], [0.07167427241802216, 0.09821721911430359, -0.01666591502726078, 0.040378816425800323, 0.11224445700645447], [-0.04621635377407074, 0.0866747573018074, 0.10446341335773468, 0.09607458114624023, 0.08000680804252625], [0.1546165943145752, 0.07782479375600815, 0.061192382127046585, 0.043226659297943115, 0.028328562155365944]], [[0.04224935173988342, -0.023440130054950714, 0.08437754958868027, -0.05830608308315277, -0.12080167979001999], [0.04632019251585007, -0.04366008937358856, -0.13674965500831604, -0.11315243691205978, -0.0677681639790535], [-0.09166513383388519, 0.033636294305324554, -0.010846209712326527, 0.010950404219329357, 0.012766843661665916], [-0.03457243740558624, 0.036724310368299484, 0.04466155916452408, 0.014033198356628418, 0.0733439028263092], [-0.09925917536020279, 0.06801929324865341, -0.017443107441067696, 0.0563008114695549, -0.07875525951385498]], [[0.06636995077133179, 0.04824706166982651, -0.02410241775214672, 0.20762531459331512, 0.20096060633659363], [-0.021277347579598427, 0.11491711437702179, 0.0612749308347702, 0.21852533519268036, 0.11589834839105606], [-0.03495194762945175, 0.12541912496089935, 0.12913759052753448, 0.18635927140712738, -0.030448611825704575], [0.034264132380485535, -0.0008715600124560297, 0.06280865520238876, 0.020431548357009888, 0.11400994658470154], [0.10363219678401947, 0.08243406563997269, 0.18008708953857422, -0.02683161571621895, 0.010303881019353867]]], [[[-0.017233313992619514, -0.02226180024445057, 0.09873424470424652, 0.1592176854610443, 0.014920370653271675], [-0.04024682939052582, 0.11289148032665253, 0.20626159012317657, -0.018719088286161423, -0.07584953308105469], [-0.0006560463225468993, 0.20604881644248962, 0.0857892856001854, -0.10809480398893356, -0.023764191195368767], [0.1331537365913391, 0.1447862833738327, -0.10564055293798447, -0.1314900517463684, 0.04933105781674385], [0.018575701862573624, -0.0031322957947850227, -0.03397131338715553, -0.033604178577661514, -0.040045928210020065]], [[0.013065868988633156, -0.09810260683298111, -0.0631675198674202, 0.07554622739553452, 0.1235463097691536], [0.03838157281279564, 0.06801173090934753, 0.0037573922891169786, 0.0571291483938694, 0.06541208177804947], [-0.08522839099168777, 0.05731073394417763, 0.1515156328678131, -0.09323882311582565, 0.036287885159254074], [0.13225726783275604, 0.16113634407520294, -0.08031898736953735, 0.02801753766834736, -0.09301123768091202], [0.06615053862333298, 0.12079835683107376, -0.04113967344164848, 0.005994201637804508, -0.026851266622543335]], [[-0.08609798550605774, 0.006327591836452484, 0.08501012623310089, -0.04577334597706795, -0.09745926409959793], [-0.09123256802558899, 0.0709124207496643, -0.0780419334769249, -0.06049313023686409, 0.0031008487567305565], [-0.09293705224990845, 0.06811828911304474, 0.03734138235449791, -0.08323297649621964, 0.012117528356611729], [-0.1109083965420723, 0.022594666108489037, -0.037328168749809265, -0.018210208043456078, 0.060743868350982666], [-0.06511152535676956, -0.10270668566226959, -0.06218506768345833, -0.04564617946743965, -0.004206828773021698]], [[-0.06859419494867325, -0.08931455761194229, 0.01953064277768135, -0.04812198877334595, 0.01217830553650856], [-0.035862572491168976, 0.04248208925127983, -0.10127541422843933, 0.07170985639095306, -0.05910896882414818], [-0.1410388946533203, 0.07537704706192017, 0.0038693442475050688, 0.016420552507042885, -0.08572743833065033], [0.03095700964331627, -0.03907191380858421, 0.050783611834049225, 0.03616809472441673, 0.07647132873535156], [-0.07414259016513824, -0.044351737946271896, -0.08350662887096405, 0.007221210282295942, -0.010762561112642288]], [[-0.06163622811436653, -0.03909358009696007, -0.01285103801637888, -0.06701835989952087, -0.05784470960497856], [-0.06789711117744446, 0.03245452046394348, 0.10756143182516098, 0.0781959816813469, 0.018440237268805504], [-0.0009029735811054707, 0.06954894214868546, 0.06438302248716354, -0.10304475575685501, -0.044303957372903824], [0.09700005501508713, -0.02435595542192459, 0.051124632358551025, -0.03760898485779762, 0.0008209231891669333], [0.008371898904442787, 0.05931733921170235, -0.07950815558433533, -0.031316593289375305, -0.08331691473722458]], [[-0.06345716863870621, 0.0031447461806237698, -0.009017225354909897, -0.10307137668132782, 0.15463566780090332], [-0.043020546436309814, -0.15342193841934204, 0.02366676554083824, 0.011431272141635418, -0.017257273197174072], [-0.1317274570465088, -0.0343981608748436, 0.014211837202310562, -0.06159695237874985, 0.02527789957821369], [0.008536962792277336, -0.03561492636799812, -0.07587826251983643, -0.07117422670125961, -0.07120835781097412], [0.09180997312068939, -0.05115920677781105, -0.09060366451740265, 0.0360727496445179, -0.060900673270225525]]], [[[0.11390257626771927, 0.18010488152503967, 0.08592833578586578, -0.04120013862848282, -0.010368356481194496], [0.11255405098199844, 0.15337960422039032, -0.02537565492093563, -0.05169404670596123, 0.05840273201465607], [0.14607489109039307, 0.08166058361530304, 0.06008587405085564, -0.01688705012202263, 0.008345818147063255], [-0.009299300611019135, -0.06035863235592842, -0.027701234444975853, -0.028066828846931458, -0.0343114472925663], [-0.09332266449928284, -0.08820325881242752, -0.1076209768652916, -0.12407652288675308, -0.05850917845964432]], [[0.0015290268929675221, 0.08964162319898605, -0.09155821055173874, 0.033203668892383575, -0.02182374894618988], [0.05181583762168884, -0.030567385256290436, 0.08994800597429276, 0.02975412830710411, -0.12331963330507278], [0.11977893114089966, 0.11642033606767654, -0.03014557436108589, -0.046816594898700714, -0.006367872469127178], [-0.08958723396062851, -0.042719610035419464, 0.06396973133087158, 0.06387576460838318, 0.013805825263261795], [-0.023667974397540092, -0.047998204827308655, 0.03416966646909714, 0.01182252261787653, -0.12788374722003937]], [[-0.07414549589157104, 0.058345966041088104, 0.03987462446093559, 0.015987874940037727, 0.11671869456768036], [0.04911821335554123, -0.1059020385146141, -0.04536207392811775, 0.14736607670783997, 0.1452295482158661], [0.03942332789301872, 0.004601990804076195, -0.0019757256377488375, 0.011572093702852726, 0.004049434792250395], [-0.01894211582839489, 0.04423146694898605, -0.03318791463971138, -0.0027931183576583862, -0.02962631732225418], [-0.038220684975385666, 0.0580601841211319, -0.04976747930049896, -0.03211250901222229, 0.07261572778224945]], [[-0.11619503796100616, 0.07369841635227203, 0.042515285313129425, -0.05604426562786102, -0.08072757720947266], [0.002121314639225602, 0.025410620495676994, -0.0458974689245224, -0.03247745707631111, -0.08848030120134354], [0.05745279788970947, 0.13368943333625793, 0.12273965775966644, 0.08631410449743271, 0.06677328795194626], [0.0031312324572354555, 0.0646807998418808, 0.04365353286266327, 0.13359670341014862, 0.04800110310316086], [-0.02339838817715645, 0.05173534154891968, -0.033762529492378235, -0.024546965956687927, 0.034971240907907486]], [[0.09766490757465363, 0.012424742802977562, 0.01525762677192688, 0.045730672776699066, -0.012479753233492374], [0.107260562479496, -0.07082577794790268, -0.11423452943563461, 0.014916975051164627, 0.021523261442780495], [-0.04224997013807297, -0.017980407923460007, 0.02654345892369747, -0.059052012860774994, -0.09824264049530029], [-0.03900553286075592, -0.03629375994205475, -0.012722057290375233, -0.12469028681516647, -0.13123434782028198], [-0.0652516707777977, 0.06738977134227753, -0.013694670051336288, 0.01879417710006237, -0.09616449475288391]], [[0.07093782722949982, -0.10778208822011948, 0.026105092838406563, -0.08244898915290833, -0.06912499666213989], [0.08872469514608383, -0.0730038434267044, 0.1381278932094574, 0.10923726111650467, -0.022299036383628845], [0.020457686856389046, 0.03617069497704506, 0.11598189920186996, 0.19248352944850922, 0.12859296798706055], [0.09387413412332535, -0.010876497253775597, 0.012009982019662857, 0.07753913849592209, 0.1393078863620758], [0.07102805376052856, -0.07771331071853638, 0.026987599208950996, 0.040664106607437134, 0.027636414393782616]]], [[[-0.0948546975851059, 0.18222863972187042, 0.22376467287540436, 0.08579786121845245, 0.05298231542110443], [0.10990303009748459, 0.10519884526729584, 0.07646678388118744, -0.11669331043958664, -0.044428687542676926], [0.15060195326805115, 0.0832594484090805, -0.10527253150939941, 0.0025218192022293806, 0.05182129517197609], [0.055557604879140854, -0.12336546182632446, -0.1074390783905983, -0.1237277239561081, 0.018766537308692932], [-0.05023635923862457, -0.07677381485700607, -0.10034061223268509, -0.201956108212471, -0.06991608440876007]], [[0.06391376256942749, 0.0030243052169680595, 0.05394275486469269, 0.057079438120126724, 0.04173212870955467], [-0.06055230274796486, 0.029991578310728073, 0.11004527658224106, 0.022330889478325844, 0.012700716964900494], [0.03451978415250778, 0.030388522893190384, -0.05779486522078514, 0.017831383273005486, -0.059710144996643066], [0.011528224684298038, 0.03014768660068512, 0.07248379290103912, -0.06300244480371475, 0.0916031002998352], [-0.04727930575609207, 0.0038087032735347748, -0.042182572185993195, -0.04789542779326439, -0.012535898014903069]], [[-0.1385876089334488, -0.03005233220756054, -0.023558327928185463, 0.035673655569553375, -0.13821786642074585], [-0.07659473270177841, -0.04515860229730606, -0.1265089064836502, 0.0798172652721405, 0.03780496492981911], [-0.08289677649736404, -0.006279805209487677, 0.005238308105617762, 0.09109580516815186, -0.07207191735506058], [0.06571024656295776, -0.07104813307523727, 0.06402751058340073, 0.007722817361354828, 0.07264161854982376], [0.035151056945323944, 0.11795871704816818, -0.08025962859392166, 0.07537160068750381, -0.11616910248994827]], [[-0.016430027782917023, -0.1139131709933281, -0.032578177750110626, 0.06372818350791931, 0.0024781585671007633], [-0.1345086693763733, -0.12594082951545715, 0.08145488053560257, 0.07494883239269257, -0.08202929049730301], [0.05322675779461861, 0.04599855840206146, -0.04353182017803192, 0.08368542045354843, 0.07580827921628952], [0.0811893418431282, -0.0501752533018589, 0.10604856163263321, -0.0648825541138649, 0.009169798344373703], [-0.11274852603673935, -0.02949613332748413, 0.1116785928606987, 0.1263282150030136, -0.06928073614835739]], [[0.059570785611867905, -0.040538378059864044, -0.01258507277816534, -0.0044622537679970264, -0.041202522814273834], [-0.051922835409641266, -0.003993750084191561, 0.08568809181451797, 0.013882226310670376, 0.03254925459623337], [-0.006552404258400202, 0.03597497567534447, 0.008803218603134155, -0.04768865928053856, -0.03221377357840538], [-0.0055035557597875595, -0.041140131652355194, 0.022488372400403023, 0.0008872648468241096, 0.03176192566752434], [0.08382779359817505, -0.03299800679087639, -0.05819515138864517, -0.014316524378955364, 0.02886274829506874]], [[-0.004263425245881081, -0.1031353622674942, -0.11396965384483337, 0.06937985122203827, 0.03046572208404541], [-0.1505049765110016, 0.02612311951816082, -0.13521331548690796, -0.0016052123392000794, -0.006681238766759634], [-0.04522862657904625, 0.09808484464883804, -0.057926613837480545, -0.10124938189983368, 0.12021766602993011], [0.12125080078840256, 0.053339164704084396, 0.1509399712085724, 0.060646235942840576, 0.10591500252485275], [-0.0551401823759079, 0.05759724602103233, -0.1163385808467865, -0.03622446581721306, 0.05607020482420921]]], [[[0.10421959310770035, -0.06187900900840759, -0.08638910204172134, -0.06252826750278473, -0.016609204933047295], [0.09204992651939392, 0.051027584820985794, 0.00566843943670392, -0.06342968344688416, -0.0661119744181633], [-0.0008572424412705004, 0.002390922512859106, 0.16995909810066223, 0.04259435832500458, 0.10386398434638977], [-0.01563989371061325, 0.05675458163022995, 0.16847582161426544, 0.0315093994140625, 0.08355224877595901], [0.07210516184568405, 0.1557101458311081, -0.018584221601486206, 0.010918539948761463, -0.13142192363739014]], [[0.003997639287263155, -0.0992642343044281, 0.03255460783839226, -0.05458538606762886, 0.004040740896016359], [0.06052878871560097, -0.07048962265253067, -0.08401361852884293, -0.12898795306682587, -0.07112877070903778], [-0.013115854002535343, 0.043555982410907745, -0.002817970234900713, -0.004266173578798771, 0.03334108740091324], [-0.06346104294061661, 0.061168521642684937, 0.021541882306337357, -0.05338583514094353, 0.011179874651134014], [0.016982026398181915, 0.04333820939064026, 0.04914107546210289, 0.004870512988418341, -0.029151828959584236]], [[0.0802653357386589, 0.08896181732416153, 0.05601755157113075, 0.07912483811378479, 0.07013687491416931], [0.02718057669699192, 0.10465466976165771, -0.06294801831245422, 0.07153306901454926, -0.04482497274875641], [-0.07202459126710892, 0.1054225042462349, -0.009821422398090363, -0.004004116170108318, 0.06035608425736427], [-0.035419851541519165, 0.06904509663581848, -0.08526898920536041, 0.0627579316496849, 0.06751393526792526], [-0.1270674169063568, 0.007061517797410488, 0.010774663649499416, -0.11320877075195312, -0.10050560534000397]], [[0.053227316588163376, -0.06590010225772858, -0.02101254276931286, 0.07437483221292496, -0.06236710771918297], [-0.0975651741027832, 0.04020416736602783, 0.008348308503627777, -0.09573282301425934, -0.10136576741933823], [0.04722985252737999, 0.05838630720973015, 0.07995353639125824, -0.03168139606714249, 0.055412158370018005], [0.11363284289836884, 0.013591323979198933, 0.009632118046283722, -0.07481683790683746, -0.002091917907819152], [-0.05089826509356499, 0.01317052822560072, -0.00780146149918437, -0.09907420724630356, -0.050472140312194824]], [[0.06199883669614792, -0.061605099588632584, -0.06583519279956818, 0.07125184684991837, -0.05170480161905289], [0.011872605420649052, 0.013588137924671173, 0.008729439228773117, -0.05295538902282715, 0.0032866664696484804], [-0.017727255821228027, -0.007548309862613678, -0.0645846575498581, 0.000909290334675461, -0.010644576512277126], [-0.013266057707369328, 0.010804133489727974, -0.060328319668769836, -0.06712302565574646, -0.054875630885362625], [-0.012686481699347496, -0.08049393445253372, -0.05972373113036156, -0.00952640175819397, -0.08739124238491058]], [[0.0387839674949646, -0.010809838771820068, -0.14707694947719574, -0.0223415307700634, -0.09693451970815659], [0.00949936080724001, -0.05265314504504204, 0.022273264825344086, 0.02362457662820816, -0.08539766073226929], [0.11050844937562943, -0.040867190808057785, 0.017938468605279922, 0.09065374732017517, 0.021082818508148193], [0.1284792721271515, 0.01189954113215208, 0.11631511151790619, 0.10361768305301666, -0.06442767381668091], [0.13349826633930206, 0.08523247390985489, -0.060707543045282364, -0.02499575912952423, -0.0358419269323349]]]]}, "dense_1": {"bias": [-0.004486687947064638, 0.02407074347138405, -0.000383627659175545, -4.152566361881327e-06, -0.0004444801597855985, -0.000656625023111701, 7.035143789835274e-05, 0.0011515470687299967, 0.0009300453821197152, -0.013720709830522537, -0.0010617866646498442, 0.004175330046564341, 0.011248528026044369, 0.0, -0.0029088715091347694, 0.0026401265058666468, 0.013493253849446774, -0.0007135464693419635, -0.0036290884017944336, -0.004023347049951553, 0.004180646035820246, -0.0010011737467721105, -5.909697392780799e-06, 0.004783828277140856, 0.010367512702941895, 0.014406980946660042, 0.014959767460823059, -0.004751016851514578, 0.0031124246306717396, 0.0002632701362017542, -0.0022687790915369987, 0.014130360446870327, 0.009290467016398907, -0.0063248081132769585, 0.0012624531518667936, -0.00976139958947897, 0.0054754153825342655, 0.0014752381248399615, 0.007551961112767458, 0.0006127203232608736, 0.0009395327069796622, -0.008063125424087048, -0.0021074307151138783, 0.0019145766273140907, -0.005227451212704182, -0.0010523839155212045, -0.0013508086558431387, -0.000742866366636008, -0.015054597519338131, 0.011869465932250023, 0.013935002498328686, -2.540012246754486e-05, 0.0045819515362381935, 0.014449485577642918, 0.010371691547334194, 0.001037134206853807, -0.01305395271629095, -0.0004893065197393298, -0.018816275522112846, -0.000585883972235024, -3.70129564544186e-05, 0.006244421936571598, -0.0015798596432432532, -0.0016292498912662268, 0.0018499757861718535, 0.011827878654003143, 0.004928512964397669, 0.001369293313473463, -0.022018056362867355, -0.005397339817136526, 0.006287815514951944, 0.011129908263683319, -0.005280239973217249, -0.00025408470537513494, 0.005159295629709959, 0.0013236467493698, 0.03127580136060715, 1.4030177226231899e-05, 0.010558958165347576, 0.0011774783488363028, 8.238085865741596e-05, 0.01808878965675831, 0.0010353060206398368, -0.0004101521335542202, -0.006638186052441597, 0.0031455066055059433, 0.00011471820471342653, -0.005844744388014078, -0.0014064247952774167, 0.00505537074059248, -0.0005205894121900201, -0.005437862128019333, 0.0020514409989118576, -0.0016858901362866163, -0.0064542549662292, -0.004690091125667095, 0.009991633705794811, 0.006538792978972197, 0.008789975196123123, 0.001333227613940835, 0.0025747783947736025, 0.019644947722554207, -0.004205364268273115, 0.002942221239209175, 0.0016607444267719984, 0.006389865186065435, -0.013320429250597954, 0.00015872702351771295, -0.005900659132748842, 0.01597311906516552, 0.020938413217663765, 0.0018952892860397696, 0.009139025583863258, 0.0052660382352769375, -1.1642448043858167e-05, 0.0014781352365389466, 0.00017937994562089443, -0.01824050396680832, -0.007057328708469868, -0.0006339233950711787], "weights": [[0.009275718592107296, 0.056451357901096344, 0.004441102966666222, 0.09937432408332825, -0.04614249989390373, -0.009185228496789932, 0.07316911965608597, 0.09620486199855804, -0.08319535106420517, -0.09863529354333878, 0.0022130245342850685, -0.08403191715478897, 0.0329195111989975, 0.11538472771644592, 0.044596850872039795, 0.06524831056594849, -0.15084277093410492, 0.07096697390079498, -0.06536665558815002, -0.0674772709608078, 0.0043619051575660706, -0.01940232142806053, -0.08924420922994614, -0.09629355370998383, -0.0032903319224715233, -0.018494879826903343, 0.050218965858221054, -0.005933200009167194, 0.0027459494303911924, 0.12145226448774338, -0.11876129359006882, 0.0081449244171381, 0.02571994625031948, -0.014287831261754036, 0.08152883499860764, 0.01986611634492874, -0.07121731340885162, -0.020516537129878998, -0.034451697021722794, 0.0963294506072998, 0.06292597949504852, 0.003728012088686228, 0.10746333003044128, 0.0558139942586422, -0.041513510048389435, 0.11085233092308044, 0.0914296954870224, -0.02331722341477871, -0.0010568028083071113, 0.07197467237710953, 0.08072996139526367, 0.10965470969676971, 0.026408446952700615, 0.08994182199239731, -0.013159381225705147, -0.01736537180840969, 0.005644824355840683, 0.11560837924480438, -0.0759723037481308, 0.07427617907524109, -0.019504187628626823, 0.0739017203450203, -0.007080834358930588, 0.12825682759284973, 0.07991325110197067, -0.07371023297309875, 0.1077822670340538, 0.06995812803506851, -0.05771317705512047, -0.10874762386083603, 0.056930482387542725, 0.11480287462472916, -0.013555449433624744, 0.07459968328475952, -0.0239544864743948, -0.09240849316120148, 0.05800682306289673, 0.041951533406972885, 0.11741402000188828, -0.06550201028585434, 0.07996276766061783, 0.09916351735591888, -0.11694332957267761, -0.04069732502102852, 0.011803947389125824, 0.051572203636169434, -0.044563837349414825, 0.0724940299987793, -0.037777047604322433, -0.11606864631175995, 0.08664239943027496, 0.06541889905929565, -0.033699456602334976, -0.1236601173877716, 0.10791672766208649, 0.007510832976549864, 0.00020694153499789536, -0.052003443241119385, 0.09889063984155655, 0.10668011754751205, 0.15597355365753174, 0.032295841723680496, -0.09281713515520096, -0.030309118330478668, 0.1322311908006668, 0.02822195366024971, 0.08684281259775162, 0.13552534580230713, 0.03169644623994827, -0.052279502153396606, -0.10590774565935135, 0.12089737504720688, -0.05098573490977287, -0.12125802040100098, -0.06952515989542007, 0.11864060908555984, 0.07521966099739075, -0.05825541913509369, -0.04953775927424431, -0.08176678419113159, 0.011475619859993458, 0.0840105265378952, 0.018177062273025513, -0.06452736258506775, -0.0875888392329216, -0.10972962528467178, -0.11429161578416824, -0.08342758566141129, -0.06292971223592758, -0.0686914399266243, -0.06354155391454697, 0.048795897513628006, -0.02958042174577713, -0.0019813161343336105, -0.110554039478302, 0.04830425605177879, -0.0753328874707222, -0.0664764791727066, -0.052011821419000626, -0.12076602876186371, -0.11704356223344803, 0.07546581327915192, -0.11337333917617798, 0.038704972714185715, 0.05223119631409645, 0.032722774893045425, -0.08244830369949341, 0.04428880661725998, 0.0764661431312561, 0.0026376773603260517, -0.017849788069725037, 0.07404778897762299, -0.03959070146083832, -0.014162617735564709, 0.030118200927972794, 0.13731180131435394, -0.13212908804416656, -0.11259739845991135, -0.02111280895769596, -0.11889909207820892, 0.035769637674093246, 0.12504735589027405, 0.10975008457899094, 0.011079920455813408, 0.03159765526652336, 0.09754824638366699, 0.09615752846002579, 0.0951962098479271, 0.10576053708791733, -0.052014563232660294, 0.007104241289198399, 0.04657842963933945, -0.0488058403134346, 0.07007522135972977, 0.12216576188802719, -0.12424857914447784, -0.09283412247896194, 0.08177272230386734, -0.08107350766658783, -0.006140481680631638, 0.06616349518299103, 0.03356482833623886, 0.045234564691782, -0.05122718587517738, -0.051395874470472336, 0.12126801162958145, 0.055083587765693665, -0.09899749606847763, -0.06172056496143341, -0.07489548623561859, -0.052583880722522736, 0.10544884949922562, -0.12063176929950714, -0.1192108541727066, 0.1150391474366188, 0.10328792780637741, -0.05788430571556091, 0.08075418323278427, 0.04434266313910484, 0.09235183894634247, -0.1293523609638214, 0.004616334103047848, 0.1266849786043167, 0.05761134997010231, -0.018637292087078094, 0.06402990221977234, 0.004423658363521099, -0.04376271367073059, -0.130971297621727, -0.014491028152406216, -0.03342006355524063, -0.06789393723011017, 0.035549141466617584, 0.082864910364151, 0.06765478849411011, -0.07165611535310745, -0.027523737400770187, 0.05715304613113403, -0.018650347366929054, -0.018261810764670372, -0.07061021029949188, -0.06155772879719734, -0.03832442685961723, -0.015307082794606686, -0.044648293405771255, 0.01792014203965664, -0.07099682092666626, -0.016758590936660767, -0.04385723918676376, 0.003219858044758439, -0.017571410164237022, 0.046507980674505234, 0.10891668498516083, -0.12622424960136414, -0.11687406897544861, 0.10614755749702454, -0.028909938409924507, -0.10824354737997055, 0.14042097330093384, 0.0933154746890068, 0.013071838766336441, 0.11957966536283493, 0.08127113431692123, 0.12418685108423233, 0.10540024936199188, 0.048454124480485916, -0.058484017848968506, 0.10393298417329788, 0.09788427501916885, -0.09850332885980606, -0.08359766006469727, -0.06523425877094269, 0.08569187670946121, -0.011770629324018955, -0.00901741161942482, -0.060626354068517685], [-0.05396553874015808, 0.06587641686201096, 0.07163416594266891, 0.0012580015463754535, 0.021160535514354706, 0.0212129894644022, -0.11589277535676956, 0.13032247126102448, -0.043595779687166214, 0.1159357950091362, 0.07670100778341293, -0.013773960992693901, 0.03785097226500511, 0.11257384717464447, 0.10385782271623611, -0.0721961110830307, 0.15387849509716034, -0.0695878118276596, -0.08265215158462524, 0.0011685495264828205, 0.09157057106494904, -0.06499980390071869, 0.10893827676773071, 0.11930761486291885, -0.01741115376353264, 0.03393203020095825, -0.10894937068223953, -0.11046306788921356, -0.0879751443862915, -0.12903864681720734, 0.04760521650314331, 0.07563905417919159, 0.05541004240512848, -0.1121271476149559, 0.030156167224049568, 0.024601683020591736, 0.06422599405050278, 0.0632256418466568, -0.09803919494152069, 0.13177010416984558, -0.0070807309821248055, -0.09419658780097961, -0.02331063337624073, 0.06713824719190598, -0.08977265655994415, 0.08573376387357712, -0.008761978708207607, 0.042098358273506165, -0.03299589082598686, 0.04529464244842529, 0.07117284089326859, -0.04945635795593262, -0.08770895004272461, 0.050389353185892105, 0.11127922683954239, -0.07763710618019104, 0.05779344588518143, -0.11454848945140839, -0.08778809756040573, -0.025867948308587074, -0.001946890028193593, -0.08797953277826309, 0.1688288152217865, 0.004260509740561247, 0.08456480503082275, 0.1182468831539154, 0.10925222188234329, -0.07355845719575882, -0.11889641731977463, 0.0804196298122406, -0.002481576055288315, 0.12665331363677979, -0.0013546885456889868, 0.054690174758434296, -0.026561444625258446, -0.12361297011375427, -0.05391348525881767, 0.1242433711886406, 0.03367279842495918, -0.04779207706451416, -0.002836462575942278, -0.019846273586153984, -0.09456146508455276, 0.025634782388806343, 0.0799877792596817, -0.03371559455990791, 0.103263720870018, 0.030424559488892555, -0.049467939883470535, 0.10395478457212448, -0.08133374154567719, 0.01796337217092514, 0.11425631493330002, 0.1383197158575058, -0.04262867942452431, 0.08685023337602615, -0.060789357870817184, -0.07605142146348953, 0.12262886017560959, 0.010233800858259201, -0.0746431052684784, -0.04964251071214676, 0.01817907765507698, 0.11675558984279633, 0.06828830391168594, 0.10984043776988983, 0.10854325443506241, 0.11024254560470581, -0.0001718669373076409, 0.029258640483021736, 0.007703336887061596, 0.038417454808950424, 0.03678552806377411, -0.0033741143997758627, 0.024345293641090393, -0.010913566686213017, -0.01900595799088478, -0.03608063608407974, 0.06179765611886978, 0.11411500722169876, -0.06607695668935776, 0.09988854825496674, -0.07242768257856369, -0.049930404871702194, 0.060571543872356415, 0.0718737244606018, 0.08700381219387054, 0.10843519121408463, 0.13630753755569458, 0.01806408353149891, -0.07644679397344589, 0.08986328542232513, -0.07180118560791016, 0.015900516882538795, 0.07535529881715775, 0.09110616147518158, 0.12086159735918045, 0.12891940772533417, 0.13349777460098267, 0.024237915873527527, -0.1216592937707901, 0.05574555695056915, 0.08643408864736557, 0.0084169190376997, -0.004984403494745493, 0.07678969204425812, 0.09697134047746658, -0.11609390377998352, 0.05315372347831726, -0.04700642451643944, -0.1324687898159027, -0.107190802693367, 0.0006139833712950349, -0.02132466249167919, 0.0812903344631195, 0.09936076402664185, -0.0422675758600235, -0.1296834796667099, 0.042356353253126144, 0.01041784230619669, -0.040913842618465424, 0.014428870752453804, 0.1076241061091423, 0.06029301509261131, -0.08330262452363968, -0.08942100405693054, 0.0019465027144178748, -0.10802166163921356, 0.023676173761487007, 0.05212385207414627, 0.028386157006025314, -0.04231273755431175, 0.052494410425424576, -0.01618640497326851, -0.08003104478120804, -0.10684545338153839, -0.06633991748094559, -0.01767786778509617, 0.09053487330675125, 0.04902327433228493, -0.09316886216402054, 0.04204986244440079, -0.0035162284038960934, -0.09925923496484756, 0.0010636247461661696, -0.1219867616891861, -0.0962681695818901, 0.10521525889635086, -0.12710650265216827, 0.011594153940677643, 0.04852663725614548, -0.0565323606133461, -0.0913095772266388, -0.048365168273448944, 0.07367592304944992, 0.03299187123775482, -0.03857053816318512, 0.008611760102212429, 0.0867583155632019, -0.07219759374856949, -0.08532504737377167, -0.019336450845003128, 0.0033512103836983442, 0.012834262102842331, 0.012102932669222355, 0.011934885755181313, 0.06582869589328766, -0.007281969301402569, 0.09669973701238632, 0.13739219307899475, 0.035931721329689026, 0.027282824739813805, -0.044592928141355515, 0.10739453136920929, 0.127597376704216, 0.09704697877168655, -0.02696409821510315, 0.02175086922943592, 0.06881024688482285, -0.12444060295820236, 0.051575906574726105, 0.12112400680780411, 0.14809177815914154, -0.06241424381732941, 0.13312575221061707, 0.00752556836232543, -0.06436176598072052, 0.1017458438873291, 0.02485610544681549, 0.04372759535908699, -0.11265087127685547, 0.06419036537408829, 0.08513230830430984, -0.03489045426249504, -0.0831638053059578, 0.0780574306845665, -0.062043316662311554, 0.1361556351184845, 0.1264788657426834, 0.08132556080818176, -0.010071518830955029, 0.09384848177433014, 0.0031619761139154434, -0.11262920498847961, 0.1025364026427269, 0.07102452963590622, -0.07941664755344391, -0.1230706050992012, 0.12518121302127838, 0.07314698398113251, -0.020032614469528198, -0.086954265832901, -0.0595695860683918, -0.05485742166638374, 0.10839582234621048, -0.09509837627410889], [0.13462024927139282, -0.11105677485466003, 0.03446667641401291, -0.12310943007469177, -0.10595022886991501, 0.040724921971559525, -0.029449578374624252, 0.05467712879180908, 0.0035707259085029364, -0.027533764019608498, 0.1104598417878151, 0.03237921744585037, 0.10560498386621475, -0.006227240432053804, 0.060028623789548874, -0.0383029468357563, -0.06175975874066353, 0.02513290010392666, 0.04850359261035919, 0.09245799481868744, -0.11616349965333939, -0.033266399055719376, 0.018707826733589172, 0.025620080530643463, 0.047301553189754486, -0.11248906701803207, 0.1195056363940239, 0.05593167990446091, 0.03565291687846184, 0.07068987190723419, -0.05149688571691513, 0.08899093419313431, 0.11323168873786926, -0.08678049594163895, -0.10954143851995468, -0.006468234118074179, -0.025261973962187767, -0.03709537163376808, -0.079022616147995, -0.0011555656092241406, -0.12836508452892303, -0.0231004785746336, -0.07445131987333298, -0.09143289923667908, -0.10686161369085312, -0.08942601829767227, -0.044915586709976196, 0.08948882669210434, 0.0020528759341686964, -0.04419364780187607, 0.020161835476756096, 0.11742449551820755, -0.09909218549728394, -0.03473727032542229, -0.10734280198812485, -0.016043653711676598, 0.06471852213144302, -0.03875071927905083, -0.08210998773574829, -0.10274018347263336, -0.13136062026023865, -0.02283962070941925, -0.01351326983422041, 0.029174886643886566, 0.12612608075141907, 0.07780098170042038, 0.07475632429122925, 0.08157812803983688, 0.08467823266983032, -0.07457608729600906, 0.05249582976102829, -0.04157504066824913, 0.049096185714006424, -0.0439298078417778, 0.09219706058502197, -0.05101241171360016, -0.02441011369228363, 0.016551824286580086, -0.0801820382475853, -0.033467549830675125, -0.1137760654091835, 0.09500273317098618, 0.008259841240942478, -0.0447353795170784, 0.11980783194303513, -0.11081832647323608, -0.11768731474876404, 0.08607428520917892, 0.06418144702911377, 0.08339381217956543, -0.011066640727221966, -0.017189396545290947, 0.018364422023296356, 0.07635131478309631, -0.08276964724063873, 0.10606449842453003, -0.09446946531534195, 0.03863052278757095, 0.007178484462201595, 0.09712744504213333, -0.032895781099796295, 0.09488098323345184, 0.0980692207813263, -0.09542840719223022, -0.026892034336924553, 0.08435919880867004, 0.016998931765556335, -0.03951558470726013, -0.13693726062774658, -0.0636637732386589, 0.06932854652404785, 0.010701799765229225, 0.02096855640411377, -0.006229835096746683, 0.04376424103975296, 0.05310191214084625, -0.038805849850177765, -0.037653252482414246, 0.12959130108356476, 0.05812772735953331, 0.07671575993299484, 0.036484599113464355, 0.10128932446241379, -0.07563541829586029, -0.08609726279973984, 0.12518197298049927, -0.04840482771396637, 0.12363673001527786, -0.058542314916849136, -0.032589495182037354, 0.10618583112955093, -0.017652101814746857, -0.07966945320367813, -0.09218348562717438, -0.016163859516382217, -0.10548917204141617, 0.14578796923160553, -0.11813496798276901, -0.052056048065423965, -0.05450977385044098, 0.04270825907588005, -0.015574377961456776, 0.05909694731235504, 0.00372714432887733, 0.10739623010158539, 0.005916699767112732, 0.00857407134026289, 0.03984514996409416, 0.09281723201274872, 0.14451918005943298, -0.07622208446264267, -0.03876567631959915, 0.13184754550457, -0.06710709631443024, 0.041796669363975525, -0.11006652563810349, 0.07141749560832977, 0.04545871540904045, 0.10082145780324936, 0.07703268527984619, 0.11743618547916412, 0.03628665953874588, 0.03822583332657814, -0.10538563132286072, -0.072190061211586, 0.08116880059242249, 0.03994620963931084, 0.017287690192461014, -0.04938910901546478, -0.011180655099451542, -0.11023280769586563, 0.02358274534344673, -0.06563977152109146, 0.037569716572761536, -0.11283247917890549, 0.032384589314460754, 0.046597179025411606, 0.04726151004433632, 0.04050949588418007, 0.12610763311386108, 0.09204523265361786, 0.0281993355602026, -0.01143729593604803, 0.07006103545427322, 0.09700845181941986, 0.004710182547569275, 0.12031303346157074, 0.05854645371437073, -0.03662117198109627, -0.07631388306617737, -0.014381570741534233, -0.02602355368435383, 0.059519052505493164, 0.04350908845663071, 0.03154654800891876, 0.06865134090185165, 0.07655636966228485, 0.10561147332191467, 0.09669062495231628, -0.052565351128578186, -0.01250393409281969, 0.07644475251436234, 0.10128937661647797, -0.07846112549304962, -0.05907502770423889, -0.021349899470806122, 0.13174359500408173, -0.02652357891201973, -0.03192394971847534, -0.12250631302595139, -0.03013971634209156, -0.043116118758916855, -0.07700449228286743, 0.0964692085981369, 0.09527363628149033, 0.03529597446322441, -0.02691267803311348, 0.053261399269104004, -0.023836882784962654, 0.12821871042251587, -0.0072471462190151215, -0.010766629129648209, -0.037433505058288574, 0.005161236971616745, -0.0939074382185936, -0.08375519514083862, -0.029785187914967537, 0.0020619796123355627, -0.014704285189509392, 0.08986116200685501, 0.0014593686209991574, -0.10124339908361435, 0.07844027876853943, -0.007455380167812109, 0.0937901958823204, -0.11070767045021057, 0.052135951817035675, 0.06609075516462326, -0.03812898322939873, -0.07342717796564102, -0.1332663893699646, -0.019354961812496185, -0.1197623535990715, 0.058309320360422134, -0.12885834276676178, 0.13072404265403748, -0.057042818516492844, 0.06468123197555542, 0.0230659581720829, -0.13076508045196533, -0.13783018290996552, 0.12077724188566208, 0.011134364642202854, 0.08024323731660843, -0.1060086116194725, 0.10318398475646973], [0.08002979308366776, 0.05838611349463463, -0.09880117326974869, -0.08105285465717316, -0.08923033624887466, 0.1090044155716896, 0.0237419530749321, -0.07636392116546631, -0.06911370158195496, 0.07082938402891159, -0.0672154650092125, -0.05741208791732788, 0.052953653037548065, -0.02201937325298786, 0.07418859750032425, -0.08960109204053879, 0.10038458555936813, 0.04401255398988724, -0.09146007150411606, -0.019378194585442543, -0.0689421221613884, 0.05589146539568901, 0.0340726375579834, -0.08493649214506149, -0.10561870038509369, 0.04910905659198761, -0.08389239013195038, -0.10663401335477829, 0.030399978160858154, -0.049509383738040924, 0.08403287082910538, 0.07716769725084305, -0.06750607490539551, 0.12991704046726227, 0.05140339210629463, -0.05937580764293671, 0.016638286411762238, -0.02472786046564579, -0.10943784564733505, 0.00926714576780796, -0.07101283967494965, 0.027022359892725945, -0.0038537962827831507, -0.10288480669260025, 0.03823418915271759, 0.10076243430376053, -0.08086603134870529, 0.07393492013216019, -0.052714891731739044, 0.09945011138916016, -0.029500793665647507, -0.056638963520526886, 0.07964343577623367, 0.04675032198429108, 0.10998857021331787, 0.10605176538228989, -0.07491553574800491, 0.05542120710015297, 0.05454462021589279, 0.045571181923151016, -0.09967280924320221, -0.08255661278963089, -0.09578204154968262, 0.11633473634719849, -0.11579612642526627, 0.08266399055719376, 0.06868061423301697, 0.1146809533238411, -0.04880887269973755, -0.04224904254078865, 0.040833573788404465, 0.08949331939220428, -0.06930186599493027, -0.013330738991498947, 0.039773598313331604, 0.06770726293325424, 0.013930588029325008, 0.11794425547122955, -0.10798962414264679, 0.10231441259384155, -0.0010920676868408918, -0.010127076879143715, 0.12211345136165619, -0.010842072777450085, -0.01930207572877407, -0.09784486889839172, 0.02007990889251232, 0.11646509915590286, 0.07927237451076508, 0.03827987238764763, -0.10315562039613724, -0.08842185139656067, -0.08826824277639389, 0.01747102290391922, 0.03644207492470741, -0.07391875982284546, 0.08071856200695038, -0.1025913655757904, 0.1235676035284996, -0.044054657220840454, 0.009392490610480309, 0.048318274319171906, -0.05737994611263275, 0.05719178915023804, -0.014915429055690765, 0.028912657871842384, 0.00978726614266634, 0.11544990539550781, -0.05334881320595741, 0.0419091135263443, 0.09103937447071075, 0.1278432458639145, -0.11539310216903687, -0.010410183109343052, 0.06804986298084259, -0.07338177412748337, -0.11671940237283707, 0.10681372135877609, 0.09002628177404404, 0.06738028675317764, 0.017953654751181602, 0.05514613911509514, 0.02712719701230526, 0.05911652371287346, 0.03563015162944794, -0.031039124354720116, -0.053593456745147705, 0.023967081680893898, -0.07692673057317734, 0.08051783591508865, 0.02060425467789173, -0.016968969255685806, -0.12650908529758453, -0.09633253514766693, -0.012788407504558563, 0.004064945969730616, 0.018688110634684563, 0.09648975729942322, -0.08679906278848648, 0.11540070921182632, -0.10152357071638107, -0.07308182120323181, -0.030577538534998894, 0.12699861824512482, -0.07682303339242935, 0.10392900556325912, -0.05922732874751091, -0.09372531622648239, -0.018908187747001648, 0.014626557007431984, -0.11752349883317947, 0.030845368281006813, -0.010110937990248203, 0.11087357252836227, -0.028325626626610756, -0.07141491770744324, -0.039077457040548325, -0.09304003417491913, 0.02416320890188217, 0.0031107997056096792, -0.02358325943350792, -0.0814933255314827, 0.0016578931827098131, -0.09595704823732376, -0.004068583250045776, -0.0677805095911026, 0.006115061696618795, -0.04341159388422966, -0.031100988388061523, -0.01935923658311367, 0.09140995144844055, 0.1128171905875206, 0.10104650259017944, -0.11196252703666687, -0.12258473038673401, 0.12628185749053955, -0.07275266200304031, 0.1278838813304901, 0.10734659433364868, -0.009028978645801544, -0.02133897691965103, -0.0021778272930532694, -0.08168571442365646, -0.06891337037086487, -0.0017256439896300435, -0.11038178950548172, -0.04720854014158249, 0.09093981236219406, 0.08549681305885315, -0.04007627069950104, 0.07997507601976395, 0.11700230836868286, -0.0646037608385086, 0.048593584448099136, 0.049708042293787, 0.11823566257953644, 0.002625275170430541, -0.004497856833040714, 0.03203248605132103, -0.009584324434399605, 0.025001160800457, 0.06030226871371269, 0.08856227248907089, 0.06967809051275253, -0.03264949470758438, 0.0260675810277462, 0.10591337829828262, -0.08877414464950562, 0.11248297989368439, 0.11771051585674286, 0.03823094069957733, 0.03992315009236336, 0.026484675705432892, 0.04636014625430107, 0.0923924446105957, 0.039098385721445084, -0.06759123504161835, -0.01035848818719387, 0.085578553378582, 0.06039629876613617, -0.11852803081274033, -0.07459276914596558, -0.07531611621379852, 0.030562279745936394, -0.06842824816703796, -0.07244248688220978, -0.052348192781209946, -0.06772774457931519, -0.01037591602653265, -0.042921748012304306, -0.008283103816211224, 0.09894658625125885, 0.0698421522974968, 0.08689434081315994, -0.059454139322042465, 0.04971366375684738, -0.058694493025541306, -0.08122004568576813, 0.10410279780626297, -0.043281860649585724, -0.03233163058757782, -0.08327748626470566, 0.09665082395076752, 0.03454095497727394, -0.05466471239924431, -0.051817864179611206, 0.12124711275100708, 0.07989336550235748, -0.04252505674958229, -0.0973922610282898, -0.09887561202049255, -0.07366510480642319, 0.10204093903303146, -0.11212711781263351, 0.015119381248950958, 0.005683979019522667], [0.027389613911509514, 0.05726036801934242, -0.005921577103435993, 0.014802452176809311, 0.10775788873434067, -0.06731414049863815, -0.08070576936006546, -0.015911992639303207, -0.08176329731941223, -0.08180522918701172, 0.1333666294813156, 0.08600936084985733, -0.08303956687450409, -0.04016485437750816, -0.1263321340084076, -0.017837394028902054, -0.07944655418395996, -0.10574933141469955, -0.12452378869056702, 0.027597393840551376, -0.07221932709217072, 0.02395126037299633, 0.05018828436732292, 0.04385308176279068, 0.05531846731901169, 0.029816949740052223, -0.0343208834528923, -0.05807918682694435, 0.026226667687296867, 0.06043252348899841, 0.12457074224948883, -0.07038464397192001, 0.05454884096980095, 0.1138840764760971, 0.07533606141805649, -0.08094745874404907, 0.11848369985818863, 0.07521712779998779, 0.15341651439666748, 0.038308195769786835, 0.02826113812625408, -0.11221843212842941, 0.12271130084991455, 0.09202124178409576, 0.0932423546910286, -0.08291906863451004, -0.01555714849382639, -0.07598485052585602, -0.012525721453130245, -0.05156097933650017, 0.08101939409971237, -0.0661701112985611, -0.012729554437100887, -0.012520947493612766, -0.07113196700811386, 0.024651648476719856, 0.02336323820054531, -0.02790476568043232, -0.02057408168911934, -0.10504955798387527, -0.035347722470760345, -0.07493231445550919, 0.09680423885583878, 0.018251018598675728, 0.14974288642406464, -0.09598296135663986, -0.03445786237716675, 0.06046341359615326, -0.09532995522022247, -0.03429652750492096, -0.10308487713336945, 0.03575451672077179, -0.03232622519135475, 0.0017343828221783042, -0.07473941892385483, 0.009721501730382442, -0.021294444799423218, -0.10714425146579742, -0.10677983611822128, -0.021165601909160614, -0.07536336779594421, -0.08751879632472992, 0.10824049264192581, 0.11318673938512802, 0.059830453246831894, 0.11794622242450714, -0.1062389612197876, 0.001066084485501051, 0.06716207414865494, 0.13865068554878235, -0.051137492060661316, 0.035507917404174805, -0.05796285718679428, -0.05799520015716553, -0.00979492999613285, -0.015335100702941418, -0.0198232252150774, 0.053829632699489594, 0.09804949909448624, -0.00395178934559226, 0.01984282396733761, -0.024936819449067116, -0.08550045639276505, -0.04294857382774353, -0.03480591997504234, -0.0018570892279967666, 0.022644266486167908, 0.05549512431025505, 0.009298254735767841, -0.10064760595560074, 0.04974008724093437, -0.05573653057217598, -0.086701400578022, -0.07126336544752121, 0.014914567582309246, -6.059004954295233e-05, 0.08278938382863998, 0.02821582928299904, 0.03140205144882202, -0.09393789619207382, -0.12347978353500366, -0.03852998837828636, -0.0861179456114769, 0.04852892458438873, -0.07595224678516388, 0.04840589687228203, -0.12219522893428802, -0.0958641767501831, 0.10299427807331085, -0.013668641448020935, -0.013651121407747269, -0.04196242615580559, -0.0008790119318291545, -0.042328715324401855, 0.05204157531261444, -0.022876013070344925, 0.07700500637292862, 0.03139115869998932, -0.11598584800958633, 0.0975026935338974, -0.1211903914809227, 0.11122705787420273, 0.05841415748000145, 0.024461228400468826, 0.012531224638223648, -0.10302986204624176, 0.03807589039206505, 0.035964157432317734, -0.07714683562517166, 0.03646207973361015, -0.03017066977918148, -0.08573146909475327, 0.15084464848041534, 0.13280192017555237, -0.11020516604185104, 0.034588441252708435, 0.022656092420220375, 0.13978154957294464, 0.03266553208231926, 0.07984984666109085, -0.06319332867860794, 0.09528548270463943, -0.006386057008057833, -0.003706060815602541, -0.08446287363767624, 0.0988275408744812, 0.10264859348535538, 0.012285961769521236, 0.026969419792294502, -0.11333818733692169, -0.057987600564956665, 0.10571414232254028, 0.0579669326543808, 0.08823243528604507, 0.08446702361106873, 0.09210342913866043, 0.039039574563503265, -0.1019655168056488, 0.06163667142391205, -0.044062722474336624, 0.08886880427598953, 0.00545069295912981, 0.07923123985528946, 0.0842113196849823, 0.04119546711444855, -0.016373900696635246, 0.04228270798921585, -0.03714258223772049, -0.06679893285036087, 0.029727041721343994, -0.03036728873848915, 0.0014618895947933197, -0.08715398609638214, -0.0839986652135849, -0.07504010945558548, 0.10319630056619644, 0.008032371290028095, 0.019766492769122124, 0.03040899522602558, -0.03495444357395172, -0.07879490405321121, -0.1010393276810646, -0.018402736634016037, 0.020822595804929733, -0.05844970792531967, -0.10956418514251709, 0.04164882004261017, -0.08542907983064651, 0.07019717246294022, -0.10631866008043289, -0.029514778405427933, 0.016483450308442116, -0.08562900125980377, 0.05187568441033363, -0.08750724047422409, 0.07527200132608414, -0.07475421577692032, 0.03930312767624855, 0.10948215425014496, -0.02326461300253868, -0.08406200259923935, 0.10344982892274857, 0.11110859364271164, 0.03799193724989891, 0.10814797878265381, 0.10189201682806015, 0.011317997239530087, -0.022843940183520317, 0.06244418025016785, -0.051023077219724655, -0.043245308101177216, -0.09807991236448288, -0.07557349652051926, 0.03536881133913994, -0.10469266772270203, -0.05174721032381058, -0.07393355667591095, -0.06444520503282547, -0.08916257321834564, 0.041945889592170715, 0.026243049651384354, 0.035118382424116135, -0.0035834501031786203, 0.09702696651220322, -0.08371192216873169, -0.03538905084133148, 0.046166639775037766, -0.12704205513000488, 0.11032150685787201, -0.02518060803413391, 0.13337671756744385, 0.017375020310282707, -0.03012104704976082, 0.0901433676481247, 0.018080472946166992, 0.1421002596616745], [0.11012296378612518, -0.05980211868882179, -0.04993639886379242, -0.062381163239479065, -0.09594348818063736, -0.12005576491355896, -0.09121566265821457, 0.10124774277210236, 0.01887320727109909, -0.1108788251876831, -0.04544856399297714, -0.07642563432455063, -0.016957808285951614, -0.10832446068525314, 0.05765080451965332, 0.07913684844970703, -0.030778279528021812, -0.08414226025342941, 0.08033565431833267, 0.09674439579248428, 0.02038586512207985, -0.0664156898856163, 0.03718389570713043, 0.09466846287250519, -0.0009305800776928663, -0.11326181888580322, -0.04033389315009117, -0.06851138174533844, -0.09185703098773956, -0.09836138039827347, -0.012570363469421864, 0.1044742614030838, 0.026190118864178658, 0.012582847848534584, 0.002003402914851904, 0.023617958649992943, 0.05690019205212593, -0.012171458452939987, 0.01192854717373848, -0.11166607588529587, 0.08319094032049179, 0.038922276347875595, 0.10787378996610641, 0.060002997517585754, -0.12436643987894058, 0.013996769674122334, 0.05358181148767471, 0.08787368983030319, -0.12433226406574249, 0.0012172467540949583, -0.016812549903988838, -0.0988815426826477, 0.13078925013542175, -0.0592912919819355, 0.029907269403338432, -0.05146804079413414, 0.030209166929125786, -0.16419295966625214, -0.12068190425634384, 0.06975694000720978, 0.05642371624708176, 0.06351597607135773, 0.13625144958496094, -0.06595836579799652, -0.09178415685892105, 0.01191902905702591, -0.05104849115014076, 0.024498216807842255, -0.08384302258491516, 0.07980812340974808, -0.05104983597993851, 0.04083409160375595, -0.06220496818423271, -0.11089465767145157, 0.1086011528968811, 0.049578458070755005, -0.011368846520781517, 0.06906508654356003, 0.06800555437803268, -0.06030455231666565, 0.0946386307477951, 0.12253551185131073, -0.028492452576756477, -0.002199089853093028, -0.012150131165981293, -0.007238082587718964, 0.00027037542895413935, -0.0017986972816288471, 0.05410788953304291, -0.014607921242713928, 0.05734103173017502, 0.10674018412828445, 0.09126432240009308, 0.11762922257184982, -0.12206672132015228, 0.007801460567861795, 0.038707297295331955, -0.07009448856115341, 0.01761184260249138, -0.12595786154270172, -0.03616473451256752, 0.03713762387633324, 0.12092991918325424, -0.04029890149831772, -0.1134408712387085, -0.007026076316833496, 0.08485320210456848, -0.01305150706321001, 0.040622610598802567, -0.01750841550529003, -0.04024670645594597, 0.09540022909641266, -0.0862615779042244, 0.03187810629606247, 0.03733678534626961, 0.11573883891105652, -0.12274076044559479, -0.01356700249016285, 0.02749630995094776, -0.07129866629838943, 0.013265101239085197, -0.14404089748859406, -0.05433579906821251, -0.11422708630561829, 0.05670492723584175, -0.07501136511564255, 0.09994903951883316, -0.0504906065762043, 0.016179274767637253, 0.047735437750816345, 0.08115241676568985, -0.07645435631275177, 0.07805990427732468, -0.013466250151395798, 0.1150168925523758, 0.06157679483294487, -0.011781562119722366, -0.00552349491044879, -0.09791159629821777, -0.008993944153189659, -0.07196497172117233, 0.09980255365371704, -0.12591394782066345, -0.037023428827524185, 0.09104793518781662, 0.10874398052692413, -0.06619894504547119, -0.0003671169397421181, -0.02153996378183365, -0.008120771497488022, -0.11817201226949692, -0.08738317340612411, 0.06009642407298088, 0.09232074022293091, -0.10798013210296631, -0.11921442300081253, 0.08395059406757355, 0.008386206813156605, -0.08788580447435379, -0.046523671597242355, 0.11206057667732239, -0.0423395149409771, -0.006211315281689167, -0.08247549086809158, -0.015202599577605724, 0.03729958459734917, -0.08418183773756027, -0.011342688463628292, 0.1150476261973381, 0.09485404193401337, -0.07721354067325592, -0.10528590530157089, -0.12014727294445038, 0.0385800302028656, 0.016985811293125153, 0.007365380879491568, 0.0003819040721282363, 0.07815229147672653, 0.03167959302663803, 0.01740293949842453, 0.02759689651429653, -0.13136662542819977, -0.02053827978670597, -0.10663612186908722, 0.046358898282051086, 0.06190062314271927, -0.01806158386170864, 0.07464931905269623, 0.0005946519086137414, -0.06947360932826996, -0.0008453279151581228, 0.06900173425674438, -6.087871952331625e-05, 0.04172656685113907, -0.048046816140413284, -0.018702754750847816, 0.04789384827017784, -0.08469385653734207, -0.008672819472849369, 0.10090166330337524, 0.025274716317653656, -0.11935747414827347, -0.10198991000652313, -0.09335076808929443, 0.09547297656536102, 0.11639861762523651, -0.08299021422863007, 0.013305893167853355, -0.05002620443701744, -0.08285024762153625, 0.06757745891809464, -0.08743497729301453, -0.01368924230337143, 0.01342021580785513, 0.018794242292642593, 0.03161947801709175, 0.12667226791381836, 0.053548719733953476, -0.10635451227426529, 0.005662344396114349, 0.022873124107718468, -0.015812162309885025, 0.0012916828272864223, 0.03642522916197777, 0.059274956583976746, -0.04164215177297592, -0.06897920370101929, -0.026403550058603287, 0.062014032155275345, 0.03401564434170723, 0.09279393404722214, -0.05096263810992241, 0.1213054284453392, -0.025283941999077797, 0.010688231326639652, 0.04533959925174713, -0.1342504322528839, -0.023184122517704964, 0.09446273744106293, 0.04196855425834656, 0.002118858741596341, -0.10225562751293182, -0.01845942623913288, 0.04093898460268974, -0.025948628783226013, -0.05961238965392113, 0.1175030916929245, 0.08603429794311523, 0.035346683114767075, -0.034517109394073486, -0.0798511654138565, 0.11531266570091248, -0.04369837045669556, -0.07540072500705719, -0.060763027518987656, 0.04306301474571228], [-0.04890890046954155, -0.11709848046302795, -0.02792896330356598, 0.029192069545388222, 0.05371743068099022, 0.028499430045485497, -0.05538066476583481, -0.02587694302201271, 0.038973368704319, 0.1144966259598732, 0.058304499834775925, -0.13756869733333588, 0.07517976313829422, -0.012181741185486317, 0.09475835412740707, -0.0327642485499382, 0.11852509528398514, -0.06454463303089142, -0.08569032698869705, -0.06872909516096115, 0.036518651992082596, 0.09416338801383972, 0.07290911674499512, -0.09116093069314957, 0.03896553814411163, 0.03484366089105606, -0.011332823894917965, 0.08048003911972046, 0.026310604065656662, 0.10142182558774948, 0.019649332389235497, -0.03560579940676689, -0.006096300669014454, 0.05517817661166191, -0.0665590912103653, 0.04920637607574463, 0.0830710381269455, -0.10734429955482483, -0.012194524519145489, -0.03684813529253006, -0.12488121539354324, 0.052461132407188416, 0.09862025827169418, 0.0417778305709362, -0.09747001528739929, -0.0017793808365240693, 0.05287031829357147, 0.02266395464539528, -0.04128723964095116, 0.044351618736982346, -0.06929004937410355, 0.07839998602867126, 0.07938247919082642, 0.08792974054813385, -0.1211177408695221, 0.1038946583867073, 0.04866575449705124, -0.06315934658050537, 0.0521952249109745, -0.03414362668991089, 0.036785516887903214, 0.06284160912036896, -0.005428697913885117, 0.10845814645290375, 0.08267859369516373, 0.020868970081210136, 0.1004856526851654, -0.11999345570802689, -0.0006441054865717888, -0.07609163224697113, 0.10095147788524628, -0.006782114040106535, -0.09983081370592117, 0.01515956036746502, -0.06483826786279678, -0.08558731526136398, 0.09134276956319809, -0.0034607970155775547, -0.0022504758089780807, 0.08518916368484497, 0.10600610822439194, -0.12877072393894196, -0.07501925528049469, -0.06391093879938126, -0.14739634096622467, 0.00046146067325025797, -0.0983625128865242, -0.0881490483880043, 0.01588558778166771, -0.05627867951989174, 0.054536331444978714, 0.08410138636827469, -0.021633796393871307, 0.03433163836598396, -0.061940327286720276, 0.03174152225255966, -0.03889257833361626, -0.07928574085235596, -0.11411770433187485, -0.1323736310005188, 0.02799394354224205, 0.048243165016174316, -0.09784801304340363, 0.12759003043174744, -0.05327768623828888, 0.06015835329890251, 0.002647454384714365, 0.11122116446495056, -0.10562621802091599, -0.10726678371429443, -0.09608355909585953, 0.05264190584421158, 0.11149858683347702, -0.11930127441883087, -0.09584247320890427, -0.12891514599323273, 0.017901109531521797, 0.03568252921104431, 0.12227895110845566, 0.02782607637345791, -0.06272947788238525, 0.08118593692779541, 0.09194117784500122, -0.07636795938014984, 0.06267713010311127, 0.04679979756474495, 0.0425870344042778, 0.09398685395717621, -0.06887250393629074, 0.05830882862210274, -0.054117120802402496, 0.11037980765104294, 0.023673053830862045, 0.06996471434831619, 0.040249988436698914, -0.020333021879196167, 0.11275195330381393, -0.03643665090203285, -0.09827004373073578, -0.06651311367750168, 0.07975348830223083, 0.024831434711813927, 0.07689931988716125, -0.05165255442261696, 0.09719207882881165, 0.06324172765016556, -0.1148935854434967, 0.06715597212314606, -0.06732054799795151, 0.001882175332866609, -0.017652079463005066, 0.10212687402963638, 0.034659720957279205, 0.09599116444587708, 0.01155815739184618, 0.06338562816381454, 0.11010747402906418, 0.040781088173389435, -0.10217580199241638, 0.014199964702129364, -0.024923942983150482, -0.11649450659751892, 0.07982846349477768, 0.0312265045940876, -0.08349251747131348, -0.0913616344332695, -0.017772935330867767, -0.07582242041826248, 0.10995513945817947, -0.003957890439778566, 0.11894379556179047, 0.08454366773366928, 0.025238636881113052, -0.012700719758868217, 0.11317161470651627, -0.11670033633708954, -0.010057445615530014, 0.02154003456234932, 0.0023183913435786963, -0.07952653616666794, 0.11317145824432373, -0.004990170244127512, 0.000607085763476789, 0.07611673325300217, -0.1360812783241272, 0.0786210224032402, -0.11217186599969864, -0.12343761324882507, 0.01770913042128086, -0.07582113891839981, -0.04484415426850319, -0.11687489598989487, 0.03219390660524368, 0.055721528828144073, -0.09942475706338882, 0.06904438138008118, 0.010384757071733475, 0.08593758195638657, -0.10764618963003159, 0.10844139754772186, 0.01622076891362667, -0.12124839425086975, 0.001111185527406633, 0.11947466433048248, -0.04793386533856392, 0.037251297384500504, 0.11822813749313354, 0.11416162550449371, -0.04706334322690964, -0.050429567694664, -0.09385813027620316, 0.036596331745386124, -0.011996211484074593, 0.07415858656167984, -0.08957912027835846, -0.004275730345398188, -0.09264267981052399, -0.018735261633992195, -0.010206206701695919, -0.06771580874919891, -0.11302658915519714, 0.11205757409334183, 0.1014668345451355, 0.06703943759202957, 0.08710857480764389, -0.07413698732852936, 0.006206847261637449, 0.036873579025268555, -0.07976806163787842, 0.05979447439312935, -0.10366910696029663, 0.069956474006176, 0.04376990720629692, 0.11408673226833344, 0.11349496990442276, 0.08854624629020691, 0.06325159966945648, 0.011083133518695831, -0.08041157573461533, -0.040378961712121964, 0.042889878153800964, -0.07233317196369171, -0.017237013205885887, -0.10733392834663391, 0.07619700580835342, -0.1058153286576271, -0.07700347155332565, -0.07319276034832001, -0.047271668910980225, -0.0904119536280632, 0.028701920062303543, 0.15335869789123535, 0.08102123439311981, -0.0467221736907959, -0.15338371694087982, 0.09037452936172485], [-0.09998062998056412, 0.12431080639362335, -0.008504524827003479, -0.11841414868831635, -0.1201523020863533, -0.05177919566631317, -0.00198758696205914, -0.06992335617542267, -0.027324430644512177, -0.026252547279000282, 0.08584272861480713, 0.027096474543213844, 0.018350875005126, -0.11500825732946396, -0.09277964383363724, 0.012046249583363533, 0.09373306483030319, 0.05576568841934204, -0.04397154226899147, -0.06254998594522476, -0.12602286040782928, -0.11531371623277664, -0.09842442721128464, -0.04999002069234848, 0.10176994651556015, 0.014121467247605324, 0.03804032877087593, -0.014127635397017002, 0.12132647633552551, -0.04728567227721214, 0.0930645763874054, 0.09487377852201462, -0.04292185604572296, 0.0826897844672203, -0.0561322458088398, -0.0999322161078453, 0.11318621039390564, 0.056659799069166183, -0.020194746553897858, -0.0030538206920027733, 0.005366187542676926, 0.05552215874195099, -0.06288651376962662, -0.009013600647449493, -0.03244221583008766, 0.09720224142074585, 0.06636544317007065, -0.045941516757011414, -0.0893610417842865, -0.10956903547048569, -0.005810991395264864, 0.09924004971981049, 0.00512686325237155, 0.05583113059401512, -0.10983003675937653, -0.020279455929994583, -0.11788535118103027, -0.010492495261132717, 0.07281342148780823, -0.05701344832777977, -0.031186038628220558, 0.03824150562286377, 