{"conv2d_1": {"bias": [0.0008098992984741926, -0.0005265985382720828, 0.0028663785196840763, 0.00940750166773796, 0.008167496882379055, 0.0005089116748422384], "weights": [[[[0.052802737802267075, 0.1753990799188614, -0.004652100615203381, -0.00885582435876131, 0.10774058103561401], [-0.007865103892982006, -0.10994894802570343, -0.13639676570892334, -0.017538774758577347, -0.09265057742595673], [0.24637268483638763, -0.09146004170179367, -0.13326112926006317, 0.060219425708055496, 0.25729238986968994], [0.11698068678379059, 0.029552247375249863, 0.004317473620176315, 0.3300855755805969, 0.1829937994480133], [0.24084030091762543, 0.22293202579021454, 0.27134397625923157, 0.4047357141971588, 0.17444594204425812]]], [[[0.3155941069126129, 0.2555755376815796, 0.08288922160863876, 0.14819230139255524, -0.20164717733860016], [0.11070321500301361, 0.45191362500190735, 0.21683818101882935, -0.012549093924462795, 0.20641060173511505], [0.34667354822158813, 0.19782689213752747, 0.11709758639335632, 0.36260655522346497, 0.16589544713497162], [0.28332507610321045, 0.17900830507278442, 0.07916656881570816, 0.08188413083553314, 0.1404777467250824], [-0.048068027943372726, 0.081133171916008, -0.0650801807641983, 0.05152933672070503, -0.24086768925189972]]], [[[0.29149895906448364, 0.2671954333782196, -0.17706413567066193, -0.14218807220458984, -0.13118517398834229], [0.21540041267871857, 0.23948343098163605, -0.0706329271197319, -0.08685601502656937, -0.1758033037185669], [0.040509115904569626, 0.22651046514511108, 0.30642008781433105, 0.067677341401577, 0.09571095556020737], [0.1578466147184372, 0.3425620496273041, 0.14884428679943085, 0.05122305452823639, 0.0890352725982666], [0.18515348434448242, 0.2162896692752838, 0.02574644237756729, 0.013115979731082916, 0.18437263369560242]]], [[[0.004927936941385269, 0.0434032641351223, -0.12535834312438965, -0.13859474658966064, -0.13712070882320404], [0.09084635972976685, -0.14585919678211212, -0.019202515482902527, -0.03857005015015602, -0.004474654793739319], [-0.1379326730966568, -0.18335255980491638, 0.0232104305177927, -0.16994351148605347, 0.15243087708950043], [0.22972460091114044, 0.11182700097560883, -0.11010035872459412, 0.18308058381080627, -0.10717763006687164], [0.12095083296298981, 0.2744494378566742, 0.19442446529865265, -0.12667663395404816, -0.04996427521109581]]], [[[-0.044848423451185226, 0.22035500407218933, 0.16526168584823608, -0.017864445224404335, 0.07343631237745285], [0.13191266357898712, 0.06971213966608047, 0.324544757604599, 0.2851530611515045, 0.008004684001207352], [0.19824892282485962, 0.19456496834754944, -0.0026689013466238976, -0.13420426845550537, -0.1694374531507492], [-0.14807690680027008, -0.2205006182193756, -0.22158905863761902, 0.055341873317956924, 0.103360615670681], [-0.16933408379554749, -0.17615945637226105, -0.08206383138895035, 0.10062495619058609, 0.04247213900089264]]], [[[-0.1629776507616043, 0.18501096963882446, 0.11901408433914185, 0.018471000716090202, -0.05965849757194519], [-0.1015496775507927, 0.04523510858416557, 0.27136990427970886, 0.22982826828956604, -0.11151642352342606], [0.2737942934036255, 0.23038509488105774, 0.445183664560318, 0.20573022961616516, 0.2705841660499573], [0.42406609654426575, 0.645349383354187, 0.7449780106544495, 0.5248510837554932, 0.3456624150276184], [0.3455656170845032, 0.4514329731464386, 0.45749157667160034, 0.22538766264915466, 0.1896565556526184]]]]}, "conv2d_2": {"bias": [0.00047510507283732295, -0.02286347560584545, 0.005555196665227413, 0.008108598180115223, -0.010981600731611252, -0.001869090017862618, 0.024147266522049904, 0.0013252842472866178, 0.016205498948693275, 0.049411602318286896, -0.0028900911565870047, 0.0719715803861618, -0.009025271981954575, 0.00727359252050519, -0.008946198038756847, -0.012891947291791439], "weights": [[[[0.05483740568161011, 0.08814205229282379, -0.08555371314287186, -0.08025778084993362, 0.037020932883024216], [-0.09148424863815308, 0.032063886523246765, 0.04057822749018669, 0.012030217796564102, -0.04342791438102722], [-0.07630083709955215, -0.009564859792590141, -0.10662976652383804, -0.007213891949504614, 0.034587666392326355], [-0.017697332426905632, -0.02808816358447075, -0.041471924632787704, -0.051317982375621796, 0.06672598421573639], [0.009979852475225925, 0.00646407064050436, 0.05464840680360794, 0.1133948415517807, 0.0032437038607895374]], [[0.012934517115354538, 0.010261856019496918, 0.021083630621433258, 0.1081792414188385, -0.07200738042593002], [-0.06902620941400528, 0.03337954357266426, 0.08388062566518784, 0.03640612214803696, -0.05302129313349724], [-0.11445014923810959, 0.0635940283536911, -0.10404055565595627, 0.03772089630365372, -0.04452575743198395], [-0.10873861610889435, 0.016475334763526917, -0.06967072188854218, -0.03630252927541733, 0.0034642587415874004], [-0.08516436070203781, -0.017852673307061195, 0.10563063621520996, -0.02963937446475029, 0.048842623829841614]], [[0.08150410652160645, 0.10123420506715775, 0.0439726859331131, 0.02177008055150509, -0.03151705488562584], [-0.08101904392242432, 0.047323375940322876, -0.05994902551174164, -0.10330300033092499, -0.07025959342718124], [-0.11937550455331802, 0.05536966398358345, 0.07303278893232346, 0.0756213590502739, -0.06587439030408859], [-0.05296041816473007, 0.03956271708011627, -0.014037747867405415, 0.06394416093826294, 0.11464455723762512], [0.06290263682603836, 0.0273686945438385, 0.03501597419381142, 0.10278104245662689, -0.015875956043601036]], [[0.05236905813217163, -0.04485786706209183, -0.05542244389653206, -0.038045816123485565, 0.08981950581073761], [0.0017565347952768207, 0.10238483548164368, 0.053264111280441284, -0.08270113170146942, -0.039960987865924835], [-0.07146239280700684, 0.09260468930006027, 0.006125534884631634, 0.08578043431043625, -0.03359289467334747], [-0.05618416517972946, 0.04457779973745346, -0.07119705528020859, -0.06148068234324455, 0.04408026859164238], [-0.022717010229825974, 0.09886540472507477, 0.05192074924707413, 0.048153117299079895, 0.08884736895561218]], [[0.025402283295989037, -0.04898476600646973, -0.02997269667685032, 0.060749735683202744, -0.0845591127872467], [0.07395682483911514, -0.01954292319715023, 0.06163471192121506, 0.08376561850309372, 0.06057577207684517], [-0.058770980685949326, 0.018896030262112617, 0.05380045995116234, 0.11287855356931686, 0.012527856975793839], [0.06267678737640381, -0.08108069747686386, -0.08521182835102081, 0.05329159274697304, -0.10621713101863861], [-0.05461525171995163, -0.09038382023572922, 0.04931468516588211, 0.05635273456573486, 0.03898561745882034]], [[0.030855946242809296, 0.12590181827545166, 0.05629751831293106, -0.033649545162916183, 0.1728019118309021], [-0.08989927917718887, -0.0758141577243805, -0.031161626800894737, -0.09615876525640488, -0.07388508319854736], [0.0217948816716671, -0.13679786026477814, -0.02044384554028511, -0.063527911901474, -0.08385087549686432], [-0.0785713866353035, -0.1471187323331833, -0.06388809531927109, 0.04154631122946739, 0.018258456140756607], [-0.03431538864970207, 0.06637600064277649, 0.04845046252012253, 0.05703381821513176, 0.1557745784521103]]], [[[-0.05718420818448067, -0.04778154194355011, 0.10288811475038528, 0.05999211594462395, 0.06358108669519424], [0.06496549397706985, 0.07711074501276016, -0.00018894931417889893, -0.058476123958826065, 0.03153849020600319], [0.050121910870075226, 0.13020434975624084, -0.10015632212162018, -0.02659616805613041, -0.057788021862506866], [0.05214560776948929, -0.06871826946735382, 0.002530744532123208, 0.07693035155534744, 0.036734893918037415], [0.002770974300801754, 0.0958508625626564, 0.10739941895008087, 0.03899843618273735, 0.060784853994846344]], [[0.029033701866865158, -0.09770075976848602, 0.1141720861196518, -0.048618514090776443, -0.07226812094449997], [0.05263102427124977, 0.1314232349395752, 0.08432471752166748, -0.08517298847436905, -0.02595582790672779], [-0.11522570252418518, 0.10690251737833023, 0.0582362599670887, 0.051398634910583496, -0.07599268108606339], [0.044642504304647446, 0.008489030413329601, -0.0728081464767456, 0.06820999085903168, -0.03575146943330765], [0.02739325352013111, 0.05057237669825554, 0.06732997298240662, 0.025101926177740097, -0.11366226524114609]], [[0.05083218961954117, -0.018256496638059616, 0.09902263432741165, 0.03632749989628792, 0.02802719548344612], [-0.0241379551589489, -0.022379111498594284, 0.013908077962696552, 0.004882540553808212, -0.07690221071243286], [-0.07277139276266098, 0.1126873642206192, -0.08654730021953583, -0.0931142196059227, -0.07460703700780869], [0.005595850292593241, -0.022576669231057167, 0.002606722991913557, -0.016156122088432312, 0.03181259706616402], [-0.011025018990039825, 0.0049960012547671795, -0.03996574878692627, -0.0810420885682106, 0.05433781072497368]], [[-0.025557784363627434, 0.023899145424365997, -0.07801447063684464, -0.06284786760807037, -0.08079934120178223], [-0.05573693662881851, 0.08692174404859543, -0.06394514441490173, -0.06815875321626663, 0.0365530364215374], [0.031093180179595947, -0.05776664614677429, 0.024838753044605255, -0.042865440249443054, 0.06748222559690475], [0.06985761970281601, -0.10217467695474625, -0.04869576543569565, -0.05422787368297577, 0.04376751929521561], [-0.023968933150172234, -0.07198704779148102, 0.033234067261219025, 0.023108692839741707, -0.06610013544559479]], [[-0.09713198989629745, 0.04612874612212181, 0.09377006441354752, -0.06756699830293655, 0.040364231914281845], [-0.0842047706246376, 0.06265230476856232, 0.09028102457523346, 0.11914755403995514, 0.14652420580387115], [-0.020107364282011986, 0.038145385682582855, 0.009425458498299122, -0.07764697074890137, -0.0021882320288568735], [0.07477745413780212, -0.017022527754306793, -0.08690359443426132, 0.06828451156616211, -0.03761640563607216], [0.10584553331136703, -0.003999783657491207, -0.061265915632247925, 0.1045972928404808, 0.09310071170330048]], [[-0.03187394514679909, 0.01538070384413004, 0.10209367424249649, 0.029882315546274185, 0.07064355909824371], [0.07749292999505997, 0.08071114122867584, 0.029697153717279434, 0.07125610113143921, -0.00902570877224207], [0.13123218715190887, 0.1761387437582016, 0.07763075083494186, -0.14368212223052979, -0.08888538926839828], [0.029475919902324677, 0.024412458762526512, 0.06925809383392334, -0.1827307790517807, -0.10404796153306961], [0.021675456315279007, 0.052923910319805145, -0.0495598167181015, -0.03769708797335625, 0.040177349001169205]]], [[[0.15543988347053528, 0.02582111582159996, 0.19797229766845703, 0.0033916758839040995, -0.02303851954638958], [-0.07580887526273727, -0.06757034361362457, -0.0075954049825668335, -0.07536111772060394, -0.019714513793587685], [-0.16224297881126404, -0.14340908825397491, -0.11098574846982956, -0.042549245059490204, -0.1016804650425911], [0.001834214199334383, -0.02824477292597294, 0.016376851126551628, -0.006153945345431566, -0.04503685608506203], [0.05480354651808739, 0.06782972812652588, 0.06786423176527023, 0.03594045713543892, 0.0501517616212368]], [[0.046777673065662384, 0.10643618553876877, 0.02665896713733673, -0.036641765385866165, -0.01125970296561718], [0.14216230809688568, 0.11408145725727081, 0.17446866631507874, 0.1377495974302292, 0.12724636495113373], [0.05277402326464653, 0.028866322711110115, -0.015862245112657547, 0.06085843965411186, -0.014910521917045116], [-0.17187494039535522, -0.19832780957221985, -0.12414928525686264, -0.16067290306091309, -0.11572764813899994], [-0.10711099952459335, -0.029327986761927605, -0.026774905622005463, -0.09822499752044678, -0.05734298750758171]], [[0.09997092187404633, -0.010585744865238667, 0.1521882265806198, 0.09698205441236496, 0.01689859852194786], [0.1012653112411499, -0.07281515002250671, 0.1131640076637268, -0.018784906715154648, 0.06870226562023163], [-0.07227852940559387, -0.1111011728644371, -0.12533001601696014, -0.1066085621714592, -0.0923561304807663], [-0.10575785487890244, -0.13800320029258728, -0.08171211183071136, 0.030864300206303596, 0.03224152326583862], [-0.07414811849594116, -0.06543654948472977, -0.08512137830257416, 0.0836869478225708, 0.034695226699113846]], [[0.07389608025550842, -0.045843806117773056, 0.0038342857733368874, 0.11809535324573517, 0.11422113329172134], [-0.002300690859556198, -0.029483037069439888, -0.07464145123958588, -0.030793407931923866, 0.019033508375287056], [-0.020753417164087296, 0.03864065557718277, -0.027280351147055626, -0.08745991438627243, 0.07829306274652481], [-0.07130032032728195, -0.023915210738778114, -0.08986417204141617, 0.03773665428161621, -0.09705407172441483], [0.004874831065535545, 0.03313631936907768, -0.01579890586435795, -0.08026693016290665, -0.08997916430234909]], [[-0.06142227724194527, 0.08898557722568512, 0.1020379588007927, 0.010268348269164562, 0.031746573746204376], [0.06802260875701904, -0.03174200281500816, 0.08570433408021927, -0.02281789854168892, 0.012862566858530045], [-0.08162344247102737, 0.009755141101777554, 0.03333107754588127, -0.061928510665893555, -0.0005169532378204167], [-0.07974931597709656, -0.11922872811555862, -0.06305629014968872, -0.08217698335647583, -0.013410692103207111], [-0.052286457270383835, 0.02018793113529682, -0.082146055996418, -0.09838801622390747, -0.07327186316251755]], [[0.18023079633712769, 0.2606302797794342, 0.15052367746829987, 0.14807091653347015, 0.18025237321853638], [0.03471531346440315, 0.056885771453380585, 0.051827091723680496, 0.15885421633720398, 0.04532869532704353], [-0.21739880740642548, -0.12772852182388306, -0.16417865455150604, -0.001949235680513084, -0.00959048606455326], [-0.09725604951381683, -0.02309648133814335, -0.13974088430404663, -0.048239633440971375, -0.1433694213628769], [-0.03791949898004532, 0.14408685266971588, 0.06343477219343185, -0.020486466586589813, -0.07746923714876175]]], [[[-0.10795976221561432, -0.08476589620113373, -0.04855931177735329, -0.07573019713163376, -0.054866623133420944], [0.11820731312036514, 0.11703121662139893, 0.04054006189107895, -0.07404664158821106, -0.005497470032423735], [-0.053378164768218994, 0.0985272079706192, -0.03157221898436546, 0.06334047019481659, 0.053964123129844666], [0.1055423766374588, -0.05838903412222862, 0.018693294376134872, -0.1003117635846138, 0.04218919575214386], [0.10966286808252335, 0.027182573452591896, -0.02268378995358944, 0.07834936678409576, -0.11622519791126251]], [[-0.114704430103302, -0.05233774706721306, 0.022606804966926575, 0.03159889578819275, -0.06121736019849777], [-0.045680347830057144, -0.11079574376344681, -0.037729546427726746, -0.151065856218338, -0.060233160853385925], [0.12836062908172607, 0.04235900565981865, 0.09555251896381378, -0.09483108669519424, -0.09818769991397858], [-0.03482319042086601, 0.15982846915721893, 0.09364330023527145, 0.11747860908508301, -0.03342422470450401], [0.09769812226295471, -0.08812471479177475, 0.00939200073480606, 0.09372743219137192, -0.03463395684957504]], [[-0.03281306102871895, -0.11565016955137253, -0.10170347988605499, -0.11187776178121567, 0.03242061659693718], [0.06209441274404526, 0.01174802053719759, 0.03433726727962494, -0.07917020469903946, 0.06896515935659409], [0.13794216513633728, 0.1547500640153885, -0.054039884358644485, 0.04257050156593323, -0.05106579139828682], [0.07880505174398422, 0.018664706498384476, 0.006704198662191629, 0.07962039858102798, -0.051216885447502136], [-0.008318093605339527, -0.1117422878742218, -0.057247061282396317, 0.08412791043519974, 0.10541439801454544]], [[-0.04533737152814865, 0.026336558163166046, 0.010677611455321312, -0.024833569303154945, -0.06317787617444992], [0.07664104551076889, 0.0703415796160698, 0.07864834368228912, -0.04117731750011444, -0.08430545032024384], [0.06791715323925018, -0.06309916824102402, -0.0720459595322609, 0.1192905604839325, -0.045636098831892014], [0.07054737210273743, -0.02317003533244133, 0.01896768808364868, -0.035452473908662796, 0.025099869817495346], [-0.01234592217952013, -0.09172472357749939, 0.029896659776568413, -0.07724978029727936, -0.031914208084344864]], [[-0.05416799336671829, 0.017117328941822052, -0.024827828630805016, -0.08736149966716766, 0.031635597348213196], [-0.1061338484287262, -0.10384108126163483, 0.03552713990211487, -0.07995303720235825, -0.024108678102493286], [0.1180519238114357, -0.03652908653020859, -0.026558129116892815, -0.014771325513720512, 0.06082660332322121], [0.011369268409907818, 0.04355326294898987, 0.0900479257106781, 0.011662576347589493, -0.012352272868156433], [0.1012149304151535, -0.05936572700738907, -0.09685283899307251, 0.080849789083004, 0.012401403859257698]], [[-0.13655509054660797, -0.029106317088007927, -0.23079468309879303, -0.15716464817523956, -0.1069578006863594], [0.11198297142982483, -0.08611512184143066, -0.02738454006612301, -0.0003706449642777443, 0.061479225754737854], [0.07733091711997986, 0.07682370394468307, 0.19003072381019592, 0.08479033410549164, 0.0938316136598587], [-0.025467628613114357, 0.11711601912975311, 0.07592093199491501, -0.011617802083492279, -0.008841380476951599], [0.058855898678302765, 0.054148100316524506, -0.07603494077920914, -0.061394404619932175, 0.06778127700090408]]], [[[-0.03300497308373451, 0.012653722427785397, -0.006055870093405247, 0.11336345970630646, 0.01919904164969921], [0.0994826927781105, 0.0745512917637825, 0.05104592815041542, -0.07003592699766159, 0.06684918701648712], [0.09716540575027466, 0.0637868344783783, 0.007527615875005722, 0.0731273666024208, 0.1060343012213707], [-0.04728155955672264, 0.004976251162588596, 0.039390549063682556, 0.10781043767929077, 0.04729168117046356], [0.06981828063726425, 0.018192898482084274, 0.053128890693187714, 0.07114962488412857, -0.09599317610263824]], [[-0.051395971328020096, -0.023181181401014328, -0.10509892553091049, -0.06737500429153442, -0.00501960888504982], [-0.048165954649448395, -0.06336863338947296, -0.01343111414462328, 0.10003840178251266, 0.04965914785861969], [-0.04319945350289345, -0.07649560272693634, -0.03145900368690491, 0.05778612568974495, -0.10052423924207687], [0.09952858835458755, -0.03231855854392052, -0.007804038934409618, -0.0747319906949997, 0.08103851228952408], [-0.04348842054605484, 0.055385150015354156, 0.02686113305389881, 0.030556734651327133, 0.024604426696896553]], [[-0.00843859277665615, 0.05138456076383591, -0.06057562306523323, 0.021529298275709152, 0.028761358931660652], [0.11347891390323639, 0.0731547474861145, -0.03649486228823662, 0.0643000677227974, 0.09123588353395462], [0.07651820033788681, -0.061539001762866974, 0.10513107478618622, 0.03585760295391083, 0.01555721741169691], [-0.07392796128988266, -0.049772992730140686, -0.05467578396201134, -0.0808824747800827, -0.07622525840997696], [-0.04181770980358124, 0.045609746128320694, -0.07715501636266708, 0.04991498589515686, 0.018856560811400414]], [[0.0558403842151165, 0.11870597302913666, -0.0397922620177269, 0.08141227811574936, -0.03513242304325104], [-0.07794573903083801, 0.08741153031587601, 0.04885471239686012, 0.0668148547410965, 0.05171959847211838], [0.019784243777394295, 0.033587392419576645, 0.05680883675813675, 0.0357341505587101, 0.052699144929647446], [0.04607142135500908, -0.06020953506231308, 0.0913335531949997, -0.07737914472818375, -0.08486635982990265], [-0.007431325502693653, 0.03239838033914566, -0.04887346550822258, -0.10271220654249191, 0.06819268316030502]], [[0.061406414955854416, 0.0002465934958308935, 0.058575212955474854, 0.024358831346035004, -0.052008550614118576], [-0.03612634539604187, 0.020856335759162903, -0.04161607101559639, 0.09887980669736862, 0.06308745592832565], [0.010879702866077423, -0.0642659142613411, 0.06472483277320862, 0.008370351046323776, 0.10569167137145996], [0.08598683029413223, -0.06391911208629608, -0.07219206541776657, -0.06013103574514389, -0.08371890336275101], [0.1044408529996872, 0.08481277525424957, -0.051986370235681534, -0.08500286936759949, 0.0498642735183239]], [[0.07716751098632812, 0.06267258524894714, 0.17826832830905914, 0.18743561208248138, 0.08535699546337128], [0.09003660082817078, 0.018843578174710274, 0.035318247973918915, -0.07681173086166382, 0.10970670729875565], [-0.007004169747233391, 0.039062559604644775, -0.10255812853574753, -0.12015974521636963, 0.032342568039894104], [-0.012936894781887531, -0.1646440476179123, -0.13131357729434967, -0.12900099158287048, 0.05285567045211792], [-0.048022396862506866, -0.034598421305418015, -0.05251637101173401, 0.04203557223081589, 0.1289486140012741]]], [[[-0.01715993508696556, 0.0025066041853278875, -0.09440064430236816, -0.050526391714811325, 0.011339891701936722], [0.04781925678253174, -0.05144015699625015, -0.07467526197433472, 0.04131443798542023, 0.03775359317660332], [0.01811949349939823, 0.10549891740083694, 0.14721864461898804, 0.10562846809625626, 0.03190762177109718], [-0.035060107707977295, 0.048350583761930466, 0.07188762724399567, 0.12896305322647095, -0.043512482196092606], [-0.03196411207318306, 0.06851892173290253, -0.07500477880239487, -0.07054723054170609, 0.07483108341693878]], [[-0.05607364699244499, -0.06278393417596817, 0.14193591475486755, -0.05658411607146263, 0.06563370674848557], [0.019815389066934586, -0.15543080866336823, -0.1637376844882965, -0.03455087170004845, -0.1568606197834015], [-0.04389883950352669, -0.022149814292788506, -0.0006660593207925558, -0.020347293466329575, -0.13853813707828522], [0.12056832760572433, 0.14096415042877197, 0.018200911581516266, 0.05518312007188797, 0.05799706652760506], [0.02622411958873272, 0.1000174954533577, 0.10015656799077988, 0.05664130300283432, 0.08835572749376297]], [[-0.0393170565366745, -0.06121823191642761, -0.04907076433300972, 0.08089636266231537, 0.011493944562971592], [0.028013547882437706, -0.1335473656654358, -0.07696940004825592, -0.13791966438293457, -0.0734613686800003], [0.12693612277507782, 0.035090044140815735, 0.12322879582643509, 0.02979930117726326, -0.11004996299743652], [0.0979616567492485, 0.0986485481262207, 0.005757851060479879, 0.09443012624979019, 0.09759001433849335], [-0.08378578722476959, -0.01780131086707115, 0.042868394404649734, 0.07662485539913177, -0.09746687859296799]], [[-0.04428587481379509, -0.07909992337226868, -0.004710811655968428, -0.1047753319144249, -0.1078910082578659], [0.08751489222049713, 0.011986889876425266, -0.0027147990185767412, -0.07564651221036911, -0.07425323128700256], [0.019312934949994087, 0.009968520142138004, -0.02467941679060459, 0.05126941576600075, 0.041654083877801895], [0.005102887749671936, -0.0192769356071949, -0.06725723296403885, 0.025943342596292496, -0.05351720377802849], [0.07942725718021393, -0.07332054525613785, -0.07808958739042282, -0.06935016065835953, 0.11873088777065277]], [[-0.09297579526901245, 0.00982932560145855, 0.10382678359746933, 0.05111297592520714, 0.10346578806638718], [-0.017766959965229034, -0.09230207651853561, 0.005752895027399063, 0.013230498880147934, 0.0011995333479717374], [0.06125090271234512, -0.06754095107316971, 0.040689270943403244, -0.04476200044155121, 0.045357994735240936], [0.07854590564966202, 0.0037175973411649466, -0.04894501715898514, -0.024030521512031555, 0.007183418143540621], [0.06028459966182709, 0.12609924376010895, 0.08390271663665771, -0.04000202938914299, 0.10428250581026077]], [[0.012131448835134506, -0.09419763088226318, -0.15645718574523926, -0.08226056396961212, -0.0734964981675148], [0.010970824398100376, -0.20515060424804688, -0.17781293392181396, -0.22529050707817078, -0.010530409403145313], [0.0723622590303421, 0.14182694256305695, 0.09114095568656921, 0.1637672632932663, 0.019422806799411774], [0.13498413562774658, 0.2285763919353485, 0.20693182945251465, 0.20576457679271698, 0.17673279345035553], [-0.1269991397857666, -0.058637835085392, -0.07800347357988358, -0.035532448440790176, -0.1043325886130333]]], [[[0.10254140198230743, -0.05777566879987717, -0.08985496312379837, -0.020347140729427338, -0.09206071496009827], [-0.027020268142223358, -0.04387950897216797, -0.006113337818533182, 0.029743079096078873, 0.05560389533638954], [-0.04217951372265816, -0.0895090252161026, 0.04779903590679169, 0.13421475887298584, 0.14934001863002777], [0.09114132821559906, -0.011263739317655563, 0.12503038346767426, 0.09725464135408401, 0.0015587834641337395], [0.003036061068996787, 0.10591641813516617, -0.06510522216558456, 0.07922442257404327, -0.07245185226202011]], [[0.08835732936859131, 0.017382631078362465, 0.0627143532037735, 0.03737321123480797, -0.06835798174142838], [0.008524998091161251, 0.05215775594115257, -0.09059534966945648, 0.011588691733777523, -0.12842155992984772], [-0.0629071518778801, -0.1550789177417755, -0.07432878017425537, -0.08780426532030106, -0.0002532343496568501], [0.0498003251850605, -0.09900285303592682, -0.006548620760440826, 0.0445408970117569, 0.0982619971036911], [0.08759333938360214, 0.012530017644166946, 0.06055314838886261, 0.0368347242474556, 0.0380048006772995]], [[0.07015663385391235, 0.07058785855770111, 0.09008743613958359, -0.058605752885341644, -0.09816289693117142], [-0.0578983798623085, -0.056957293301820755, -0.055434584617614746, -0.12607355415821075, -0.14104442298412323], [-0.0025478280149400234, -0.07744859158992767, -0.1142386719584465, -0.027135174721479416, -0.10552727431058884], [0.03926646336913109, -0.02421695552766323, 0.06969721615314484, -0.0855516642332077, 0.07727577537298203], [-0.036636557430028915, 0.03442889079451561, -0.08225593715906143, -0.06184558570384979, -0.0902482271194458]], [[0.04683787748217583, 0.04221191629767418, 0.10417239367961884, -0.0844087153673172, -0.08618004620075226], [0.09543916583061218, -0.11164851486682892, 0.06042832136154175, -0.08673938363790512, 0.010169281624257565], [-0.011332171969115734, 0.04227602109313011, -0.08164115995168686, -0.00604897690936923, -0.015468127094209194], [-0.074660524725914, 0.11109963059425354, 0.009976592846214771, 0.11606825143098831, 0.09163103252649307], [0.00786379911005497, -0.06493285298347473, -0.05408293753862381, 0.021486397832632065, 0.01721319369971752]], [[-0.06855303794145584, 0.042685482650995255, 0.11870435625314713, 0.051198605448007584, -0.029678000137209892], [0.031150521710515022, 0.043284911662340164, 0.14551377296447754, 0.04121196269989014, -0.034699492156505585], [0.07857831567525864, -0.07445670664310455, 0.04922141879796982, -0.06897291541099548, -0.08424444496631622], [0.08806288987398148, -0.03414275497198105, 0.029837314039468765, -0.08440781384706497, -0.04257078841328621], [-0.004344204906374216, 0.053636979311704636, 0.10689651966094971, -0.03481220453977585, 0.049833349883556366]], [[-0.020178979262709618, 0.15716414153575897, 0.15978731215000153, -0.1045745387673378, -0.11858559399843216], [-0.11949706822633743, -0.09403272718191147, -0.24071480333805084, -0.10063715279102325, 0.021280284970998764], [0.022939780727028847, -0.14478890597820282, -0.21040606498718262, -0.027596401050686836, 0.022343648597598076], [0.06801453977823257, 0.061509739607572556, 0.12171807140111923, 0.18854200839996338, 0.15149305760860443], [0.08319749683141708, 0.18430055677890778, 0.13789008557796478, 0.09993906319141388, 0.06936654448509216]]], [[[0.018722832202911377, 0.12079193443059921, -0.020835217088460922, -0.07557113468647003, -0.001712804427370429], [-0.0038403174839913845, 0.02352513000369072, -0.06020032986998558, 0.10077668726444244, 0.09496665000915527], [-0.014814402908086777, 0.016736874356865883, -0.05392318591475487, 0.10385236889123917, 0.11090321093797684], [-0.02767433412373066, 0.018020227551460266, 0.014412783086299896, 0.06316415220499039, -0.06439509242773056], [-0.027960697188973427, -0.09610932320356369, -0.031924210488796234, 0.050485286861658096, -0.07619767636060715]], [[-0.04891952499747276, -0.009232791140675545, -0.07951682806015015, -0.09041766822338104, -0.1647317111492157], [-0.07921009510755539, -0.06958877295255661, 0.06338907778263092, -0.07378221303224564, -0.1337515413761139], [0.023320699110627174, 0.03735771030187607, 0.14558838307857513, 0.1600358635187149, 0.1321452111005783], [-0.08416914939880371, -0.061828408390283585, 0.019081639125943184, 0.013809606432914734, 0.04460664838552475], [-0.0680965781211853, 0.07397931814193726, 0.012376142665743828, -0.006553618237376213, -0.1545965075492859]], [[-0.07665742188692093, 0.10648633539676666, 0.06030319258570671, 0.04028502106666565, -0.08241148293018341], [0.04328959807753563, -0.011538194492459297, -0.05122799798846245, 0.031351905316114426, -0.016681186854839325], [-0.11549154669046402, -0.08052591234445572, -0.005585657898336649, 0.019264910370111465, 0.1415245085954666], [-0.02729775942862034, 0.04199424386024475, -0.06938396394252777, -0.059795599430799484, 0.01034604199230671], [-0.013356480747461319, 0.020946122705936432, 0.028569091111421585, 0.03309018164873123, -0.01921631023287773]], [[0.06678810715675354, 0.035009901970624924, 0.08365723490715027, -0.0057107992470264435, 0.011130868457257748], [0.06466079503297806, -0.055496010929346085, 0.10789825022220612, -0.00203048437833786, 0.04906274378299713], [0.05342014133930206, -0.09261469542980194, 0.051156315952539444, -0.019859248772263527, -0.0403241291642189], [0.08553506433963776, -0.05015791952610016, -0.009178736247122288, 0.0209901574999094, 0.04765016585588455], [-0.038522325456142426, 0.008941943757236004, 0.10830210894346237, 0.1224433109164238, -0.08012811094522476]], [[-0.10067562013864517, 0.07682442665100098, -0.11557339876890182, 0.07386449724435806, 0.03723316639661789], [0.014231684617698193, -0.028397178277373314, -0.0014307295205071568, -0.05019238591194153, 0.09830871969461441], [-0.05268516391515732, 0.08719805628061295, 0.0842214897274971, -0.05378003790974617, 0.11875825375318527], [-0.07998672127723694, 0.0684097483754158, -0.0374230332672596, 0.13470356166362762, 0.16602931916713715], [0.0017751341219991446, 0.0002592673699837178, 0.06576661765575409, -0.06366655230522156, -0.045035235583782196]], [[0.050909120589494705, 0.030485039576888084, 0.09491249918937683, 0.029575111344456673, -0.029517117887735367], [0.141142338514328, -0.014176156371831894, 0.18301549553871155, 0.1858454942703247, 0.1301816701889038], [-0.07873250544071198, -0.036931559443473816, 0.026531485840678215, 0.07274062186479568, 0.1805512011051178], [0.012787824496626854, -0.0604068823158741, -0.18781444430351257, -0.18886099755764008, -0.008191130124032497], [-0.01945570297539234, 0.09092386811971664, 0.015005959197878838, -0.14970643818378448, -0.119883231818676]]], [[[-0.08147132396697998, 0.0354866124689579, -0.025852665305137634, -0.08058798313140869, 0.012149844318628311], [-0.035095684230327606, 0.07901737093925476, 0.008062854409217834, -0.03284352272748947, -0.05791650712490082], [0.01305785309523344, -0.02818390727043152, -0.08023273944854736, -0.019459383562207222, 0.04120061174035072], [0.03310286998748779, 0.06644171476364136, -0.0643644630908966, 0.020745767280459404, 0.08027888089418411], [-0.09832664579153061, -0.06103638559579849, -0.012280033901333809, 0.03792847692966461, -0.011641275137662888]], [[-0.1035308986902237, 0.041200943291187286, -0.08785095810890198, 0.07058674842119217, 0.06707155704498291], [0.0008742669015191495, 0.0782681554555893, 0.08550649136304855, 0.050182703882455826, 0.06806758791208267], [0.03534851223230362, 0.01498816441744566, 0.0908617153763771, 0.0033199633471667767, 0.06242392957210541], [0.0530923530459404, 0.06808633357286453, -0.021503794938325882, -0.02508801408112049, 0.10055742412805557], [0.03991080820560455, 0.06774172931909561, 0.018890442326664925, -0.10722728818655014, -0.015424199402332306]], [[-0.06715913116931915, 0.0868542417883873, 0.0436357744038105, -0.06787579506635666, -0.08539944887161255], [-0.05064486339688301, -0.03535100445151329, 0.07188822329044342, -0.0029652677476406097, -0.06851249933242798], [0.016026418656110764, -0.044599439948797226, 0.05827884376049042, -0.04630369693040848, -0.09611599147319794], [-0.01300633791834116, 0.05920637026429176, 0.07864364981651306, -0.09731841087341309, -0.0328572653234005], [-0.06985738128423691, 0.01944638043642044, -0.017237650230526924, 0.04940161481499672, 0.060006462037563324]], [[0.02898920513689518, -0.03676023334264755, 0.03668389096856117, -0.09058648347854614, -0.03939172253012657], [-0.08121141046285629, -0.10935674607753754, 0.0036294437013566494, -0.04717600718140602, 0.08583266288042068], [-0.06919972598552704, -0.04686346277594566, -0.05006195604801178, 0.02405431680381298, -0.029004467651247978], [-0.05539637431502342, 0.08143890649080276, -0.08337943255901337, -0.06538081914186478, -0.013625480234622955], [0.03681369870901108, -0.04157442972064018, 0.0928838774561882, 0.06279458850622177, 0.03333066403865814]], [[-0.09767956286668777, -0.13095517456531525, 0.018096916377544403, -0.08525088429450989, -0.04232817515730858], [0.006901580840349197, -0.08047214150428772, 0.049501121044158936, -0.08905927836894989, -0.009847588837146759], [0.010676675476133823, -0.037937212735414505, 0.06171833351254463, -0.08380880206823349, -0.12186546623706818], [0.016702745109796524, -0.035806477069854736, -0.004505110904574394, -0.11140578985214233, -0.01542948093265295], [-0.047178223729133606, -0.03905430808663368, 0.025146575644612312, 0.08684518188238144, -0.08242298662662506]], [[-0.002105830470100045, 0.11395131051540375, 0.1264941543340683, 0.06946870684623718, -0.02484154887497425], [0.06797543913125992, 0.11035237461328506, -0.0475134439766407, -0.16831593215465546, 0.03228336200118065], [0.16413533687591553, 0.17759521305561066, -0.05692002922296524, -0.11527097970247269, 0.1054612398147583], [0.07258199900388718, 0.010262067429721355, -0.16487692296504974, -0.09615205973386765, 0.14182579517364502], [0.154730424284935, -0.055844251066446304, -0.1543763279914856, -0.02152974344789982, -0.021501237526535988]]], [[[0.027365824207663536, 0.08315417915582657, -0.01957961916923523, -0.06514791399240494, -0.05165650695562363], [0.07620861381292343, -0.10740549862384796, 0.03007536195218563, 0.016218610107898712, 0.044745735824108124], [0.1048392653465271, -0.028188487514853477, 0.06096595153212547, -0.01299643237143755, -0.06914331018924713], [0.03561985120177269, 0.06867580860853195, -0.04012034088373184, 0.06214633584022522, -0.10133156180381775], [0.011828082613646984, 0.10303957760334015, 0.05555529147386551, -0.055793434381484985, 0.06569312512874603]], [[0.05770803987979889, 0.03849325701594353, 0.00253025209531188, -0.018811266869306564, 0.0354049950838089], [0.06728019565343857, 0.12292421609163284, 0.06638219207525253, 0.06552504003047943, 0.07598163932561874], [0.15372183918952942, 0.07502911984920502, -0.06622746586799622, 0.0007306161569431424, 0.0464116707444191], [0.08964460343122482, 0.058967191725969315, -0.11846604943275452, 0.015095938928425312, -0.10394212603569031], [0.18193301558494568, 0.06739713996648788, 0.07878397405147552, -0.09292969107627869, 0.05314001441001892]], [[0.10103864967823029, 0.044743966311216354, -0.02560747042298317, -0.10955928266048431, 0.08784166723489761], [0.022625306621193886, 0.01071375422179699, -0.10049265623092651, 0.05131646245718002, -0.1294003576040268], [0.16695274412631989, 0.042377229779958725, -0.00958387553691864, -0.04870634898543358, -0.039486657828092575], [0.13607679307460785, 0.012383293360471725, -0.014072309248149395, -0.01823783479630947, -0.044821713119745255], [0.016987184062600136, 0.09183444827795029, -0.028060147538781166, -0.09742902219295502, -0.08159603178501129]], [[-0.03437797352671623, -0.014178955927491188, 0.004596990533173084, -0.10287110507488251, -0.1042514517903328], [-0.024292171001434326, 0.04627341032028198, -0.022541813552379608, -0.08349215239286423, -0.056595202535390854], [0.06016762927174568, -0.09704595804214478, -0.09947941452264786, 0.04508877918124199, -0.055223774164915085], [-0.034515026956796646, -0.09982693195343018, 0.07860411703586578, 0.039756376296281815, -0.04360698536038399], [0.08414154499769211, 0.05017813295125961, 0.058539979159832, -0.01225514430552721, -0.08035529404878616]], [[-0.08929180353879929, -0.10898664593696594, 0.032374896109104156, -0.04496577009558678, 0.09478207677602768], [-0.08046257495880127, -0.11735814064741135, 0.06557381898164749, 0.03505118563771248, -0.003517529461532831], [0.06271190941333771, -0.06693241745233536, 0.03986724093556404, -0.04970800504088402, -0.0606570802628994], [-0.05261610075831413, -0.12890668213367462, -0.049956582486629486, 0.022845221683382988, -0.07909011840820312], [-0.11294086277484894, -0.03146004676818848, -0.017987187951803207, 0.01983071118593216, -0.052981678396463394]], [[0.1367376148700714, 0.12679673731327057, -0.08774876594543457, 0.013284698128700256, 0.04524468630552292], [0.08799494057893753, 0.09030307084321976, -0.18136657774448395, -0.19356489181518555, -0.10990561544895172], [0.2253822535276413, 0.011714993976056576, -0.13625359535217285, -0.082966648042202, -0.1448245793581009], [0.14162975549697876, -0.06785307079553604, -0.03316761553287506, -0.10840717703104019, 0.01693788170814514], [0.04965203255414963, -0.011755518615245819, -0.133796826004982, 0.06201963871717453, -0.05464513227343559]]], [[[0.004561675246804953, -0.0023920657113194466, -0.020544782280921936, -0.03352729603648186, 0.05315918102860451], [0.044389013200998306, 0.01132027804851532, 0.0762099027633667, 0.07344019412994385, -0.08297818154096603], [0.16976557672023773, 0.17061734199523926, -0.014170803129673004, 0.041514940559864044, 0.0217994824051857], [0.05017169192433357, 0.11464273929595947, 0.10513810068368912, 0.16023461520671844, 0.010791398584842682], [0.04340726509690285, -0.06955516338348389, 0.022708822041749954, 0.04083394631743431, -0.015968935564160347]], [[0.0027994648553431034, -0.13542421162128448, -0.046185098588466644, -0.011506346054375172, 0.08141588419675827], [-0.03855615481734276, -0.09617684036493301, -0.09663544595241547, 0.01112405676394701, -0.020222319290041924], [0.038985803723335266, -0.05091729015111923, 0.09919777512550354, -0.03700104355812073, 0.03437567874789238], [0.016697827726602554, 0.048109833151102066, 0.014343449845910072, 0.1403435319662094, 0.09560304135084152], [-0.10726302117109299, 0.016687555238604546, -0.054990220814943314, 0.0018780758837237954, 0.11967238038778305]], [[-0.10031181573867798, -0.03656771034002304, -0.11020853370428085, -0.08895047754049301, 0.1017298549413681], [0.08564827591180801, 0.011420506983995438, -0.0851363092660904, -0.05706105753779411, 0.009697257541120052], [0.1396326720714569, 0.08693625032901764, -0.030701877549290657, 0.0397011935710907, 0.09054223448038101], [0.1256832629442215, 0.057724274694919586, 0.14883698523044586, 0.1191636323928833, 0.05008753389120102], [-0.10968520492315292, 0.0416974201798439, -0.11275643110275269, -0.012856338173151016, 0.09246066957712173]], [[-0.00922891404479742, -0.01990358717739582, 0.048888273537158966, -0.10686726123094559, -0.017369093373417854], [0.12460421770811081, 0.07809710502624512, -0.007410121150314808, -0.02523818612098694, 0.04577193036675453], [0.054629456251859665, 0.08612685650587082, 0.08281607925891876, 0.06771484017372131, 0.02508474886417389], [-0.004554675426334143, 0.013444853015244007, 0.0989614948630333, -0.03771888464689255, 0.027332033962011337], [-0.03907928988337517, 0.0937075987458229, 0.032275956124067307, 0.00022494893346447498, -0.023497488349676132]], [[0.09105317294597626, 0.08532257378101349, 0.012090926989912987, 0.07002181559801102, -0.09082835912704468], [0.03702504187822342, -0.07002083957195282, -0.06482186913490295, -0.05950632691383362, 0.11176390200853348], [0.06950844824314117, -0.057619087398052216, 0.10390333086252213, -0.08299899101257324, 0.010033118538558483], [-0.030186697840690613, -0.015042012557387352, 0.0808653011918068, 0.0807369127869606, -0.11670218408107758], [-0.015273572877049446, 0.07255049794912338, 0.13243182003498077, -0.0036974181421101093, 0.06131156161427498]], [[-0.022565465420484543, -0.06696871668100357, -0.07779418677091599, 0.11329284310340881, 0.05199352651834488], [0.08873770385980606, 0.04627617076039314, 0.08421225100755692, 0.0709955096244812, -0.138620525598526], [0.015377569012343884, 0.10583746433258057, 0.14469166100025177, 0.027838824316859245, -0.1954808533191681], [0.08049824833869934, 0.09570611268281937, 0.1415303498506546, 0.1378110945224762, 0.09360592812299728], [-0.2805924713611603, -0.0878690630197525, -0.015130872838199139, -0.008512444794178009, 0.07453698664903641]]], [[[-0.09357522428035736, -0.11036544293165207, 0.0017692429246380925, -0.09021127969026566, 0.0693887323141098], [0.08025074005126953, -0.08287589997053146, -0.0661492571234703, 0.033766958862543106, 0.02578815259039402], [-0.07504375278949738, -0.03562641516327858, -0.04552394151687622, 0.028729740530252457, 0.11605628579854965], [-0.05016349256038666, 0.002130007604137063, 0.1055409386754036, 0.07554954290390015, 0.0332021526992321], [-0.02619779482483864, 0.040933866053819656, 0.0931074470281601, 0.005578488577157259, -0.04676394909620285]], [[-0.12293670326471329, -0.07350316643714905, -0.08179183304309845, 0.010763252153992653, -0.07928740233182907], [-0.05726676061749458, 0.008019472472369671, 0.0028822128660976887, -0.07041536271572113, 0.06517348438501358], [0.11500784754753113, 0.09763063490390778, 0.0037909499369561672, -0.05595951899886131, -0.024771694093942642], [-0.033794574439525604, 0.012130406685173512, -0.10554914176464081, 0.08367131650447845, 0.0676618367433548], [-0.025585660710930824, 0.06333214789628983, 0.05369338393211365, 0.06964989006519318, 0.13386572897434235]], [[-0.06527142226696014, -0.06822922825813293, 0.01853782683610916, -0.07265512645244598, 0.013310736045241356], [0.02008787915110588, 0.10518235713243484, 0.010982019826769829, -0.05142208933830261, 0.03500812128186226], [0.03611510992050171, 0.10270442068576813, 0.08749693632125854, -0.005420282948762178, 0.08882194757461548], [0.11251475661993027, -0.005068595986813307, -0.06792674213647842, -0.031065184623003006, 0.08999039977788925], [0.07738468050956726, 0.017271850258111954, 0.02886728197336197, -0.04994380101561546, 0.0008109407499432564]], [[0.02566327527165413, 0.03874737024307251, -0.035472385585308075, 0.07895684242248535, 0.07204484194517136], [0.08568567782640457, 0.02183149941265583, -0.0769433006644249, -0.04771976172924042, -0.10531968623399734], [0.055540166795253754, -0.007640945725142956, 0.0317775197327137, -0.004825802985578775, -0.042980361729860306], [-0.08822838962078094, 0.0181132685393095, 0.015512785874307156, 0.034068141132593155, -0.0023062133695930243], [0.009743237867951393, -0.023037593811750412, 0.08867356181144714, -0.05442795902490616, -0.0038425615057349205]], [[0.06713668256998062, -0.01632867567241192, -0.07009956240653992, -0.06563835591077805, 0.0004661763086915016], [-0.09700647741556168, 0.026290180161595345, -0.064500592648983, 0.06235533952713013, -0.05696338415145874], [-0.10254619270563126, -0.027805790305137634, 0.0009407062898389995, -0.050093021243810654, -0.15997673571109772], [0.0692799985408783, -0.012754566967487335, -0.04663180559873581, -0.060696378350257874, -0.04953128099441528], [-0.0748935341835022, 0.04953167960047722, -0.018149985000491142, -0.13877807557582855, -0.033818796277046204]], [[-0.017560120671987534, -0.12533915042877197, -0.143495112657547, -0.18534888327121735, -0.1292179822921753], [0.1248011514544487, -0.036507025361061096, -0.04347383230924606, -0.10191305726766586, 0.10356834530830383], [0.056949272751808167, -0.05069182068109512, -0.12328433245420456, 0.01535676047205925, 0.07181129604578018], [0.03586018085479736, -0.06974495202302933, 0.0006787943420931697, 0.20332397520542145, 0.2139134258031845], [-0.11631117016077042, -0.07065052539110184, 0.20066672563552856, 0.15628774464130402, 0.09072019159793854]]], [[[-0.0789390504360199, 0.039906471967697144, 0.10112212598323822, -0.037259913980960846, 0.010461749508976936], [0.006948456633836031, -0.0334906280040741, 0.017102092504501343, 0.05307656154036522, 0.050893280655145645], [-0.06583984196186066, -0.039164453744888306, 0.10454010218381882, 0.0953422337770462, 0.07664076238870621], [-0.05833804979920387, 0.029700668528676033, 0.013617759570479393, 0.028724636882543564, 0.11754307895898819], [-0.11547672748565674, 0.09726957231760025, -0.09885426610708237, -0.08922107517719269, -0.10662489384412766]], [[-0.034113191068172455, 0.10230939090251923, -0.07008714228868484, 0.1293776035308838, -0.12070134282112122], [0.05332896113395691, 0.08400031924247742, 0.13939796388149261, 0.11490729451179504, -0.07051317393779755], [0.049783725291490555, -0.06929372251033783, 0.10099828243255615, -0.01586664840579033, 0.03879166021943092], [0.07131505757570267, -0.09092209488153458, -0.03450075536966324, 0.14674173295497894, -0.006479648407548666], [-0.04641915485262871, 0.004207063000649214, 0.06156078353524208, 0.12221480906009674, 0.057054128497838974]], [[0.0014669981319457293, 0.00886504352092743, 0.04754050821065903, 0.10765340924263, -0.07130452990531921], [-0.003198398044332862, 0.04156167060136795, 0.0696890652179718, 0.0837935283780098, 0.04506521299481392], [-0.055292967706918716, -0.132383793592453, 0.04158494248986244, 0.11456555128097534, -0.010527174919843674], [0.053404003381729126, -0.05169185623526573, -0.10993574559688568, 0.14288634061813354, 0.1369253247976303], [-0.04356272518634796, -0.07843255251646042, -0.1029851958155632, -0.020919732749462128, 0.04000386223196983]], [[0.09142614156007767, 0.07287975400686264, 0.05192427337169647, 0.10772275179624557, 0.050045035779476166], [-0.10398995876312256, -0.02140694297850132, -0.0054094730876386166, -0.0018972238758578897, -0.07299485057592392], [-0.041295021772384644, -0.0989031046628952, -0.04958619922399521, 0.05586665868759155, 0.09923183917999268], [0.09789590537548065, 0.0012643566587939858, -0.03998271003365517, 0.016071252524852753, -0.07193569093942642], [0.03982803598046303, -0.07160144299268723, 0.08849818259477615, 0.06413819640874863, 0.002925220876932144]], [[0.025175705552101135, 0.004745360929518938, 0.08106350898742676, 0.0022099411580711603, 0.05499592423439026], [-0.07702658325433731, -0.04156634584069252, -0.08326969295740128, 0.03316314145922661, -0.02016555890440941], [-0.031848303973674774, -0.052396442741155624, 0.13147184252738953, 0.08861123770475388, -0.12212219089269638], [-0.03226908668875694, -0.02313239686191082, -0.03241470828652382, -0.04776309058070183, 0.07254533469676971], [0.04054337739944458, -0.10687188059091568, -0.04091396927833557, -0.06951736658811569, 0.06196204945445061]], [[-0.03873058035969734, -0.01212636660784483, 0.07400878518819809, 0.04499403014779091, -0.15690435469150543], [-0.14156998693943024, -0.03537669777870178, 0.13622157275676727, 0.05321945250034332, -0.09203494340181351], [-0.09727517515420914, -0.14517192542552948, 0.11613920331001282, 0.18993087112903595, 0.05424392223358154], [0.03980499505996704, -0.09873194247484207, -0.05841607600450516, 0.12143559753894806, 0.015070057474076748], [-0.030339254066348076, -0.048635296523571014, 0.023700064048171043, 0.011517588049173355, -0.056032225489616394]]], [[[-0.08882679045200348, -0.07759866863489151, 0.014991370029747486, -0.0411437526345253, -0.024184562265872955], [-0.1093393862247467, -0.07106130570173264, -0.06300882995128632, 0.0029755232390016317, -0.09237505495548248], [-0.09301311522722244, -0.014434216544032097, -0.046114567667245865, 0.07593324780464172, -0.04812169820070267], [0.11761322617530823, 0.07253269851207733, -0.054406505078077316, 0.021889962255954742, 0.08071652054786682], [0.1492100954055786, 0.042159486562013626, 0.09303966909646988, 0.0005392108578234911, 0.0190745797008276]], [[-0.04667143523693085, -0.08747423440217972, 0.06894750893115997, -0.03898540511727333, 0.11754461377859116], [0.018233655020594597, -0.13190032541751862, 0.08609893918037415, -0.04755788296461105, -0.11848410218954086], [-0.029164310544729233, -0.025443799793720245, -0.018271585926413536, -0.12528234720230103, -0.12801173329353333], [0.02890169993042946, -0.08605638146400452, -0.0019409068627282977, 0.09350451827049255, 0.052520181983709335], [0.007734778802841902, -0.019461434334516525, 0.10392020642757416, -0.05025861784815788, -0.02832721173763275]], [[0.01170459296554327, -0.04573022946715355, -0.015309066511690617, 0.08085285127162933, 0.07963011413812637], [-0.0455087311565876, 0.035918939858675, -0.09034564346075058, -0.043439239263534546, -0.11212976276874542], [-0.10722766071557999, 0.0544605553150177, -0.08642706274986267, 0.041694678366184235, 0.005988941993564367], [-0.07728571444749832, 0.030480334535241127, -0.0005492065683938563, -0.07309609651565552, 0.018772967159748077], [-0.023453252390027046, 0.08096887171268463, 0.09534574300050735, 0.03197120502591133, -0.036472778767347336]], [[-0.04132382944226265, -0.055060140788555145, -0.06404056400060654, -0.007059632800519466, -0.07909022271633148], [0.03475970774888992, -0.04651372507214546, 0.04415587708353996, 0.03681778535246849, -0.08631735295057297], [0.09363801032304764, 0.015223436988890171, -0.0772651731967926, -0.03506312519311905, 0.021700633689761162], [-0.0983140766620636, -0.03300326690077782, 0.029360555112361908, 0.03081728331744671, -0.00743093341588974], [0.02376386895775795, -0.08550187945365906, -0.06168506667017937, 0.09737705439329147, 0.0297806765884161]], [[-0.07467112690210342, -0.030053019523620605, -0.029164070263504982, -0.09089100360870361, -0.031165912747383118], [-0.06439986824989319, -0.004185726400464773, 0.023654408752918243, 0.09909359365701675, 0.0949847474694252], [-0.024578113108873367, -0.014668461866676807, 0.049378711730241776, 0.07559245824813843, -0.06472843140363693], [-0.0224008671939373, -0.08774799853563309, 0.0037174334283918142, -0.07016833871603012, 0.01722954586148262], [-0.006071706768125296, 0.06925296783447266, 0.10574985295534134, 0.11127729713916779, 0.09105123579502106]], [[-0.1295129805803299, -0.05296424776315689, -0.06499053537845612, 0.09873838722705841, 0.02614930458366871], [-0.10430216789245605, -0.03376808390021324, -0.1586281657218933, -0.17914177477359772, -0.12273211777210236], [0.04475539177656174, 0.008799683302640915, -0.09304637461900711, 0.05085262283682823, 0.050371840596199036], [-0.004469709470868111, 0.008350202813744545, 0.1306336522102356, 0.151975616812706, 0.13501498103141785], [0.16344553232192993, 0.14809410274028778, -0.03630518168210983, 0.058468062430620193, 0.041530825197696686]]], [[[-0.09553064405918121, 0.06701994687318802, -0.016472546383738518, 0.008446522988379002, -0.008557016029953957], [-0.08749990165233612, -0.040763821452856064, 0.0427667573094368, -0.01995520293712616, 0.07179658114910126], [-0.008725443854928017, -0.09695947170257568, 0.008652132004499435, -0.07521086931228638, -0.08654952794313431], [-0.02240578643977642, 0.09482915699481964, 0.010773459449410439, 0.013312255032360554, -0.08255115896463394], [-0.0918138176202774, -0.06050798296928406, 0.02421133778989315, -0.022402627393603325, 0.063377246260643]], [[0.10516714304685593, -0.028354723006486893, 0.049305789172649384, -0.0701340064406395, 0.0131689989939332], [-0.07824128866195679, -0.0257884468883276, 0.03450476750731468, -0.04189186543226242, -0.07133562117815018], [0.07747539132833481, -0.00916945468634367, -0.059566862881183624, -0.0717279314994812, 0.047735054045915604], [-0.09880217164754868, 0.024709345772862434, -0.0944317951798439, 0.025717612355947495, -0.004713448695838451], [-0.036947473883628845, 0.08682622015476227, -0.03089640662074089, -0.04954788088798523, -0.02689683437347412]], [[0.03863530233502388, 0.007960602641105652, 0.05721040815114975, -0.07438138872385025, 0.04761669784784317], [-0.04354904219508171, 0.031392376869916916, -0.04386303201317787, 0.002949494868516922, 0.037972576916217804], [-0.06473207473754883, 0.013949836604297161, -0.0036509791389107704, -0.02682320773601532, -0.0008775431197136641], [0.00924195721745491, 0.09656696021556854, 0.025765983387827873, 0.0419674776494503, 0.005020833108574152], [-0.05640945956110954, 0.022054370492696762, -0.09421812742948532, 0.0638575330376625, -0.05703961104154587]], [[0.07950104027986526, -0.029939888045191765, 0.07688082009553909, -0.04228632152080536, 0.06061675772070885], [0.04854533076286316, 0.04843101650476456, 0.09486719965934753, 0.03599980100989342, 0.019926002249121666], [-0.06306537985801697, 0.06533155590295792, 0.09266740828752518, 0.08364541083574295, -0.0035100532695651054], [-0.06518352031707764, 0.06314487755298615, 0.03707017004489899, 0.04205452650785446, 0.08505197614431381], [0.026067396625876427, 0.1000698059797287, 0.039162568747997284, -0.07203838974237442, -0.10418616980314255]], [[0.0383172407746315, -0.07742080092430115, 0.0710495188832283, 0.006867428310215473, 0.06764158606529236], [0.08996757119894028, -0.09886197000741959, 0.06609535217285156, 0.09755976498126984, 0.08071834594011307], [-0.04327802732586861, -0.013543041422963142, -0.017675312235951424, -0.08849648386240005, 0.08998256921768188], [-0.08104114234447479, 0.05446549504995346, -0.04611711576581001, -0.06412845849990845, 0.02910415641963482], [0.09589388221502304, -0.01885630562901497, -0.005339081399142742, -0.0037845969200134277, -0.016211407259106636]], [[0.051668260246515274, -0.018244711682200432, -0.08544176816940308, 0.1251501590013504, 0.11124604940414429], [-0.030534477904438972, -0.07788979262113571, 0.01929892599582672, 0.08399072289466858, -0.05375959351658821], [-0.10435116291046143, -0.057897500693798065, -0.05716347321867943, -0.10732243210077286, -0.048304446041584015], [-0.06340163201093674, 0.05906114727258682, -0.09081225842237473, -0.07209552824497223, -0.06914399564266205], [-0.06215713918209076, 0.07395196706056595, -0.009858623147010803, -0.011614622548222542, -0.08028746396303177]]], [[[0.041193146258592606, -0.04509634152054787, 0.0637127012014389, 0.07561156153678894, -0.006198173854500055], [0.07099791616201401, -0.10016833990812302, 0.012610355392098427, 0.019931886345148087, -0.06549179553985596], [-0.10523298382759094, -0.01998249627649784, -0.004580186679959297, 0.12238775193691254, 0.04628508538007736], [-0.03978579118847847, -0.03245794028043747, 0.06577782332897186, -0.005676406901329756, 0.09494265168905258], [-0.07434286177158356, 0.022853728383779526, 0.03236515074968338, 0.05486917495727539, 0.02016214095056057]], [[-0.01961330510675907, -0.07493078708648682, -0.07354474812746048, 0.10436112433671951, -0.024448057636618614], [-0.10659267008304596, -0.03781421110033989, -0.08256122469902039, 0.05757617950439453, 0.08718002587556839], [-0.04593843221664429, 0.058846041560173035, -0.023144539445638657, 0.12420821189880371, 0.051277849823236465], [0.07271070033311844, -0.08333998918533325, -0.07377564162015915, 0.11296743154525757, 0.13700981438159943], [-0.1052020937204361, -0.1004352867603302, -0.03903919830918312, 0.053260911256074905, 0.08154671639204025]], [[-0.08062563091516495, -0.042090632021427155, -0.1250380277633667, -0.09115821868181229, -0.06250573694705963], [0.09573812037706375, 0.050969552248716354, -0.060213807970285416, -0.029003441333770752, 0.10467506945133209], [0.04769439250230789, -0.09398213028907776, -0.040263522416353226, 0.08566432446241379, 0.1678066998720169], [-0.0265065785497427, 0.022391287609934807, 0.03789486363530159, -0.0076009612530469894, 0.17745192348957062], [-0.0828501284122467, -0.04496251419186592, 0.006685367785394192, -0.13033688068389893, 0.032532885670661926]], [[-0.05622243881225586, -0.016524087637662888, -0.10101135820150375, -0.002485328819602728, -0.08432610332965851], [0.005477310158312321, 0.07420419901609421, 0.045715123414993286, 0.04641120508313179, -0.05640392005443573], [0.0024096982087939978, 0.01792539842426777, -0.11458342522382736, 0.05905505642294884, 0.10742246359586716], [-0.08076320588588715, -0.010394647717475891, 0.01604742370545864, -0.0062957038171589375, -0.014575676992535591], [0.022046437487006187, 0.059314925223588943, 0.0308615081012249, -0.021572455763816833, 0.005424310453236103]], [[0.028897153213620186, 0.08247204124927521, 0.11250510066747665, -0.04812844842672348, -0.004133882932364941], [-0.042249646037817, -0.011894017457962036, -0.04627440124750137, 0.034620556980371475, 0.07582166790962219], [0.0007712326478213072, 0.017564255744218826, 0.018864557147026062, -0.014272104017436504, -0.03885453939437866], [-0.0472787506878376, 0.04005046933889389, -0.0890282467007637, -0.03431491553783417, 0.02695196121931076], [-0.020125076174736023, 0.016581030562520027, -0.1171920895576477, 0.10801001638174057, 0.11059306561946869]], [[-0.13547217845916748, -0.13464751839637756, -0.03297685831785202, 0.09391815960407257, 0.13992804288864136], [-0.03041934221982956, -0.07688243687152863, 0.09326905012130737, 0.15001311898231506, 0.16050341725349426], [-0.011231536976993084, -0.035437699407339096, -0.03965786471962929, 0.09665021300315857, 0.057675935328006744], [-0.1229560375213623, -0.1285925656557083, -0.08558724820613861, 0.11899089068174362, 0.07755051553249359], [0.017627127468585968, 0.04623570665717125, -0.11968919634819031, -0.01256552990525961, 0.03021511808037758]]]]}, "dense_1": {"bias": [-0.0025462601333856583, -0.004449162166565657, 0.0008153035305440426, 0.012077316641807556, -0.002761232201009989, 0.010246166959404945, 0.0007642837590537965, -0.01689954660832882, -0.002794243860989809, -0.003547841915860772, -0.0012486778432503343, -0.0007088574348017573, -0.0004726359329652041, -0.008549189195036888, -0.0018823979189619422, -0.0006256914348341525, 0.0017065744614228606, -0.0037539389450103045, -0.0028131792787462473, 0.0056181843392550945, -0.0018381131812930107, 0.007141553331166506, -0.0012816303642466664, 0.015556504018604755, -1.0360657142882701e-05, -0.002005643444135785, 0.005592562258243561, -0.013302480801939964, -0.004343097563832998, -0.0038977055810391903, -7.098603236954659e-05, 0.00941897090524435, 0.008732465095818043, -0.0009367550374008715, -0.0006393585354089737, -0.0009244260145351291, -0.0016504579689353704, -0.0003231811278965324, -0.0008284975774586201, 0.0026128499303013086, -0.0049689351581037045, -0.001613530213944614, 0.007124710362404585, -0.0005272043636068702, -0.007397761568427086, -0.0021437027025967836, -0.0013903544750064611, 0.00360107677988708, 0.02560853399336338, 0.008859572932124138, 0.0018912279047071934, 8.255589636974037e-05, 0.012341375462710857, 0.015443697571754456, -0.00672197388485074, -0.0007353121764026582, -0.003977660555392504, -0.0005518823163583875, -0.0007536328048445284, 0.00031196532654576004, -0.00010226963058812544, 0.001597624970600009, -0.0009920162847265601, -0.0017176020191982388, -0.0076660942286252975, 0.0038102224934846163, -0.0006268636207096279, 0.010536037385463715, 0.010361460037529469, 0.004477978218346834, -0.002257363637909293, 0.02597932144999504, -0.011978648602962494, -0.003781484207138419, 0.009856734424829483, 0.0013179220259189606, 0.010417938232421875, 0.00596241932362318, 0.01568673551082611, -0.00263086031191051, 0.0004556243075057864, 0.009338497184216976, 1.9395884010009468e-05, -3.763376662391238e-05, -0.004282189067453146, 0.012078940868377686, 0.014039495959877968, 0.013754591345787048, 0.0, -0.002117260592058301, 0.0009174419683404267, -0.00011493536294437945, -1.6402366043166694e-07, -0.0024013190995901823, -0.0021859570406377316, 0.018226657062768936, -0.008326658047735691, -7.931621075840667e-05, 0.010050877928733826, -0.0050239162519574165, 0.0019319253042340279, 0.004436494316905737, 0.010575845837593079, -0.010408524423837662, 0.019347921013832092, 0.003572497982531786, 0.0, -0.0005460131214931607, 0.0018357456428930163, 0.02472599409520626, 0.02524811588227749, -0.01113107055425644, -0.014475234784185886, 0.00033285818062722683, 0.007112626917660236, -0.0014221424935385585, 0.010088339447975159, 0.019503848627209663, -0.008569070138037205, 0.001128175645135343], "weights": [[-0.03365762159228325, 0.003588643856346607, -0.03174525871872902, 0.033792831003665924, -0.04633169248700142, -0.02287924848496914, -0.01838209666311741, 0.018979860469698906, -0.015399591065943241, 0.04977007955312729, -0.007824301719665527, -0.08335059136152267, -0.05932104215025902, -0.059478167444467545, -0.026908501982688904, 0.049372900277376175, 0.06094270199537277, 0.08248750120401382, 0.05835062637925148, -0.02216407284140587, 0.06593362987041473, -0.03646603971719742, 0.028057022020220757, -0.011020711623132229, -0.09209301322698593, 0.09288667142391205, 0.02238122560083866, 0.06451918929815292, 0.040594715625047684, -0.028105497360229492, -0.018763892352581024, 0.031726326793432236, 0.03074358031153679, 0.06457919627428055, 0.047823186963796616, -0.05577399209141731, 0.015534129925072193, -0.0968521386384964, 0.011441336013376713, -0.0934944897890091, -0.05632883310317993, 0.025802668184041977, 0.05546971410512924, 0.07514764368534088, 0.01704864203929901, -0.024189721792936325, 0.04208225756883621, -0.008849100209772587, -0.002553418977186084, 0.05952809751033783, -0.021135637536644936, 0.009259997867047787, 0.05560065060853958, 0.03456434980034828, -0.07002309709787369, -0.07478003203868866, -0.06501114368438721, -0.06598290801048279, 0.0023459582589566708, 0.05331184342503548, 0.02635219506919384, -0.06596289575099945, -0.07720708101987839, -0.014864001423120499, 0.03820938989520073, 0.06458775699138641, 0.049885544925928116, 0.03384166583418846, -0.09092313051223755, 0.032488275319337845, 0.04639497026801109, 0.042676109820604324, 0.10143065452575684, -0.0518895648419857, -0.0815766453742981, 0.019335638731718063, 0.09387090802192688, -0.06520722061395645, 0.013929970562458038, 0.07916050404310226, -0.02564978413283825, 0.008375917561352253, 0.08839000016450882, -0.058500081300735474, -0.0760711133480072, -0.06807976216077805, 0.026189811527729034, -0.04323400929570198, 0.03893246501684189, 0.06787195801734924, 0.03606804832816124, 0.07336681336164474, 0.048978809267282486, -0.01740296185016632, -0.0023341698106378317, -0.06547777354717255, -0.0891159400343895, -0.07943855226039886, -0.08289680629968643, -0.011348055675625801, -0.0831129252910614, 0.04877118393778801, 0.007098418194800615, 0.06989181786775589, -0.09336525201797485, -0.08416204899549484, -0.06655318289995193, 0.0693710446357727, -0.023968301713466644, 0.06094485893845558, -0.0401507206261158, 0.031067056581377983, 0.046591244637966156, -0.02597411908209324, 0.05729423463344574, 0.04640591889619827, -0.09021816402673721, 0.05657901614904404, -0.06938754767179489, 0.023266302421689034, -0.088324174284935, -0.08048971742391586, -0.01883900724351406, -0.00898787286132574, -0.015436173416674137, -0.002339236903935671, -0.007665649987757206, 0.05416427180171013, -0.04333857074379921, -0.031080691143870354, -0.08300426602363586, 0.057172637432813644, 0.048247043043375015, -0.008089723996818066, 0.09953361004590988, -0.09903143346309662, -0.07783207297325134, 0.027250876650214195, -0.06696110218763351, 0.06280554085969925, 0.05731658264994621, -0.04140756279230118, 0.040400564670562744, -0.039814770221710205, 0.04618607088923454, 0.07491730153560638, -0.05082674324512482, -0.07105978578329086, -0.03328675776720047, 0.03364107757806778, 0.067002072930336, 0.07999467849731445, 0.08149274438619614, 0.05302944406867027, -0.03226795047521591, 0.10206129401922226, 0.05826327204704285, 0.088862344622612, -0.08219534158706665, -0.06119001284241676, -0.014292560517787933, 0.04138800874352455, -0.005994447506964207, -0.0037241277750581503, 0.0018643850926309824, 0.09413473308086395, 0.031186670064926147, -0.049788203090429306, -0.001487654633820057, -0.015172227285802364, 0.08246701955795288, 0.013715523295104504, -0.05352938547730446, -0.057514965534210205, -0.0913916602730751, 0.07015049457550049, 0.08656887710094452, 0.06417258828878403, -0.0015790120232850313, -0.017759500071406364, -0.036871690303087234, -0.0071614827029407024, -0.07872653752565384, -0.0938611850142479, -0.015045213513076305, -0.032494720071554184, 0.06046922132372856, 0.057570040225982666, -0.08322061598300934, -0.04057631269097328, 0.05910167843103409, -0.0786476582288742, 0.022551117464900017, 0.029497073963284492, -0.03711824491620064, -0.007938986644148827, 0.0123002789914608, -0.09285227954387665, 0.0324561670422554, -0.0958440750837326, 0.09138372540473938, 0.06230742111802101, -0.10233280062675476, 0.00022596472990699112, 0.04946685954928398, 0.0055944244377315044, -0.04887568578124046, -0.008606229908764362, -0.03850727155804634, -0.0021364695858210325, 0.010558701120316982, -0.04597320407629013, -0.01077501755207777, 0.02598557062447071, -0.059543583542108536, 0.04761550575494766, -0.08729171752929688, 0.0621081180870533, -0.024710379540920258, -0.003961327951401472, 0.029380828142166138, -0.08463282138109207, 0.06956229358911514, 0.09029848873615265, -0.04495628923177719, -0.06486251950263977, -0.009739971719682217, 0.04905541241168976, -0.026368385180830956, -0.049938712269067764, 0.00039864543941803277, -0.03223179653286934, 0.059269730001688004, -0.024303270503878593, 0.04038039967417717, -0.06784813106060028, -0.02993651106953621, -0.011585417203605175, -0.04624445363879204, -0.03874953091144562, 0.02632756717503071, 0.08710496872663498, 0.007818181067705154, 0.0854523777961731, 0.06918657571077347, 0.08117513358592987, -0.03666795417666435, 0.015579801052808762, -0.04788223281502724, 0.02066195011138916, 0.07648788392543793, 0.02870635874569416, 0.03592241182923317, 0.029074205085635185, -0.05833781138062477, 0.08984073996543884, 0.014910796657204628, 0.015920765697956085, 0.05356774479150772, -0.02570907585322857, 0.03924325481057167, -0.03901997581124306, -0.02463276870548725, 0.06261587888002396, 0.042307570576667786, 0.11567631363868713, 0.058334264904260635, -0.054386287927627563, -0.025697750970721245, -0.017541859298944473, 0.07400341331958771, 0.05035622790455818, -0.04199061915278435, -0.06759415566921234, -0.012082659639418125, -0.07949481159448624, 0.034020163118839264, 0.04545668885111809, -0.0669739618897438, 0.05471967160701752, -0.014176832512021065, -0.019301865249872208, -0.08989809453487396, -0.06216451898217201, -0.04245330020785332, 0.05800537019968033, 0.07723747193813324, -0.07365750521421432, -0.006828591227531433, 0.0012864479795098305, 0.016715744510293007, 0.08195233345031738, 0.01900968886911869, -0.01904279924929142, -0.05845807120203972, 0.03497998043894768, -0.04148803651332855, -0.00809989869594574, 0.013092984445393085, 0.059953756630420685, -0.048877812922000885, -0.06764356791973114, -0.026997387409210205, -0.02220430038869381, 0.061815764755010605, 0.03817835450172424, 0.0004250564961694181, -0.02380099706351757, -0.007464786525815725, -0.013811834156513214, 0.04364382475614548, -0.05486750975251198, 0.03601834177970886, -0.06369184702634811, -0.011116682551801205, -0.061420194804668427, -0.053149402141571045, -0.06926242262125015, -0.02977938950061798, 0.09275484085083008, -0.04215887561440468, 0.006079782731831074, -0.06420400738716125, -0.038527410477399826, 0.0005667840014211833, -0.03963480889797211, 0.04710334539413452, 0.03138371556997299, 0.07535558938980103, -0.06306134909391403, 0.03858545422554016, -0.0047336770221591, 0.005886510945856571, 0.02999144420027733, -0.0911499634385109, -0.04244260862469673, 0.06475399434566498, -0.06294794380664825, 0.07137821614742279, -0.031220516189932823, -0.07140026241540909, 0.030551685020327568, -0.04862983152270317, 0.05585844814777374, 0.09410782158374786, 0.07882437109947205, 0.0642872229218483, 0.08851151913404465, -0.03913441300392151, 0.00619191350415349, -0.0029993895441293716, 0.0809401422739029, -0.058884717524051666, -0.044570304453372955, 0.046560291200876236, -0.07695619016885757, 0.04579080268740654, 0.058942683041095734, -0.08889207243919373, 0.053584713488817215, -0.05640411376953125, 0.030118772760033607, -0.05413346365094185, -0.00438836682587862, 0.007669016718864441, 0.07268044352531433, -0.03040243126451969, -0.004613159224390984, 0.05578995868563652, 0.045350778847932816, -0.0036233151331543922, 0.0026723616756498814, -0.04823930934071541, 0.04871267080307007, -0.06388115882873535, -0.043137792497873306, -0.09216763824224472, -0.030482612550258636, -0.04447987675666809, -0.04079611599445343, 0.05916498973965645, 0.0032243106979876757, 0.01880737766623497, 0.07009565830230713, -0.0073212976567447186, -0.05328613147139549, 0.03463651239871979, -0.00236517027951777, -0.014649278484284878, 0.07917778939008713, 0.04724092409014702, -0.057388633489608765, 0.012916828505694866, -0.006079740822315216, -0.011546787805855274, -0.02070435881614685, 0.08137253671884537, -0.05016016215085983, -0.061932601034641266, -0.10600306838750839, -0.042218077927827835, -0.09450182318687439, -0.013475360348820686, -0.01511392928659916, 0.06396659463644028, -0.02457801252603531, -0.02656257525086403, -0.0526096485555172, -0.09478883445262909, -0.08209078758955002, 0.036646075546741486, 0.045385777950286865, 0.011820153333246708, -0.035419777035713196, -0.0430084690451622, -0.090105339884758, 0.03847019374370575, 0.03313282132148743, -0.01963621750473976, -0.08054765313863754, -0.0331115648150444, 0.01795269176363945, 0.04672355204820633, 0.08808112144470215, 0.019081320613622665, -0.047143466770648956, -0.042108748108148575, -0.041946057230234146, 0.09797415882349014, 0.08663439005613327, -0.05349674075841904, -0.053736209869384766, 0.059404101222753525, -0.050215743482112885, -0.00779288075864315, -0.013715550303459167, -0.08737608045339584, -0.004080298822373152, 0.03049868531525135, -0.07562608271837234, -0.012406786903738976, 0.02401813492178917, 0.02175726927816868, -0.09678082168102264, -0.006236432120203972, 0.06020047143101692, 0.009525214321911335, -0.0494537279009819, 0.016554126515984535, -0.10538607090711594, 0.06703890115022659, -0.041503679007291794, 0.028391536325216293, -0.02540934644639492, 0.03068779781460762, 0.044211652129888535, -0.03485879302024841, 0.06269300729036331, -0.12279602140188217, -0.03838676959276199, -0.05348087102174759, -0.09215155243873596, -0.013959168456494808, -0.05550828203558922, -0.0900055393576622, -0.10535196214914322, 0.018845200538635254, -0.06525085121393204, -0.006586676463484764, -0.09067455679178238, -0.03765358775854111, 0.013484589755535126, -0.035946086049079895, -0.05059642717242241, -0.03557552769780159, 0.042993344366550446, -0.014730138704180717, 0.05108767747879028, -0.010658103041350842, 0.006430060602724552, -0.08968105167150497, 0.04787976294755936, 0.0479489266872406, 0.041960034519433975, 0.07520142197608948, 0.02872498705983162, -0.06911524385213852, 0.05860220268368721, 0.001852783840149641, 0.018847160041332245, 0.051950521767139435, -0.03534311428666115, 0.0005317017785273492, -0.06743144989013672, 0.0002984587335959077, -0.04729630425572395, 0.028530893847346306, 0.08574969321489334, -0.02027352899312973, 0.009823408909142017, -0.041158635169267654, -0.017753800377249718, -0.0793125107884407, -0.016146458685398102, 0.04441071301698685, 0.01836967281997204, 0.1026727706193924, 0.012382040731608868, -0.010834158398211002, 0.04636484757065773, 0.06889836490154266, 0.07056011259555817, 0.0920381024479866, -0.022940369322896004, -0.07898900657892227, -0.0008398974896408617, -0.03400549665093422, 0.04042627662420273, 0.0881590023636818, -0.034719254821538925, 0.11417314410209656, 0.041744694113731384, -0.0029504024423658848, 0.07937788963317871, -0.046701978892087936, -0.0680186077952385, -0.08443315327167511, 0.06846974045038223, 0.01046848762780428, -0.09123632311820984, -0.002259249333292246, -0.009947058744728565, 0.018435653299093246, -0.04828587546944618, 0.0008015182102099061, 0.06384076923131943, -0.07716664671897888, -0.029540447518229485, 0.019531965255737305, 0.06085694953799248, -0.015601210296154022, 0.05789494886994362, -0.05571243166923523, -0.04509025812149048, -0.0004172859189566225, 0.0506768599152565, -0.04560846462845802, 0.003911937121301889, 0.07037168741226196, 0.0018677955958992243, 0.014707334339618683, 0.02420787140727043, -0.08699698746204376, -0.07534058392047882, -0.04266316071152687, 0.0028486819937825203, 0.042912814766168594, 0.009598402306437492, -0.025307686999440193, -0.05420384928584099, 0.035739749670028687, 0.006738615687936544, -0.05988312512636185, -0.02545386739075184, 0.07727175951004028, -0.03070317581295967, -0.0014935375656932592, -0.03948036953806877, 0.027672957628965378, -0.03470853716135025, -0.07771746814250946, 0.010973521508276463, -0.012083032168447971, 0.08024364709854126, -0.09296295791864395, 0.057676009833812714], [0.08165974915027618, 0.033500783145427704, 0.05380386486649513, -0.026888033375144005, -0.004268591292202473, -0.036566928029060364, -0.02035953477025032, -0.08481862396001816, -0.007188079413026571, -0.04191499575972557, 0.014246136881411076, 0.08743453025817871, 0.08660966902971268, -0.07446925342082977, 0.007208726834505796, -0.03860308602452278, -0.026044541969895363, 0.009072779677808285, -0.034389108419418335, 0.06748274713754654, 0.03646329417824745, 0.025900274515151978, 0.005954622756689787, -0.0015456491382792592, -0.06300560384988785, 0.07748295366764069, -0.034633710980415344, 0.054987721145153046, 0.052332889288663864, -0.03387659415602684, -0.07948129624128342, 0.003965618088841438, -0.046225469559431076, 0.00964838545769453, 0.041472382843494415, 0.03218667954206467, 0.030848080292344093, -0.05906969681382179, -0.06673320382833481, 0.0383240208029747, 0.0008650902891531587, -0.006832883693277836, -0.046978358179330826, 0.07392008602619171, -0.08194785565137863, 0.05124340578913689, -0.039613720029592514, -0.06368497759103775, -0.08646370470523834, 0.06855794787406921, 0.007136748172342777, -0.0407133549451828, 0.07537717372179031, -0.033099912106990814, 0.0022061418276280165, 0.008221927098929882, 0.029026910662651062, 0.08790218085050583, 0.08886540681123734, -0.09154845774173737, 0.06038878858089447, -0.06714450567960739, -0.08206529170274734, -0.07984116673469543, 0.05995528772473335, -0.041485339403152466, 0.020513303577899933, -0.03497703745961189, 0.014810259453952312, 0.006403475534170866, -0.07539504021406174, -0.007847359403967857, -0.0569857694208622, 0.08530435711145401, 0.08070331066846848, -0.057980287820100784, 0.07153050601482391, 0.04596360772848129, -0.04050691798329353, 0.07338274270296097, 0.049823835492134094, -0.005905034486204386, 0.07076907157897949, -0.035070523619651794, -0.012381124310195446, 0.062483564019203186, -0.09250201284885406, -0.030258281156420708, -0.04404239356517792, -0.0018641125643625855, -0.0456620529294014, 0.037230730056762695, 0.0813995748758316, -0.0346936471760273, -0.06491713225841522, 0.03891901671886444, -0.05556405335664749, 0.025333262979984283, 0.06352804601192474, -0.051259931176900864, -0.01333877258002758, -0.08508988469839096, -0.03978530317544937, -0.008139668963849545, -0.01993796043097973, -0.041289884597063065, -0.004310028161853552, 0.03186307102441788, -0.05171748995780945, 0.02312111109495163, -0.0483928807079792, -0.04907546564936638, -0.036537546664476395, -0.07638556510210037, 0.06548742949962616, -0.038978010416030884, -0.028558626770973206, 0.040755413472652435, -0.01428108848631382, 0.038407985121011734, 0.01920836791396141, 0.08548282831907272, -0.07722294330596924, -0.08347795903682709, 0.026713727042078972, 0.09035427868366241, -0.059464406222105026, -0.007828492671251297, 0.09689658880233765, -0.0464041568338871, 0.10331684350967407, 0.0716509148478508, -0.014462090097367764, 0.06501440703868866, 0.08465144038200378, 0.030304577201604843, 0.020764952525496483, -0.09474506229162216, -0.0049625057727098465, 0.00961343850940466, 0.025914616882801056, 0.09230288118124008, -0.07947175204753876, -0.04700664058327675, 0.059046100825071335, -0.004906970541924238, -0.03563717380166054, -0.09215440601110458, 0.024234984070062637, 0.018285954371094704, -0.040345512330532074, 0.05396747961640358, -0.030933037400245667, 0.04652170091867447, -0.10313843190670013, -0.06284821033477783, 0.07974009215831757, 0.04743298143148422, 0.012760182842612267, -0.021444903686642647, 0.014399654231965542, 0.020061936229467392, 0.0241301991045475, 0.0561857596039772, -0.03494339808821678, -0.09947073459625244, -0.10258612781763077, -0.05422011390328407, -0.038520604372024536, -0.07167430222034454, 0.020785659551620483, 0.05903872475028038, -0.08321110904216766, -0.09081726521253586, -0.08476709574460983, 0.04762309789657593, -0.022431517019867897, 0.007440638728439808, -0.034882038831710815, -0.01858942210674286, -0.045292142778635025, 0.010022434405982494, -0.03678927943110466, -0.0806618258357048, 0.06367696821689606, -0.06790848076343536, -0.05046495050191879, -0.022184494882822037, -0.08465061336755753, -0.015321364626288414, 0.027111170813441277, -0.07344014942646027, 0.00866649392992258, -0.03840002045035362, -0.07100117206573486, 0.014099269174039364, 0.04047559201717377, 0.012125521898269653, -0.04830130189657211, 0.011153730563819408, -0.07032731920480728, -0.072330541908741, 0.05928080528974533, -0.05509283393621445, -0.07760545611381531, -0.06996405124664307, -0.058263279497623444, -0.050919175148010254, -0.07852963358163834, -3.2725700293667614e-05, 0.03519731014966965, 0.05549090728163719, 0.02128574624657631, 0.08990927040576935, -0.045869022607803345, 0.016111943870782852, -0.017630470916628838, 0.08083220571279526, -0.06686035543680191, 0.08658024668693542, 0.08437876403331757, 0.08751074969768524, -0.06741978973150253, 0.04306697100400925, -0.07848545908927917, 0.029619358479976654, -0.030499033629894257, 0.05609884113073349, 0.00757016334682703, -0.0037516667507588863, 0.09446097910404205, -0.035908207297325134, -0.029780598357319832, -0.06352753192186356, 0.02995755523443222, -0.032821863889694214, -0.033886801451444626, -0.02086854726076126, 0.011714992113411427, 0.0667322650551796, 0.024027474224567413, 0.055580101907253265, 0.08678480982780457, -0.07089798152446747, -0.09541246294975281, 0.03159460425376892, 0.09341774880886078, -0.04191626235842705, 0.015219063498079777, -0.04728724807500839, -0.012639551423490047, 0.09869926422834396, 0.09349748492240906, -0.06183953210711479, 0.06614109873771667, 0.05517713353037834, -0.051957689225673676, -0.08037593215703964, -0.006727516185492277, 0.00037400072324089706, 0.008529883809387684, -0.09005682915449142, 0.0471414290368557, 0.0007224042201414704, 0.016601912677288055, 0.05019720643758774, 0.04237053543329239, 0.06751035898923874, 0.06983373314142227, 0.06599008291959763, 0.0015663857338950038, 0.014251818880438805, 0.021429724991321564, -0.06020897254347801, 0.007875540293753147, 0.029957421123981476, 0.00514809088781476, 0.052139073610305786, -0.03630899265408516, 0.05448770895600319, -0.07063023746013641, 0.04344568029046059, 0.0810895711183548, 0.0437135212123394, -0.027582816779613495, -0.05540644749999046, -0.08909562230110168, 0.017561327666044235, 0.027833757922053337, 0.03134920075535774, -0.0053305476903915405, 0.007238516118377447, 0.0923139750957489, 0.07632347196340561, 0.05617527291178703, 0.02036464773118496, -0.0034007318317890167, 0.07513479143381119, -0.08095569908618927, -0.007930118590593338, -0.06188393011689186, 0.08477599173784256, 0.03077816590666771, 0.07950186729431152, -0.035257384181022644, 0.003326128236949444, 0.07548835873603821, -0.005033264867961407, -0.0668182373046875, -0.054126955568790436, -0.08137670904397964, -0.047880351543426514, -0.08663103729486465, 0.023394929245114326, 0.0864969938993454, 0.05098719149827957, -4.380040627438575e-05, 0.0877426341176033, 0.04345627501606941, 0.039231568574905396, 0.04838475212454796, -0.04543446749448776, 0.030671486631035805, 0.08077453821897507, -0.05897079035639763, 0.06240072473883629, -0.046623412519693375, -0.08268145471811295, -0.02804824337363243, 0.07306359708309174, 0.003305896185338497, -0.019752494990825653, -0.09393420815467834, 0.0383673794567585, 0.08879635483026505, -0.0917845293879509, -0.07616561651229858, 0.022928502410650253, -0.026653913781046867, 0.026301713660359383, 0.031406134366989136, -0.0063429465517401695, -0.05309712886810303, -0.034422099590301514, 0.08568140119314194, -0.04549753665924072, 0.0386156402528286, -0.07713015377521515, -0.07195717096328735, -0.0025302835274487734, -0.022141020745038986, 0.023004719987511635, -0.00895673781633377, 0.09193331003189087, -0.0027341186068952084, 0.015400264412164688, 0.022771792486310005, 0.07424508035182953, -0.04222135245800018, -0.010484974831342697, 0.0869574174284935, -0.010569563135504723, -0.0019058419857174158, 0.027532538399100304, -0.05503397062420845, -0.04040548950433731, 0.005091623403131962, 0.050212275236845016, 0.07867590337991714, 0.03594324365258217, -0.006322200875729322, 0.0402410663664341, 0.004432173445820808, 0.06430992484092712, 0.08305736631155014, 0.01925342157483101, 0.0637814924120903, -0.010872057639062405, -0.0340147539973259, 0.0014114722143858671, -0.005432849284261465, 0.017566341906785965, -0.036862123757600784, -0.06661774218082428, -0.08937126398086548, 0.03800119087100029, 0.02278437837958336, 0.05951545760035515, 0.07714687287807465, -0.04427561163902283, 0.01016255933791399, -0.033814530819654465, -0.015465658158063889, 0.05567184090614319, -0.056776080280542374, -0.06987414509057999, 0.053870633244514465, 0.0006556374719366431, 0.04579918459057808, 0.027842089533805847, -0.03487589955329895, 0.0018391726771369576, 0.053553033620119095, -0.05862285569310188, -0.0672396644949913, 0.07322473078966141, -0.09668353199958801, 0.03294425085186958, 0.085531085729599, -0.02690264768898487, 0.03775982931256294, -0.021273216232657433, -0.016559841111302376, 0.06499293446540833, 0.01057465560734272, 0.05717044696211815, -0.005441486835479736, 0.027530374005436897, -0.06294272840023041, 0.06444590538740158, 0.07426617294549942, 0.03679492324590683, 0.026378417387604713, -0.0026404133532196283, -0.010455703362822533, -0.01556407380849123, -0.09664617478847504, 0.04677311331033707, 0.023942166939377785, -0.07881259173154831, -0.06084531173110008, -0.0625711977481842, 0.0712885931134224, -0.010595960542559624, 0.052513837814331055, -0.06461464613676071, -0.02140635997056961, 0.04122645780444145, 0.055122677236795425, 0.03257870674133301, 0.08618535101413727, 0.03487072139978409, -0.017385441809892654, 0.012975248508155346, 0.011499417945742607, -0.07587041705846786, 0.022360561415553093, -0.08196508884429932, 0.07574475556612015, -0.001134252641350031, 0.05455336719751358, 0.09001907706260681, -0.02576874941587448, 0.06858991831541061, -0.06286390870809555, -0.005203507374972105, 0.006109884474426508, 0.10374807566404343, -0.03760005533695221, -0.08031703531742096, 0.016773579642176628, 0.020529113709926605, 0.06111229211091995, -0.06979849189519882, 0.06413955986499786, -0.03737439960241318, -0.015704352408647537, -0.031134098768234253, 0.07458676397800446, -0.0524321012198925, 0.08723039925098419, 0.006362400483340025, 0.073611319065094, -0.028717685490846634, -0.0781770572066307, 0.06938289105892181, -0.036422185599803925, -0.07341398298740387, -0.05343661457300186, 0.08219102025032043, 0.036887165158987045, -0.045022767037153244, -0.07467436045408249, -0.02669871412217617, -0.07549013197422028, 0.009039868600666523, 0.04500693455338478, 0.08116234838962555, 0.03401835262775421, 0.017218930646777153, -0.027141466736793518, -0.019720278680324554, 0.030075203627347946, 0.05078720673918724, 0.011243050917983055, -0.09590713679790497, -0.023818744346499443, -0.0501973032951355, -0.07716294378042221, 0.015346217900514603, 0.03853751718997955, -0.026049843057990074, -0.060722146183252335, 0.04599973186850548, -0.09293070435523987, -0.03255658969283104, -0.061360545456409454, 0.028832489624619484, -0.05272046849131584, 0.031971149146556854, 0.08467699587345123, 0.07548218220472336, 0.021255359053611755, 0.043508317321538925, 0.023548927158117294, 0.023091251030564308, 0.021322384476661682, -0.09312774240970612, -0.011586124077439308, 0.0163070447742939, 0.03041110560297966, -0.013901223428547382, -0.08745405822992325, 0.023783879354596138, 0.041502416133880615, 0.03063523769378662, -0.037437498569488525, -0.0176992267370224, -0.07624269276857376, 0.021585287526249886, -0.016618534922599792, 0.07520139217376709, 0.018215171992778778, -9.125598444370553e-05, -0.05682538449764252, 0.05730682238936424, -0.07466819137334824, -0.029547972604632378, 0.03383200243115425, -0.022247541695833206, -0.025788355618715286, 0.0531330443918705, -0.07245407998561859, 0.019304567947983742, -0.053140658885240555, -0.07783188670873642, -0.029387427493929863, 0.0332154706120491, -0.0518433079123497, 0.06700684130191803, -0.04436909779906273, 0.004211094230413437, 0.09388621151447296, 0.04622583091259003, 0.0032877661287784576, 0.012547382153570652, 0.03442436829209328, -0.01842031255364418, 0.06642322242259979, 0.023801105096936226, 0.0025942253414541483, 0.05874476209282875, 0.03776960447430611, -0.008045726455748081, 0.06752432137727737, 0.02566308155655861, 0.037738386541604996, -0.007127177901566029, 0.07551410794258118, 0.0878848284482956, -0.02938993275165558, -0.07878387719392776, 0.08535271883010864, 0.080548495054245, 0.0028813739772886038, -0.07014033943414688], [0.02863345667719841, -0.09300907701253891, 0.08123954385519028, 0.05953657254576683, -0.07250230759382248, -0.09342975914478302, -0.016041386872529984, 0.009231713600456715, 0.022118009626865387, 0.08235575258731842, -0.019565127789974213, -0.050251707434654236, -0.015606340020895004, -0.014869270846247673, -0.03917336463928223, -0.05681449547410011, 0.042980071157217026, 0.013007661327719688, 0.05892368406057358, -0.08285786211490631, -0.019681433215737343, 0.00985683873295784, -0.001946283970028162, -0.048540931195020676, -0.06801240891218185, 0.07707914710044861, 0.026045799255371094, 0.017662886530160904, -0.04272302985191345, 0.014973592013120651, 0.007236042059957981, 0.02051774226129055, 0.06547313928604126, 0.06522975116968155, 0.006759726908057928, -0.08903428912162781, 0.06619938462972641, -0.06583385914564133, 0.02889930084347725, 0.03080473095178604, 0.09400416165590286, 0.04190346598625183, 0.09205011278390884, 0.0013483746442943811, -0.01887468807399273, -0.08204403519630432, -0.07775334268808365, -0.009351728484034538, -0.03911300748586655, 0.015129433013498783, -0.0908966213464737, 0.0919559970498085, -0.09058850258588791, -0.06607381254434586, -0.009015764109790325, 0.0060387104749679565, -0.09525103867053986, 0.07514311373233795, 0.036889977753162384, 0.015119795687496662, 0.07696706801652908, -0.03610915690660477, -0.004353447817265987, -0.007235436234623194, 0.0269083883613348, -0.03065897896885872, -0.008884500712156296, 0.010135907679796219, -0.05177745968103409, -0.0006709514418616891, 0.09257775545120239, -0.07002464681863785, -0.08428673446178436, 0.07575775682926178, 0.06549316644668579, 0.07177659124135971, 0.008483038283884525, 0.07698220759630203, -0.04708629101514816, 0.04545522853732109, 0.006586949806660414, 0.055737853050231934, 0.06263821572065353, -0.053199414163827896, 0.07516365498304367, 0.041346073150634766, -0.06295175105333328, 0.06715299934148788, -0.0326153002679348, -0.0541609488427639, -0.04920826107263565, 0.10167619585990906, 0.0851210281252861, 0.046902935951948166, -0.02276861108839512, -0.08074937015771866, 0.0608823262155056, 0.035615913569927216, 0.05322941765189171, -0.017223576083779335, -0.03176331892609596, -0.028205525130033493, 0.051093198359012604, -0.008142807520925999, 0.061503030359745026, 0.026245402172207832, -0.056032389402389526, 0.012118895538151264, 0.04006903991103172, 0.03259378671646118, 0.030323514714837074, 0.07160135358572006, 0.07541538029909134, 0.0013623748673126101, -0.026146920397877693, -0.08832402527332306, 0.08669568598270416, 0.06666170805692673, 0.0016863695345818996, -0.06744705140590668, 0.04192034900188446, -2.809396210068371e-05, -0.0006497479625977576, -0.04443969577550888, 0.046894047409296036, 0.0585632398724556, 0.03684046119451523, 0.03969943895936012, -0.00023635772231500596, 0.09326967597007751, -0.0467006079852581, 0.072838693857193, -0.038323719054460526, 0.10778477042913437, -0.08248496055603027, -0.008596991188824177, 0.017685595899820328, 0.07726001739501953, 0.019597351551055908, 0.08166331797838211, 0.07280959188938141, -0.02537616901099682, 0.09271842241287231, -0.028287284076213837, 0.016835620626807213, -0.078097864985466, -0.020251359790563583, -0.010466402396559715, 0.07437671720981598, -0.024126607924699783, 0.00016992728342302144, 0.11097293347120285, -0.05059460178017616, -0.05727345123887062, -0.00536222942173481, -0.010463804006576538, 0.07953225076198578, 0.019533701241016388, -0.06274054944515228, -0.020865637809038162, -0.09123999625444412, 0.07355039566755295, -0.03828566148877144, 0.022833088412880898, 0.03876436874270439, -0.013751117512583733, 0.08276240527629852, -0.06039411574602127, 0.00854413490742445, -0.04940906539559364, 0.06367003172636032, 0.07305362820625305, -0.007709204219281673, 0.05783940106630325, -0.03132007271051407, 0.06739496439695358, 0.00556990085169673, 0.05574720725417137, -0.029758859425783157, -0.04838614538311958, -0.02674034796655178, -0.03847309947013855, 0.0880216434597969, 0.007845450192689896, -0.060012999922037125, -0.07418329268693924, 0.11291153728961945, -0.07093392312526703, 0.014377189800143242, -0.06748627871274948, 0.04456929489970207, 0.04733980819582939, -0.010448163375258446, -0.050764329731464386, -0.08828848600387573, 0.05095580220222473, 0.02677038498222828, -0.07950188964605331, 0.07803630828857422, -0.056539274752140045, -0.04101232811808586, -0.007282854989171028, -0.05666454881429672, -0.08366334438323975, 0.026888564229011536, 0.008199639618396759, 0.0818532258272171, -0.08564922213554382, -0.08223523199558258, -0.06698989868164062, 0.06022639572620392, 0.021357128396630287, 0.0005467949667945504, 0.08957238495349884, 0.005621098913252354, -0.02697160840034485, -0.05127447843551636, 0.0009106139186769724, 0.08461182564496994, 0.030154181644320488, -0.08621829003095627, 0.06293249130249023, 0.037872496992349625, 0.08651598542928696, 0.012606016360223293, 0.05294875428080559, 0.0994504988193512, 0.10755836218595505, 0.05649564042687416, 0.0603913851082325, -0.032805997878313065, -0.06688914448022842, -0.06435345858335495, 0.04933826997876167, 0.019740523770451546, -0.09281397610902786, 0.08398540318012238, -0.03464355692267418, -0.012246700935065746, -0.0769360288977623, -0.003587773535400629, 0.0054248603992164135, -0.025167809799313545, 0.06311993300914764, -0.03907283395528793, -0.04625455290079117, -0.04985993728041649, -0.06948214024305344, 0.10201124101877213, -0.05837765336036682, -0.08991298079490662, -0.057279057800769806, -0.04452977329492569, -0.058582428842782974, -0.08587190508842468, 0.00010016043961513788, -0.040879592299461365, -0.07292402535676956, 0.002042636275291443, 0.08510780334472656, 0.01939835585653782, 0.012234236113727093, 0.05651121959090233, -0.03200804814696312, 0.06556699424982071, 0.027443114668130875, -0.0651509240269661, 0.04481831565499306, -0.0018100639572367072, 0.052843693643808365, 0.08501516282558441, -0.007519093342125416, -0.04488253965973854, -0.004633991979062557, 0.011751456186175346, -0.01203182153403759, 0.07116775959730148, 0.04699235036969185, -0.03953627869486809, -0.004304344765841961, 0.02964627742767334, -0.06346029788255692, 0.014144633896648884, 0.030516641214489937, -0.038513898849487305, -0.06828716397285461, 0.025356950238347054, -0.06101061403751373, -0.027642253786325455, 0.028377875685691833, 0.05702350661158562, -0.02562628500163555, -0.04842880368232727, -0.015205074101686478, -0.03334381431341171, -0.0024939023423939943, -0.0031279013492166996, -0.006371098570525646, 0.06594385206699371, -0.024380140006542206, -0.038717299699783325, -0.05140203237533569, 0.007738278713077307, 0.05510181188583374, -0.08446723967790604, 0.05523788928985596, -0.07576233893632889, 0.04663080722093582, -0.06397490948438644, 0.009555855765938759, 0.0958045944571495, -0.07767708599567413, 0.02951420471072197, 0.0683826208114624, 0.10264561325311661, -0.0666697546839714, -0.04203711822628975, 0.0651371031999588, -0.03816540166735649, 0.019899453967809677, 0.04958970844745636, 0.02900099754333496, 0.04147773236036301, -0.0020483394619077444, 0.0513107068836689, 0.032055165618658066, -0.04410390183329582, -0.035968195647001266, -0.022839974611997604, 0.03404130041599274, -0.06773273646831512, 0.057631026953458786, 0.1206425130367279, -0.03809851408004761, -0.09248899668455124, -0.0513419434428215, -0.03611854091286659, -0.08943568170070648, -0.10298997163772583, 0.0788150280714035, -0.02065984345972538, -0.010472435504198074, 0.005284520331770182, -0.018732436001300812, -0.047309111803770065, 0.06724347919225693, 0.06168951839208603, 0.05696572735905647, 0.07778135687112808, 0.020438726991415024, -0.03289780020713806, -0.10630825906991959, -0.0024590345565229654, -0.10251985490322113, 0.01235238742083311, -0.0273154154419899, -0.02481171302497387, 0.06782620400190353, 0.049828048795461655, 0.0030296852346509695, -0.047380272299051285, -0.09291497617959976, 0.02173609472811222, 0.06795516610145569, -0.021822132170200348, -0.02656090445816517, -0.03538163751363754, 0.062235087156295776, -0.0033990545198321342, 0.07141494005918503, -0.06732352077960968, 0.0653962567448616, -0.005480426829308271, -0.025869691744446754, -0.08689876645803452, -0.04930180683732033, 0.024488743394613266, -0.0026894258335232735, 0.01782357692718506, -0.007268430665135384, 0.006834124214947224, -0.009540821425616741, 0.08856931328773499, -0.04114252328872681, -0.08925694972276688, -0.03889617696404457, 0.05864071846008301, 0.017545104026794434, 0.058002520352602005, 0.022588469088077545, 0.06827887892723083, 0.017034189775586128, -0.041882697492837906, -0.06328584253787994, 0.07211872935295105, -0.011663582175970078, 0.08146771788597107, 0.00046583099174313247, 0.029140662401914597, -0.05867024511098862, 0.017566023394465446, 0.020470378920435905, -0.013058752752840519, -0.022898811846971512, -0.036587655544281006, 0.09316983819007874, -0.05417497828602791, 0.004671510774642229, -0.03721676766872406, 0.07886183261871338, 0.11028800159692764, 0.043183594942092896, 0.08326873183250427, 0.011679628863930702, 0.006456267554312944, 0.11574888229370117, -0.06002805382013321, -0.04555978626012802, 0.03574879840016365, 0.029457272961735725, -0.06015993654727936, -0.04329575598239899, 0.04424760863184929, 0.08015158027410507, 0.028571125119924545, -0.09535015374422073, -0.06671764701604843, -0.051369573920965195, 0.11086218804121017, 0.027003169059753418, 0.09440148621797562, -0.035517219454050064, 0.037754300981760025, -0.08205690234899521, 0.025299331173300743, 0.001837971736676991, 0.06380438804626465, -0.03847165405750275, 0.06237684562802315, 0.03382787108421326, -0.01799617148935795, -0.041865475475788116, 0.027954936027526855, -0.060675375163555145, -0.09221115708351135, 0.021067511290311813, -0.08588546514511108, 0.007003160193562508, 0.02560127153992653, 0.0058558289892971516, -0.09295244514942169, 0.08048087358474731, -0.08001075685024261, 0.02850877121090889, 0.027982087805867195, 0.0708794891834259, -0.08514421433210373, 0.08351008594036102, 0.00289294496178627, 0.007325882092118263, 0.08586444705724716, -0.039422906935214996, 0.018713336437940598, 0.003208426758646965, -0.05353902652859688, -0.03604426607489586, 0.060994893312454224, -0.025655895471572876, 0.06190146133303642, 0.007681448943912983, -0.07616505771875381, 0.07890129089355469, 0.04168657585978508, 0.04571916535496712, -0.014608321711421013, 0.03791087865829468, 0.03890533372759819, -0.07483725249767303, 0.09027127176523209, 0.0010416182922199368, 0.022855816408991814, 0.06859029084444046, -0.008203831501305103, -0.05627939850091934, 0.026966223493218422, 0.02687000297009945, -0.041254445910453796, 0.09161258488893509, -0.04103584215044975, 0.03978736698627472, 0.026734858751296997, -0.014177756384015083, 0.055382996797561646, -0.07161679863929749, -0.07572130858898163, 0.040879979729652405, 0.06959709525108337, 0.05932537838816643, -0.048180900514125824, -0.05078201740980148, -0.003756486112251878, -0.05651935189962387, -0.0748208612203598, 0.02391347661614418, 0.018110087141394615, -0.08408134430646896, -0.04231587424874306, -0.05393003672361374, -0.04895338416099548, 0.07854370772838593, 0.022249164059758186, 0.04184635728597641, -0.0645395889878273, 0.0746171623468399, 0.07548742741346359, 0.004227088298648596, 0.08952822536230087, 0.04279756173491478, 0.0941161960363388, 0.05933856964111328, -0.0608953982591629, 0.024314697831869125, -0.032097116112709045, 0.05346829816699028, -0.04541870579123497, -0.034031033515930176, -0.055111002177000046, -0.001967535587027669, -0.06946547329425812, -0.015058601275086403, 0.09605038166046143, -0.05573970824480057, 0.026355747133493423, 0.07623510807752609, -0.007474165875464678, 0.0848115012049675, 0.020854637026786804, -0.0008318170439451933, 0.12008928507566452, -0.021189071238040924, 0.039585381746292114, 0.07070479542016983, -0.05580612272024155, -0.05777494236826897, 0.02007359080016613, 0.07145607471466064, 0.08264942467212677, 0.08711525052785873, -0.07481977343559265, 0.07134001702070236, -0.0026633928064256907, -0.03039577603340149, -0.002863774774596095, -0.07639597356319427, 0.060558587312698364, -0.09053433686494827, 0.012487897649407387, 0.06959180533885956, 0.0480821393430233, -0.019544729962944984, 0.08861976116895676, 0.04869068041443825, -0.01209003385156393, 0.05388987809419632, 0.0619983896613121, 0.059363484382629395, 0.009566075168550014, 0.006190250162035227, -0.02962653525173664, 0.014447775669395924, -0.08186954259872437, 0.046815063804388046, -0.03861449286341667, 0.0073331124149262905, -0.0331425815820694, -0.013112740591168404], [0.042686257511377335, -0.007896184921264648, -0.07433559745550156, -0.07045480608940125, -0.06343685835599899, -0.04790859669446945, 0.044051866978406906, 0.08478633314371109, -0.04339229688048363, 0.08962590992450714, -0.09187713265419006, 0.0008889795280992985, 0.04264925420284271, 0.03823385387659073, -0.08202099055051804, 0.0212025735527277, -0.07017356157302856, 0.061245404183864594, -0.0002623094478622079, -0.04855158179998398, -0.03731784597039223, -0.03054482489824295, 0.007709536701440811, 0.013698755763471127, 0.006938248407095671, 0.04119214788079262, -0.06772995740175247, -0.051129646599292755, -0.06265664100646973, -0.01010578777641058, -0.050386540591716766, -0.08440381288528442, -0.03919539973139763, -0.0926852822303772, -0.07789185643196106, 0.01696540042757988, 0.03485910966992378, -0.013969209976494312, 0.02530772052705288, -0.00013247609604150057, 0.049808382987976074, -0.007089610677212477, 0.01955363340675831, -0.0647280365228653, -0.06936749070882797, -0.027429798617959023, -0.011859944090247154, -0.058863479644060135, 0.09426706284284592, -0.07843847572803497, 0.01742417924106121, 0.02408829890191555, -0.07876903563737869, 0.05884344503283501, 0.07938575744628906, -0.0548350065946579, 0.07477118074893951, -0.06630649417638779, -0.07997655123472214, -0.007995730265974998, 0.012046130374073982, -0.07845234870910645, 0.00647688889876008, -0.06209571659564972, 0.06732353568077087, -0.020702414214611053, 0.034850843250751495, 0.0768408551812172, 0.05445031449198723, -0.07756251841783524, 0.07922237366437912, -0.09100902080535889, -0.055720534175634384, -0.034829553216695786, -0.035990793257951736, 0.02309330366551876, 0.02374199405312538, -0.06125141680240631, 0.05322866141796112, -0.001230793073773384, -0.024754159152507782, 0.04018455371260643, 0.028377410024404526, -0.10017278045415878, 0.024066966027021408, -0.09247095882892609, 0.01474727876484394, 0.025608176365494728, 0.01950620487332344, -0.08893554657697678, -0.0897030234336853, 0.041683364659547806, -0.026725852862000465, 0.002601421205326915, -0.06570073962211609, -0.04069070890545845, 0.08269794285297394, -0.029374677687883377, 0.0847984179854393, 0.009463796392083168, -0.027371618896722794, -0.08715412765741348, -0.048219528049230576, -0.10501907765865326, -0.00886794924736023, -0.04982111230492592, -0.027863984927535057, 0.0033598747104406357, -0.0005880807293578982, 0.08537303656339645, 