{"conv2d_1": {"bias": [0.003850023727864027, 0.044052403420209885, 0.005206251051276922, 0.003437432460486889, 0.021243730559945107, 0.0009553281124681234], "weights": [[[[-0.058786746114492416, -0.09053538739681244, 0.20416048169136047, 0.23648701608181, 0.1985485851764679], [-0.009846469387412071, 0.14146479964256287, 0.14167824387550354, 0.22946324944496155, 0.38379964232444763], [0.31861841678619385, 0.4470462203025818, 0.1452256441116333, 0.07811789959669113, 0.3938441872596741], [0.3619568347930908, 0.18500062823295593, 0.38698622584342957, 0.09253542125225067, 0.15431196987628937], [-0.06818467378616333, 0.2572237253189087, 0.3224071264266968, 0.04649681597948074, -0.06350256502628326]]], [[[0.23709675669670105, 0.09520909190177917, -0.13009609282016754, -0.0452924482524395, -0.09142312407493591], [0.2257009893655777, 0.11413996666669846, -0.18903222680091858, -0.07986603677272797, -0.10598485916852951], [0.1681935340166092, -0.08849620074033737, -0.1982748955488205, 0.04277647286653519, -0.1881096214056015], [0.1641869693994522, -0.18880334496498108, 0.09247159957885742, -0.13681873679161072, -0.028909867629408836], [-0.018661608919501305, -0.1831057071685791, -0.07114679366350174, -0.12219174206256866, -0.1789013296365738]]], [[[0.08834172040224075, -0.1326022893190384, -0.17975014448165894, 0.18319293856620789, -0.11954840272665024], [-0.05194808542728424, 0.0222743209451437, 0.13270655274391174, -0.06370517611503601, 0.1938876062631607], [0.018009992316365242, 0.18705512583255768, -0.1673232614994049, -0.03456364944577217, -0.03855039179325104], [-0.09639759361743927, 0.02582894079387188, -0.11152421683073044, 0.07861476391553879, -0.15631479024887085], [0.10217299312353134, -0.13179674744606018, -0.05110108107328415, -0.05540412291884422, 0.00899272970855236]]], [[[-0.04965587332844734, 0.03263142704963684, 0.0022862721234560013, -0.11369737237691879, -0.03250843659043312], [0.0921538695693016, 0.1228099837899208, 0.20572485029697418, -0.05108612775802612, 0.024633286520838737], [-0.09423410147428513, -0.02722710743546486, -0.10865017026662827, -0.024165544658899307, -0.033738020807504654], [-0.10485827177762985, 0.12711995840072632, 0.06235043331980705, -0.10721522569656372, 0.05077361315488815], [-0.15053550899028778, -0.06567312031984329, -0.00990157201886177, -0.1648755967617035, -0.14592128992080688]]], [[[0.1441752165555954, 0.4361537992954254, 0.2671421766281128, -0.0030540339648723602, 0.001339075854048133], [0.165567085146904, 0.28296253085136414, 0.25223028659820557, 0.044185444712638855, -0.07154198735952377], [0.14376230537891388, 0.27064424753189087, 0.11367583274841309, 0.3671320974826813, 0.044169120490550995], [-0.12593068182468414, 0.002670665504410863, 0.23467625677585602, 0.22032497823238373, 0.31909850239753723], [-0.19564539194107056, 0.16841179132461548, 0.02870769239962101, -0.028253477066755295, 0.10312668979167938]]], [[[-0.020194631069898605, 0.26029881834983826, 0.2663598358631134, 0.12023326754570007, -0.056458115577697754], [-0.06425634771585464, 0.07000134885311127, 0.22264349460601807, 0.13173888623714447, -0.23110078275203705], [-0.042815372347831726, 0.19657467305660248, 0.40253230929374695, 0.3294912874698639, -0.1434135138988495], [0.33214354515075684, 0.45440444350242615, 0.342661052942276, 0.38082441687583923, 0.13914072513580322], [0.30707377195358276, 0.09731526672840118, 0.28776758909225464, 0.367431640625, 0.5336496233940125]]]]}, "conv2d_2": {"bias": [0.06677743792533875], "weights": [[[[-0.0659346655011177, -0.010473674163222313, 0.12189232558012009, 0.00541368592530489, -0.007032500114291906], [0.495395690202713, 0.5042241811752319, 0.36063745617866516, 0.09182815253734589, 0.08056393265724182], [0.08964365720748901, 0.1790628284215927, -0.17019858956336975, -0.04401526227593422, 0.11897794157266617], [-0.022996550425887108, -0.3506656289100647, -0.34395498037338257, 0.15914665162563324, 0.2702692747116089], [-0.144790917634964, -0.06265559792518616, -0.03752768784761429, 0.3625739514827728, 0.33950313925743103]], [[-0.14716751873493195, 0.15693926811218262, 0.08647647500038147, -0.0009198500192724168, -0.2551249861717224], [-0.1051371693611145, -0.004141109064221382, 0.0368485301733017, -0.15168340504169464, -0.1859949827194214], [-0.09806142747402191, -0.12382718920707703, -0.05742310732603073, -0.06260676681995392, -0.22270551323890686], [0.0044220201671123505, -0.2461816668510437, -0.237058624625206, -0.00551951490342617, -0.0855107307434082], [-0.21269555389881134, -0.005593040958046913, -0.199753537774086, 0.004050017334520817, -0.04418088495731354]], [[0.08662266284227371, 0.1395864337682724, 0.03756783530116081, -0.15763604640960693, 0.16694806516170502], [0.1252940595149994, -0.12413462996482849, 0.048043832182884216, -0.13162748515605927, 0.08863021433353424], [0.060762468725442886, 0.12475904077291489, -0.04744221642613411, 0.08305404335260391, 0.17256492376327515], [0.13009414076805115, -0.021733636036515236, -0.025751391425728798, 0.09835069626569748, 0.029485180974006653], [0.13972173631191254, -0.04514531418681145, 0.10619592666625977, -0.15380117297172546, 0.16032271087169647]], [[0.030792687088251114, 0.020152021199464798, 0.0768701434135437, 0.0912552922964096, 0.09522894769906998], [0.1626853048801422, 0.028249705210328102, 0.16661469638347626, 0.11287786066532135, 0.08815225213766098], [0.028375262394547462, -0.036412060260772705, 0.15875688195228577, 0.18411247432231903, -0.17328336834907532], [0.09740570932626724, -0.11500890552997589, -0.007961918599903584, -0.028468573465943336, 0.050493501126766205], [-0.15335650742053986, -0.07052715122699738, 0.005355384666472673, 0.06068204343318939, -0.055239174515008926]], [[0.11947144567966461, 0.062390077859163284, -0.15715649724006653, -0.35955187678337097, -0.24349936842918396], [0.26460158824920654, 0.47223135828971863, 0.335999071598053, -0.059801604598760605, 0.03920679911971092], [-0.08082213252782822, 0.0921221449971199, 0.3585822582244873, 0.11534736305475235, 0.16117990016937256], [-0.01691889576613903, 0.04918227717280388, -0.27991706132888794, 0.11295284330844879, 0.15211695432662964], [-0.027069324627518654, -0.2805405855178833, -0.11435697227716446, -0.19727933406829834, 0.2449667900800705]], [[0.4443748891353607, 0.5333395600318909, 0.49592024087905884, -0.004180405754595995, 0.059614501893520355], [0.24220086634159088, 0.609646201133728, 0.2719782292842865, 0.10633701831102371, 0.2245509773492813], [-0.10005348920822144, 0.0524248331785202, -0.28128865361213684, 0.11681593209505081, 0.2419552505016327], [-0.12088098376989365, -0.19598062336444855, -0.34671318531036377, 0.030947215855121613, 0.20873016119003296], [-0.11576811969280243, -0.22049856185913086, -0.2381582409143448, 0.04892580211162567, 0.2788349986076355]]]]}, "dense_1": {"bias": [0.0029036779887974262, -0.007454526145011187, -0.008773565292358398, -0.005759661551564932, 0.019962748512625694, 0.006450698710978031, 0.00792001560330391, -0.017304204404354095, 0.004576178267598152, 0.04099516570568085, 0.007480794098228216, 0.003992954269051552, -0.018914716318249702, 0.0024758162908256054, 0.021073494106531143, 0.03785401210188866, -0.0024149210657924414, -0.012577686458826065, 0.0050893137231469154, -9.54818824538961e-05, 0.003544685197994113, -0.02508087083697319, -0.005599182564765215, -0.002114213304594159, -0.006153993308544159, 0.007066712714731693, 0.0007806444191373885, 0.0028565358370542526, -0.004925676621496677, 0.0006257845088839531, 0.012100758962333202, -0.006155780050903559, -0.0036921983119100332, 0.01141501683741808, -0.027432018890976906, 0.007812957279384136, 0.004421938210725784, 0.03363128378987312, -0.009109046310186386, 0.0017605561297386885, -0.013822369277477264, -0.017608990892767906, -0.016265081241726875, 0.0344211645424366, -0.0017796324100345373, -0.01002542208880186, 0.0067158532328903675, 0.005302092060446739, -0.0012684112880378962, 0.0030110380612313747, -0.017864348366856575, -0.001642986899241805, 0.026230547577142715, -0.010118425823748112, 0.04961719363927841, 0.027064748108386993, -0.0006788751343265176, -0.002839113352820277, -0.0012356400256976485, 0.012933552265167236, -0.004490175750106573, 0.007974314503371716, -0.012304955162107944, -0.0007111207814887166, -0.0013627063017338514, -0.007422354072332382, -0.016161778941750526, 0.015242279507219791, 0.012636296451091766, -0.006777741014957428, -0.008024443872272968, -0.026398468762636185, 0.019184226170182228, 0.0034842316526919603, 0.01568954810500145, -0.011538179591298103, -0.00991166289895773, 0.013251816853880882, 0.005088240373879671, -0.012076682411134243, -0.006998905912041664, 0.009510163217782974, 0.017088519409298897, 0.0008058384992182255, 0.02397492527961731, 0.00037482503103092313, -0.013734612613916397, -0.01606905274093151, -0.0241834819316864, 0.0007891430286690593, 0.0005688188248313963, 0.004194015637040138, -0.016341371461749077, 0.0015214236918836832, -0.004767252132296562, 0.0023797238245606422, -0.0018694509053602815, 0.004317157436162233, -0.008113788440823555, -0.0005858760559931397, 7.8001176007092e-05, 0.0024600038304924965, 0.012370912358164787, -0.01171273272484541, 0.013002200983464718, 0.007831022143363953, -0.01235022023320198, -0.005987132899463177, -0.0013546550180763006, -0.014212272129952908, 0.0007379126036539674, 0.005861053243279457, -0.008423304185271263, -0.0086164940148592, 0.040915340185165405, -0.0109777320176363, 0.008900770917534828, 0.017829038202762604, 0.05837353318929672, -0.001959427259862423], "weights": [[-0.018907275050878525, -0.06622887402772903, -0.11597106605768204, -0.020562421530485153, 0.1033029556274414, 0.0507696233689785, -0.056060705333948135, 0.053930167108774185, 0.08686932176351547, -0.026159249246120453, 0.07627315819263458, -0.0628189817070961, 0.07099522650241852, 0.03351694345474243, 0.15448620915412903, -0.10452789813280106, -0.043932270258665085, -0.161698117852211, -0.07864903658628464, 0.13708245754241943, -0.04451925307512283, -0.12520663440227509, -0.014573855325579643, -0.041089702397584915, 0.012752240523695946, 0.11121291667222977, 0.04843096435070038, 0.047352880239486694, -0.02947458252310753, -0.021025661379098892, 0.1843794286251068, -0.043147310614585876, 0.05906921997666359, 0.0800587385892868, -0.0902291014790535, 0.13637277483940125, 0.09155845642089844, 0.14773251116275787, -0.1285020411014557, 0.04778941720724106, -0.05415540561079979, 0.1903320550918579, 0.08216554671525955, 0.07272318005561829, -0.016183264553546906, -0.09176342934370041, -0.11444025486707687, -0.10101054608821869, 0.1674303561449051, 0.1397635042667389, -0.034334778785705566, -0.08653651177883148, 0.06692086905241013, 0.0694161131978035, -0.03018643520772457, -0.10217474400997162, -0.11056019365787506, -0.10208764672279358, -0.05946134030818939, -0.005694377236068249, 0.13119806349277496, 0.05060262605547905, 0.12748399376869202, 0.07039899379014969, 0.11217483878135681, 0.06850798428058624, -0.03678691014647484, -0.09900897741317749, 0.10236414521932602, -0.06348711252212524, 0.09468258172273636, 0.07550328224897385, 0.025774970650672913, 0.09249690920114517, -0.049144547432661057, 0.1437315195798874, -0.05294949188828468, 0.10302401334047318, -0.15465843677520752, 0.03515196219086647, 0.007618064060807228, -0.09115041792392731, -0.11792506277561188, 0.1472717970609665, -0.07851490378379822, 0.052930790930986404, -0.12301165610551834, -0.11333915591239929, -0.13022968173027039, -0.11922091245651245, -0.17648471891880035, -0.03570026159286499, -0.06880732625722885, -0.1964021474123001, -0.021961534395813942, 0.1704094111919403, 0.07521314918994904, -0.000912727729883045, 0.08016648888587952, 0.0058902353048324585, 0.1685035079717636, -0.05426598712801933, -0.05532694607973099, -0.02183697186410427, 0.06738267093896866, -0.10089343041181564, 0.07468993961811066, -0.09655498713254929, 0.0692419484257698, 0.07661188393831253, 0.04034414514899254, -0.14547836780548096, 0.14378894865512848, -0.0989098846912384, -0.11145643144845963, 0.02457576058804989, -0.11815757304430008, 0.15071479976177216, 0.07138165086507797, 0.13464079797267914, -0.10709556937217712, -0.10956134647130966, -0.11253787577152252, 0.027443012222647667, 0.0433177687227726, 0.07997702062129974, 0.14308717846870422, -0.08689691871404648, -0.1074095070362091, 0.17615509033203125, 0.06702251732349396, -0.15773342549800873, 0.144049733877182, 0.025827564299106598, 0.11086215823888779, -0.11297936737537384, 0.0663609430193901, 0.07186631858348846, -0.10506828874349594, 0.004189725033938885, 0.15672989189624786, 0.10384609550237656, 0.0016811136156320572, 0.018586311489343643], [0.007989081554114819, 0.002006643218919635, 0.036330901086330414, 0.07071816921234131, 0.023568006232380867, -0.08155412971973419, 0.12260723114013672, -0.032341014593839645, -0.08843794465065002, 0.005796546116471291, -0.0386061817407608, 0.06737909466028214, -0.05706232041120529, 0.06967702507972717, 0.03194168955087662, -0.10896721482276917, -0.04572603479027748, -0.015960287302732468, -0.13456003367900848, 0.10217083245515823, 0.15189535915851593, -0.13762834668159485, -0.10109837353229523, -0.10795800387859344, -0.04934380576014519, -0.11183479428291321, 0.014128675684332848, 0.11310860514640808, -0.1198352500796318, -0.12122532725334167, -0.05236801877617836, -0.13474059104919434, 0.1211068332195282, -0.04469655454158783, 0.0412435345351696, -0.009372294880449772, -0.09734076261520386, 0.08189697563648224, 0.030772574245929718, -0.015234521590173244, 0.08800465613603592, -0.09243426471948624, 0.046489935368299484, 0.0014065633295103908, -0.10472690314054489, 0.06201983988285065, -0.115481898188591, 0.06898730993270874, 0.03649848699569702, 0.0697571337223053, 0.06332658976316452, -0.09543251246213913, 0.11858808249235153, 0.063923679292202, -0.07412871718406677, -0.0642666220664978, -0.0738687738776207, -0.11820089817047119, -0.1340954303741455, -0.055858466774225235, 0.14228571951389313, 0.07980439066886902, -0.02721860632300377, 0.13521960377693176, -0.05019911378622055, -0.13765817880630493, 0.04591157287359238, 0.03221897408366203, -0.02623382955789566, 0.1335236132144928, 0.1108982190489769, -0.05974579602479935, -0.03653692826628685, -0.04839358851313591, -0.11590879410505295, 0.0016627038130536675, 0.001389447133988142, -0.0004068547277711332, 0.09720879048109055, 0.13436198234558105, 0.006458723451942205, 0.04094025492668152, 0.09794100373983383, -0.06003930792212486, -0.021909508854150772, 0.03545331954956055, 0.13447736203670502, 0.0034754937514662743, -0.0564233623445034, -0.07851561903953552, -0.05640901252627373, -0.016698576509952545, 0.09898515790700912, -0.07752809673547745, -0.05784126743674278, 0.1500399261713028, 0.051464468240737915, -0.010553237050771713, -0.033480457961559296, 0.09397103637456894, 0.14538630843162537, 0.026744108647108078, -0.0626245066523552, 0.08550135046243668, -0.026326259598135948, 0.05825681984424591, 0.06675169616937637, 0.0984169989824295, -0.02105383388698101, -0.023716161027550697, 0.12802138924598694, -0.019653363153338432, 0.04934869706630707, 0.04925568774342537, 0.11102768778800964, -0.03835568577051163, 0.1390894055366516, -0.027840597555041313, 0.15501414239406586, 0.1602981984615326, -0.1473691761493683, 0.03812378644943237, 0.10499422252178192, -0.12736031413078308, 0.1128501445055008, -0.031128261238336563, -0.046821124851703644, 0.059212107211351395, 0.10052070766687393, -0.017563022673130035, -0.14737442135810852, -0.15045775473117828, -0.13061465322971344, -0.08444543182849884, 0.07498501986265182, 0.06376969814300537, 0.01236003264784813, -0.08125171065330505, 0.1401691883802414, 0.1053030788898468, -0.06606066226959229, 0.12396645545959473, 0.07977912575006485, -0.13215400278568268], [0.12140075117349625, 0.12987980246543884, 0.06269136816263199, -0.11457672715187073, -0.10078856348991394, 0.12219341099262238, 0.09676753729581833, 0.05736905336380005, -0.0872257798910141, -0.06135721504688263, -0.1300802081823349, -0.1076059490442276, -0.023783251643180847, -0.021901540458202362, -0.11008360236883163, -0.07063684612512589, 0.04606800153851509, -0.07159099727869034, -0.11914621293544769, -0.11020593345165253, -0.029355430975556374, 0.14495548605918884, -0.13766539096832275, -0.09427273273468018, 0.04574884846806526, -0.11728019267320633, 0.1302739828824997, -0.062409378588199615, -0.11410122364759445, -0.12325114011764526, -0.05185076966881752, -0.02015923336148262, 0.05406910181045532, -0.014959142543375492, -0.08319064229726791, 0.08184972405433655, 0.036529455333948135, 0.05384392663836479, 0.13042977452278137, 0.09617189317941666, -0.103056900203228, -0.07356317341327667, -0.04265608265995979, 0.090126171708107, 0.1404792219400406, 0.14739255607128143, 0.13562887907028198, -0.03219995275139809, -0.11779343336820602, 0.043942201882600784, 0.04361383616924286, -0.022418804466724396, -0.13318857550621033, -0.04272114858031273, -0.10078612715005875, 0.013536504469811916, -0.06418439745903015, 0.0324319489300251, 0.09450052678585052, -0.06451345235109329, -0.0041747973300516605, -0.10736758261919022, -0.12478962540626526, 0.049649011343717575, -0.07338706403970718, -0.07722306996583939, -0.024286767467856407, -0.14556024968624115, 0.08763597160577774, 0.04572688415646553, 0.004217455163598061, 0.031847696751356125, -0.10156365483999252, -0.0379859022796154, -0.013547666370868683, -0.07921291142702103, 0.16386349499225616, -0.0835036188364029, 0.0063336435705423355, 0.09999611228704453, -0.13388535380363464, -0.0849757120013237, 0.13936735689640045, -0.05941791832447052, -0.12258981168270111, 0.12396207451820374, 0.04751336947083473, -0.06952730566263199, -0.11934322118759155, 0.16151218116283417, 0.05288286134600639, 0.07746370881795883, -0.13257738947868347, -0.030429352074861526, 0.13226467370986938, 0.14858341217041016, 0.021253546699881554, -0.08638188242912292, 0.1406450867652893, 0.1359945386648178, 0.04380452260375023, -0.020324131473898888, -0.08157934248447418, -0.038750678300857544, -0.013672662898898125, -0.0032919261138886213, -0.1073743924498558, 0.008315090090036392, 0.04381608963012695, 0.07929917424917221, 0.10430783033370972, 0.0770580843091011, -0.1507977992296219, -0.10497203469276428, -0.14863459765911102, 0.13645827770233154, 0.19034209847450256, 0.030269183218479156, 0.13932788372039795, 0.07882300019264221, 0.040846895426511765, -0.14351993799209595, 0.03301582112908363, 0.010215640999376774, -0.03350162133574486, 0.042407069355249405, -0.013023600913584232, 0.14448073506355286, -0.06551769375801086, -0.044165223836898804, -0.06251869350671768, -0.07846025377511978, 0.10512552410364151, 0.061898838728666306, 0.16480661928653717, 0.0779263824224472, 0.029185539111495018, 0.09654112160205841, 0.12424296140670776, -0.11578544229269028, -0.10324130207300186, 0.06708964705467224, 0.0747557282447815, 0.01744001731276512], [0.13626007735729218, -0.02413059026002884, -0.039344433695077896, -0.0354623943567276, 0.0252351276576519, -0.1295579969882965, 0.13019172847270966, 0.05076340585947037, -0.08249501883983612, 0.024091687053442, 0.04866272956132889, 0.1459483951330185, 0.09870025515556335, 0.09898174554109573, -0.1253892332315445, -0.12717179954051971, 0.005267741158604622, -0.04764921963214874, 0.10926009714603424, -0.02925511822104454, 0.10982433706521988, -0.0664629340171814, 0.048722121864557266, -0.05759041756391525, 0.03297070413827896, -0.015635885298252106, 0.011490403674542904, -0.09911379218101501, -0.13506680727005005, -0.1275307834148407, -0.0694013237953186, -0.0952632799744606, -0.13816893100738525, 0.007984044030308723, -0.00657376553863287, 0.03170032054185867, -0.15052630007266998, 0.12383396178483963, 0.039866719394922256, -0.10355724394321442, -0.04299600422382355, 0.0468987412750721, 0.03191985934972763, -0.11108122020959854, 0.059337224811315536, -0.0025382661260664463, -0.05545065551996231, 0.09233444184064865, 0.05395377427339554, 0.13299009203910828, -0.1304442286491394, 0.06958814710378647, 0.009034545160830021, 0.012894060462713242, -0.10130732506513596, 0.02105541154742241, 0.09884639084339142, 0.015618125908076763, 0.12221118807792664, 0.09850308299064636, -0.08448478579521179, 0.018167851492762566, -0.12322527915239334, 0.08228744566440582, 0.09134168922901154, -0.0189848430454731, 0.1301346719264984, 0.1698855310678482, -0.1166805773973465, -0.12198200821876526, -0.05845598503947258, 0.12269167602062225, 0.017163041979074478, 0.11012592911720276, -0.09957557171583176, 0.017936034128069878, -0.06703290343284607, -0.12437859177589417, -0.040252186357975006, 0.11115901172161102, 0.07793062925338745, -0.12018036842346191, -0.13845671713352203, 0.04792723432183266, -0.14480900764465332, -0.11275171488523483, -0.01284458301961422, 0.028723038733005524, 0.14300744235515594, 0.05806329473853111, 0.14582563936710358, -0.012094051577150822, 0.13064303994178772, -0.03842012956738472, -0.1254577934741974, 0.06236404553055763, -0.13963349163532257, -0.031611368060112, -0.06854158639907837, -0.10076737403869629, 0.05142698436975479, -0.04621358588337898, 0.14698778092861176, -0.0045324452221393585, 0.04992242529988289, 0.15385980904102325, -0.0013863487401977181, 0.08048960566520691, -0.12941299378871918, 0.11929616332054138, -0.03632340952754021, -0.06101423129439354, -0.09224823117256165, -0.0505649670958519, -0.12255822867155075, -0.11136604100465775, -0.11502450704574585, -0.08518852293491364, -0.11128126084804535, -0.13323262333869934, -0.06287121772766113, 0.11378493160009384, 0.15225525200366974, 0.03007052093744278, 0.017332490533590317, -0.14008702337741852, 0.06607192009687424, -0.07139741629362106, 0.10375302284955978, -0.04570074379444122, -0.08592478930950165, 0.10723233968019485, 0.01592370681464672, 0.11559402942657471, -0.02480895072221756, 0.11951518058776855, -0.05316887050867081, -0.11396656185388565, -0.05137867107987404, 0.042314015328884125, -0.019717605784535408, -0.025827670469880104, -0.11730854958295822, -0.07910899817943573], [0.042598262429237366, -0.10472593456506729, 0.035719145089387894, 0.08268748223781586, -0.11673092842102051, -0.03079763986170292, 0.104912169277668, -0.09050548076629639, 0.03633226454257965, -0.0364312008023262, -0.04542231932282448, -0.07906727492809296, -0.07563944905996323, -0.0006949657690711319, -0.1300070434808731, -0.1307014673948288, -0.12371852993965149, -0.1666717678308487, -0.0649176836013794, -0.03255065158009529, 0.07291743159294128, -0.02720525674521923, 0.09822282195091248, 0.13906650245189667, -0.08966884762048721, 0.05278750881552696, 0.07127273827791214, 0.1532294601202011, 0.030554287135601044, -0.04514187201857567, 0.1046881228685379, -0.08904772251844406, -0.02311781607568264, -0.08545789122581482, -0.023534713312983513, 0.08471017330884933, 0.0271438155323267, 0.030201619490981102, 0.08002496510744095, -0.07528173178434372, -0.17479291558265686, -0.19066719710826874, -0.0528305359184742, 0.051419295370578766, 0.07438266277313232, -0.11534742265939713, -0.07654637843370438, -0.023810142651200294, -0.13744273781776428, 0.060279253870248795, 0.05946002155542374, -0.1231592670083046, -0.18549340963363647, 0.08351755887269974, 0.10651445388793945, 0.04669055715203285, -0.12720037996768951, -0.14009816944599152, 0.14048710465431213, 0.05925963073968887, -0.042183805257081985, 0.01429961808025837, 0.12330862879753113, 0.08166820555925369, -0.1809185892343521, 0.11992302536964417, 0.11901749670505524, 0.1073472648859024, 0.17834614217281342, 0.1703505665063858, 0.07081589847803116, 0.08734922856092453, -0.0918283760547638, -0.04610138013958931, -0.06314646452665329, 0.08302654325962067, 0.09831701219081879, -0.03177615627646446, 0.0576338991522789, -0.02397160790860653, 0.07899121940135956, 0.015450028702616692, -0.042660024017095566, 0.05638235807418823, 0.03250795230269432, -0.08727643638849258, -0.0356360524892807, -0.12253943830728531, 0.062012169510126114, -0.11130683124065399, 0.0816645398736, -0.2168276607990265, -0.051551204174757004, -0.08312152326107025, -0.13015247881412506, 0.10940811783075333, 0.007201489061117172, -0.00783383660018444, -0.12449704855680466, 0.046086277812719345, -0.016625363379716873, 0.06152926757931709, -0.11856929957866669, 0.10320897400379181, 0.036074116826057434, -0.1265718638896942, 0.03334818035364151, 0.07044824957847595, -0.1408584713935852, 0.011033318936824799, -0.0442764088511467, -0.10761260241270065, 0.02013690024614334, -0.09249747544527054, 0.0581924207508564, -0.14017492532730103, -0.008329587988555431, 0.11127372086048126, 0.1198110431432724, -0.15221741795539856, 0.005491292104125023, 0.08915475010871887, 0.09675601869821548, -0.09322218596935272, 0.031989920884370804, 0.10757272690534592, -0.11715075373649597, -0.09677618741989136, 0.02547973208129406, 0.03654002398252487, -0.12127324938774109, -0.07410387694835663, 0.023398948833346367, -0.06768446415662766, 0.05279107019305229, -0.02693895995616913, 0.055439360439777374, 0.06857813894748688, -0.07989933341741562, 0.10760258883237839, -0.0891360193490982, 0.06201864406466484, -0.0045642852783203125, -0.12576919794082642], [-0.05589846894145012, 0.035751111805438995, -0.1477874517440796, 0.03364963084459305, -0.055167071521282196, -0.0248783677816391, -0.0081920912489295, -0.03528408333659172, 0.008239145390689373, 0.05788698047399521, -0.019179128110408783, 0.0915616825222969, -0.060837503522634506, -0.14206568896770477, 0.05365096032619476, 0.0170341357588768, 0.015840575098991394, -0.054921749979257584, -0.08979681879281998, -0.05945344269275665, -0.14164604246616364, -0.04343961551785469, 0.11214420199394226, 0.056233473122119904, -0.08886338770389557, 0.011851636692881584, -0.08111682534217834, -0.11266812682151794, 0.05906042829155922, 0.1633789986371994, -0.08819686621427536, 0.06448709219694138, 0.01901688426733017, 0.13183364272117615, 0.07062016427516937, 0.030027752742171288, -0.015783103182911873, 0.06030139699578285, -0.03659842535853386, -0.08101499080657959, -0.002459785668179393, 0.11592976003885269, -0.10920063406229019, -0.06077423319220543, -0.08892036229372025, -0.08056803047657013, 0.05197430029511452, -0.10292080789804459, 0.04469267651438713, 0.09031634032726288, 0.12287801504135132, 0.09005787968635559, -0.04473846033215523, 0.0409020371735096, 0.13437622785568237, 0.1012565866112709, -0.059470318257808685, 0.01688603311777115, 0.10741226375102997, 0.14505422115325928, -0.09879803657531738, -0.019723523408174515, -0.011615918949246407, -0.11804775148630142, 0.05959952622652054, 0.17231890559196472, 0.14397020637989044, 0.05666811391711235, -0.02286272495985031, -0.11030103266239166, -0.016610994935035706, -0.07851512730121613, 0.1661510169506073, -0.05431869253516197, 0.018637385219335556, -0.04304138198494911, 0.1288057565689087, 0.025907913222908974, 0.07749275863170624, 0.0886155217885971, 0.008691069670021534, -0.03988005220890045, -0.08419840037822723, -0.0795077532529831, -0.02070467360317707, 0.028212683275341988, -0.1508597731590271, 0.06351248174905777, 0.032732170075178146, -0.1623857021331787, -0.10440687835216522, 0.0017204878386110067, -0.13835035264492035, 0.1547073870897293, -0.036992140114307404, -0.020830687135457993, 0.02046271041035652, 0.009979921393096447, 0.12195264548063278, 0.01894766092300415, -0.1535664200782776, -0.1195250079035759, 0.03925671800971031, 0.023258019238710403, -0.08626534789800644, 0.05611328408122063, 0.06043536961078644, 0.06264964491128922, 0.049065008759498596, 0.08579938113689423, 0.023451371118426323, 0.02685491368174553, 0.16206087172031403, 0.085007444024086, -0.10954251140356064, -0.04027315601706505, -0.09461946040391922, -0.09642793983221054, -0.06061065196990967, 0.1043209657073021, 0.07049454003572464, -0.10546889901161194, -0.04179563373327255, 0.04889781028032303, 0.16158054769039154, 0.13016481697559357, 0.02565104328095913, -0.05401410162448883, 0.14193056523799896, 0.024649618193507195, -0.12149680405855179, -0.10668550431728363, -0.08474031835794449, 0.07155481725931168, 0.07095157355070114, -0.16636840999126434, -0.06012514978647232, -0.03944779187440872, -0.07316957414150238, -0.10432296246290207, 0.026126017794013023, -5.34436185262166e-06, -0.006330692674964666, -0.03289684280753136], [0.058156970888376236, 0.07559818029403687, 0.19216500222682953, 0.007190501317381859, 0.11306589096784592, 0.08563682436943054, 0.09680824726819992, 0.005980139598250389, -0.07083091139793396, 0.04152945429086685, 0.11884495615959167, 0.001670012716203928, -0.037134334444999695, 0.1201089546084404, 0.17635606229305267, 0.1700061857700348, 0.03742837533354759, -0.05068688094615936, -0.17007718980312347, -0.1604723483324051, -0.15013299882411957, 0.14372608065605164, -0.08504974097013474, -0.08392293006181717, 0.06175132468342781, -0.07812480628490448, -0.019967669621109962, -0.057769887149333954, 0.033693961799144745, -0.04841219261288643, -0.0406324602663517, 0.0029415867757052183, 0.060130342841148376, 0.039968572556972504, 0.04510006681084633, 0.021997278556227684, -0.09534690529108047, -0.13197262585163116, 0.024179795756936073, -0.11349008977413177, -0.09987759590148926, -0.04268858581781387, -0.1241578534245491, -0.054436713457107544, 0.011183042079210281, 0.06909038871526718, -0.04809659346938133, 0.14791962504386902, -0.04777640476822853, 0.08701212704181671, 0.06286031007766724, 0.13037052750587463, -0.0033028617035597563, -0.15561622381210327, 0.08192164450883865, -0.14926233887672424, 0.10871093720197678, -0.046342287212610245, 0.11638171225786209, 0.18574893474578857, 0.12104392796754837, -0.07338165491819382, 0.10072308778762817, -0.01907782442867756, 0.10488729178905487, 0.03898216038942337, -0.06191428005695343, -0.019539296627044678, -0.09008949249982834, -0.12408385425806046, 0.09847550839185715, 0.1906314194202423, 0.10148939490318298, -0.04375811293721199, -0.020952681079506874, 0.07449807226657867, -0.03595680370926857, 0.013576151803135872, 0.12324879318475723, -0.039126865565776825, 0.06074824556708336, 0.027806099504232407, -0.06856000423431396, 0.07962361723184586, -0.08452624082565308, 0.06823703646659851, -0.075444795191288, 0.125271275639534, -0.15594108402729034, -0.015292460098862648, 0.1604800522327423, 0.09433645755052567, 0.019982535392045975, -0.09217530488967896, -0.13732671737670898, 0.1484755277633667, -0.13842013478279114, 0.059941038489341736, -0.028541134670376778, -0.11043927073478699, 0.12451504915952682, -0.059064216911792755, 0.15045885741710663, 0.11558973044157028, 0.028724567964673042, -0.04928739368915558, -0.039987675845623016, -0.15089645981788635, 0.11373835802078247, -0.1554955691099167, 0.08174944669008255, -0.017186326906085014, 0.05255462974309921, 0.14301706850528717, -0.02348211035132408, -0.014518714509904385, 0.11502542346715927, -0.09584502875804901, 0.12160656601190567, -0.07043655216693878, 0.1228528842329979, -0.06689281761646271, -0.049201078712940216, -0.062306806445121765, 0.01037681382149458, -0.06884077191352844, -0.06023314595222473, 0.046598102897405624, -0.09647513180971146, 0.08974401652812958, -0.12948761880397797, -0.0658288523554802, 0.14045579731464386, 0.12374496459960938, 0.13001671433448792, -0.12087727338075638, 0.12962697446346283, 0.10331776738166809, -0.09725204110145569, -0.12380187958478928, 0.05514088645577431, -0.13805948197841644, 0.1079515665769577, 0.07109138369560242], [-0.1136401817202568, 0.14018705487251282, -0.15900352597236633, -0.1361904740333557, 0.01639661192893982, 0.058738209307193756, 0.09166618436574936, 0.13891200721263885, 0.10417983680963516, -0.011406666599214077, 0.08062949776649475, 0.058104634284973145, 0.13403573632240295, -0.1416267454624176, -0.051471199840307236, -0.03493444249033928, -0.07780992984771729, -0.10237900167703629, -0.1061982735991478, -0.0640144795179367, -0.00519559346139431, -0.10203389078378677, 0.07495098561048508, 0.12484705448150635, 0.16356734931468964, -0.03773064538836479, 0.06725651770830154, 0.1036338210105896, -0.12364505976438522, 0.06882686167955399, -0.04115809127688408, 0.12606176733970642, 0.08023402094841003, 0.12829303741455078, -0.08005784451961517, 0.07468443363904953, 0.047441113740205765, 0.1396643966436386, -0.1049460619688034, 0.07017594575881958, 0.06087188795208931, 0.026414716616272926, 0.06090260297060013, -0.12231135368347168, -0.1396094262599945, -0.051573123782873154, 0.09113074094057083, -0.005266063846647739, 0.12339724600315094, 0.08282789587974548, 0.09097141772508621, -0.02152545563876629, -0.07516203820705414, 0.11304889619350433, 0.007493375800549984, 0.0563025176525116, 0.09380097687244415, 0.02019798941910267, -0.021178893744945526, 0.05799885094165802, -0.07202174514532089, -0.09848163276910782, 0.002619427163153887, 0.024449963122606277, -0.18472689390182495, 0.04496757686138153, -0.08247344940900803, 0.06042812019586563, -0.07137300074100494, -0.07280998677015305, 0.13201865553855896, 0.11163745075464249, 0.1329699605703354, 0.10127716511487961, -0.01678837463259697, 0.0942465290427208, 0.09198286384344101, -0.009923822246491909, 0.005703873932361603, -0.06308918446302414, 0.03933529555797577, -0.060059644281864166, 0.0725356712937355, -0.023890135809779167, -0.11031278967857361, 0.023663710802793503, 0.13310353457927704, -0.12508715689182281, -0.05716916173696518, 0.08625353127717972, 0.03390360251069069, 0.13790160417556763, 0.04841698333621025, -0.044953279197216034, -0.001040019909851253, 0.039621416479349136, -0.007360377348959446, 0.11999017745256424, 0.12324052304029465, 0.1438513845205307, -0.12748052179813385, -0.015457827597856522, -0.12133724242448807, -0.08723664283752441, -0.07182800769805908, -0.039418239146471024, 0.11663559079170227, 0.03051639348268509, -0.0874868705868721, -0.12352162599563599, -0.1415669023990631, 0.11440526694059372, -0.1485750526189804, 0.05981491506099701, 0.06392723321914673, -0.02795836515724659, 0.04019247740507126, -0.11124862730503082, 0.07636821269989014, 0.021667588502168655, -0.09995707869529724, -0.10512188076972961, 0.08754299581050873, -0.04191945120692253, -0.10338633507490158, -0.048648033291101456, 0.0438564196228981, -0.12760871648788452, 0.03773723542690277, 0.011420661583542824, 0.09616915881633759, -0.04264228045940399, -0.1433609426021576, 0.12696772813796997, 0.05672692507505417, 0.004613226279616356, 0.04607909172773361, -0.043591100722551346, 0.1019173264503479, -0.11836578696966171, 0.07555875182151794, -0.04676107317209244, 0.07196561247110367, -0.09632965922355652], [0.025016216561198235, -0.16034439206123352, 0.02645595371723175, -0.041826315224170685, 0.0272956732660532, -0.03973662853240967, 0.133741095662117, 0.027386760339140892, -0.04148855805397034, 0.11579951643943787, -0.10934334248304367, -0.02069515362381935, -0.12324788421392441, 0.017179077491164207, 0.05297356843948364, -0.0340726301074028, 0.1272534430027008, 0.0313454233109951, -0.08103390038013458, -0.12246772646903992, -0.03568978235125542, 0.0503314770758152, -0.09366562962532043, 0.013708281330764294, 0.1059311181306839, -0.09326889365911484, 0.10003337264060974, -0.14141516387462616, -0.046515386551618576, -0.0481666661798954, 0.1231347844004631, -0.016334865242242813, -0.039713989943265915, -0.030622541904449463, -0.13567672669887543, 0.028110921382904053, -0.01820705644786358, -0.11663821339607239, -0.012627153657376766, 0.047137852758169174, 0.1307038962841034, 0.10007926821708679, 0.14408868551254272, 0.01408165693283081, -0.05247734114527702, 0.11966551095247269, -0.20243485271930695, -0.13229602575302124, -0.06815146654844284, 0.1457372009754181, 0.13204586505889893, -0.1273234337568283, 0.13689446449279785, 0.04481296241283417, 0.1517053246498108, 0.08975488692522049, 0.06637269258499146, 0.08639334887266159, 0.07267580181360245, -0.09279018640518188, 0.11706268787384033, 0.005228455178439617, -0.05642067641019821, 0.07636319845914841, -0.1300634741783142, 0.11902334541082382, -0.11569081991910934, -0.026795735582709312, 0.12956520915031433, 0.013351758010685444, -0.026319202035665512, -0.10242469608783722, -0.10979557782411575, 0.12580877542495728, 0.03113468736410141, 0.020159795880317688, 0.04951741546392441, -0.09426078200340271, 0.020268211141228676, -0.08526472002267838, 0.11963814496994019, -0.05827350169420242, -0.012132745236158371, 0.025809556245803833, 0.11453048884868622, 0.06289441883563995, -0.1450134515762329, -0.03895534947514534, 0.13147152960300446, -0.0868915468454361, -0.03502635285258293, 0.10652998089790344, -0.0317809134721756, 0.11758031696081161, -0.1419709324836731, -0.04028032720088959, -0.11063648015260696, 0.14404070377349854, 0.06927301734685898, -0.07776957750320435, -0.041507672518491745, -0.1302194446325302, 0.04094160348176956, 0.08340784162282944, -0.0382978692650795, -0.1384958028793335, -0.1682266741991043, 0.035597823560237885, 0.02803432010114193, 0.026493459939956665, 0.018622711300849915, -0.053461696952581406, 0.034570809453725815, -0.01070915162563324, -0.056944623589515686, 0.020342200994491577, 0.04346581920981407, -0.003189132083207369, -0.05330434814095497, 0.12898114323616028, -0.09196870028972626, -0.009337563998997211, -0.001991790719330311, 0.10359993577003479, -0.012493603862822056, 0.0456710085272789, 0.0715215802192688, 0.06060639023780823, -0.06536194682121277, -0.02735687978565693, 0.08095341920852661, -0.03797706961631775, -0.0841277539730072, 0.03736741468310356, 0.14710192382335663, 0.058584313839673996, 0.020900435745716095, 0.059879496693611145, 0.030765581876039505, -0.05440770462155342, 0.06934811174869537, -0.024982815608382225, -0.016173088923096657, -0.038142092525959015], [-0.03964080661535263, -0.13518080115318298, -0.011116953566670418, 0.06343058496713638, -0.019959207624197006, 0.05160389095544815, -0.03210283815860748, -0.03329512104392052, -0.035975635051727295, 0.11692727357149124, -0.0788850337266922, 0.05511736869812012, -0.16194011270999908, -0.11285987496376038, -0.1354943811893463, 0.15470834076404572, -0.08649002015590668, 0.05705922469496727, -0.1805000901222229, 0.09036904573440552, -0.1662774533033371, -0.13575273752212524, 0.08184291422367096, -0.01317222137004137, -0.12926320731639862, -0.05910729989409447, 0.15592826902866364, 0.1757449358701706, 0.03646139055490494, -0.11693483591079712, -0.13860328495502472, -0.20482410490512848, -0.003484620014205575, 0.021595407277345657, -0.12652121484279633, -0.07666660845279694, -0.12080388516187668, -0.12191445380449295, 0.08706161379814148, -0.024527326226234436, 0.04320203885436058, -0.16328339278697968, 0.05818907171487808, -0.045061029493808746, -0.1264868825674057, -0.10179921984672546, 0.0944070816040039, 0.08499062061309814, 0.11411227285861969, 0.053177740424871445, -0.11348293721675873, -0.05929199606180191, -0.141394704580307, -0.04610944539308548, -0.08049529045820236, 0.15027160942554474, 0.10385288298130035, 0.09953764826059341, 0.11596879363059998, 0.18629151582717896, 0.07906640321016312, -0.1081940233707428, 0.06509601324796677, 0.1118217185139656, -0.014256034977734089, 0.19855590164661407, 0.06643342226743698, -0.07069902867078781, -0.029014496132731438, -0.048033397644758224, 0.1276305466890335, 0.13767856359481812, 0.0853828638792038, -0.005247778259217739, 0.06670455634593964, 0.11093789339065552, 0.0011065296130254865, 0.1556350737810135, -0.058912426233291626, -0.11931551247835159, -0.03860732540488243, 0.07655147463083267, -0.1503092348575592, 0.020395806059241295, -0.07981529831886292, 0.1558225154876709, 0.07474055141210556, -0.022034166380763054, 0.14216198027133942, -0.02453230693936348, -0.11065894365310669, -0.04932259023189545, -0.00177984859328717, 0.04617752134799957, 0.06474628299474716, -0.09103205054998398, -0.0658722072839737, -0.025124384090304375, -0.07642524689435959, 0.010016169399023056, 0.05043765529990196, -0.021347153931856155, 0.0655810758471489, -0.048128243535757065, 0.02972298674285412, -0.10959440469741821, -0.034770239144563675, 0.03796643391251564, 0.11286787688732147, 0.09092245995998383, -0.026539169251918793, -0.10030440986156464, 0.07259396463632584, -0.12710395455360413, 0.0795891061425209, 0.08697941899299622, -0.021691789850592613, -0.1420477032661438, -0.10254793614149094, 0.02433805726468563, -0.06773974001407623, -0.08693832159042358, -0.10513193905353546, 0.14218512177467346, 0.11930591613054276, -0.09786351770162582, 0.05769592151045799, -0.04650722071528435, 0.015165797434747219, -0.00014361293870024383, 0.0001636384695302695, -0.13985182344913483, 0.03782770410180092, -0.09568927437067032, 0.08910907059907913, -0.004784582648426294, -0.03829376772046089, 0.12624892592430115, 0.15328684449195862, -0.14570142328739166, 0.013890794478356838, -0.10795281827449799, -0.14887501299381256, -0.04799322038888931], [-0.00775914266705513, -0.12384787201881409, 0.03901515156030655, -0.09997451305389404, 0.032933950424194336, 0.07397185266017914, 0.011579491198062897, -0.09210000932216644, 0.044699784368276596, -0.05471821874380112, -0.07332124561071396, 0.0829465314745903, 0.07966939359903336, 0.013367838226258755, -0.05729776993393898, -0.04122428968548775, 0.05859139561653137, 0.06700542569160461, -0.08825154602527618, 0.08512013405561447, 0.10011433064937592, 0.0252277422696352, -0.12099028378725052, 0.12383610755205154, -0.04989608749747276, -0.07702125608921051, 0.13977941870689392, 0.09014662355184555, 0.05046141892671585, 0.02251964993774891, 0.05896567180752754, -0.06392370909452438, 0.04532649740576744, -0.18856507539749146, 0.05961942300200462, -0.01124654058367014, 0.08297481387853622, 0.12618322670459747, -0.01350493635982275, -0.08768682181835175, 0.07499067485332489, -0.021084189414978027, 0.002232684986665845, -0.09481652826070786, -0.14922447502613068, 0.0928550437092781, -0.10743096470832825, -0.019982732832431793, 0.07889928668737411, 0.060033515095710754, 0.10180183500051498, -0.1292290985584259, 0.07019250094890594, -0.12005306035280228, -0.027848005294799805, 0.029287708923220634, 0.03498602285981178, 0.09782248735427856, 0.07208038121461868, -0.09145765006542206, -0.028641439974308014, -0.16183890402317047, -0.15527766942977905, -0.09146378934383392, -0.06893561780452728, 0.026818668469786644, 0.10645490884780884, -0.14098778367042542, 0.02027338743209839, 0.14752386510372162, 0.010470947250723839, -0.0325460284948349, 0.07081497460603714, 0.11491543054580688, -0.04557760804891586, -0.11247221380472183, -0.0065368725918233395, 0.15650303661823273, 0.0347544364631176, -0.11103016138076782, -0.12949711084365845, 0.08172272890806198, 0.03870542347431183, -0.06444138288497925, -0.04114985466003418, 0.15253525972366333, 0.07954429090023041, 0.05221017450094223, 0.15045279264450073, 0.004033559467643499, -0.02724667452275753, 0.09477626532316208, -0.03364355489611626, -0.022088106721639633, -0.0780840814113617, 0.04073086380958557, -0.0841803178191185, 0.12367944419384003, 0.012278648093342781, 0.009659339673817158, 0.005843919701874256, 0.09278383105993271, 0.09745383262634277, 0.10024112462997437, 0.008619355037808418, 0.038048163056373596, 0.013379649259150028, 0.11706425994634628, 0.12512145936489105, -0.1472780406475067, 0.0194109994918108, -0.033361878246068954, -0.05240567773580551, 0.041759856045246124, 0.027547655627131462, 0.13031134009361267, 0.012573149986565113, 0.15451806783676147, 0.14585895836353302, -0.02662997879087925, 0.10765326768159866, -0.07011304795742035, -0.048545822501182556, -0.07202999293804169, -0.09685485810041428, -0.13859234750270844, -0.0354754813015461, -0.012280049733817577, 0.03291623294353485, 0.13900506496429443, 0.10106239467859268, -0.011989841237664223, -0.07599793374538422, -0.0012127390364184976, 0.13407087326049805, -0.04455261677503586, 0.11576706171035767, -0.04113500565290451, -0.06896720826625824, -0.05543060228228569, -0.14613127708435059, -0.08882715553045273, -0.03641960769891739, -0.14735724031925201], [-0.019841670989990234, 0.13514463603496552, 0.050823941826820374, -0.10368650406599045, 0.068618543446064, -0.06622293591499329, 0.0006864370661787689, 0.02202523872256279, -0.15035632252693176, -0.03250166028738022, 0.08093462884426117, 0.1232001781463623, 0.04686500504612923, 0.02526196837425232, 0.0957103818655014, -0.03780604526400566, -0.004110127687454224, 0.05937705188989639, 0.1102801263332367, -0.037540826946496964, -0.010323166847229004, 0.11743048578500748, -0.058997150510549545, -0.09980455785989761, -0.009188780561089516, 0.1297024041414261, 0.0914309173822403, 0.01409496832638979, -0.0028359522111713886, -0.0944642648100853, 0.036115992814302444, -0.10850650817155838, 0.17473015189170837, -0.07195316255092621, 0.024417128413915634, 0.014450124464929104, -0.07148846238851547, 0.0625130906701088, 0.10136184096336365, -0.03489129617810249, -0.08617860078811646, 0.09085378050804138, 0.03733602538704872, -0.10566113144159317, 0.0829167291522026, 0.027656283229589462, 0.02445758506655693, 0.10301731526851654, 0.1447683423757553, 0.008171462453901768, -0.09615185856819153, -0.07416035234928131, -0.061458148062229156, 0.14292536675930023, 0.13242754340171814, 0.08335839956998825, -0.13235290348529816, -0.04837637022137642, -0.12438086420297623, -0.12475515156984329, -0.1280304193496704, -0.08798454701900482, -0.12181129306554794, 0.14460383355617523, -0.11694389581680298, -0.12814080715179443, 0.14133261144161224, -0.042447932064533234, 0.006715588737279177, -0.10783713310956955, -0.14100569486618042, -0.1391081064939499, 0.12527139484882355, 0.02692120522260666, -0.08184172213077545, -0.03145991265773773, 0.02859649620950222, -0.0003636591718532145, 0.005408575292676687, 0.126942440867424, 0.07291959971189499, -0.08085805922746658, 0.013278614729642868, -0.025235438719391823, 0.033014047890901566, 0.06849487870931625, -0.10452697426080704, -0.12064538151025772, 0.02027178555727005, -0.03209398314356804, 0.0809217244386673, 0.10896384716033936, 0.07052737474441528, -0.1124594658613205, 0.03612815961241722, -0.008553089573979378, -0.07644528895616531, 0.009371905587613583, 0.05882745981216431, -0.016801875084638596, -0.09550417959690094, 0.07456324249505997, -0.05548305809497833, 0.011453620158135891, 0.018870461732149124, 0.16032417118549347, -0.06490153819322586, 0.01811976172029972, 0.01587190292775631, -0.045798733830451965, 0.09214287251234055, -0.044030554592609406, -0.0984610766172409, -0.13353942334651947, 0.10880246013402939, 0.023168152198195457, 0.0397283174097538, 0.13266044855117798, 0.13577263057231903, -0.08982867747545242, 0.07820606231689453, -0.14172421395778656, 0.027214203029870987, 0.019115285947918892, -0.0067407819442451, -0.09541036933660507, -0.03471026197075844, -0.13711154460906982, -0.03697429597377777, 0.13220040500164032, 0.1323251575231552, 0.12683077156543732, 0.051438480615615845, -0.015830963850021362, 0.07598355412483215, -0.06964930146932602, 0.08628996461629868, -0.11836929619312286, 0.009198425337672234, 0.034348346292972565, -0.16306477785110474, -0.184792622923851, -0.14607949554920197, 0.10565594583749771], [0.07319917529821396, -0.10794781893491745, -0.07266762107610703, 0.054007843136787415, 0.11683305352926254, 0.04418038949370384, -0.11236166208982468, 0.136635884642601, -0.13453234732151031, -0.12856458127498627, -0.10375678539276123, -0.10261674970388412, 0.07775627076625824, 0.11537108570337296, 0.05476896092295647, 0.039555493742227554, 0.106214739382267, 0.07438822835683823, 0.09950607270002365, 0.023336512967944145, 0.14686891436576843, 0.08095492422580719, 0.015120134688913822, 0.07714998722076416, 0.04319235309958458, 0.06099710986018181, 0.009813062846660614, 0.02849523350596428, -0.13569074869155884, 0.0463893748819828, -0.11813262850046158, 0.09958435595035553, 0.020463576540350914, -0.06931120157241821, -0.07724632322788239, 0.09697802364826202, 0.01607321947813034, -0.13195423781871796, 0.06924926489591599, -0.06975392252206802, -0.09766561537981033, -0.042084701359272, -0.1152876764535904, -0.1538631021976471, -0.009899497963488102, 0.07317798584699631, 0.04836519435048103, -0.027496330440044403, 0.10129150748252869, -0.15165692567825317, 0.10076708346605301, -0.03740699961781502, -0.10700760781764984, -0.08487273752689362, 0.060987439006567, 0.03781895712018013, -0.07631182670593262, -0.004456687718629837, 0.0010459845652803779, -0.1265004277229309, 0.0017010706942528486, 0.044268619269132614, 0.08096349984407425, 0.005594135727733374, -0.14681394398212433, 0.013426442630589008, -0.02769710309803486, -0.07551086694002151, 0.0052177077159285545, -0.04441659525036812, 0.12621945142745972, 0.11904111504554749, 0.03817058727145195, 0.01178048923611641, -0.015530254691839218, 0.09199877828359604, -0.1346157044172287, 0.09099256247282028, 0.0852086991071701, -0.03507314249873161, 0.01694701425731182, 0.06901271641254425, -0.027324829250574112, -0.029088033363223076, -0.1048317551612854, 0.11689942330121994, -0.15299546718597412, -0.1082599014043808, -0.12406493723392487, 0.07953272759914398, 0.08136050403118134, -0.16103702783584595, 0.01783675327897072, -0.026284854859113693, 0.11715421080589294, 0.0758371502161026, -0.09173358976840973, 0.06869763880968094, 0.09100935608148575, 0.07546845823526382, -0.010420501232147217, 0.08624774217605591, -0.0685281828045845, -0.06043591350317001, 0.11747873574495316, 0.08549942821264267, -0.00035611208295449615, -0.05736369639635086, 0.11944320797920227, -0.09302245080471039, 0.08759043365716934, -0.12733717262744904, -0.12383335828781128, 0.13706079125404358, -0.15578193962574005, 0.009377062320709229, 0.00488680973649025, -0.07408156245946884, 0.05366329476237297, -0.14928604662418365, 0.11091380566358566, -0.10066214948892593, 0.12396731972694397, -0.09931904077529907, -0.0030086426995694637, -0.15076684951782227, -0.09056468307971954, -0.10856702923774719, -0.16562683880329132, -0.008263234049081802, 0.10114441812038422, 0.027975844219326973, -0.021427730098366737, 0.004129895009100437, -0.009456343948841095, 0.10272675007581711, -0.06222519278526306, -0.08030468225479126, 0.11039333790540695, 0.13129842281341553, -0.1508115977048874, 0.06947464495897293, -0.09655284881591797, 0.022755758836865425], [-0.05355645343661308, 0.008581893518567085, -0.01644725911319256, 0.06623929738998413, -0.0721840187907219, 0.13451361656188965, 0.067313551902771, 0.08427576720714569, -0.08668201416730881, 0.03701763600111008, -0.007809991016983986, 0.053030502051115036, -0.015518753789365292, -0.12725676596164703, 0.15020392835140228, 0.07345376163721085, -0.0861654281616211, 0.07253719866275787, -0.00969682727009058, 0.07615678012371063, -0.0019072062568739057, -0.06442546099424362, -0.02883840724825859, -0.08854491263628006, -0.004042454529553652, -0.031873058527708054, -0.027595896273851395, 0.08832310140132904, -0.06790156662464142, -0.07885755598545074, 0.10673382133245468, -0.12112977355718613, 0.03894854336977005, -0.10950077325105667, -0.10186701267957687, -0.06780190765857697, 0.028867725282907486, -0.020375322550535202, -0.006613130681216717, -0.058981213718652725, 0.11440425366163254, 0.04429340735077858, -0.09549508988857269, 0.10706455260515213, -0.07764507085084915, 0.07308531552553177, 0.10560140013694763, -0.09203781932592392, -0.0051613133400678635, -0.008746902458369732, -0.022340230643749237, 0.07476349920034409, 0.12306959927082062, -0.09794116765260696, 0.09676351398229599, -0.14322564005851746, -0.06304603815078735, -0.10077451914548874, 0.11835148930549622, -0.03908540681004524, -0.14612695574760437, -0.0161900594830513, -0.023005357012152672, -0.058422524482011795, 0.11108876019716263, -0.005877330899238586, 0.010337073355913162, -0.09940828382968903, -0.003391943173483014, -0.007168268784880638, 0.006035581696778536, 0.041147056967020035, -0.07171430438756943, 0.09178390353918076, -0.09210332483053207, -0.05991470441222191, 0.012863489799201488, -0.1313280612230301, 0.07261692732572556, -0.13406118750572205, -0.09499108046293259, -0.048751696944236755, -0.10761832445859909, 0.10727957636117935, 0.13837657868862152, -0.04868432134389877, -0.11036379635334015, -0.0030736594926565886, -0.13010752201080322, 0.012819944880902767, -0.07007874548435211, -0.10219420492649078, 0.006084451451897621, 0.000842319626826793, -0.12276607751846313, -0.08985289931297302, 0.13240617513656616, 0.0755009651184082, -0.13197150826454163, 0.06617311388254166, 0.07044747471809387, 0.0852840319275856, 0.009728994220495224, 0.025679567828774452, 0.05276006460189819, -0.13663433492183685, -0.043744925409555435, -0.06623860448598862, -0.14387302100658417, 0.0339973010122776, -0.00523333577439189, 0.14033028483390808, -0.06676638126373291, 0.14629828929901123, 0.0589773952960968, -0.07122457027435303, -0.0026935108471661806, 0.043546412140131, -0.0924505665898323, 0.1462729275226593, 0.0020107768941670656, -0.07694857567548752, -0.058528877794742584, -0.03776021674275398, -0.047592729330062866, -0.07666368782520294, -0.12198610603809357, -0.1336047202348709, 0.016636177897453308, 0.004030786920338869, -0.08652233332395554, -0.050045937299728394, -0.02796146087348461, -0.0648391991853714, 0.10448643565177917, -0.14835983514785767, 0.005399235989898443, 0.13386563956737518, 0.1254652887582779, -0.027565525844693184, -0.14288970828056335, -0.14723633229732513, 0.06029374152421951, 0.07423979789018631], [0.0480518564581871, 0.07370436191558838, 0.012262632139027119, -0.06903731822967529, 0.12040285766124725, 0.1049446165561676, -0.09146355092525482, -0.05263902246952057, 0.10928544402122498, -0.07585202157497406, 0.10325188934803009, -0.14940480887889862, -0.006650178227573633, 0.02532721869647503, -0.13230207562446594, 0.033204335719347, 0.00958732608705759, -0.00572989834472537, -0.07067778706550598, 0.08797521889209747, -0.09044695645570755, 0.07494701445102692, -0.014874436892569065, -0.11731421202421188, -0.02839556895196438, -0.1738300770521164, -0.022279154509305954, 0.09387286752462387, 0.08976082503795624, 0.0032161700073629618, -0.1628878116607666, -0.13569927215576172, 0.072512686252594, 0.12210233509540558, -0.10816199332475662, 0.12094950675964355, -0.06465455144643784, -0.13352105021476746, -0.13758298754692078, -0.11864301562309265, -0.04989268630743027, 0.13443082571029663, 0.11740735173225403, 0.10646335035562515, 0.09952255338430405, 0.16036587953567505, -0.006898047868162394, 0.029208771884441376, -0.14940714836120605, -0.14394891262054443, 0.044893909245729446, -0.007883729413151741, 0.10914838314056396, 0.08724257349967957, -0.023649215698242188, 0.11714334040880203, 0.10178446024656296, -0.033949293196201324, -0.08674083650112152, 0.07050055265426636, -0.168582946062088, 0.06134839728474617, -0.03949304297566414, 0.08657856285572052, 0.015403296798467636, -0.005533348303288221, -0.029196618124842644, -0.028501350432634354, -0.07905284315347672, -0.08860911428928375, -0.07394741475582123, -0.08358857780694962, 0.09807580709457397, 0.0936226025223732, -0.017701171338558197, 0.056869957596063614, 0.1556224673986435, -0.09091818332672119, -0.1391311138868332, -0.09007743746042252, -0.11914736777544022, -0.04964236542582512, 0.07760443538427353, -0.02965676598250866, 0.06133219227194786, 0.03936482220888138, 0.014172360301017761, 0.13776512444019318, 0.17164064943790436, 0.013025379739701748, -0.10523049533367157, -0.06982900947332382, -0.08793869614601135, -0.15287651121616364, 0.09377475082874298, 0.04149540141224861, 0.07024605572223663, -0.04102809354662895, -0.1938600391149521, 0.017017660662531853, 0.06959746032953262, 0.05098947882652283, 0.1129760816693306, -0.012563872151076794, 0.06279850006103516, -0.09228947013616562, -0.122770756483078, -0.017347807064652443, -0.03731592372059822, 0.08698637783527374, 0.05984921380877495, 0.03439059853553772, -0.017356619238853455, -0.06510753184556961, 0.11394455283880234, 0.03319234028458595, 0.021743346005678177, -0.01929667592048645, -0.170066237449646, -0.14427165687084198, -0.07104076445102692, 0.025627832859754562, 0.03672632947564125, -0.01835087686777115, -0.12945856153964996, 0.004268581047654152, 0.047986410558223724, -0.07371148467063904, -0.07679203897714615, -0.09539741277694702, -0.15984193980693817, 0.026970623061060905, -0.084978386759758, 0.12099220603704453, -0.07906972616910934, 0.15107017755508423, 0.08986591547727585, 0.16685833036899567, 0.14918485283851624, 0.101656474173069, 0.016002625226974487, 0.021201860159635544, -0.05198352411389351, -0.11555857956409454], [-0.12035766243934631, 0.009980590082705021, -0.14180119335651398, 0.14360949397087097, 0.13768601417541504, 0.15043671429157257, -0.03343157842755318, -0.024703187867999077, -0.054766032844781876, -0.13801367580890656, -0.14680121839046478, -0.13662682473659515, -0.022163530811667442, -0.1302257925271988, 0.06621057540178299, 0.07330671697854996, 0.0029948262963443995, 0.04274725541472435, -0.07576050609350204, -0.1135818213224411, -0.05312696844339371, -0.1534413993358612, -0.05438315123319626, 0.042112402617931366, 0.0019623697735369205, -0.007985387928783894, 0.04255001246929169, -0.019420424476265907, -0.059500690549612045, 0.05811304971575737, -0.010577165521681309, -0.049566850066185, -0.10589432716369629, -0.11914440244436264, 0.022048229351639748, -0.06901443749666214, -0.044362202286720276, 0.09820076823234558, -0.10054837912321091, -0.06993670016527176, -0.12062560766935349, 0.06788951903581619, 0.09172948449850082, 0.10034740716218948, -0.09123793244361877, 0.142928808927536, -0.08170715719461441, 0.06600167602300644, 0.021190300583839417, 0.13669128715991974, -0.008640843443572521, -0.07328349351882935, 0.05893062427639961, -0.09438715130090714, -0.020949935540556908, 0.17681050300598145, 0.03223036974668503, 0.1650984138250351, -0.055043309926986694, -0.043614402413368225, 0.07679310441017151, 0.04420526325702667, 0.1350993514060974, 0.12196744233369827, 0.15417930483818054, 0.02561691589653492, 0.0820641815662384, -0.14542466402053833, 0.04990517348051071, 0.03598761931061745, -0.049530159682035446, -0.13165022432804108, 0.08877383917570114, 0.03189174458384514, 0.0982280746102333, -0.08011001348495483, 0.03462619706988335, -0.10570836812257767, -0.09828020632266998, 0.05243892967700958, 0.007637756410986185, -0.043188441544771194, -0.14142897725105286, 0.05658937990665436, 0.13572540879249573, 0.082072913646698, -0.09093284606933594, 0.03984938561916351, -0.1156751736998558, -0.0636090338230133, 0.01926693506538868, -0.09226774424314499, -0.07711267471313477, -0.13297539949417114, -0.050284918397665024, 0.01517370156943798, 0.14282122254371643, -0.13144861161708832, 0.005520478822290897, 0.022763635963201523, -0.010256340727210045, 0.1304810792207718, 0.13404077291488647, 0.1237139105796814, 0.03644372522830963, -0.07737110555171967, -0.1490318775177002, -0.15898551046848297, 0.11543381959199905, -0.1327473223209381, 0.09225161373615265, 0.026103070005774498, 0.10701407492160797, 0.06877049803733826, -0.01440863311290741, 0.04851384460926056, 0.077224001288414, 0.03801329806447029, 0.08799906075000763, 0.10474226623773575, 0.07578995078802109, -0.1306414157152176, -0.05213552340865135, 0.08199850469827652, -0.05274779349565506, -0.0937180444598198, -0.03401494026184082, -0.1025681346654892, 0.03459643945097923, 0.05047665163874626, -0.12346969544887543, -0.11207763850688934, 0.06197301298379898, 0.020904753357172012, -0.11818904429674149, 0.027523383498191833, -0.005475782323628664, 0.07542203366756439, -0.10225020349025726, 0.17762574553489685, 0.09056832641363144, 0.017784330993890762, -0.11073600500822067, 0.1512603908777237], [0.014834348112344742, 0.0938454195857048, 0.09754034131765366, 0.05608163774013519, 0.1644679605960846, 0.07973591983318329, -0.024835413321852684, -0.11642460525035858, -0.035003211349248886, 0.0983261838555336, 0.12505890429019928, 0.09958893805742264, 0.01578928902745247, -0.09560089558362961, 0.009711897931993008, 0.15129682421684265, 0.11455810815095901, 0.06382641941308975, 0.13697504997253418, 0.0001275841932510957, 0.05842013657093048, -0.13644441962242126, -0.07693970203399658, -0.053877316415309906, -0.015142612159252167, 0.07462385296821594, -0.11131534725427628, 0.052454158663749695, -0.09927196055650711, -0.04994678497314453, -0.01409333385527134, 0.03768496960401535, -0.06788183003664017, 0.09155358374118805, -0.03387642279267311, -0.04456320405006409, 0.007253349293023348, -0.13709501922130585, -0.08358598500490189, 0.02142494171857834, 0.13254043459892273, -0.09278678148984909, -0.10213331878185272, -0.04526439681649208, -0.18603384494781494, -0.16542060673236847, 0.09918104857206345, 0.064471535384655, -0.017457472160458565, 0.019507117569446564, 0.05287592113018036, 0.05425345152616501, -0.12653005123138428, -0.15594908595085144, -0.10345148295164108, -0.1197870597243309, -0.15820404887199402, -0.03913508355617523, 0.10475431382656097, -0.04523647204041481, 0.005061435513198376, 0.03283613920211792, 0.08166981488466263, -0.1096918135881424, -0.054172415286302567, 0.09375078976154327, 0.017552128061652184, 0.1051592230796814, 0.011360670439898968, -0.04093592241406441, -0.003050347790122032, 0.11890540271997452, 0.08696527779102325, -0.04775911197066307, 0.08549868315458298, 0.05145403742790222, -0.09485717862844467, -0.13593438267707825, 0.02935849316418171, 0.08722668886184692, -0.07765568047761917, -0.11788421124219894, -0.018020594492554665, 0.14841271936893463, -0.014576482586562634, 0.0490681417286396, -0.00658411905169487, 0.10140813142061234, 0.08890611678361893, 0.12057209759950638, 0.10054104775190353, 0.058918751776218414, 0.0271767545491457, -0.013958015479147434, -0.06849188357591629, -0.12604929506778717, -0.09870681911706924, 0.052492961287498474, -0.030791575089097023, 0.11267764866352081, 0.006210843101143837, 0.06488124281167984, -0.08400016278028488, 0.14195579290390015, -0.024412358179688454, 0.019207093864679337, 0.01570768468081951, 0.15811774134635925, 0.04833463579416275, 0.07537352293729782, 0.1477055698633194, -0.0027476174291223288, 0.0383361391723156, -0.019461505115032196, 0.10127531737089157, -0.03449094295501709, 0.03524988517165184, -0.002498708199709654, 0.1117074266076088, 0.02532069757580757, 0.060109611600637436, 0.022273967042565346, -0.14009493589401245, 0.09439066052436829, 0.13150297105312347, 0.10517716407775879, 0.06296306848526001, 0.18610221147537231, -0.12479367852210999, 0.013931429013609886, -0.0021041082218289375, 0.028467370197176933, 0.015871616080403328, 0.017848825082182884, -0.08933664113283157, 0.12855024635791779, 0.03758756071329117, 0.0908953920006752, -0.14664094150066376, 0.0358053557574749, -0.09528496861457825, 0.06260009855031967, -0.004950603470206261, 0.0610930435359478], [-0.036066342145204544, -0.14334450662136078, -0.047323159873485565, -0.041210073977708817, 0.07355204224586487, -0.06846985220909119, -0.04414626955986023, 0.15566781163215637, -0.10877541452646255, 0.006236223969608545, -0.10621513426303864, -0.09251667559146881, -0.14393696188926697, -0.056847330182790756, 0.10855522751808167, -0.053282611072063446, 0.07822069525718689, 0.013492994010448456, -0.0006949542439542711, -0.11160590499639511, -0.12317575514316559, -0.10136548429727554, -0.157717764377594, -0.1533256471157074, -0.0093389842659235, -0.06441492587327957, -0.09393003582954407, 0.03114708699285984, -0.11298733204603195, -0.18220365047454834, 0.008816367946565151, -0.041214462369680405, 0.032628390938043594, 0.06928703933954239, 0.019154593348503113, 0.0849698856472969, 0.0412212572991848, -0.019741473719477654, 0.06297868490219116, 0.09956412762403488, 0.12038564682006836, 0.08560307323932648, -0.06226147711277008, 0.15371017158031464, 0.09002041071653366, -0.16421043872833252, -0.043951794505119324, 0.0770590528845787, 0.1141800656914711, -0.07807604223489761, 0.05267852172255516, 0.05505929887294769, -0.02993786893785, 0.1280401051044464, 0.09882256388664246, -0.018305834382772446, 0.0016527018742635846, -0.038375359028577805, 0.0017463424010202289, 0.04809272289276123, -0.03898470476269722, -0.10219345986843109, -0.05334923788905144, 0.12068763375282288, -0.18465270102024078, -0.14344750344753265, -0.12135374546051025, 0.10220211744308472, -0.030848780646920204, 0.12034476548433304, 0.06642688810825348, 0.1339799016714096, 0.08517997711896896, 0.1220795214176178, -0.08666267991065979, -0.013850766234099865, -0.03375159576535225, -0.09817937016487122, 0.03780663385987282, -0.03669610247015953, 0.10639361292123795, -0.1467158943414688, 0.10912013053894043, -0.09934478998184204, -0.10931717604398727, -0.08655386418104172, 0.06633066385984421, -0.07371463626623154, 0.15029577910900116, 0.1387513279914856, 0.05244430527091026, 0.01278770249336958, -0.17355631291866302, -0.023822631686925888, 0.10280115157365799, -0.156272754073143, 0.046872761100530624, -0.1445566713809967, -0.1545381098985672, 0.02678787335753441, 0.11809085309505463, 0.11864814162254333, 0.10033515095710754, -0.13070426881313324, 0.10084725171327591, -0.11330606043338776, -0.11607474088668823, -0.06916307657957077, -0.0522669292986393, -0.0773380771279335, 0.050971195101737976, 0.027155904099345207, -0.002468496561050415, 0.06834863871335983, -0.04589724540710449, -0.08951298892498016, -0.05962957814335823, 0.05356563627719879, -0.033740054816007614, -0.04846398904919624, 0.09000324457883835, -0.008370456285774708, 0.04668799415230751, 0.01387999951839447, -0.059374261647462845, -0.014884088188409805, -0.025528455153107643, -0.13823717832565308, 0.10673484206199646, 0.019769158214330673, 0.13863426446914673, 0.05997304618358612, -0.0010888465913012624, -0.048211485147476196, 0.09274624288082123, 0.11835181713104248, -0.018275218084454536, 0.109657421708107, 0.0426429845392704, 0.007713113911449909, 0.058267392218112946, -0.11014293134212494, 0.1374833732843399, 0.04031005874276161], [0.10657477378845215, 0.09801352769136429, 0.03074638359248638, 0.10943327099084854, -0.03442615270614624, 0.06240278482437134, -0.030229145660996437, 0.07258400321006775, -0.07035122811794281, 0.049855221062898636, 0.11993633210659027, 0.07547789067029953, -0.017048964276909828, 0.05223868042230606, 0.1341167688369751, 0.0030861832201480865, -0.05566766485571861, 0.02352701872587204, -0.04083402082324028, -0.07574483007192612, 0.07165362685918808, 0.10225971788167953, 0.028881309553980827, -0.03576268255710602, -0.0835072472691536, -0.011164074763655663, -0.08632924407720566, -0.09835831075906754, -0.13455335795879364, 0.05049005150794983, 0.012621302157640457, 0.1606302559375763, 0.12885020673274994, -0.019314290955662727, -0.04720431566238403, -0.1280311644077301, 0.04721928387880325, 0.09826025366783142, -0.050501950085163116, -0.13264748454093933, -0.0063364277593791485, 0.10154938697814941, 0.1091042309999466, 0.10459542274475098, -0.0912698358297348, -0.16772618889808655, 0.06028600409626961, -0.0026542707346379757, 0.021257296204566956, 0.15930241346359253, -0.0891646221280098, -0.150735542178154, -0.13223043084144592, -0.10614706575870514, -0.000566072529181838, 0.11464130133390427, 0.06697671115398407, -0.18401412665843964, -0.10268981754779816, -0.13102948665618896, 0.16863054037094116, 0.12730570137500763, -0.09834050387144089, 0.0800858810544014, 0.05211248993873596, -0.07511650025844574, 0.08833237737417221, -0.08188007026910782, -0.11530636996030807, 0.018996793776750565, -0.11866029351949692, -0.03388641029596329, 0.056205302476882935, -0.08410084247589111, -0.011963630095124245, 0.010944048874080181, -0.04639332368969917, -0.1753251999616623, 0.011568130925297737, -0.10260479152202606, 0.05089596286416054, 0.06038058176636696, 0.041943278163671494, 0.13175205886363983, 0.004410985857248306, 0.034041956067085266, 0.07503829896450043, 0.026815228164196014, 0.032546788454055786, 0.07899978756904602, -0.1260608732700348, 0.07831354439258575, -0.1096298098564148, 0.03195793554186821, 0.08547233790159225, 0.09492305666208267, 0.04202646017074585, 0.12170898914337158, 0.14399288594722748, -0.08061809092760086, 0.15076863765716553, 0.07938389480113983, 0.07466886192560196, 0.06379851698875427, 0.1466578096151352, 0.03897343948483467, 0.029597509652376175, -0.010626017116010189, -0.049471814185380936, -0.00782807171344757, -0.06888071447610855, -0.01718134433031082, 0.10677468031644821, 0.1226116418838501, 0.10901724547147751, -0.03361639752984047, 0.005028155632317066, 0.09573820233345032, 0.1125304326415062, 0.0009378866525366902, 0.009930738247931004, 0.058033231645822525, -0.11865502595901489, 0.03686615452170372, -0.06511992961168289, 0.03755967691540718, 0.029238207265734673, -0.0808594599366188, 0.0802912563085556, -0.013393720611929893, 0.08626525104045868, -0.02577141672372818, 0.02167903445661068, -0.13681496679782867, 0.09376560151576996, -0.12015821784734726, -0.13030564785003662, -5.076259549241513e-05, 0.05780453607439995, -0.11899945139884949, -0.11488084495067596, -0.08922751247882843, 0.09851618111133575, 0.11618653684854507], [-0.1375161111354828, -0.13060875236988068, 0.05516916885972023, -0.1237151026725769, -0.1232413500547409, -0.10924731940031052, 0.09152091294527054, 0.03121025301516056, 0.11075688153505325, -0.09928716719150543, 0.10080165416002274, -0.029356874525547028, 0.039013538509607315, -0.12481701374053955, 0.07823123037815094, 0.01966072805225849, 0.058383915573358536, -0.06477327644824982, -0.10585406422615051, 0.05936738848686218, -0.13682007789611816, 0.0042653619311749935, 0.14293794333934784, 0.13557709753513336, 0.12608307600021362, 0.0943412333726883, 0.1474490761756897, -0.12887726724147797, 0.11833342909812927, -0.014622608199715614, 0.045701559633016586, 0.05368451774120331, -0.14226603507995605, -0.05105302482843399, -0.01626889407634735, -0.04288754612207413, 0.012724461033940315, 0.10054560005664825, -0.06635827571153641, -0.1342373490333557, -0.006103484891355038, -0.02327609620988369, -0.08886104077100754, -0.13201865553855896, -0.14830803871154785, -0.05944937840104103, -0.02710491232573986, 0.06259042024612427, 0.050901204347610474, -0.07002858817577362, -0.10364643484354019, 0.06645779311656952, -0.05188421532511711, 0.08780311048030853, 0.008665597066283226, 0.05138983577489853, -0.12881091237068176, 0.023405883461236954, -0.06146277114748955, 0.07582414895296097, -0.05825498700141907, -0.13662943243980408, -0.053212620317935944, 0.061206940561532974, 0.07455660402774811, -0.0764981284737587, -0.0003071165119763464, -0.05834917351603508, 0.019871436059474945, -0.07058883458375931, -0.10649614781141281, -0.1301795244216919, 0.012045717798173428, 0.10279103368520737, -0.062418192625045776, 0.03955397382378578, -0.09969864785671234, -0.11404117196798325, 0.07781923562288284, -0.047963790595531464, 0.09454475343227386, -0.14023223519325256, 0.13435295224189758, 0.07059221714735031, -0.049046698957681656, -0.12791705131530762, 0.09497395157814026, 0.01248153392225504, -0.1374136358499527, 0.13641676306724548, -0.09559691697359085, 0.07979317009449005, 0.09389904141426086, -0.07108955830335617, -0.03797391429543495, -0.08955778926610947, 0.06356976926326752, -0.025486962869763374, -0.03334163501858711, 0.09129266440868378, 0.07677274197340012, -0.07855570316314697, -0.027041519060730934, 0.021545561030507088, 0.0827367901802063, -0.11819664388895035, 0.08344639092683792, -0.0035448914859443903, -0.1451771855354309, 0.049733903259038925, -0.014276501722633839, -0.039662037044763565, 0.04620755463838577, 0.03628944978117943, -0.12716807425022125, 0.007997546344995499, -0.11696133762598038, 0.12253667414188385, -0.13487188518047333, 0.005790876690298319, 0.11054740101099014, -0.13588005304336548, -0.13806907832622528, -0.042988553643226624, 0.05752052366733551, -0.14235900342464447, 0.00224489439278841, 0.05386041849851608, -0.12341867387294769, 0.013692965731024742, 0.11893890798091888, -0.09569687396287918, 0.08409314602613449, 0.05924398452043533, -0.009150344878435135, -0.01941472850739956, -0.08334901183843613, 0.04978911578655243, -0.10218670964241028, 0.04687844589352608, -0.14013276994228363, 0.04238478094339371, -0.14565050601959229, 0.02548711746931076], [0.057393770664930344, 0.1048811748623848, -0.04343026131391525, -0.08232265710830688, 0.07486267387866974, 0.10395005345344543, 0.1332966387271881, 0.00522602116689086, -0.04645860940217972, -0.08654375374317169, 0.14685465395450592, -0.12112504243850708, 0.0028987633995711803, 0.01183478906750679, 0.019020935520529747, -0.005949091631919146, -0.007841880433261395, 0.14448118209838867, -0.054939091205596924, -0.14416392147541046, 0.028415225446224213, -0.06872481852769852, 0.08353119343519211, -0.1021960973739624, 0.01072281040251255, 0.011218514293432236, -0.1307637095451355, -0.022613268345594406, -0.02889157086610794, 0.035484518855810165, 0.07094940543174744, 0.04299385845661163, -0.0604175366461277, -0.04441652446985245, -0.11014984548091888, 0.019530216231942177, 0.09818403422832489, -0.11783786863088608, 0.0006663264357484877, -0.16172516345977783, 0.01249018032103777, -0.005660939496010542, -0.0694664865732193, 0.008560918271541595, 0.12264128774404526, 0.043937474489212036, -0.16029632091522217, 0.025832710787653923, 0.038143474608659744, 0.04836631193757057, -0.11551465839147568, -0.059912893921136856, -0.09701187908649445, -0.14438378810882568, -0.007529930677264929, 0.09208523482084274, 0.10716938972473145, -0.03153485804796219, -0.12546540796756744, 0.028326308354735374, 0.09471631795167923, -0.021020306274294853, -0.0247375275939703, 0.09426264464855194, 0.05757807567715645, -0.10490413755178452, -0.026327885687351227, 0.08370625227689743, -0.0200092364102602, -0.001243709004484117, 0.002794368891045451, -0.11728180199861526, -0.13189288973808289, -0.013365860097110271, -0.08427239954471588, -0.1194087341427803, 0.1513826847076416, -0.07307841628789902, -0.09078682959079742, 0.026216283440589905, 0.12794850766658783, 0.07594538480043411, -0.11616484820842743, 0.07004143297672272, -0.08211067318916321, -0.14452670514583588, 0.02890239842236042, 0.11664571613073349, 0.042899128049612045, 0.07198931276798248, 0.0933622196316719, -0.08723016083240509, -0.09354746341705322, -0.10270700603723526, -0.175399050116539, 0.049446675926446915, -0.12943749129772186, -0.11679291725158691, -0.1474357694387436, 0.08605683594942093, 0.08667021989822388, -0.025440441444516182, -0.10645652562379837, 0.13148969411849976, 0.0906522199511528, -0.11247897893190384, 0.01969056762754917, -0.032710928469896317, 0.09198208898305893, 0.03145507350564003, -0.04847527667880058, 0.061385367065668106, 0.08600352704524994, 0.011201823130249977, 0.04159080609679222, -0.020887359976768494, 0.05716899782419205, 0.1169106662273407, 0.017178770154714584, -0.010457757860422134, -0.028698736801743507, 0.12277837097644806, 0.14452050626277924, -0.10193358361721039, -0.003209734335541725, -0.03973118215799332, 0.07342212647199631, 0.13658906519412994, 0.051711831241846085, -0.04353296384215355, 0.017733478918671608, -0.0748610571026802, 0.05242835730314255, -0.07307655364274979, -0.03297455608844757, 0.09771949052810669, 0.08009003847837448, -0.07967527210712433, -0.16756291687488556, -0.0731201246380806, 0.01119011826813221, -0.13517075777053833, 0.08718467503786087, -0.09862907975912094], [0.08426856249570847, 0.11942066997289658, -0.15271374583244324, -0.08990883082151413, -0.07961331307888031, 0.03214464709162712, 0.14002852141857147, -0.03818683698773384, 0.14062993228435516, 0.11774265766143799, 0.04018918424844742, -0.02479621209204197, -0.028985509648919106, -0.10700013488531113, -0.16395118832588196, 0.09776107221841812, 0.053804196417331696, -0.05373834818601608, 0.08328504860401154, 0.08791647106409073, 0.06683183461427689, -0.11892114579677582, 0.06551595777273178, -0.14910010993480682, 0.036724988371133804, 0.1033320426940918, -0.09885456413030624, -0.057534828782081604, 0.12608623504638672, -0.03988726809620857, 0.18475352227687836, -0.019253097474575043, -0.06019070744514465, 0.1484116166830063, 0.008812187239527702, -0.11928550899028778, 0.018854519352316856, -0.12331627309322357, -0.15303711593151093, -0.06772972643375397, -0.10666275024414062, -0.14653046429157257, -0.04481649398803711, 0.09781505912542343, 0.23002444207668304, -0.05188789963722229, -0.1278277039527893, -0.15620262920856476, 0.0013701565330848098, 0.11957380175590515, 0.02899259515106678, -0.09927457571029663, -0.08706256002187729, -0.1502237766981125, -0.0013205078430473804, 0.06875599920749664, -0.03176354989409447, 0.17828308045864105, 0.14903829991817474, 0.07512238621711731, -0.02338135614991188, -0.08633682131767273, 0.11680855602025986, 0.03831179812550545, -0.04952436685562134, 0.14570096135139465, 0.11562423408031464, -0.11434356123209, 0.12996496260166168, 0.0050543020479381084, 0.1627933382987976, -0.03611292317509651, -0.031378552317619324, -0.010973869822919369, -0.016293520107865334, 0.05673995614051819, -0.09727060049772263, 0.1385783851146698, -0.04038820415735245, -0.07709884643554688, 0.14770445227622986, -0.09932639449834824, 0.006836306303739548, 0.05127303674817085, -0.15422673523426056, 0.030242642387747765, -0.07329916954040527, 0.06486546248197556, -0.06443722546100616, 0.030084902420639992, 0.012860644608736038, -0.01103542372584343, -0.005275506526231766, 0.04364566504955292, -0.04078059643507004, 0.1446334719657898, 0.0441075824201107, 0.02174592763185501, 0.126956507563591, -0.004537652712315321, -0.05690234899520874, -0.08191119879484177, -0.08954470604658127, 0.032756123691797256, -0.12655586004257202, 0.1222308874130249, 0.023763807490468025, 0.05644891411066055, 0.017999157309532166, 0.058695849031209946, 0.14089007675647736, -0.04672631621360779, 0.05827656760811806, 0.05191933363676071, -0.1374957412481308, -0.0998385101556778, 0.12205063551664352, 0.02669164352118969, -0.09964890033006668, -0.10806431621313095, 0.0062166983261704445, -0.05456206947565079, 0.15009421110153198, 0.13926313817501068, 0.08322170376777649, 0.08325689285993576, -0.010158075951039791, 0.040174685418605804, -0.09430062025785446, 0.07160187512636185, 0.03937820717692375, 0.12508490681648254, 0.027158482000231743, 0.05686882138252258, 0.07087033241987228, 0.05667876824736595, -0.004319971892982721, 0.1314571052789688, -0.09808187186717987, 0.07406080514192581, 0.03176254779100418, 0.03406967595219612, -0.15676939487457275, -0.06000290438532829], [-0.12799735367298126, 0.14435355365276337, -0.00911423098295927, -0.03114926815032959, 0.10302203893661499, -0.09837717562913895, -0.0719853937625885, -0.05945267900824547, 0.00030551370582543314, 0.12632933259010315, 0.07107853889465332, 0.09243324398994446, 0.14787596464157104, 0.07001955807209015, -0.028171833604574203, -0.013349656015634537, 0.11635123193264008, -0.08799250423908234, -0.09936189651489258, -0.13155946135520935, 0.015153007581830025, 0.0293392576277256, -0.13473550975322723, 0.05483507364988327, 0.024494746699929237, -0.003402644069865346, -0.0985490158200264, -0.13496249914169312, 0.05300065875053406, -0.02917010709643364, 0.0701126754283905, -0.04289710894227028, 0.023667767643928528, -0.03801203891634941, -0.089131660759449, -0.11053908616304398, 0.1513073444366455, 0.09219518303871155, -0.0034296319354325533, -0.004492086358368397, 0.10947687923908234, -0.08026666939258575, -0.09712201356887817, -0.15584298968315125, 0.07874657213687897, -0.07427951693534851, 0.16095204651355743, 0.1487705111503601, -0.08139129728078842, 0.11255878210067749, -0.006525785196572542, -0.07391650974750519, 0.06460481882095337, 0.1427704095840454, 0.1584661602973938, 0.11912738531827927, 0.11412995308637619, 0.2271346002817154, 0.20493283867835999, -0.01876489259302616, -0.033957451581954956, 0.08484756946563721, 0.09143247455358505, -0.07644451409578323, -0.03980925306677818, 0.06524708122015, -0.09147436916828156, -0.05656646192073822, 0.11623653769493103, 0.07232659310102463, 0.09366386383771896, 0.05697402358055115, -0.0737551599740982, -0.12407399713993073, 0.0907260999083519, -0.15353333950042725, 0.11857450753450394, 0.046835318207740784, -0.17906759679317474, -0.1889023780822754, -0.044383347034454346, -0.09950115531682968, -0.008476195856928825, -0.08210784941911697, 0.17404119670391083, -0.10254745185375214, -0.10761220008134842, -0.0993799939751625, -0.010543976910412312, -0.09032793343067169, -0.07413019239902496, -0.07166405022144318, 0.05805189162492752, -0.05610981583595276, -0.030774272978305817, 0.08365259319543839, 0.0022312176879495382, -0.009250271134078503, 0.10678534209728241, -0.08086436986923218, 0.07021260261535645, -0.015419157221913338, 0.14818069338798523, 0.10451061278581619, 0.06605412811040878, -0.10223368555307388, -0.01835988089442253, -0.0501001738011837, -0.11443474143743515, 0.13098067045211792, -0.01497927401214838, -0.03924516588449478, -0.12013334035873413, 0.02042817510664463, -0.1523158699274063, 0.06691323220729828, -0.1098107323050499, 0.011837742291390896, 0.14970307052135468, 0.05522991716861725, 0.028665000572800636, -0.03329435735940933, -0.11741649359464645, -0.006383091676980257, 0.019506214186549187, -0.14955033361911774, 0.024861807003617287, -0.11202509701251984, 0.14946217834949493, -0.0013408386148512363, 0.08374243974685669, -0.014780867844820023, -0.06112195551395416, 0.14074982702732086, 0.029625676572322845, -0.06254450976848602, 0.03000693954527378, 0.01859090104699135, -0.00013109244173392653, -0.00500897504389286, 0.06982962787151337, -0.06510525196790695, 0.036315079778432846, -0.1634032279253006], [0.017225446179509163, 0.10828101634979248, -0.08836733549833298, 0.011109298095107079, 0.06568437814712524, 0.1370660364627838, -0.10941095650196075, -0.11710246652364731, -0.007447842508554459, -0.1255033165216446, 0.10349258780479431, -0.0992017537355423, 0.1369953155517578, -0.13813622295856476, 0.11242397874593735, -0.028037168085575104, 0.10467871278524399, 0.10807006061077118, -0.1149006187915802, 0.10807710140943527, 0.04746703803539276, -0.13609018921852112, -0.11396295577287674, 0.10049787908792496, 0.03273942694067955, 0.010669142007827759, 0.14650070667266846, -0.0654054582118988, -0.0182244461029768, -0.10197451710700989, -0.032830994576215744, -0.018954487517476082, 0.12380927056074142, 0.09226387739181519, 0.09093857556581497, -0.0667496845126152, -0.06914395838975906, 0.12172900885343552, -0.02489675208926201, -0.07984717935323715, 0.038211483508348465, 0.0730380266904831, 0.16893726587295532, -0.10257101058959961, -0.10307177156209946, -0.0925825834274292, 0.08363211899995804, -0.17158792912960052, -0.017076190561056137, -0.10025975108146667, -0.05161634832620621, 0.06250058859586716, -0.03309231624007225, -0.03688403591513634, -0.04338265582919121, 0.060074806213378906, -0.04440772905945778, -0.11170966923236847, 0.012407209724187851, -0.13849477469921112, -0.15869835019111633, -0.12692758440971375, -0.008880777284502983, 0.06910961866378784, -0.038042448461055756, -0.11713559180498123, 0.05291692912578583, -0.011428507044911385, 0.008243074640631676, -0.002205207943916321, -0.004225817508995533, -0.08531463891267776, -0.1163368821144104, -0.0810420885682106, 0.11775495111942291, -0.0859500840306282, 0.051382336765527725, 0.09818322956562042, -0.03348877280950546, 0.15564146637916565, 0.03138674050569534, 0.0319518968462944, 0.013273159973323345, -0.053497329354286194, 0.07232680916786194, -0.17925810813903809, 0.03215697780251503, 0.0887335017323494, 0.09984324127435684, -0.050464313477277756, 0.07192474603652954, 0.1904982179403305, 0.017193783074617386, 0.029063915833830833, -0.07062197476625443, 0.09578239917755127, -0.06356023252010345, 0.0601859912276268, 0.006096608471125364, -0.16007784008979797, 0.007292923983186483, 0.047047246247529984, -0.16556137800216675, -0.13480804860591888, 0.00029069295851513743, -0.13276465237140656, -0.09704569727182388, -0.055190060287714005, -0.10921464115381241, -0.05437929183244705, 0.0343782901763916, -0.0732203796505928, 0.044294316321611404, 0.12109063565731049, 0.051990725100040436, 0.06949957460165024, 0.0786561593413353, 0.10172389447689056, 0.007542781066149473, -0.0018066263291984797, -0.06794315576553345, -0.06553728133440018, 0.10414028912782669, -0.01900387741625309, -0.05188649892807007, 0.0870261937379837, 0.046743277460336685, 0.16851678490638733, -0.10043542832136154, 0.10712750256061554, 0.09762582927942276, 0.132695734500885, 0.10025988519191742, 0.09680844098329544, 0.04352232813835144, -0.08006010949611664, 0.03574082627892494, 0.0764976367354393, -0.07238596677780151, 0.006866439711302519, -0.044037144631147385, 0.03389948979020119, -0.010240169242024422, -0.004260602407157421], [0.032116733491420746, 0.009831058792769909, -0.006690725218504667, 0.0894705131649971, 0.06213710829615593, 0.0388534739613533, 0.034783780574798584, 0.052687473595142365, 0.06663346290588379, 0.06570201367139816, -0.12265097349882126, 0.07482928037643433, 0.11491439491510391, -0.007410665974020958, -0.04122048243880272, 0.13364458084106445, 0.030187314376235008, 0.1632494032382965, -0.04479354992508888, 0.01256067119538784, -0.1641714870929718, -0.07574838399887085, -0.15036560595035553, -0.05768253281712532, -0.03518770635128021, 0.09152929484844208, 0.04316648095846176, -0.08623303472995758, 0.13452135026454926, -0.16454845666885376, -0.1927087903022766, -0.014251100830733776, -0.11969393491744995, 0.09141140431165695, -0.006061110645532608, 0.07849559187889099, 0.0735546201467514, -0.06628768146038055, 0.03090471215546131, 0.15462632477283478, 0.08169995248317719, 0.022809017449617386, -0.023657744750380516, -0.02531277760863304, 0.044769883155822754, -0.1465304046869278, -0.08454848825931549, 0.05648575350642204, -0.034800995141267776, 0.09510115534067154, 0.14499272406101227, 0.16830392181873322, 0.12176881730556488, 0.06854451447725296, 0.10585814714431763, 0.028981072828173637, 0.0770978033542633, -0.0463896244764328, 0.14019548892974854, 0.11335618048906326, -0.03844977542757988, 0.1361692100763321, -0.06033213809132576, 0.12334780395030975, 0.02722315303981304, 0.19565773010253906, 0.1398240029811859, 0.0617414154112339, -0.043803948909044266, -0.08680599182844162, -0.08422528952360153, -0.13243724405765533, -0.00030717553454451263, 0.05215474218130112, 0.0584925152361393, 0.029189452528953552, -0.04834471642971039, -0.149113729596138, -0.03635768964886665, 0.03579719364643097, -0.14149540662765503, -0.11026638746261597, 0.025786790996789932, -0.11793256551027298, 0.08553647994995117, -0.043482981622219086, 0.05899134278297424, -0.10691823810338974, -0.10971970856189728, -0.16396880149841309, -0.1637759953737259, -0.08056595176458359, -0.015651440247893333, 0.16071049869060516, -0.015697376802563667, 0.07321680337190628, 0.06183979660272598, -0.08394292742013931, 0.0644034668803215, -0.028166458010673523, 0.020684508606791496, 0.03629542887210846, 0.08942575752735138, 0.008091675117611885, -0.10729596018791199, 0.10460164397954941, -0.05337130278348923, 0.16178804636001587, 0.11850066483020782, 0.13544528186321259, -0.10628572851419449, 0.12930209934711456, -0.09342890977859497, 0.015167045406997204, 0.14459344744682312, -0.14746449887752533, 0.00314963492564857, -0.12383810430765152, 0.09383618086576462, 0.11917875707149506, -0.0863843709230423, -0.13562481105327606, -0.017314210534095764, -0.012757398188114166, -0.09548836201429367, -0.09758910536766052, 0.11429741978645325, 0.00558839226141572, -0.1564001590013504, 0.04292834922671318, -0.09698385000228882, 0.05335581302642822, 0.038910891860723495, 0.1122332289814949, 0.09986837953329086, -0.13060978055000305, -0.044150546193122864, 0.047761280089616776, -0.09468026459217072, 0.12861378490924835, 0.0004979717778041959, 0.031546927988529205, -0.09857791662216187, 0.042222779244184494], [0.12886540591716766, -0.0633665919303894, -0.03971804678440094, 0.09076515585184097, -0.14983023703098297, 0.02291691116988659, -0.11993702501058578, -0.1354859620332718, -0.11218027025461197, 0.0438699796795845, 0.055323127657175064, 0.11724292486906052, -0.09314090758562088, -0.011859472841024399, -0.07446761429309845, -0.11224298924207687, 0.18821167945861816, 0.006308604497462511, -0.0038265353068709373, 0.14703913033008575, 0.05854209139943123, 0.03872929513454437, -0.1746187061071396, -0.14136505126953125, -0.04092657193541527, -0.046754445880651474, -0.11825527995824814, -0.06855665892362595, 0.17153024673461914, -0.04871344566345215, 0.17962943017482758, -0.10991372168064117, -0.027281390503048897, 0.02185145951807499, -0.14511990547180176, -0.19109414517879486, -0.02353859134018421, -0.09345278143882751, 0.08400018513202667, 0.2195781171321869, 0.17091774940490723, 0.17084576189517975, -0.04385608434677124, 0.054125744849443436, 0.026484698057174683, -0.08808600157499313, 0.0981643795967102, 0.018242113292217255, -0.09233511239290237, -0.06255484372377396, 0.12539541721343994, -0.07018020004034042, -0.07352384179830551, -0.10318160802125931, 0.09842630475759506, 0.08257565647363663, 0.006739985663443804, 0.13810645043849945, 0.029574820771813393, 0.08639103174209595, -0.10636621713638306, 0.08948628604412079, -0.06858512759208679, -0.15856125950813293, -0.04119684174656868, 0.035805486142635345, -0.13372473418712616, -0.15063923597335815, 0.043556950986385345, -0.13369587063789368, -0.10046105831861496, 0.007110894657671452, -0.07558771222829819, -0.07759469002485275, -0.12192720919847488, -0.18605013191699982, -0.11515554040670395, -0.10034865140914917, -0.03835377097129822, -0.006066535599529743, 0.11569779366254807, -0.12973856925964355, 0.04378552362322807, -0.15794649720191956, -0.02195180207490921, -0.15688997507095337, -0.06257995218038559, -0.042279258370399475, -0.03616085276007652, -0.06540822982788086, 0.15979070961475372, 0.1332293450832367, 0.10369086265563965, -0.12297247350215912, -0.1470673680305481, 0.016358595341444016, 0.12565402686595917, 0.09861772507429123, 0.05212925374507904, -0.041065365076065063, -0.042933933436870575, 0.005183397326618433, 0.10685627162456512, 0.1391673982143402, -0.049709830433130264, 0.18117360770702362, 0.030286353081464767, 0.1212046667933464, -0.1001218631863594, 0.08978786319494247, 0.09539629518985748, 0.12500229477882385, 0.021012742072343826, -0.06995334476232529, -0.06220781058073044, 0.08238039910793304, 0.16180294752120972, -0.014815161004662514, 0.12117590010166168, -0.08662370592355728, 0.031629934906959534, -0.07109253853559494, 0.046646323055028915, 0.04666717350482941, 0.1437707394361496, 0.08207766711711884, -0.13695335388183594, -0.11739495396614075, 0.045910757035017014, 0.1792488396167755, 0.10235386341810226, 0.16516204178333282, 0.1351558119058609, -0.054617878049612045, -0.0601939782500267, -0.010688608512282372, -0.10694599151611328, 0.04864240437746048, -0.17092806100845337, 0.11261440068483353, -0.07412699609994888, 0.02058098278939724, 0.13461880385875702, -0.08686792105436325], [-0.12838388979434967, -0.09499898552894592, 0.002587771276012063, 0.0905090868473053, 0.12069747596979141, 0.027452627196907997, 0.08205575495958328, 0.06368675827980042, -0.1267414391040802, -0.0658348798751831, 0.11280617117881775, -0.04681907221674919, -0.1236143708229065, -0.03381036967039108, 0.05751054733991623, 0.004446908365935087, 0.03624726086854935, -0.042843978852033615, -0.012388208881020546, 0.018938731402158737, -0.12591511011123657, 0.06747951358556747, -0.06890375912189484, -0.058776989579200745, -0.039897918701171875, -0.13234157860279083, -0.08605720847845078, 0.030006982386112213, -0.1201915442943573, -0.10326839983463287, 0.02966299280524254, -0.07171256095170975, 0.11336465924978256, -0.12297648191452026, -0.0045433505438268185, -0.14928020536899567, -0.025005949661135674, -0.10004249215126038, 0.13619287312030792, 0.020908404141664505, 0.08242085576057434, -0.06427566707134247, -0.10348683595657349, 0.09948200732469559, 0.13485603034496307, 0.06375275552272797, -0.007239673752337694, -0.05394831299781799, 0.11659633368253708, 0.11944347620010376, -0.01875404082238674, 0.1437726765871048, 0.10910870879888535, 0.009251713752746582, -0.12105211615562439, -0.10845885425806046, -0.11219125241041183, 0.10243504494428635, 0.09315132349729538, 0.003725561546161771, -0.034227896481752396, 0.07415703684091568, -0.14349983632564545, 0.08171182870864868, 0.1490260511636734, -0.009469684213399887, -0.04591447860002518, 0.006680320482701063, -0.12146817892789841, -0.09158233553171158, -0.06153402850031853, -0.09339523315429688, -0.004815478343516588, 0.11903207749128342, -0.10055562853813171, -0.07384368777275085, -0.041283465921878815, 0.15954886376857758, 0.06049720197916031, 0.03650840371847153, 0.11682505160570145, -0.1163250133395195, 0.14450286328792572, -0.10229653120040894, -0.08924330025911331, -0.14763210713863373, -0.11851292103528976, -0.0688839927315712, 0.0312948077917099, 0.055815041065216064, -0.051497627049684525, -0.057938456535339355, 0.008044343441724777, -0.12480542808771133, -0.11219622194766998, 0.12135250121355057, 0.08520277589559555, 0.06860768049955368, 0.05347219854593277, 0.12720271944999695, 0.11342649161815643, -0.1346658617258072, 0.055278610438108444, 0.04915265738964081, -0.011881766840815544, -0.12208682298660278, -0.11241079121828079, -0.06453443318605423, -0.024798555299639702, 0.03861559182405472, -0.013273635879158974, 0.018796732649207115, -0.07409478724002838, 0.00903609674423933, 0.07956117391586304, 0.07259388267993927, -0.12415118515491486, -0.13615207374095917, -0.10803189128637314, 0.13381342589855194, -0.009912864305078983, 0.053876351565122604, -0.14953753352165222, -0.1340797394514084, -0.10888903588056564, -0.006329141091555357, 0.13819079101085663, -0.13856084644794464, -0.06995586305856705, 0.00910097174346447, 0.12473074346780777, 0.08984959870576859, -0.1014743521809578, 0.003400630783289671, 0.11101577430963516, -0.03371051326394081, -0.0018822222482413054, -0.1329328864812851, -0.10020327568054199, -0.07407777011394501, -0.1207941472530365, 0.06004907190799713, 0.02967309206724167, -0.13731065392494202], [0.1478264480829239, -0.07566467672586441, -0.028441177681088448, 0.10926762968301773, 0.06340301781892776, -0.10506457090377808, -0.07574952393770218, 0.06781987845897675, 0.0414181724190712, -0.14295296370983124, -0.028869161382317543, 0.07828247547149658, 0.03830933943390846, -0.11389023065567017, -0.11266931891441345, -0.0014126026071608067, -0.056659799069166183, -0.03573033586144447, 0.041230760514736176, 0.1045718565583229, -0.07326097786426544, -0.10159442573785782, -0.0993499904870987, -0.12179192155599594, 0.14576083421707153, 0.04493023082613945, 0.03649215027689934, 0.11583898216485977, 0.05825992673635483, 0.10166984051465988, -0.09944618493318558, 0.09319120645523071, -0.06657171994447708, 0.09631296992301941, -0.029239747673273087, 0.12001205235719681, 0.08103743195533752, 0.05016372725367546, -0.1074240580201149, 0.12736618518829346, 0.03402657061815262, 0.0903940200805664, -0.11932287365198135, -0.014536027796566486, -0.03844727948307991, -0.07997801154851913, 0.063783660531044, 0.0723513811826706, 0.028689702972769737, 0.014666585251688957, -0.1200481504201889, -0.09734760224819183, -0.10464221239089966, 0.037047140300273895, 0.11012310534715652, 0.007804372347891331, -0.06541409343481064, 0.08769797533750534, 0.07339807599782944, -0.08419060707092285, -0.028268953785300255, -0.12588126957416534, -0.0828971192240715, 0.10885322093963623, -0.14491014182567596, -0.06599581241607666, -0.07794099301099777, -0.020493341609835625, -0.06907521933317184, -0.064330093562603, -0.1289311647415161, -0.09225024282932281, -0.14528892934322357, 0.002030062722042203, -0.011790272779762745, 0.013009130023419857, -0.007754452992230654, 0.05059484764933586, -0.02018190361559391, 0.08805109560489655, 0.08453186601400375, 0.00961663480848074, 0.0498514249920845, 0.09803695231676102, 0.1192280650138855, 0.1352887749671936, 0.0945729911327362, 0.06721759587526321, -0.10260935872793198, -0.04742541164159775, -0.10526216775178909, -0.04498184472322464, 0.0919024869799614, 0.14906756579875946, -0.09891179949045181, -0.04580851271748543, -0.14844350516796112, -0.13042126595973969, -0.07090377062559128, -0.09727340191602707, -0.060603003948926926, -0.07150573283433914, 0.11373527348041534, 0.03620675206184387, 0.030062979087233543, 0.08053464442491531, -0.07820820808410645, -0.09491151571273804, -0.0187733992934227, -0.0541389174759388, -0.09063269942998886, 0.09556227177381516, -0.13953453302383423, -0.0917799323797226, -0.09386945515871048, -0.08736725896596909, -0.016722695901989937, 0.015484252013266087, -0.045860160142183304, 0.06252092123031616, 0.135874405503273, 0.016193831339478493, -0.09642434865236282, 0.11986061185598373, -0.10709588974714279, 0.028472531586885452, 0.10420235246419907, 0.009387877769768238, 0.05832061171531677, -0.05859136953949928, 0.06340082734823227, -0.1083168089389801, -0.13711780309677124, -0.03462372347712517, 0.12623554468154907, -0.027213312685489655, 0.14983981847763062, 0.045378029346466064, -0.06290225684642792, -0.11119870096445084, -0.12304466962814331, 0.03950017690658569, -0.10145872086286545, -0.022034883499145508], [-0.06149321421980858, -0.08101481199264526, 0.07729442417621613, -0.04986879229545593, 0.06773534417152405, 0.06954052299261093, -0.07040759176015854, -0.08583346754312515, -0.08513721078634262, 0.08232338726520538, -0.03719589114189148, -0.0921088382601738, 0.04454592615365982, -0.1031925156712532, 0.08890829235315323, -0.12001466751098633, 0.10879234224557877, -0.036001287400722504, 0.15101967751979828, 0.01717468537390232, -0.01181150320917368, -0.01306596677750349, 0.05658785626292229, 0.10118355602025986, -0.05718342587351799, 0.135949045419693, -0.045973680913448334, 0.10102549195289612, -0.06653635948896408, -0.07846260070800781, -0.0966702401638031, 0.039919495582580566, 0.10433424264192581, -0.05170626565814018, -0.052051473408937454, -0.015797577798366547, 0.0332457572221756, 0.02715764380991459, -0.0721997320652008, 0.11249673366546631, 0.026410743594169617, 0.14640893042087555, 0.1341416984796524, 0.05957053229212761, 0.018855657428503036, -0.061870988458395004, -0.03485590219497681, -0.1516754925251007, -0.1335458755493164, -0.04010660573840141, 0.12758074700832367, -0.059328507632017136, -0.10155684500932693, -0.07876278460025787, -0.035932499915361404, 0.10118065029382706, 0.0029529777821153402, 0.0671672448515892, 0.010008626617491245, -0.14141708612442017, -0.0036573978140950203, 0.02632751688361168, 0.11974644660949707, -0.12429603934288025, 0.062385525554418564, 0.05151247978210449, -0.07691063731908798, -0.07888048142194748, -0.08787838369607925, 0.05993695557117462, 0.07258451730012894, -0.14100447297096252, 0.029175803065299988, -0.022200802341103554, -0.032875191420316696, -0.15192946791648865, -0.09866547584533691, 0.03761116415262222, -0.11519930511713028, 0.09676103293895721, 0.11152840405702591, 0.13210949301719666, -0.13274988532066345, -0.1162368431687355, 0.08153628557920456, -0.12544091045856476, 0.022488098591566086, 0.08178149163722992, 0.020020464435219765, -0.11909893900156021, -0.10385334491729736, -0.04479939490556717, -0.07260014116764069, -0.1357007622718811, 0.10061827301979065, 0.0931316539645195, -0.09913230687379837, -0.13931381702423096, -0.03365646302700043, 0.013389716856181622, 0.09541580826044083, -0.12531538307666779, 0.004150484688580036, 0.06780321896076202, 0.11324647814035416, 0.09430091828107834, 0.08108780533075333, -0.008550685830414295, -0.012265099212527275, -0.0256256815046072, -0.00274653104133904, 0.016504965722560883, -0.1346883326768875, 0.093557208776474, -0.03615222126245499, 0.0012570113176479936, -0.12638674676418304, -0.12085853517055511, 0.05143732950091362, -0.04581272229552269, -0.04582470655441284, 0.023188237100839615, -0.11970014125108719, 0.07260444015264511, -0.0450020357966423, -0.0963355079293251, 0.10707475244998932, -0.1644732803106308, -0.1168476790189743, 0.13338235020637512, 0.0731474831700325, 0.045219141989946365, 0.04719828814268112, 0.06741707026958466, -0.11396633833646774, 0.0387214757502079, -0.15908806025981903, 0.10206373780965805, -0.045885711908340454, 0.04364059120416641, 0.05207749828696251, 0.1178528219461441, -0.11058470606803894, 0.09092241525650024], [-0.04386594519019127, 0.11167294532060623, 0.1399415135383606, -0.01110016368329525, 0.1393754631280899, 0.04119570180773735, 0.06966567039489746, -0.04981924593448639, 0.08678758144378662, 0.08140220493078232, 0.13046208024024963, 