{"conv2d_1": {"bias": [0.06358121335506439, -0.001540935947559774, 0.3241470456123352, -0.0015727871796116233, -0.04108954593539238, 0.0024534494150429964, -1.9002767658093944e-05, -0.0007418786408379674, -0.0003761654661502689, -0.0007909361738711596], "weights": [[[[0.023871101438999176, 0.0015198554610833526, 0.1890879124403, 0.0378682017326355, -0.05532696843147278], [0.13848255574703217, 0.1497384011745453, 0.24382248520851135, 0.05027630552649498, 0.0227289367467165], [0.18386659026145935, 0.005456342827528715, 0.1538519561290741, -0.08657926321029663, -0.031845174729824066], [0.14940857887268066, -0.09823866933584213, -0.19988030195236206, -0.08906739950180054, -0.22569072246551514], [-0.0744655504822731, -0.13326001167297363, -0.1034466102719307, -0.23158615827560425, -0.16415953636169434]]], [[[-0.21620796620845795, -0.12153751403093338, -0.027815574780106544, 0.3071213960647583, 0.2666676640510559], [-0.08616062998771667, -0.01912282034754753, -0.07515498995780945, 0.3757210969924927, 0.1741970330476761], [0.012844379991292953, -0.05007997900247574, 0.27491483092308044, 0.4286098778247833, 0.3314792215824127], [0.19106639921665192, 0.23549655079841614, 0.438082218170166, 0.5499122142791748, 0.365498423576355], [0.13500827550888062, 0.2587127983570099, 0.07551482319831848, 0.2028527557849884, 0.35061269998550415]]], [[[0.15844005346298218, 0.19418317079544067, 0.16990350186824799, 0.009882450103759766, 0.10910630226135254], [-0.15661673247814178, -0.03612860292196274, -0.06373608112335205, -0.11161654442548752, 0.09304402768611908], [-0.202358677983284, -0.07193110138177872, -0.20733924210071564, 0.032731760293245316, -0.2559119164943695], [-0.11257930845022202, -0.046950001269578934, -0.09787030518054962, -0.12212324142456055, -0.04777458682656288], [-0.1334557682275772, 0.057126790285110474, -0.11990649998188019, 0.0837903842329979, -0.13765263557434082]]], [[[-0.061123862862586975, -0.027660876512527466, -0.0686192736029625, -0.03563041239976883, 0.21382902562618256], [0.12728889286518097, 0.24416224658489227, 0.2733699083328247, 0.10571996867656708, 0.24581903219223022], [0.26815199851989746, 0.12596221268177032, 0.13635817170143127, 0.35456156730651855, 0.041110116988420486], [0.26890185475349426, 0.41324904561042786, 0.13596199452877045, 0.21253173053264618, 0.24396361410617828], [0.3807607591152191, 0.2396095246076584, 0.12818439304828644, -0.04031143710017204, 0.25225427746772766]]], [[[-0.05012595281004906, -0.02331770770251751, -0.030706224963068962, 0.05935392528772354, 0.23469407856464386], [0.01773536019027233, -0.13639244437217712, -0.19152367115020752, 0.04802672192454338, 0.270418256521225], [-0.1380569487810135, -0.006206943187862635, -0.19285941123962402, 0.2283399999141693, 0.2074248045682907], [-0.2025993913412094, -0.23593586683273315, -0.11563887447118759, 0.15974144637584686, 0.34351179003715515], [-0.20184946060180664, -0.22037144005298615, 0.05574825778603554, 0.29877811670303345, 0.2384648621082306]]], [[[0.2864939570426941, 0.10740536451339722, -0.049920275807380676, -0.21342474222183228, -0.17587164044380188], [0.1930917650461197, 0.178471177816391, -0.13198180496692657, -0.0581236332654953, 0.021645603701472282], [0.34636080265045166, -0.043960001319646835, -0.13251826167106628, -0.1953556090593338, -0.11904893070459366], [0.08569049835205078, -0.11160105466842651, -0.17968638241291046, -0.0930766835808754, -0.08554746210575104], [0.15972651541233063, -0.13432128727436066, -0.1263580471277237, -0.04436052218079567, 0.09456513822078705]]], [[[-0.10356654971837997, -0.06535683572292328, -0.09863270074129105, 0.005606587044894695, -0.0443149134516716], [-0.047398388385772705, -0.14456059038639069, 0.018979791551828384, -0.060920096933841705, -0.05840282514691353], [-0.09015725553035736, -0.13282930850982666, 0.04576354846358299, 0.01593986712396145, -0.06540635228157043], [0.08818788826465607, 0.09189408272504807, -0.020815903320908546, -0.13575108349323273, -0.05521998926997185], [-0.002546316711232066, -0.08468618988990784, -0.10566495358943939, 0.04532483592629433, 0.08976665884256363]]], [[[-0.0016989397117868066, 0.14347384870052338, 0.11089319735765457, 0.1367996484041214, 0.05868777632713318], [0.06101469323039055, 0.2851211130619049, 0.2654501795768738, 0.2576366066932678, 0.10534962266683578], [0.3682202696800232, 0.4586549699306488, 0.5520209074020386, 0.6168636083602905, 0.3900807499885559], [0.32331302762031555, 0.5117434859275818, 0.4948611259460449, 0.5324106812477112, 0.5401685237884521], [-0.03789336606860161, -0.0047923494130373, 0.1484404057264328, 0.1784449815750122, 0.34437376260757446]]], [[[-0.04247322306036949, -0.12636691331863403, 0.08163627982139587, 0.06917659193277359, -0.12693321704864502], [-0.20263567566871643, -0.16374656558036804, -0.21280984580516815, -0.1452292650938034, 0.08916489034891129], [0.15141136944293976, -0.08497229218482971, 0.04386167973279953, -0.05622497946023941, 0.126791849732399], [0.07066240906715393, 0.14931443333625793, 0.13973528146743774, -0.06957515329122543, -0.01642243191599846], [0.11394815146923065, 0.023660844191908836, 0.19150559604167938, -0.01795441098511219, 0.043631915003061295]]], [[[-0.1577158272266388, 0.13438653945922852, 0.22777603566646576, 0.09967413544654846, 0.05530031397938728], [-0.058417193591594696, 0.005575376562774181, 0.06782060861587524, -0.026491783559322357, -0.028998546302318573], [0.1728551834821701, 0.2041379064321518, -0.05531759932637215, -0.06304271519184113, 0.08359371870756149], [-0.0051524401642382145, -0.06020073592662811, -0.13141484558582306, -0.16372594237327576, 0.03141831234097481], [-0.07116489112377167, -0.0015500494046136737, 0.10716651380062103, -0.05863324552774429, 0.07565921545028687]]]]}, "dense_1": {"bias": [0.025132901966571808, -0.027240987867116928, 0.014075716957449913, -0.015088995918631554, -0.046692825853824615, 0.0217050202190876, -0.001484336913563311, 0.03397880494594574, 0.03141147270798683, -0.012451866641640663, 0.046122077852487564, -0.013016085140407085, 0.08598849922418594, 0.05141925439238548, 0.0014665424823760986, 0.02199767343699932, 0.02471017837524414, 0.0006264440598897636, -0.011447633616626263, 0.008972058072686195], "weights": [[0.019387444481253624, -0.03303372859954834, 0.04526814818382263, 0.017421020194888115, -0.019449539482593536, -0.01363344956189394, 0.018192097544670105, 0.04186674952507019, -0.05437950789928436, 0.02717013657093048, 0.04005714878439903, -0.0520208515226841, -0.0370752289891243, 0.01045505702495575, -0.006142196245491505, -0.029132070019841194, 0.030897188931703568, -0.04792464151978493, -0.008923813700675964, -0.040218573063611984, 0.03061099536716938, -0.005031378008425236, -0.04201778024435043, -0.01996925100684166, -0.021567760035395622, 0.015340381301939487, -0.05724889412522316, -0.028009751811623573, 0.06307655572891235, -0.0627855658531189, 0.050261642783880234, 0.04112153872847557, 0.02343582548201084, -0.04003288596868515, -0.056582726538181305, 0.02805379033088684, 0.046940430998802185, 0.04596460610628128, 0.02224050462245941, 0.0023562826681882143, -0.005612448323518038, -0.05177561193704605, 0.02147427760064602, -0.049031082540750504, -0.0054166074842214584, -0.008346984162926674, -0.007197710685431957, 0.03404197469353676, 0.059129003435373306, -0.05262979120016098, -0.055182211101055145, 0.03875277191400528, -0.01739291287958622, -0.049657370895147324, 0.013640603050589561, 0.04631990194320679, -0.03991112485527992, -0.05778326839208603, 0.04081818461418152, 0.003945538308471441, -0.06928738206624985, 0.01985831931233406, -0.02438405156135559, 0.010328570380806923, 0.04657435789704323, -0.008396624587476254, -0.0568646565079689, 0.045477788895368576, -0.03763790801167488, -0.00302283838391304, -0.045749273151159286, -0.033781468868255615, -0.021044477820396423, 0.06070997565984726, -0.06430629640817642, -0.014970159158110619, 0.013110914267599583, 0.04730306193232536, 0.022694164887070656, -0.037337757647037506, -0.03880852460861206, -0.02575634978711605, -0.018610242754220963, -0.053486455231904984, -0.04978206753730774, 0.021878313273191452, 0.029175255447626114, 0.036796893924474716, 0.06075422093272209, -0.008531161583960056, -0.03224808722734451, 0.010198097676038742, 0.011658172123134136, 0.050449784845113754, 0.008645374327898026, 0.010155582800507545, -0.001566619030199945, -0.04982491582632065, -0.027664680033922195, -0.039742931723594666, 0.023849980905652046, 0.0035998837556689978, -0.022619279101490974, 0.01992921344935894, 0.005450468044728041, 0.051483187824487686, 0.042309973388910294, -0.051976244896650314, -0.028221191838383675, -0.01738843321800232, -0.016086520627141, 0.010998844169080257, -0.040054839104413986, 0.05263771116733551, -0.011568887159228325, -0.045183997601270676, -0.012804548256099224, -0.03199247643351555, 0.019124392420053482, 0.0465184785425663, -0.04550350829958916, -0.021375704556703568, -0.03865088149905205, 0.033571574836969376, 0.055120326578617096, 0.008421926759183407, -0.002635893877595663, 0.0006100376485846937, -0.039284903556108475, 0.04942009598016739, -0.0041717784479260445, 0.03237103670835495, -0.028282662853598595, 0.014569152146577835, 0.024217909201979637, -0.05987093225121498, -0.028402773663401604, 0.07398581504821777, 0.012601315975189209, -0.049570076167583466, -0.026424728333950043, 0.03594720736145973, -0.020074287429451942, -0.01521986909210682, -0.037263091653585434, 0.013370183296501637, 0.049721863120794296, 0.0570216029882431, -0.025306224822998047, -0.051619794219732285, -0.012189616449177265, -0.02331678383052349, 0.03523002937436104, 0.015948202461004257, -0.012015017680823803, 0.00700234342366457, -0.030873289331793785, 0.07491353154182434, -0.0005705452640540898, 0.041018370538949966, 0.023264870047569275, -0.024205919355154037, 0.014279368333518505, 0.02033255621790886, 0.011362602934241295, 0.0219949409365654, -0.046209946274757385, 0.07487061619758606, 0.0527685210108757, 0.014625049196183681, 0.005134560167789459, 0.020769216120243073, -0.020544087514281273, 0.008366179652512074, -0.06137551739811897, -0.016683174297213554, 0.033332377672195435, 0.08009415864944458, 0.01475941389799118, 0.005796302109956741, -0.06277985870838165, 0.06608250737190247, 0.0627809539437294, -0.007416367996484041, -0.05392737686634064, -0.03391365334391594, -0.0153366569429636, 0.06658945977687836, 0.03818850964307785, -0.03256261348724365, -0.0314190573990345, 0.05944666638970375, 0.05334227532148361, 0.04582824185490608, 0.020820049569010735, -0.029728243127465248, -0.050481826066970825, 0.00598700949922204, -0.011073754169046879, -0.06404817849397659, -0.027033252641558647, -0.01029878854751587, -0.03436606749892235, 0.061165276914834976, -0.0011698412708938122, -0.04593525826931, 0.018435891717672348, 0.059099115431308746, 0.004848640412092209, -0.013262633234262466, -0.0521867461502552, 0.003980704117566347, -0.03336140513420105, -0.019997186958789825, -0.03347567468881607, 0.03339715301990509, 0.05426507443189621, -0.04978344589471817, 0.008046619594097137, -0.0020446712151169777, -0.04337931424379349, -0.04402558133006096, -0.055398132652044296, 0.03335234522819519, 0.07037627696990967, -0.025843298062682152, 0.03134283050894737, -0.02491191029548645, -0.009779384359717369, 0.02045639231801033, 0.032729677855968475, -0.0010169920278713107, 0.009005257859826088, -0.04783863201737404, 0.0621965117752552, 0.043610308319330215, 0.03234526142477989, -0.0657433271408081, -0.03232935070991516, -0.03715062886476517, -0.023895232006907463, 0.05981588736176491, 0.020355068147182465, 0.06623444706201553, 0.05629516392946243, -0.013537191785871983, -0.038911379873752594, -0.006689267233014107, 0.03734339401125908, 0.009209020994603634, 0.049581341445446014, 0.09394147247076035, -0.0030781712848693132, 0.016674526035785675, 0.04193545877933502, -0.01781023107469082, 0.018301844596862793, -0.004136903211474419, -0.03597620502114296, 0.03873983025550842, -0.0226716510951519, 0.07307759672403336, -0.045575037598609924, 0.06474297493696213, -0.054935209453105927, 0.012499738484621048, 0.00528320437297225, 0.08200176805257797, -0.012192894704639912, -0.01633533462882042, 0.03775513172149658, 0.05079390108585358, -0.004671785049140453, 0.051604077219963074, -0.010481773875653744, -0.05308890715241432, -0.009633776731789112, 0.14398357272148132, 0.05712881311774254, 0.016779998317360878, -0.007164536509662867, 0.0541648343205452, 0.03738051652908325, 0.0008988693007268012, 0.04020196199417114, -0.039060331881046295, -0.02227398380637169, 0.1582307517528534, 0.02545970119535923, 0.01783701963722706, -0.05079987272620201, 0.0717339962720871, 0.04917887970805168, 0.06434421986341476, -0.006272472906857729, 0.037109095603227615, -0.03964546322822571, 0.07375068217515945, 0.04570943862199783, 0.025115935131907463, -0.02376316487789154, 0.056317850947380066, 0.016913237050175667, 0.02131650038063526, -0.0682922974228859, -0.07044706493616104, 0.04849915951490402, 0.03296137973666191, -0.005635389592498541, 0.01126351859420538, -0.02206319384276867, 0.02901603654026985, -0.05686899274587631, 0.050022777169942856, 0.044006478041410446, -0.03253958746790886, 0.04203983396291733, 0.058682795614004135, 0.05641849711537361, -0.05276685953140259, 0.005644076503813267, 0.06751327961683273, -0.02882876619696617, 0.06507311761379242, -0.009695928543806076, -0.024551698938012123, -0.012514314614236355, 0.07905318588018417, -0.024280427023768425, -0.04094652086496353, 0.06701343506574631, 0.07420145720243454, 0.060324426740407944, 0.03312798589468002, 0.005267314147204161, 0.026073019951581955, -0.02711760252714157, -0.0027345349080860615, 0.012775297276675701, 0.051541734486818314, 0.06668000668287277, 0.059578556567430496, -0.017861150205135345, -0.0010855875443667173, 0.04205295816063881, -0.006121678743511438, 0.05646360665559769, 0.07480432838201523, 0.05429501086473465, -0.052304524928331375, 0.05155302956700325, -0.009664109908044338, 0.06445342302322388, 0.020182952284812927, 0.00508228549733758, 0.05924544483423233, -0.04707235097885132, 0.0020449345465749502, -0.03474967181682587, -0.026151133701205254, -0.06158493459224701, 0.02781965583562851, -0.0005742502980865538, 0.0750928446650505, 0.04297042638063431, -0.007348032668232918, 0.018257049843668938, 0.030334096401929855, 0.06531861424446106, -0.03886616975069046, -0.03862812742590904, 0.012540078721940517, -0.015023979358375072, -0.043013233691453934, -0.0008219386218115687, 0.04669700562953949, -0.02306690625846386, 0.07542431354522705, 0.031113678589463234, -0.03781373053789139, -0.007740638218820095, -0.014825373888015747, -0.03035416081547737, 0.0525704026222229, -0.05882124975323677, -0.019211184233427048, 0.011996482498943806, 0.047481976449489594, 0.04117174446582794, 0.012082597240805626, -0.03648371994495392, 0.0071933153085410595, 0.058689214289188385, 0.04448831453919411, -0.06923800706863403, 0.03392257168889046, -0.037303075194358826, 0.06932986527681351, -0.016419580206274986, -0.054850008338689804, 0.004970116540789604, -0.04591800644993782, 0.062268033623695374, 0.005133955739438534, -0.04025277867913246, 0.0029218432027846575, -0.04734484478831291, 0.07170825451612473, -0.011645924299955368, -0.009459210559725761, 0.014963876456022263, -0.030059823766350746, -0.0001981749664992094, 0.05700593441724777, -0.03632502630352974, 0.003364868462085724, -0.02001146785914898, 0.026078185066580772, 0.0037214881740510464, 0.018067236989736557, -0.019395774230360985, 0.023228663951158524, 0.06603148579597473, 0.05767742171883583, 0.001624589436687529, -0.03364574909210205, -0.009080035611987114, 0.08516624569892883, -0.04483736678957939, 0.008197720162570477, 0.01255817711353302, 0.05235482007265091, 0.03307965397834778, -0.016127632930874825, 0.07074916362762451, -0.008805832825601101, 0.006559302564710379, 0.087796650826931, 0.059825971722602844, -0.019837602972984314, 0.060299184173345566, -0.009974891319870949, 0.041410718113183975, -0.031848739832639694, -0.030343275517225266, 0.005785796325653791, -0.0044586979784071445, -0.018070610240101814, -0.0038739764131605625, -0.012792232446372509, -0.03556239604949951, 0.056635186076164246, -0.04090387746691704, -0.005520663224160671, -0.0457504503428936, -0.007980620488524437, -0.04447294771671295, 0.04653116315603256, 0.04772571846842766, 0.01257691252976656, 0.008287115022540092, 0.015395045280456543, 0.03408578038215637, -0.01781252585351467, -0.03339564427733421, 0.038854002952575684, -0.02930118702352047, -0.015397502109408379, -0.03486320748925209, 0.0524272657930851, 0.006881436798721552, -0.013119500130414963, 0.06687814742326736, 0.020442849025130272, 0.06768998503684998, 0.027051055803894997, -0.02637895941734314, 0.05601003021001816, -0.05305655673146248, -0.011845925822854042, -0.03903466835618019, 0.05727740004658699, -0.04054480791091919, 0.050083260983228683, -0.03562352433800697, -0.034367822110652924, -0.021868983283638954, -0.00481171440333128, 0.060413658618927, 0.02039315178990364, 0.02814481221139431, -0.02574632130563259, 0.002508636796846986, 0.04100416600704193, -0.057286154478788376, -0.020390190184116364, 0.03974885493516922, -0.09681981801986694, -0.013925193808972836, 0.028153885155916214, 0.020746685564517975, -0.11585184186697006, 0.024098439142107964, -0.0780935287475586, -0.0316963829100132, 0.056530386209487915, -0.04906494542956352, -0.011848698370158672, 0.05761737748980522, -0.015261937864124775, -0.025350801646709442, -0.019135095179080963, 0.08650536835193634, -0.08813255280256271, -0.06132182478904724, -0.020860379561781883, -0.04897848144173622, -0.045776259154081345, 0.012605980038642883, -0.053362440317869186, 0.06781600415706635, -0.06642980873584747, 0.03896605968475342, -0.1060023382306099, -0.07653401046991348, -0.013506441377103329, 0.01341111771762371, -0.028766926378011703, -0.03821146488189697, -0.04804062098264694, 0.029678355902433395, -0.01701556332409382, 0.008407923392951488, -0.07739028334617615, -0.029084432870149612, -0.0226871557533741, 0.05093345046043396, -0.02355634979903698, -0.009644863195717335, 0.032801736146211624, -0.02230784110724926, 0.023598192259669304, -0.0018414180958643556, -0.09294626861810684, -0.02841595560312271, -0.041262026876211166, 0.020117729902267456, -0.09455981105566025, 0.027791347354650497, -0.03226728364825249, -0.0602155402302742, -0.0699954554438591, 0.019739214330911636, -0.07700390368700027, -0.007268660236150026, 0.030922837555408478, -0.035233743488788605, 0.019250202924013138, -0.060697562992572784, -0.007737593725323677, 0.007129644509404898, 0.026272734627127647, 0.047326914966106415, -0.04300205409526825, 0.037540700286626816, 0.038088973611593246, 0.03301253169775009, 0.02226884663105011, 0.05055722966790199, -0.0531238317489624, 0.012253878638148308, -0.05679991468787193, 0.03153169900178909, -0.05854076147079468, -0.06929976493120193, 0.036627691239118576, -0.002000032691285014, -0.09493380784988403, -0.01051440741866827, 0.008835180662572384, 0.039064645767211914, -0.11199347674846649, -0.01816427707672119, -0.013056996278464794, -0.0455637164413929, -0.025641610845923424, -0.05974500998854637, -0.11593248695135117, 0.04652014747262001, -0.02628079243004322, -0.034752581268548965, 0.030864711850881577, 0.07556787878274918, -0.0787108913064003, 0.0641857460141182, 0.001722965738736093, -0.01024442259222269, -0.0421520471572876, -0.05674343556165695, -0.04079520329833031, -0.04416251555085182, 0.04990750923752785, 0.016541479155421257, -0.06829439848661423, 0.04467146471142769, -0.026985300704836845, 0.05631914362311363, -0.058806777000427246, 0.05850064381957054, 0.0190645270049572, 0.0491582453250885, -0.034688644111156464, 0.05063826963305473, -0.0321861132979393, 0.014794089831411839, 0.02703513391315937, 0.04986610263586044, -0.022517355158925056, -0.03980919346213341, -0.01881532557308674, 0.053357161581516266, -0.08224038034677505, 0.022485239431262016, -0.06350783258676529, 0.04419112205505371, 0.025413671508431435, 0.058176811784505844, -0.06420296430587769, -0.05368506535887718, -0.00023868760035838932, -0.04710184037685394, 0.017119497060775757, 0.016300661489367485, -0.10208384692668915, 0.02559819631278515, -0.07226923108100891, 0.022768529132008553, -0.0481223501265049, 0.007224577479064465, 0.028878912329673767, 0.08181732892990112, 0.025920864194631577, 0.027678383514285088, -0.025654423981904984, -0.09848187863826752, 0.04460763558745384, 0.0017324178479611874, -0.07711581140756607, -0.021654844284057617, -0.06091981753706932, 0.052010778337717056, -0.12128069251775742, -0.022186893969774246, -0.0886801928281784, -0.05588226020336151, 0.056746747344732285, 0.025634175166487694, -0.08582669496536255, 0.059947945177555084, 0.014988429844379425, -0.04209621250629425, -0.04206406697630882, 0.03171449154615402, 0.009756986983120441, 0.06776665151119232, -0.028934963047504425, -0.007625608239322901, -0.06660572439432144, -0.008737865835428238, -0.06897643953561783, 0.027312230318784714, -0.01106161717325449, -0.007539805024862289, 0.03179653361439705, 0.01594165712594986, -0.045401621609926224, -0.010748564265668392, 0.05313593149185181, 0.02591462805867195, -0.03592314198613167, -0.012640516273677349, -0.026669388636946678, 0.014842800796031952, 0.006811219267547131, -0.06613897532224655, -0.008060756139457226, 0.04736566171050072, 0.04738489165902138, 0.04300735145807266, 0.014029397629201412, 0.043963849544525146, -0.09158188849687576, -0.013385229744017124, 0.0649976134300232, -0.04368261620402336, 0.0330742709338665, -0.06146789714694023, -0.020756762474775314, 0.024671882390975952, -0.06262657791376114, -0.06753262877464294, -0.11750907450914383, -0.03741604462265968, -0.004702692851424217, -0.06518220901489258, 0.026142200455069542, 0.05464782193303108, -0.13784195482730865, 0.018657002598047256, -0.02664531208574772, 0.03241882473230362, -0.02040458843111992, 0.0657389760017395, -0.08923069387674332, 0.01500849612057209, 0.003308242652565241, 0.02799135074019432, -0.06605242192745209, -0.060787029564380646, -0.01799549162387848, 0.04088032245635986, -0.040879420936107635, 0.04454801231622696, -0.06731587648391724, 0.044508691877126694, 0.06008804216980934, 0.010993690229952335, -0.01233481802046299, 0.0025659811217337847, 0.054080020636320114, 0.033423010259866714, -0.007010142784565687, -0.021879244595766068, -0.06439366936683655, -0.07106764614582062, -0.02095833234488964, -0.0044980901293456554, 0.01009399350732565, -0.05524788796901703, -0.046158649027347565, 0.019545478746294975, -0.0607587993144989, 0.03933730348944664, 0.00891040451824665, 0.03146243467926979, -0.03981536999344826, 0.01720944419503212, 0.010064166970551014, 0.023887569084763527, 0.016852589324116707, 0.031755100935697556, 0.014645854011178017, 0.03841540589928627, -0.06744448840618134, -0.07436918467283249, -0.030829066410660744, -0.05260225757956505, -0.029063688591122627, 0.0012478901771828532, 0.03335700184106827, -0.020020458847284317, -0.04866829887032509, 0.007610982283949852, 0.0026293876580893993, -0.03699243813753128, -0.009206953458487988, 0.02222157083451748, 0.04707486554980278, 0.052093323320150375, -0.052174102514982224, 0.051477015018463135, -0.05570940300822258, 0.051673874258995056, -0.00011948739120271057, -0.01479794830083847, -0.04791809618473053, 0.011590777896344662, -0.06158973649144173, -0.03966941311955452, -0.060825224965810776, -0.01662951521575451, 0.011378693394362926, 0.038936953991651535, 0.02091352455317974, -0.05108993500471115, -0.028660550713539124, -0.017154080793261528, 0.07244691252708435, -0.003934698645025492, -0.062263280153274536, 0.015611129812896252, 0.13477781414985657, -0.01337521057575941, 0.037219543009996414, 0.0605604387819767, -0.07198167592287064, 0.007350029889494181, 0.012765206396579742, -0.03286515176296234, -0.008947708643972874, -0.051241423934698105, 0.027625666931271553, 0.0024156852159649134, 0.05760536342859268, 0.04744216054677963, -0.008297674357891083, 0.009931880980730057, 0.10398121923208237, 0.06554599851369858, 0.06274878233671188, -0.005690581630915403, -0.02451416663825512, 0.0582120418548584, 0.061510518193244934, -0.06593005359172821, 0.025535214692354202, -0.0446329340338707, 0.10410628467798233, -0.020964795723557472, -0.029548555612564087, 0.020652512088418007, 0.015950758010149002, 0.01524259801954031, 0.02224181406199932, -0.014746211469173431, -0.005310662556439638, 0.04970996826887131, 0.014772116206586361, 0.07178391516208649, -0.04545396938920021, 0.025084681808948517, 0.062033992260694504, 0.05589470639824867, -0.00748073123395443, -0.0020164696034044027, -0.0348409079015255, -0.0024855148512870073, -0.01584148034453392, -0.010989958420395851, 0.03739957883954048, 0.01616728864610195, 0.09275919198989868, -0.05321940407156944, 0.029608022421598434, 0.03527846187353134, 0.0054274918511509895, -0.056546807289123535, -0.014792141504585743, -0.03242810070514679, -0.004811329301446676, 0.06087976694107056, 0.007770621217787266, 0.023503124713897705, -0.02980462834239006, -0.011990698985755444, -0.024048538878560066, 0.013906457461416721, 0.05454493314027786, -0.052982937544584274, -0.006795919965952635, -0.04744380712509155, -0.04328899085521698, 0.07125397026538849, 0.06134806200861931, -0.06497010588645935, -0.04189491644501686, -0.007793114986270666, -0.002090399619191885, -0.03382250294089317, 0.03398144245147705, -0.006759799551218748, -0.015830837190151215, 0.07813528180122375, 0.03578884154558182, -0.00922311469912529, -0.017259037122130394, 0.03229836747050285, -0.011499072425067425, 0.05518469586968422, -0.03846806660294533, -0.048027511686086655, 0.0018176290905103087, 0.006068544927984476, -0.0006969808600842953, -0.06272543221712112, -0.004572124686092138, -0.041933462023735046, -0.06156938523054123, 0.02821536175906658, 0.01625864766538143, 0.053364742547273636, -0.022307138890028, 0.05202376842498779, 0.011482270434498787, 0.02416880801320076, -0.06115906685590744, -0.026555661112070084, -0.0008502338314428926, 0.06568238139152527, 0.04672115296125412, 0.035732656717300415, 0.09078781306743622, 0.034008707851171494, 0.06316176801919937, -0.015997786074876785, -0.05930204316973686, 0.06215662136673927, 0.09584762901067734, -0.03446965292096138, -0.04433571547269821, -0.028590377420186996, 0.04203277453780174, -0.03804010525345802, 0.04265434667468071, 0.002018061000853777, 0.025905009359121323, -0.0056011551059782505, 0.10534293204545975, 0.008703039959073067, -0.000616182922385633, 0.01668400876224041, -0.009434517472982407, 0.0032032467424869537, -0.0067277164198458195, 0.06229180842638016, 0.03342648595571518, 0.03628835827112198, 0.11424469202756882, 0.025986691936850548, 0.0820157453417778, 0.01170786190778017, -0.057929761707782745, -0.032566267997026443, 0.08596889674663544, -0.013040193356573582, 0.06567507982254028, 0.052715953439474106, 0.08136969059705734, 0.03964817896485329, -0.006144086830317974, -0.005330792628228664, -0.035197049379348755, 0.01158127747476101, 0.040825314819812775, 0.05898534134030342, -0.03453509137034416, 0.006998956203460693, -0.044686052948236465, 0.06160973012447357, 0.04513806477189064, 0.0073603251948952675, 0.07409247010946274, -0.030940622091293335, -0.055606111884117126, -0.03273805230855942, 0.023569347336888313, 0.020330648869276047, 0.03261908143758774, 0.029764331877231598, -0.05929993465542793, -0.05973249301314354, 0.04757137596607208, 0.058125387877225876, 0.061533696949481964, 0.06591884046792984, 0.02402990125119686, -0.05348934978246689, 0.10509669780731201, -0.008856748230755329, 0.016415415331721306, 0.035229235887527466, 0.0029616805259138346, 0.009044492617249489, 0.05444728583097458, -0.053518667817115784, -0.015110393986105919, 0.060264065861701965, 0.06935427337884903, 0.023084985092282295, -0.058152031153440475, 0.048764992505311966, -0.016172729432582855, -0.031774040311574936, 0.06700856983661652, -0.04514426365494728, 0.011280124075710773, 0.06157941371202469, 0.0375693179666996, 0.028783928602933884, -0.003123893402516842, 0.003423208836466074, -0.06516033411026001, 0.037569157779216766, 0.0544307716190815, -0.022697921842336655, 0.031428541988134384, -0.0229616928845644, -0.06196948140859604, -0.023007886484265327, -0.0031285739969462156, -0.06643803417682648, -0.02433619648218155, 0.03764618560671806, -0.03398517519235611, -0.053993284702301025, -0.057578686624765396, -0.04664750024676323, 0.014676874503493309, 0.04938248172402382, -0.0643363744020462, 5.028044688515365e-05, -0.051260512322187424, 0.0479603111743927, -0.04509209468960762, -0.038183655589818954, -0.01330504473298788, 0.0507672093808651, -0.036355581134557724, 0.015620469115674496, 0.017304575070738792, -0.02680421806871891, 0.0019095049938187003, 0.031241342425346375, 0.07023932784795761, 0.03168380632996559, -0.03786713629961014, -0.03679059445858002, 0.10623188316822052, 0.06475362181663513, -0.020832126960158348, 0.08544986695051193, 0.015305399894714355, 0.04393124207854271, 0.0561131052672863, 0.06164522469043732, 0.035172246396541595, -0.03134012222290039, 0.06040172651410103, -0.014413866214454174, -0.02602323889732361, 0.06180943176150322, -0.045987024903297424, 0.05988362431526184, 0.05333907529711723, 0.014257170259952545, -0.02403266727924347, -0.03916759043931961, -0.04618842154741287, -0.056373655796051025, 0.059802182018756866, -0.04408193379640579, 0.03902483731508255, 0.07555308938026428, 0.025688134133815765, -0.044518083333969116, 0.018548663705587387, -0.06001891568303108, 0.024722253903746605, -0.02556280605494976, 0.05409182980656624, -0.06015687808394432, 0.005065810400992632, -0.051548704504966736, -0.04058549553155899, -0.02934756875038147, 0.05072864890098572, 0.00886908732354641, -0.035486530512571335, 0.04000771418213844, 0.05657855048775673, -0.019075898453593254, 0.028812522068619728, 0.028238851577043533, 0.013425804674625397, -0.04576161131262779, -0.06520604342222214, -0.040655314922332764, -0.014219644479453564, -0.03772556409239769, -0.04458608850836754, -0.04552231356501579, 0.028699947521090508, -0.0013106147525832057, 0.013477997854351997, 0.04361288994550705, 0.007144552189856768, 0.057567860931158066, 0.07057202607393265, 0.026871005073189735, -0.03463255241513252, 0.049598343670368195, -0.006325668189674616, 0.01657514087855816, 0.016620777547359467, -0.06300406903028488, -0.015191825106739998, 0.04947297275066376, 0.04392145946621895, 0.059151772409677505, 0.047015976160764694, 0.02148229070007801, 0.013318421319127083, 0.014226819388568401, -0.05131794884800911, 0.007626265287399292, 0.06366905570030212, -0.02393345534801483, -0.05004023760557175, -0.0188456978648901, 0.004448547959327698, 0.026543816551566124, -0.05522501841187477, 0.059797171503305435, 0.05188467353582382, -0.03083104081451893, 0.05681155249476433, -0.011033821851015091, -0.0007779040606692433, 0.04805934056639671, 0.014487436041235924, -0.04120752587914467, 0.039637017995119095, 0.08226621896028519, 0.03317316621541977, 0.008946118876338005, -0.01268855668604374, 0.0338040366768837, -0.025116564705967903, -0.023143218830227852, 0.036172013729810715, -0.009784922935068607, 0.041799478232860565, 0.0737282857298851, 0.0029345578514039516, -0.03970961272716522, 0.026105912402272224, -0.02824399806559086, -0.04074905812740326, 0.003364255651831627, -0.0529283732175827, 0.026440847665071487, -0.07379359751939774, -0.036954399198293686, -0.011151442304253578, 0.05243540555238724, -0.05053552985191345, 0.006571165751665831, 0.03066747821867466, -0.0029672598466277122, 0.022103598341345787, 0.056484006345272064, -0.0776749849319458, 0.04402519389986992, -0.0035176642704755068, 0.045685362070798874, -0.03933111950755119, -0.0617668554186821, -0.08705776184797287, 0.012617327272891998, -0.06359168142080307, -0.032055169343948364, -0.09424709528684616, -0.0203302763402462, -0.016402844339609146, -0.006370629649609327, -0.034432679414749146, 0.04826950281858444, -0.06660588085651398, 0.041547972708940506, -0.06069503724575043, -0.004618140868842602, -0.02453623153269291, 0.016150377690792084, -0.06324629485607147, 0.04573007673025131, -0.04016895964741707, -0.04236900433897972, -0.010850864462554455, 0.0214744471013546, 0.03636946529150009, 0.048378024250268936, 0.04521402344107628, 0.06237517669796944, 0.006655802018940449, 0.026147667318582535, -0.023323677480220795, -0.05671915411949158, -0.007036902941763401, 0.0348799042403698, 0.06010996550321579, 0.04311678186058998, -0.047954488545656204, 0.05015304684638977, -0.025670019909739494, 0.047139108180999756, 0.004762927070260048, 0.028969090431928635, 0.018019571900367737, -0.0028772572986781597, -0.015140497125685215, 0.050368715077638626, 0.04152743145823479, -0.03536972776055336, -0.04567767307162285, 0.029592694714665413, 0.04318595305085182, 0.043036557734012604, 0.01387679111212492, -0.0032114069908857346, 0.045142851769924164, -0.006273377221077681, 0.062116943299770355, -0.004557012114673853, 0.033972933888435364, 0.04504305496811867, 0.019553814083337784, 0.06419072300195694, -0.04552723839879036, -0.05646348372101784, 0.05267419293522835, 0.0467747300863266, 0.05911707505583763, -0.02908833511173725, -0.035818781703710556, 0.05301455408334732, -0.0341668501496315, -0.00502016581594944, 0.03345225751399994, 0.040979642421007156, 0.027035441249608994, 0.06784293055534363, 0.060185156762599945, 0.05343254283070564, 0.0658780038356781, -0.05916488543152809, -0.01059791911393404, 0.006722967606037855, -0.029187077656388283, 0.010268986225128174, 0.03130592033267021, 0.06758265197277069, 0.001029649400152266, 0.05446333438158035, -0.03856242820620537, 0.06202584132552147, 0.018958641216158867, -0.010135198011994362, -0.009483622387051582, 0.014611181803047657, -0.0373958945274353, -0.006469476968050003, 0.0014039784437045455, 0.06302481889724731, -0.039625152945518494, -0.02627411112189293, 0.051700297743082047, -0.012312821112573147, 0.027289599180221558, -0.05572137236595154, 0.022683538496494293, -0.06063980981707573, -0.021271614357829094, 0.019265493378043175, 0.0036921435967087746, 0.06030365079641342, 0.030126918107271194, 0.00724261999130249, -0.03894095867872238, -0.0629149004817009, -0.048947930335998535, -0.05679062008857727, -0.010920645669102669, 0.025204693898558617, 0.04848757013678551, -0.04432864859700203, -0.04979516938328743, 0.025572896003723145, -0.01653508096933365, 0.05786843225359917, -0.012935258448123932, 0.019549908116459846, -0.060850195586681366, 0.0247370433062315, -0.06358175724744797, 0.014916110783815384, 0.029089611023664474, -0.017408965155482292, -0.03501918539404869, -0.018308239057660103, -0.02984795533120632, 0.05003942549228668, 0.002159292111173272, -0.01770489476621151, -0.03219690918922424, 0.0062276446260511875, 0.05636751279234886, 0.0472397580742836, -0.06253857165575027, -0.014157923869788647, -0.004613020922988653, -0.029875829815864563, -0.02070927433669567, -0.039890073239803314, 0.05696392059326172, -0.032421331852674484, -0.054916493594646454, 0.02247508615255356, -0.009658435359597206, 0.03030145913362503, -0.02318083681166172, 0.05807603523135185, -0.03361939266324043, 0.05499163642525673, 0.010444661602377892, -0.005447169300168753, 0.0023300086613744497, 0.0476345457136631, -0.02234223298728466, -0.06247198209166527, 0.02574552781879902, 0.04251430183649063, 0.03145688399672508, 0.061244647949934006, 0.017822537571191788, 0.04408446326851845, 0.014471289701759815, 0.01563892513513565, -0.004328479524701834, 0.0022641068790107965, 0.01250348798930645, -0.016102038323879242, 0.0662274956703186, -0.03128969296813011, -0.03450338914990425, 0.043242212384939194, 0.044177137315273285, 0.04655492305755615, 0.09483876824378967, 0.0023313546553254128, -0.040680915117263794, -0.030550716444849968, -0.019227389246225357, 0.005120694171637297, -0.03370319679379463, 0.026563158258795738, 0.009912611916661263, -0.03748077154159546, -0.006647863425314426, -0.036346185952425, 0.038155097514390945, -0.04346063733100891, 0.0985817089676857, -0.003749648341909051, 0.010155010037124157, 0.0500614196062088, 0.018442902714014053, 0.05231627821922302, 0.005112196318805218, 0.0021019787527620792, 0.02718380093574524, 0.020123546943068504, 0.08237121999263763, -0.04282628744840622, -0.03316253796219826, 0.015881936997175217, 0.05013422667980194, -0.04719357192516327, 0.013675440102815628, -0.0003385061281733215, -0.04399089515209198, 0.06603152304887772, 0.05403532087802887, 0.047919973731040955, -0.022459067404270172, 0.006224673707038164, 0.06305090337991714, 0.015384777449071407, 0.018248163163661957, -0.036872874945402145, -0.011170421727001667, -0.012155513279139996, 0.013861856423318386, -0.053338244557380676, 0.040064580738544464, -0.0002524848096072674, 0.06381428986787796, -0.005893162917345762, 0.0960056334733963, 0.007364042103290558, 0.04782947525382042, -0.05651167407631874, 0.024832120165228844, -0.05074482038617134, 0.07022923976182938, -0.06260671466588974, 0.0039037808310240507, -0.02063877135515213, 0.056572504341602325, -0.008030762895941734, 0.04181394353508949, 0.05173923075199127, -0.05169543996453285, 0.033878669142723083, -0.0027440714184194803, -0.02808498404920101, 0.02578888274729252, 0.050503961741924286, 0.043155327439308167, 0.05318259075284004, 0.04951724037528038, 0.000565451686270535, -0.015387971885502338, -0.018544817343354225, 0.02167097106575966, -0.03933022543787956, 0.032857511192560196, -0.008907634764909744, -0.009612265974283218, -0.02164078876376152, 0.05847109854221344, -0.010395346209406853, -0.026366209611296654, -0.056469060480594635, -0.006526564247906208, 0.013471144251525402, -0.011503267101943493, -0.023325452581048012, -0.04183940961956978, 0.033036451786756516, -0.016126304864883423, -0.0030773873440921307, 0.055548883974552155, 0.04101020470261574, -0.012757967226207256, 0.0099568460136652, -0.025118889287114143, 0.05051285773515701, 0.01072861347347498, -0.005446703638881445, 0.03751097992062569], [-0.02357827126979828, -0.005557810887694359, 0.04913098365068436, -0.04817210137844086, 0.019680146127939224, 0.02424015663564205, -0.042663782835006714, -0.0390421561896801, -0.05681978166103363, 0.05333055183291435, -0.03149494156241417, 0.010498667135834694, -0.06319183111190796, 0.005113487597554922, -0.007076927926391363, -0.0039652022533118725, -0.01370323821902275, 0.03995778039097786, 0.05344637483358383, -0.006916285026818514, -0.01646643690764904, -0.058590371161699295, 0.03338480740785599, -0.014364206232130527, 0.025009697303175926, 0.050347231328487396, -0.018169332295656204, -0.00980225671082735, -0.05778154730796814, -0.0194226261228323, -0.012375910766422749, -0.03592398762702942, 0.006279300898313522, -0.03401380777359009, -0.01455235481262207, -0.020334335044026375, -0.03675709292292595, 0.01116111595183611, -0.030728988349437714, 0.011265459470450878, -0.02039664424955845, -0.004400257021188736, -0.032228756695985794, 0.04042309522628784, -0.026083460077643394, 0.05104473605751991, -0.054505545645952225, 0.006133455317467451, -0.055771052837371826, -0.0021343089174479246, 0.043243519961833954, 0.0006091200048103929, 0.03031833842396736, 0.04635236784815788, -0.03528954088687897, 0.02909291721880436, 0.0423976331949234, -0.0449012815952301, 0.023896625265479088, 0.025142859667539597, -0.04047895222902298, 0.043049365282058716, -0.005539493635296822, 0.04423512518405914, -0.02328157052397728, -0.0314057320356369, -0.010536765679717064, 0.06773711740970612, -0.01345047727227211, -0.01362563669681549, -0.04718983918428421, 0.022711774334311485, 0.04173486307263374, 0.06732510030269623, 0.0807228833436966, -0.04330693930387497, -0.04476342722773552, 0.0251865703612566, 0.016459286212921143, 0.001633965875953436, -0.010816188529133797, 0.05837061628699303, -0.027285607531666756, -0.0057579041458666325, 0.01669921912252903, -0.04632750153541565, -0.04551639035344124, 0.012570503167808056, -0.012271868996322155, 0.028801074251532555, -0.025602148845791817, -0.002869054675102234, 0.00225775595754385, 0.0036161041352897882, 0.06780549138784409, -0.020159434527158737, -0.018579674884676933, 0.09236407279968262, 0.055447980761528015, 0.01633620634675026, 0.007423564326018095, 0.06594865769147873, -0.05838407203555107, -0.028930168598890305, 0.05434979125857353, -0.003950221464037895, 0.005813220050185919, 0.08938626945018768, 0.06527230143547058, -0.03731360659003258, 0.034910283982753754, 0.07506201416254044, 0.017812959849834442, -0.03686707839369774, -0.06530115753412247, -0.061995889991521835, -0.010379842482507229, -0.0008624497568234801, -0.02297387085855007, 0.06509674340486526, -0.011066663078963757, -0.017988184466958046, 0.005591191351413727, 0.03768976405262947, 0.057495102286338806, 0.00819782167673111, -0.0034386496990919113, 0.002103302860632539, -0.01941889524459839, 0.01098632626235485, 0.05113842710852623, 0.01281541958451271, 0.017215050756931305, 0.016789354383945465, 0.023492680862545967, 0.004586888011544943, -0.014528002589941025, -0.05356410890817642, -0.061522986739873886, -0.051130261272192, 0.009052585810422897, -0.05391259491443634, -0.03189097344875336, 0.04686681181192398, -0.064170241355896, 0.03750653192400932, -0.049193866550922394, -0.027850406244397163, -0.041084174066782, 0.03880126774311066, -0.03899051621556282, -0.03332039713859558, 0.02277044765651226, -0.028622779995203018, 0.032859496772289276, 0.030198754742741585, -0.05941686034202576, -0.009097804315388203, -0.0362095832824707, -0.02476726658642292, -0.02712891809642315, 0.02129862830042839, 0.03843509778380394, 0.03378727659583092, -0.028353694826364517, 0.04923584312200546, 0.011415504850447178, -0.06477252393960953, 0.04999137669801712, -0.03291831538081169, -0.019430212676525116, -0.040052540600299835, 0.0495065301656723, 0.017984896898269653, 0.01103110983967781, 0.02648727037012577, -0.050415053963661194, 0.02175021730363369, -0.05631935968995094, -0.01680704578757286, -0.0164395309984684, -0.02344203181564808, 0.041648950427770615, -0.04956076294183731, -0.0008256511064246297, 0.05079200491309166, -0.007495702710002661, -0.016412055119872093, -0.0382922925055027, 0.025998175144195557, 0.04976087063550949, 0.05158022791147232, 0.046795543283224106, 0.07853236794471741, 0.0548049621284008, -0.04296955466270447, -0.04000440612435341, 0.0142048429697752, -0.0007427100208587945, -0.011268304660916328, 0.06460459530353546, 0.03739464282989502, -0.046838048845529556, -0.0274577047675848, 0.019002828747034073, -0.045350734144449234, 0.02926040254533291, 0.043892987072467804, 0.03539981693029404, -0.040683064609766006, -0.04241632670164108, 0.10512729734182358, 0.0536310076713562, -0.013912581838667393, 0.03883389011025429, -0.016376333311200142, -0.04506590589880943, 0.03226642310619354, -0.025175120681524277, 0.058957699686288834, 0.019672326743602753, 0.004271578509360552, 0.03709563985466957, 0.09303794056177139, 0.026223046705126762, -0.0030883566942065954, -0.00826905108988285, 0.09427960962057114, -0.02591952681541443, -0.04334871470928192, 0.007279041223227978, 0.07297748327255249, -0.06450138241052628, -0.0062646279111504555, -0.04354572296142578, 0.044550083577632904, -0.02797374129295349, 0.04879569634795189, 0.04243360087275505, -0.031231340020895004, -0.01715698093175888, -0.04442284628748894, 0.005308873485773802, -0.027428247034549713, -0.0027044566813856363, -0.010667473077774048, 0.008440838195383549, -0.032613661140203476, 0.02340630069375038, 0.007685055956244469, -0.05412815511226654, -0.029184242710471153, -0.016419056802988052, 0.02349458634853363, 0.04086202010512352, 0.028943629935383797, -0.02434563636779785, -0.01232325378805399, 0.052148643881082535, -0.030586548149585724, -0.03799756243824959, 0.021786095574498177, -0.03594477102160454, -0.009698794223368168, 0.028895026072859764, -0.010765362530946732, 0.0034420667216181755, 0.040085017681121826, 0.024533145129680634, -0.021954786032438278, 0.021841907873749733, 0.005750630516558886, -0.061855148524045944, -0.03903096541762352, 0.0018111743265762925, -0.06013232842087746, -0.029381904751062393, -0.039517730474472046, 0.003716150764375925, 0.05788517743349075, 0.03382529318332672, -0.013415181078016758, -0.04905141144990921, -0.04912923276424408, -0.02949373796582222, 0.06915825605392456, 0.012646536342799664, -0.0332428514957428, -0.04416850581765175, 0.016008198261260986, -0.0561976432800293, 0.028102340176701546, -0.07497748732566833, 0.05449192598462105, -0.03458510711789131, 0.0802483782172203, 0.021755851805210114, -0.08186139911413193, -0.04291403293609619, -0.06125565245747566, -0.01755463145673275, -0.09973092377185822, -0.03492271527647972, 0.0036659259349107742, -0.038978446274995804, 0.0788484662771225, 0.003994276747107506, -0.09012940526008606, -0.01643485575914383, 0.03512845188379288, 0.07836897671222687, -0.1017078086733818, 0.0405200757086277, -0.025335056707262993, 0.0568632036447525, 0.08068015426397324, 0.014567791484296322, -0.10260176658630371, -0.044267989695072174, 0.006066000554710627, -0.029399992898106575, -0.01879476197063923, -0.021718475967645645, -0.01111940573900938, 0.007466533221304417, -0.015387662686407566, 0.0537496842443943, 0.011641385033726692, -0.06925609707832336, 0.06168907508254051, 0.024296915158629417, -0.028257891535758972, 0.058757565915584564, -0.007274245377629995, 0.012679499574005604, 0.013435503467917442, 0.041438765823841095, 0.05980107560753822, 0.017556028440594673, -0.008176891133189201, 0.024603864178061485, -0.021529270336031914, -0.038921043276786804, 0.03267388790845871, -0.008291173726320267, -0.01057046465575695, 0.02516983449459076, 0.01803041249513626, 0.013767059892416, -0.02067047916352749, -0.008401860482990742, -0.043355803936719894, -0.04247615113854408, -0.004057062789797783, -0.0168080423027277, -0.0009311476605944335, 0.06142369285225868, 0.09682043641805649, -0.015822099521756172, 0.0044936807826161385, 0.037885282188653946, -0.020415740087628365, 0.04524653032422066, 0.020331136882305145, -0.0369604267179966, -0.0017242719186469913, -0.05329546704888344, 0.04002684727311134, 0.058985646814107895, -0.01972336508333683, -0.033538345247507095, -0.024972790852189064, 0.026155836880207062, 0.056729529052972794, -0.0326196514070034, -0.0629221573472023, 0.038138628005981445, -0.00619485042989254, 0.0301095899194479, 0.02229858562350273, 0.04131701588630676, 0.0749421939253807, -0.025714483112096786, -0.025127585977315903, 0.0536949522793293, -0.03386950492858887, 0.0027159976307302713, -0.0507388636469841, 0.029458723962306976, 0.028977077454328537, 0.0066744438372552395, 0.05054055526852608, 0.006713459268212318, 0.07758311182260513, 0.08245918154716492, 0.01538260281085968, -0.04990420863032341, 0.03255639597773552, -0.00606701523065567, -0.047086622565984726, -0.02152174338698387, 0.10962171107530594, 0.015115167945623398, 0.07079830020666122, 0.06741814315319061, 0.017491698265075684, -0.02607099339365959, 0.09130239486694336, 0.01727442815899849, -0.03422640636563301, 0.002876365091651678, -0.037486035376787186, -0.007090784143656492, -0.06304530054330826, -0.009116568602621555, 0.07611824572086334, 0.05136552453041077, 0.037681467831134796, -0.02759498357772827, 0.016805274412035942, 0.021165162324905396, 0.011487925425171852, -0.03113606944680214, -0.03608483821153641, -0.06338492035865784, 0.01745818927884102, -0.060706887394189835, -0.11260253936052322, 0.00956946611404419, 0.03956406190991402, -0.05200951173901558, -0.061142448335886, 0.030390717089176178, -0.08774261921644211, 0.03278040140867233, 0.03437082841992378, -0.003280641743913293, -0.09004676342010498, -0.0533955916762352, -0.010109154507517815, 0.038609713315963745, -0.08653009682893753, 0.037544600665569305, -0.10448509454727173, -0.06223127245903015, 0.07418195903301239, 0.022969892248511314, -0.08189836144447327, 0.041112013161182404, 0.06550954282283783, 0.008769763633608818, -0.01040241401642561, -0.022702613845467567, -0.007011300418525934, -0.04208638146519661, -0.004153154790401459, -0.014572703279554844, -0.07960031181573868, 0.048820190131664276, -0.0018071383237838745, -0.02795563079416752, -0.03289635851979256, -0.01925245113670826, 0.041660942137241364, 0.009228341281414032, -0.01694902777671814, 0.012935008853673935, -0.003949710167944431, 0.005573062226176262, 0.03403520956635475, 0.049591924995183945, -0.0012209550477564335, 0.05430907383561134, -0.0022675655782222748, -0.054614316672086716, 0.0071451300755143166, -0.030855197459459305, 0.06065824627876282, 0.06039721518754959, 0.07161355018615723, -0.019545916467905045, 0.0007678523543290794, -0.03016750141978264, 0.035496536642313004, 0.021037181839346886, 0.01747043989598751, -0.062477752566337585, -0.010282370261847973, -0.013937550596892834, 0.01408394891768694, -0.043586213141679764, 0.03474609926342964, -0.01020427979528904, -0.0019955490715801716, 0.01385133620351553, 0.004133348818868399, -0.03461558744311333, -0.03531787171959877, 0.05622844398021698, -0.04558084160089493, 0.024044562131166458, 0.02548384480178356, -0.07390822470188141, 0.02011420577764511, -0.006271949969232082, 0.011836493387818336, -0.007224841043353081, 0.08503127098083496, -0.02593780681490898, 0.013166913762688637, -0.010051892139017582, 0.07267298549413681, -0.05828506126999855, 0.03824767842888832, -0.023000000044703484, -0.015788253396749496, 0.028880083933472633, 0.06425023823976517, -0.050272680819034576, -0.003281495999544859, -0.10082549601793289, 0.07230124622583389, 0.028612442314624786, 0.06561686843633652, 0.017253849655389786, -0.0411238968372345, 0.0039856345392763615, 0.16654576361179352, -0.041167113929986954, 0.010031135752797127, -0.009368759579956532, 0.07425923645496368, -0.030609536916017532, 0.08932500332593918, 0.029899748042225838, 0.037374068051576614, 0.005967145785689354, 0.14808389544487, -0.025350993499159813, -0.06017559766769409, -0.03306671231985092, -0.040148623287677765, -0.0712369903922081, -0.02837672084569931, 0.011481067165732384, -0.045184262096881866, 0.00997872557491064, -0.012418798170983791, -0.04118037968873978, 0.05261364206671715, 0.04354826360940933, 0.002978365635499358, -0.04142104834318161, -0.03112698160111904, -0.05837368220090866, -0.03489236533641815, -0.03409732133150101, -0.14851686358451843, 0.0709376409649849, -0.05190763995051384, 0.05328027531504631, 0.052750520408153534, -0.03392845764756203, -0.07608182728290558, -0.03608413413167, -0.036349084228277206, 0.05415588617324829, -0.0857732966542244, -0.04720790311694145, 0.0009814964141696692, -0.038547027856111526, 0.003677671542391181, 0.018302112817764282, 0.061974186450242996, 0.0028619151562452316, 0.032203640788793564, 0.044059157371520996, -0.024202536791563034, -0.04481913149356842, 0.0614810511469841, -0.03708706051111221, -0.002773374319076538, 0.01704278774559498, -0.0024978674482554197, -0.019895384088158607, 0.004900429397821426, -0.024863645434379578, 0.08450300246477127, -0.04046914353966713, 0.06516169011592865, 0.03507803753018379, -0.002710881642997265, 0.00016423585475422442, 0.010000073350965977, -0.04132319241762161, 0.004904730245471001, -0.050307195633649826, 0.006526629440486431, -0.011267174035310745, -0.04012730345129967, -0.026035021990537643, -0.046480078250169754, 0.042512428015470505, -0.028662830591201782, -0.015946438536047935, -0.0526166670024395, 0.01094751711934805, 0.006002640351653099, -0.013848662376403809, 0.03337066248059273, -0.05679042264819145, -0.05872437730431557, 0.02139771357178688, 0.03884846717119217, 0.020450254902243614, 0.019899435341358185, 0.05227405205368996, -0.026788482442498207, 0.05106938257813454, 0.04737362638115883, 0.04814310744404793, 0.041025105863809586, 0.029099121689796448, -0.00759501289576292, -0.057065051048994064, 0.03134359046816826, 0.049363262951374054, -0.01744178682565689, 0.02803301252424717, -0.01614285632967949, -0.028496194630861282, 0.0015539624728262424, -0.053217414766550064, -0.07636228948831558, -0.029578568413853645, -0.06806673109531403, -0.0478719137609005, 0.011262555606663227, -0.023069871589541435, 0.022362802177667618, 0.015167176723480225, -0.03943852707743645, -0.02497084252536297, -0.0465630441904068, 0.08070114254951477, -0.056936539709568024, -0.04805559292435646, 0.05971451848745346, 0.020735299214720726, -0.02144341915845871, -0.06859776377677917, 0.02238466404378414, -0.05438825488090515, 0.024105923250317574, 0.02486090175807476, -0.06191035360097885, -0.012875252403318882, 0.023846331983804703, -0.01014690101146698, -0.003278258955106139, -0.06970267742872238, 0.005833475850522518, -0.04471617937088013, 0.08649153262376785, -0.04936227947473526, -0.04403090104460716, -0.003893160494044423, 0.03336580842733383, -0.01233404316008091, 0.052561987191438675, -0.05211518704891205, -0.011389359831809998, 0.02094208635389805, -0.009547951631247997, -0.06934241205453873, 0.00985972210764885, -0.000934770330786705, -0.034448448568582535, -0.031122133135795593, 0.03391055017709732, -0.02908938191831112, 0.012627090327441692, -0.06953329592943192, 0.004082666244357824, 0.02154993638396263, 0.012074182741343975, -0.05894232168793678, -0.03199136257171631, 0.07553286105394363, -0.04226663336157799, -0.05520007014274597, 0.058511488139629364, -0.00586353475227952, -0.050435833632946014, -0.0081785311922431, -0.05722924321889877, -0.05060911178588867, -0.023114463314414024, 0.06589757651090622, 0.04972168803215027, 0.055556152015924454, 0.08400401473045349, 0.03422042354941368, 0.03527284413576126, 0.04369715601205826, 0.023804685100913048, -0.009384273551404476, 0.009436857886612415, 0.018226100131869316, -0.0006898774299770594, 0.04276066645979881, 0.021974900737404823, 0.026329785585403442, 0.05219169333577156, -0.02609587274491787, -0.020133838057518005, -0.012082860805094242, 0.04572940990328789, -0.00700222747400403, -0.049511633813381195, 0.015822572633624077, 0.0006164204678498209, 0.0029290763195604086, -0.06392960995435715, -0.01349442359060049, -0.058358222246170044, -0.04693504795432091, 0.021347451955080032, 0.04665251076221466, 0.019622616469860077, 0.03430929407477379, -0.027480827644467354, 0.027168650180101395, -0.05997474491596222, 0.046000268310308456, 0.021140359342098236, 0.002248789882287383, -0.059762366116046906, 0.0023502286057919264, 0.013710555620491505, -0.06733126193284988, -0.007518419995903969, 0.004096245858818293, -0.009521502070128918, 0.0005788010894320905, -0.01524354238063097, -0.059797253459692, -0.021939588710665703, -0.06421563029289246, -0.017390534281730652, 0.045397598296403885, -0.041952624917030334, -0.028725767508149147, -0.06467955559492111, 0.002341482788324356, -0.043753281235694885, -0.022377019748091698, 0.012274550274014473, -0.05701562389731407, -0.012627906166017056, 0.004144943784922361, 0.04408826306462288, -0.0007364923949353397, -0.03328535705804825, 0.03107612207531929, 0.05715065449476242, 0.050829220563173294, -0.0669238418340683, -0.002093700924888253, -0.03624150902032852, -0.06268491595983505, 0.03190884366631508, -0.03272634372115135, 0.03544161841273308, 0.01386222057044506, -0.022403761744499207, -0.04029310494661331, 0.089448943734169, -0.00217082304880023, 0.018527623265981674, 0.0071912407875061035, 0.04550822451710701, -0.017921730875968933, 0.01757962815463543, -0.09193349629640579, 0.03044283017516136, -0.05549195781350136, 0.10517171025276184, -0.03613945469260216, -0.029889630153775215, -0.03659074753522873, -0.030605781823396683, -0.07299607247114182, -0.011939874850213528, 0.012072280049324036, -0.018191341310739517, -0.058063797652721405, -0.038995299488306046, 0.017850317060947418, 0.02692628838121891, -0.03438892588019371, -0.01789340376853943, -0.03251131996512413, -0.05213397741317749, 0.023001305758953094, 0.03998634219169617, -0.0296408012509346, -0.0059446049854159355, 0.060792990028858185, 0.05352950841188431, 0.012151980772614479, 0.016109753400087357, 0.04941370338201523, 0.02666281722486019, -0.04128532484173775, -0.07416452467441559, -0.04521283507347107, -0.006076026242226362, 0.05738326162099838, -0.035829853266477585, -0.017868800088763237, -0.03904692456126213, -0.05749378725886345, -0.02819701097905636, -0.0029563007410615683, -0.029178086668252945, 0.03041350655257702, 0.029110495001077652, -0.022736070677638054, 0.022431526333093643, 0.009623910300433636, 0.024976592510938644, -0.007617323659360409, -0.0029406980611383915, 0.011067922227084637, -0.05343332141637802, -0.002016828628256917, -0.03710808977484703, 0.02052418887615204, 0.05147790536284447, 0.020770156756043434, -0.06277810782194138, 0.044848646968603134, -0.05957278981804848, -0.07545063644647598, 0.025958746671676636, 0.0463140532374382, -0.006003675051033497, -0.04873882606625557, -0.02200036309659481, 0.014834284782409668, 0.025720424950122833, -0.04328223690390587, -0.03136430308222771, -0.01157450582832098, 0.055399782955646515, 0.0360538624227047, 0.0037101490888744593, -0.019192107021808624, 0.024489330127835274, -0.03520047664642334, 0.007159617729485035, 0.030219625681638718, -0.02918791025876999, 0.05166074261069298, 0.04819563776254654, 0.0021284406539052725, -0.07284662872552872, -0.03895920142531395, 0.009864247404038906, -0.043458063155412674, 0.07341046631336212, -0.049532387405633926, -0.022411761805415154, -0.012149197049438953, -0.03576578199863434, 0.0003765390138141811, -0.0406140498816967, -0.04775860533118248, -0.009650738909840584, -0.06980562210083008, 0.0732538104057312, 0.02310369163751602, 0.059179700911045074, 0.038531020283699036, 0.05223493278026581, -0.05027315393090248, 0.11998038738965988, 0.032546333968639374, -0.0142216756939888, -0.04905352741479874, 0.08992590010166168, 0.01277228631079197, 0.1016044169664383, 0.023392299190163612, 0.0073038567788898945, -0.04089147597551346, 0.09658604860305786, -0.008538821712136269, 0.07773701846599579, -0.05131089314818382, 0.03733208030462265, -0.02746758610010147, 0.009114186279475689, 0.026658587157726288, 0.04203474521636963, 0.0027551809325814247, 0.05962013453245163, 0.0446399487555027, -0.039304278790950775, 0.01990046724677086, -0.06917325407266617, -0.029167229309678078, -0.03931473195552826, 0.051337335258722305, -0.03667040169239044, -0.015441162511706352, -0.007305779028683901, 0.018337031826376915, -0.030028676614165306, -0.018725566565990448, -0.04659688100218773, 0.005673518870025873, 0.01677255891263485, 0.06180831789970398, -0.04993482306599617, 0.05064930021762848, -0.040780775249004364, 0.057665903121232986, -0.013826219365000725, -0.03756636008620262, -0.008380836807191372, 0.02202540449798107, 0.07440042495727539, -0.027332937344908714, -0.06915665417909622, -0.007833913899958134, -0.04782363772392273, 0.04960286617279053, -0.038577958941459656, -0.0038890058640390635, 0.03202546760439873, 0.05000433325767517, -0.0465933121740818, 0.022221388295292854, 0.04629213735461235, 0.058549799025058746, -0.047900840640068054, 0.06125399097800255, 0.006639520637691021, -0.020685270428657532, 0.006194842513650656, 0.004219650756567717, -0.004386862739920616, 0.05669940263032913, 0.037881530821323395, 0.004367707297205925, -0.07986117899417877, -0.041730985045433044, -0.04366099834442139, 0.047320082783699036, -0.05161914601922035, -0.07048254460096359, 0.005206861067563295, 0.019403282552957535, 0.04162394255399704, 0.03421618416905403, -0.042152367532253265, -0.025948382914066315, 0.009127426892518997, 0.022571755573153496, -0.024979351088404655, 0.023729484528303146, -0.04333363100886345, 0.030074043199419975, 0.009386501275002956, -0.03627006709575653, -0.013403716497123241, -0.006216018460690975, -0.06905368715524673, 0.0169531162828207, 0.006071916781365871, -0.05936400592327118, -0.004737806972116232, 0.013550203293561935, -0.013485953211784363, -0.01933545246720314, 0.02967229299247265, 0.057655539363622665, 0.037826865911483765, 0.04687400534749031, 0.1129860132932663, -0.07394307851791382, -0.03742966800928116, -0.0045529939234256744, 0.06325087696313858, -0.02044454775750637, 0.015887171030044556, -0.04322559013962746, 0.017659898847341537, 0.005912931635975838, 0.11348166316747665, 0.007851886563003063, 0.0657920092344284, 0.117762491106987, -0.0007641238044016063, -0.04895033687353134, 0.03533385321497917, -0.07349053025245667, -0.00781989749521017, -0.0668809711933136, -0.055570751428604126, -0.03276548162102699, -0.04774079844355583, -0.00018294024630449712, 0.03065755032002926, 0.020554328337311745, -0.03658333793282509, 0.033933740109205246, 0.0566420741379261, 0.0237240232527256, -0.07740537077188492, -0.04470035433769226, 0.0029295363929122686, 0.06090596690773964, 0.03282380849123001, 0.044835954904556274, 0.014470450580120087, 0.03996892273426056, 0.03490208461880684, -0.04514642804861069, -0.04381568729877472, -0.0784454345703125, 0.035237036645412445, -0.023440398275852203, 0.003571511711925268, 0.04675239697098732, -0.056086380034685135, -0.0344269759953022, -0.03585897386074066, 0.038976121693849564, -0.03288739547133446, 0.03576607257127762, -0.025533825159072876, 0.04767782241106033, -0.058342549949884415, -0.016498448327183723, -0.011431912891566753, 0.050111766904592514, -0.039183538407087326, 0.02123217098414898, 0.014604113064706326, 0.039164356887340546, 0.031304314732551575, 0.03981947526335716, -0.03163626044988632, -0.029925137758255005, 0.06417140364646912, 0.05080216005444527, 0.04650891199707985, -0.0608365423977375, 0.009637977927923203, 0.02604096010327339, -0.07323010265827179, -0.007725260220468044, 0.06139258295297623, -0.010965949855744839, -0.0701347067952156, 0.053356874734163284, -0.023856591433286667, 0.05197485536336899, -0.014606975018978119, -0.005577178671956062, -0.03948567062616348, -0.0019735919777303934, -0.054646026343107224, 0.05545269697904587, -0.025650817900896072, 0.019671134650707245, -0.05727927386760712, 0.03690296411514282, -0.07283269613981247, -0.03510471060872078, -0.03150341659784317, -0.04863530024886131, 0.05011823773384094, 0.0629662573337555, -0.031045589596033096, -0.00014390285650733858, 0.03840114548802376, 0.019624728709459305, 0.054830364882946014, 0.006903288420289755, -0.06716316193342209, 0.0025855989661067724, 0.05099008232355118, -0.047664105892181396, -0.05668126791715622, 0.04380534216761589, -0.039375390857458115, 0.03224772587418556, 0.056033339351415634, -0.01408291980624199, -0.0288388654589653, 0.03709390386939049, 0.03589044138789177, 0.017821822315454483, -0.02358553744852543, 0.031167851760983467, 0.003843637416139245, 0.029921799898147583, -0.011424493975937366, -0.08556141704320908, -0.002589196665212512, -0.0004339146544225514, 0.013082674704492092, -0.018982814624905586, 0.06357388943433762, 0.04885781928896904, 0.0603821724653244, -0.02506004087626934, 0.11067701131105423, -0.04957277700304985, -0.06116947531700134, 0.05803988501429558, 0.0638076514005661, 0.03166848421096802, 0.047097351402044296, 0.034999869763851166, -0.03850608691573143, 0.0033399134408682585, 0.018117882311344147, -0.07837612926959991, -0.005698730703443289, 0.027804851531982422, -0.005481704603880644, 0.058459535241127014, 0.004515544045716524, -0.013614333234727383, 0.0658390000462532, -0.014794585295021534, 0.028711045160889626, -0.08913221210241318, 0.07140656560659409, 0.018749665468931198, -0.019451260566711426, 0.02964778244495392, 0.06611130386590958, 0.0008513274369761348, 0.012457270175218582, 0.011933503672480583, -0.01494024321436882, -0.08689127117395401, 0.05756212770938873, 0.015885474160313606, 0.023824963718652725, 0.054355934262275696, 0.07003804296255112, -0.04795654118061066, -0.055713947862386703, -0.020152568817138672, 0.03445980325341225, -0.04210968315601349, 0.012092925608158112, 0.04481852799654007, 0.05359522998332977, -0.035088200122117996, -0.04616159573197365, 0.014304808340966702, 0.055702585726976395, 0.02430332638323307, -0.022829273715615273, 0.008540641516447067, -0.025602230802178383, -0.005056797526776791, 0.0017637972487136722, -0.058973949402570724, -0.005966895259916782, 0.04861423373222351, 0.04505523666739464, 0.05011621490120888, -0.014952631667256355, -0.010253638960421085, -0.03737052157521248, -0.059966135770082474, -0.026783911511301994, -0.055432967841625214, -0.0461556501686573, 0.021083083003759384, -0.04735784977674484, -0.06448663771152496, 0.043183937668800354, -0.06794098764657974, 0.0015823940047994256, -0.01882181689143181, -0.019041702151298523, -0.010402477346360683, -0.019618673250079155, 0.05582895129919052, 0.013815362937748432, 0.026215670630335808, -0.0690690129995346, -0.05959697812795639, 0.011387724429368973, -0.058761049062013626, -0.05385742709040642, -0.016056576743721962, -0.0661020278930664, 0.01838841661810875, 0.022054027765989304, -0.04128120839595795, 0.0035529634915292263, 0.051218051463365555, -0.06099984422326088, 0.0501076839864254, 0.015197818167507648, -0.027104202657938004, 0.009434070438146591, -0.04185282811522484, 0.05414427071809769, -0.027093466371297836, -0.042371924966573715, 0.022954672574996948, 0.02237822860479355, -0.0518767423927784, 0.061379529535770416, -0.021192902699112892, -0.012166216038167477, -0.07023969292640686, 0.034814998507499695, -0.014454997144639492, -0.05653918534517288, -0.031447820365428925, 0.03383595868945122, 0.05719567462801933, -0.0637190192937851, 0.047677069902420044, -0.033279892057180405, 0.002483351854607463, -0.06051589921116829, -0.030172059312462807, 0.023968523368239403, 0.03794975206255913, -0.024247033521533012, -0.01126717310398817, 0.027648108080029488, -0.045386284589767456, 0.004466102458536625, -0.007708757184445858, 0.052559394389390945, -0.05150601267814636, 0.07330982387065887, -0.027281155809760094, 0.046317316591739655, -0.0142126539722085, 0.05534772947430611, 0.03291727229952812, 0.16566996276378632, -0.03226185590028763, 0.014360016211867332, 0.004294029902666807, 0.05697875842452049, -0.07471483945846558, 0.06067986786365509, 0.004656446166336536, 0.050536103546619415, -0.05099184438586235, 0.13674482703208923, 0.05210884287953377, 0.022903311997652054, 0.023235652595758438, 0.04469741880893707, -0.014055950567126274, -0.028349319472908974, 0.04586883261799812, 0.04362862929701805, 0.05111216381192207, 0.039110831916332245, 0.04164024442434311, 0.036266520619392395, -0.01934211328625679, 0.039897553622722626, -0.06220899894833565, -0.008008587174117565, -0.06599347293376923, 0.0276039969176054, 0.03332031890749931, 0.039707817137241364, -0.04380219057202339, 0.024087652564048767, -0.06103076785802841, -0.005428257863968611, -0.012850974686443806, 0.022729115560650826, -0.046544961631298065, -0.009526100009679794, 0.0518600232899189, -0.031763315200805664, 0.0028267924208194017, 0.050258804112672806, -0.06680542975664139, -0.003259397577494383, 0.049438245594501495, -0.06608831137418747, -0.000821051886305213, -0.02609870955348015, 0.05310531333088875, -0.03293077275156975, 0.046491093933582306, 0.025085460394620895, 0.0019624647684395313, 0.051343824714422226, -0.02776244282722473, 0.049469564110040665, -0.024144204333424568, 0.003378688357770443, -0.005105312447994947, 0.03270907327532768, 0.029882105067372322, -0.004944609943777323, -0.04699230566620827, 0.031675346195697784, 0.021143946796655655, -0.04206102341413498, -0.007462857291102409, 0.03853026404976845, 0.012265459634363651, -0.07167071104049683, -0.06419269740581512, 0.0049074562266469, 0.005763208027929068, 0.024697626009583473, 0.025027120485901833, -0.07053893804550171, 0.03766748681664467, 0.02408965863287449, -0.060653865337371826, -0.06125452369451523, -0.047196242958307266, -0.02016078308224678, 0.01876191422343254, 0.01266382820904255, 0.022167054936289787, -0.050709228962659836, -0.03516489267349243, 0.030109142884612083, -0.04976341500878334, -0.04404589161276817, 0.05495825409889221, 0.029886387288570404, 0.0454813614487648, -0.08775939792394638, 0.015772780403494835, 0.03383034095168114, -0.014724009670317173, 0.0041361963376402855, 0.05403594672679901, -0.042025938630104065, -0.033785782754421234, -0.04619331657886505, -0.03479177877306938, -0.04432077333331108, 0.05736445263028145, -0.008371525444090366, 0.0052342903800308704, 0.02844458818435669, 0.014430871233344078, -0.01063283160328865, 0.01868286170065403, 0.02585531957447529, 0.006004706025123596, -0.016000960022211075, -0.028735920786857605, 0.02804439887404442, -0.012751464731991291, 0.02671208418905735, 0.043806806206703186, -0.008283144794404507, 0.060142774134874344, 0.020258916541934013, -0.008685656823217869, -0.07695958763360977, 0.07188724726438522, 0.047736477106809616, 0.004543343558907509, -0.009926767088472843, -0.019213611260056496, 0.014047462493181229, 0.004114245530217886, -0.037340469658374786, 0.05800887942314148, -0.04778454452753067, -0.04116151109337807, -0.012969150207936764, -0.06449040025472641, 0.02655182033777237, -0.05282428488135338, -0.038925670087337494, 0.018980722874403, 0.0423218198120594, -0.0001965449337149039, 0.03742697462439537, 0.022358069196343422, 0.03648144006729126, 0.02396331913769245, -0.011572915129363537, -0.04534820094704628, -0.036724697798490524, -0.04009575769305229, 0.028882408514618874, 0.028182819485664368, -0.02603156864643097, 0.0487356036901474, -0.006712670903652906, 0.04164136201143265, -0.0426410548388958, 0.021832838654518127, -0.07125241309404373, 0.04099497199058533, -0.06301786005496979, 0.031837426126003265, -0.011035596951842308, -0.06689508259296417, -0.0022476683370769024, 0.05142385512590408, 0.022836357355117798, 0.04138881713151932, -0.010811148211359978, 0.024798354133963585, 0.027094054967164993, 0.006407985929399729, 0.0010248444741591811, -0.07035836577415466, 0.050648629665374756, 0.04673943668603897, 0.04612018167972565, 0.05629337206482887, -0.05517904832959175, -0.02098398096859455, -0.028030751273036003], [0.05203627049922943, 0.04698077216744423, 0.045370299369096756, -0.04863806813955307, 0.015534954145550728, 0.059174858033657074, -0.05277705937623978, -0.02985731139779091, 0.01746942289173603, -0.025887852534651756, -0.01158494595438242, 0.027060747146606445, -0.015191061422228813, 0.019483240321278572, -0.03905840218067169, -0.029576221480965614, -0.058358218520879745, 0.04564864933490753, -0.061293575912714005, 0.012555406428873539, 0.0030979809816926718, -0.07052945345640182, 0.061950843781232834, 0.0030378687661141157, -0.031290095299482346, -0.02303145080804825, 0.019935281947255135, -0.02377658523619175, -0.04242292046546936, -0.03910299390554428, 0.03633880242705345, -0.018192846328020096, -0.012851161882281303, -0.0555310919880867, 0.0514882355928421, -0.051068682223558426, -0.04090213403105736, -0.03484846279025078, 0.01882077381014824, -0.009121743962168694, 0.047280021011829376, -0.02908334694802761, -0.03017139807343483, -0.09329061210155487, -0.010190618224442005, 0.021240994334220886, 0.01395440474152565, -0.02232934907078743, -0.03588913753628731, -0.04940048232674599, 0.0254663098603487, -0.07717324793338776, 0.048020217567682266, -0.04787825793027878, 0.0340864360332489, 0.0027294084429740906, 0.04105871915817261, -0.1054747998714447, 0.008331838995218277, -0.019196275621652603, 0.009832026436924934, 0.004479029681533575, 0.049869079142808914, -0.042088404297828674, -0.02337465062737465, -0.023687543347477913, -0.058053407818078995, -0.06130543351173401, -0.058631423860788345, -0.062143877148628235, 0.052199479192495346, -0.06122908368706703, 0.005022425204515457, -0.0581454373896122, 0.04579993337392807, -0.026487616822123528, 0.02363460510969162, 0.027584630995988846, 0.028640389442443848, 0.03377353027462959, 0.030239596962928772, -0.009934650734066963, -0.041515935212373734, 0.017974335700273514, -0.0486443005502224, 0.0516623854637146, -0.042602118104696274, -0.03162257745862007, 0.012231608852744102, 0.04387161508202553, -0.04060671105980873, -0.049078136682510376, -0.021265944465994835, 0.02360221929848194, -0.029120363295078278, 0.010368917137384415, -0.03289475664496422, -0.009096886031329632, -0.05851861089468002, 0.05500403791666031, 0.012742123566567898, -0.05503261089324951, 0.05588897317647934, -0.010163483209908009, 0.006585490424185991, 0.009420651011168957, -0.020723160356283188, -0.022742819041013718, -0.041854362934827805, -0.05550411716103554, 0.021966947242617607, 0.011906023137271404, -0.02066420391201973, -0.006795939989387989, -0.05132871866226196, 0.009525977075099945, 0.034959033131599426, 0.037021491676568985, 0.05452032759785652, -0.013074406422674656, -0.03374256566166878, 0.04924316331744194, -0.033749137073755264, 0.012316263280808926, -0.056650951504707336, -0.018413739278912544, 0.04262235015630722, -0.0599200464785099, -0.014988473616540432, -0.02134041301906109, 0.030277194455266, 0.022550566121935844, 0.004465680103749037, 0.01754658855497837, 0.06287984549999237, -0.02345450408756733, 0.017535218968987465, 0.01204698532819748, 0.03415323793888092, -0.044308800250291824, -0.03302707150578499, -0.03253320977091789, 0.06143941357731819, -0.018622495234012604, 0.05238405615091324, 0.015603587962687016, -0.022965045645833015, 0.04436967894434929, 0.047130733728408813, -0.0502101369202137, -0.050753120332956314, 0.02857949212193489, -0.004210305400192738, 0.006914651021361351, 0.05057963356375694, -0.04230048507452011, 0.0512041412293911, 0.005339992698282003, 0.036774925887584686, 0.04521813988685608, 0.05128908157348633, -0.03518211469054222, 0.03665623068809509, 0.04013768583536148, 0.057753678411245346, 0.059731386601924896, 0.0586097426712513, -0.031075652688741684, -0.0018774346681311727, 0.0037902649492025375, 0.029946135357022285, -0.03370223566889763, -0.004604131914675236, 0.0010449006222188473, 0.01054401695728302, -0.022382397204637527, 0.05454643815755844, 0.04273882135748863, 0.05912914499640465, 0.043642137199640274, 0.029405973851680756, 0.06601101160049438, 0.06033891811966896, 0.005800880491733551, -0.0301702618598938, -0.036675333976745605, 0.01260330993682146, 0.013594877906143665, 0.06473072618246078, 0.0223512202501297, -0.03869040310382843, -0.04808948561549187, 0.05934529006481171, 0.051693372428417206, 0.004171436186879873, -0.01002507470548153, -0.03383440524339676, -0.03825923427939415, -0.029231302440166473, -0.03918259218335152, -0.05073036625981331, -0.061568066477775574, -0.05646723136305809, -0.03646283969283104, 0.047901131212711334, 0.06366090476512909, -0.029588807374238968, -0.008436586707830429, 0.05591846629977226, -0.015081729739904404, 0.024829287081956863, -0.0050150989554822445, -0.05426536127924919, 0.017766110599040985, -0.004651169758290052, -0.006780942436307669, -0.02590944431722164, 0.014940769411623478, 0.0480196587741375, -0.05218833312392235, 0.04264041408896446, 0.021628936752676964, 0.014829135499894619, -0.014378228224813938, 0.05035700649023056, 0.0404074490070343, -0.012709883973002434, 0.055986735969781876, -0.019999191164970398, 0.0037910311948508024, -0.023369526490569115, -0.04086194187402725, 0.0573762021958828, 0.0071746353060007095, -0.029622932896018028, 0.05329129844903946, -0.010522914119064808, 0.053513865917921066, -0.016763795167207718, 0.00867339689284563, 0.032082196325063705, 0.0033761472441256046, 0.03460530936717987, 0.02015596069395542, -0.0368618369102478, 0.046830788254737854, -0.05694601684808731, -0.01734287291765213, 0.020187783986330032, -0.02573399245738983, 0.043809011578559875, -0.009061911143362522, -0.0018845227314159274, 0.02391756884753704, 0.057496607303619385, -0.004548795986920595, -0.0362243689596653, 0.016394509002566338, 0.01378676574677229, -0.060787711292505264, -0.05109257623553276, -0.0037449027877300978, 0.011778692714869976, 0.04029662162065506, 0.05797010660171509, -0.05709918960928917, 0.017480434849858284, 0.028059406206011772, -0.05164350941777229, 0.004192153457552195, 0.021035734564065933, 0.042783331125974655, 0.021380452439188957, 0.025203607976436615, -0.023284658789634705, 0.024148866534233093, 0.03662998974323273, 0.050639376044273376, 0.011211558245122433, 0.022195836529135704, 0.026755807921290398, -0.0019459193572402, 0.06037043407559395, -0.021918073296546936, 0.07230117917060852, -1.1596810509217903e-05, -0.06074297055602074, 0.035991743206977844, -0.024726873263716698, 0.06667322665452957, -0.049372121691703796, 0.0022232369519770145, -0.06383468955755234, 0.04773816838860512, -0.055004190653562546, 0.03264232352375984, 0.0010517863556742668, 0.045551225543022156, 0.041707757860422134, 0.010013512335717678, -0.035399045795202255, -0.0183249544352293, -0.007837345823645592, 0.07143180072307587, -0.013819451443850994, -0.051050081849098206, 0.019221018999814987, 0.027786854654550552, 0.0016557815251871943, -0.04727572947740555, 0.05479235202074051, -0.0025490245316177607, -0.050895806401968, 0.03286784514784813, 0.003831290639936924, 0.06729740649461746, -0.027299972251057625, 4.325053305365145e-05, 0.03632686287164688, 0.034902386367321014, 0.05657283961772919, -0.034280043095350266, 0.03719514235854149, -0.005255092401057482, 0.06891075521707535, 0.08283578604459763, 0.023298384621739388, -0.028073342517018318, 0.05708719417452812, 0.014392923563718796, 0.010265222750604153, 0.05732244625687599, 0.005504376720637083, 0.04813489690423012, 0.05391194671392441, -0.017783427610993385, 0.046434588730335236, 0.04416700825095177, -0.04172369837760925, -0.06022581458091736, -0.023852519690990448, 0.06856809556484222, -0.02094726637005806, 0.0912519171833992, 0.037526264786720276, 0.047542452812194824, -0.0059939054772257805, -0.01631665974855423, 0.05997778847813606, -0.010254871100187302, -0.011816165409982204, 0.02616364136338234, 0.02416110783815384, 0.03438955172896385, -0.04508083313703537, 0.011553582735359669, -0.014776675961911678, 0.018753238022327423, 0.04984857887029648, -0.050397854298353195, -0.054468415677547455, 0.020182138308882713, 0.05671830102801323, -0.03630368411540985, -0.043439965695142746, 0.030673155561089516, -0.018998341634869576, 0.046049848198890686, 0.051188770681619644, -0.0623505599796772, -0.03404611721634865, 0.05309838056564331, 0.05488487705588341, -0.018653899431228638, 0.0057699051685631275, 0.046134114265441895, -0.06278280168771744, -0.02378564141690731, 0.00012626356328837574, -0.01805584877729416, -0.0010004328796640038, 0.05167622119188309, -0.035125184804201126, -0.02713843248784542, -0.044519685208797455, -0.0016302644507959485, 0.0039799814112484455, 0.052208054810762405, -0.03335157409310341, 0.04847550019621849, -0.0578860305249691, 0.08800247311592102, 0.036555640399456024, 0.07267722487449646, 0.0851447582244873, 0.03203639015555382, -0.02856677956879139, 0.059526458382606506, 0.0428437665104866, 0.06237628683447838, -0.0337374247610569, -0.0135488947853446, 0.0659484714269638, 0.0053018247708678246, -0.023816026747226715, -0.04784972593188286, 0.035340700298547745, -0.000430106621934101, -0.004097525961697102, -0.01069529727101326, 0.007003596518188715, -0.013252029195427895, 0.05790586769580841, -0.010594391264021397, -0.06796591728925705, 0.036700714379549026, -0.05680334195494652, -0.10475197434425354, 0.01588388904929161, -0.0042587206698954105, 0.03559809550642967, -0.041490793228149414, -0.054342273622751236, -0.041135963052511215, -0.04150066897273064, 0.04426366835832596, -0.0007068170816637576, -0.09219247847795486, -0.005964917596429586, -0.029331563040614128, 0.029390282928943634, 0.05216444656252861, -0.006328280549496412, -0.08763037621974945, 0.07827786356210709, -0.009176640771329403, 0.05807608366012573, 9.650870924815536e-05, 0.019509878009557724, -0.06032591685652733, 0.03902183100581169, 0.06027240306138992, 0.015570846386253834, -0.004414592403918505, -0.032234739512205124, -0.006375137250870466, 0.04612596705555916, -0.040619466453790665, 0.06846784055233002, 0.0446053110063076, 0.04175977036356926, 0.007949182763695717, 0.02152928151190281, 0.0791977271437645, 0.039698436856269836, 0.06621049344539642, -0.046871572732925415, 0.06524494290351868, 0.03165134787559509, 0.06634669005870819, 0.05446947365999222, 0.011791246943175793, -0.01041963417083025, 0.07243232429027557, 0.043596357107162476, -0.007249040063470602, -0.04830014333128929, 0.016444038599729538, 0.04273686930537224, 0.019838588312268257, -0.022191708907485008, 0.047099340707063675, -0.001351062790490687, 0.06400640308856964, 0.06447543948888779, 0.019120346754789352, -0.014457878656685352, 0.09932583570480347, 0.04897576943039894, 0.051016002893447876, -0.0599079392850399, 0.001479061204008758, -0.05987654998898506, 0.04039609059691429, -0.05079895257949829, 0.038087040185928345, -0.013730796054005623, -0.006464553065598011, 0.0034693917259573936, 0.023738373070955276, 0.04319286346435547, 0.06000034883618355, -0.04440147057175636, 0.049651678651571274, 0.02717003971338272, -0.05268130451440811, -0.04101967439055443, 0.08574911952018738, 0.052507102489471436, -0.03529353439807892, 0.0012193822767585516, 0.07551941275596619, 0.029217058792710304, 0.038622234016656876, -0.000372667534975335, -0.03939270228147507, -0.0367988646030426, 0.0774727538228035, -0.0024776190984994173, 0.024490568786859512, 0.008128345012664795, 0.04914242774248123, -0.05036361142992973, 0.0707031637430191, 0.07267647981643677, 0.06201966479420662, -0.02285846509039402, 0.03515026345849037, -0.0041492534801363945, 0.025991816073656082, -0.027470048516988754, 0.06149813532829285, -0.062029652297496796, 0.0012345464201644063, -0.03397272154688835, 0.04579271003603935, 0.06018100306391716, 0.09659236669540405, -0.04155510291457176, -0.0031761247664690018, -0.014814436435699463, 0.0007229582406580448, -0.025038521736860275, 0.0825520008802414, 0.0213010273873806, 0.016405219212174416, -0.04370880872011185, 0.07124300301074982, 0.046334683895111084, -0.031194113194942474, -0.015380539931356907, 0.08018966764211655, 0.06067095696926117, -0.0027839792892336845, 0.024304745718836784, 0.04773280769586563, -0.05318571627140045, -0.03628993406891823, -0.02869480848312378, -0.0038570628967136145, 0.017143039032816887, 0.034823231399059296, -0.026129381731152534, -0.019840480759739876, -0.026547053828835487, -0.03327338770031929, 0.05133530870079994, 0.022595107555389404, 0.035869769752025604, 0.02115621790289879, 0.023006781935691833, 0.0018155407160520554, 0.05470920354127884, 0.09511420875787735, 0.04326537624001503, 0.04248824715614319, -0.006279166787862778, 0.0016234003705903888, 0.008273995481431484, -0.001088945078663528, 0.012316274456679821, 0.05968290939927101, 0.06409688293933868, -0.02128891833126545, -0.041413187980651855, -0.02392621524631977, -0.013153575360774994, 0.03329033404588699, -0.04442470893263817, -0.01071445643901825, 0.0639830082654953, -0.056670717895030975, -0.055744268000125885, 0.009936091490089893, 0.05560697987675667, 0.01684402860701084, 0.0022083488292992115, -0.010797698050737381, 0.01987912505865097, -0.04557956010103226, 0.07740018516778946, -0.018852287903428078, 0.0049957712180912495, -0.05968598648905754, 0.06564155966043472, 0.009529146365821362, 0.013880949467420578, -0.04378827288746834, 0.0036858757957816124, -0.03013022243976593, 0.00911945290863514, -0.00516880489885807, 0.04827044904232025, -0.007587629370391369, -0.021611515432596207, 0.056586429476737976, -0.03952386602759361, 0.020960843190550804, 0.042093511670827866, 0.04572785645723343, -0.028482459485530853, 0.06711689382791519, -0.04000676050782204, 0.07620562613010406, 0.04445658624172211, -0.04912459850311279, 0.042285434901714325, 0.058790575712919235, 0.009380611591041088, 0.0529962033033371, 0.011505530215799809, 0.0340411476790905, -0.01619759015738964, -0.027624143287539482, 0.04664493724703789, -0.01712903566658497, -0.04144233092665672, 0.05958772450685501, 0.013630514033138752, -0.009720893576741219, -0.007254233583807945, 0.06480079889297485, -0.045969028025865555, 0.03407669439911842, 0.01785571314394474, 0.023317793384194374, -0.0378757119178772, 0.06690047681331635, 0.058603525161743164, 0.01839723251760006, 0.016722388565540314, 0.06769991666078568, 0.012525181286036968, 0.0643375962972641, -0.058238618075847626, -0.018283983692526817, 0.03684050217270851, 0.11978676915168762, -0.0172480009496212, -0.016015872359275818, -0.051231108605861664, 0.045412853360176086, 0.028735768049955368, 0.05442677065730095, -0.0034338091500103474, 0.02852683514356613, -0.003367083612829447, 0.09216521680355072, 0.04252444952726364, 0.0044268048368394375, 0.007913114503026009, 0.049970004707574844, -0.043073687702417374, 0.004980483558028936, 0.036524828523397446, -0.032489921897649765, -0.010712336748838425, -0.013821043074131012, 0.0051169125363230705, -0.06429266184568405, 0.022205617278814316, -0.015525599010288715, 0.04504195973277092, -0.006160648539662361, -0.019080456346273422, -0.05798547714948654, -0.05724799260497093, 0.065350241959095, -0.018962189555168152, 0.024504298344254494, -0.04379076138138771, -0.027600562199950218, 0.04087044298648834, 0.06700465828180313, -0.008764797821640968, -0.010456082411110401, 0.05079273879528046, -0.01822187751531601, 0.026700777933001518, 0.015004650689661503, -0.00682831509038806, -0.01702483929693699, -0.02247772179543972, -0.03761138394474983, -0.07259061187505722, 0.015781592577695847, 0.037092845886945724, 0.01916351169347763, -0.05186091363430023, -0.04508572444319725, -0.033711113035678864, 0.0059752739034593105, -0.04945322871208191, 0.0390729121863842, -0.05071234703063965, 0.06007448211312294, 0.028898920863866806, 0.035473212599754333, 0.062322039157152176, 0.03485924005508423, -0.04877933859825134, -0.053216975182294846, 0.003560335375368595, -0.061950549483299255, 0.02645273506641388, -0.019910017028450966, -0.06034452095627785, 0.007870052941143513, -0.007973060943186283, 0.0003255637129768729, -0.02699103392660618, -0.024256356060504913, 0.06019647419452667, -0.025287775322794914, 2.3425041945301928e-05, 0.012650780379772186, -0.0559084452688694, 0.015019402839243412, -0.007487092632800341, -0.00993726309388876, 0.055487144738435745, 0.018486084416508675, -0.03712061047554016, -0.048146847635507584, -0.009157897904515266, -0.029764287173748016, -0.005688805598765612, 0.06004507094621658, -0.01243461575359106, -0.02146258018910885, -0.03371748700737953, 0.0759611651301384, 0.05354302376508713, -0.043945908546447754, -0.038874804973602295, 0.0358743891119957, 0.002665300387889147, 0.04192158579826355, 0.02446596883237362, 0.05706247687339783, -0.03681159391999245, 0.047855593264102936, -0.011266596615314484, -0.006187475752085447, -0.05788795277476311, -0.05635225027799606, 0.01830580271780491, 0.03904814273118973, -0.020274568349123, 0.07833274453878403, -0.005955051630735397, 0.0026336978189647198, -0.042888715863227844, 0.04815118387341499, -0.048367034643888474, 0.06539836525917053, -0.015112536959350109, 0.07071273028850555, 0.014029902406036854, 0.016429560258984566, 0.008670123293995857, -0.01714431494474411, -0.04891766235232353, 0.08182694762945175, -0.03625478968024254, -0.058247167617082596, -0.011775938794016838, 0.08606762439012527, -0.043277520686388016, 0.0669584795832634, -0.0405692495405674, 0.033334437757730484, 0.016741305589675903, 0.09214887022972107, -0.05203218385577202, -0.03447292000055313, 0.051789116114377975, 0.10026434063911438, 0.04582813009619713, -0.018229130655527115, 0.020703842863440514, 0.03574899211525917, -0.050271350890398026, 0.07034171372652054, 0.005701439920812845, -0.04667261615395546, -0.05261469632387161, 0.07859829068183899, -0.0011458786902949214, -0.01970420964062214, -0.046672508120536804, -0.046989504247903824, -0.05182461068034172, 0.0448145717382431, -0.028692983090877533, 0.026147520169615746, -0.0016509820707142353, -0.01783510483801365, 0.029575061053037643, 0.007343856617808342, -0.06170446053147316, 0.030757306143641472, 0.0058091809041798115, 0.025403793901205063, -0.06864741444587708, -0.030874278396368027, 0.03534349054098129, 0.04180290177464485, 0.04496494680643082, -0.010061364620923996, -0.0116561409085989, -0.04367179423570633, 0.049940649420022964, -0.035907771438360214, -0.010504926554858685, -0.016171731054782867, 0.04250137135386467, -0.017719095572829247, 0.03869616985321045, -0.05750251188874245, 0.03063192591071129, 0.04401357099413872, -0.0009144149371422827, 0.020825648680329323, -0.05078910291194916, -0.011114923283457756, -0.0213788915425539, -0.02631121315062046, -0.002270614495500922, 0.03976944088935852, 0.04939071089029312, -0.024160366505384445, 0.027989594265818596, -0.06156264990568161, 0.04202447459101677, -0.06163974478840828, -0.060284946113824844, -0.023558279499411583, -0.051198799163103104, 0.02129526250064373, 0.06247973442077637, -0.0826856791973114, 0.07123243808746338, -0.04215714707970619, 0.052992284297943115, 0.04887703061103821, -0.012429846450686455, -0.04509581997990608, 0.01412709429860115, -0.04825947433710098, 0.05608794093132019, -0.06646133214235306, 0.04289265722036362, 0.014031847007572651, -0.024228010326623917, 0.03437940776348114, -0.012165301479399204, -0.021079791709780693, -0.057875894010066986, -0.05002536252140999, 0.02807426080107689, -0.03238731995224953, 0.08132056891918182, 0.024968411773443222, 0.011123684234917164, 0.026214271783828735, -0.003958233632147312, -0.04630647227168083, -0.042609404772520065, -0.0064604999497532845, 0.005586489103734493, -0.0720287561416626, 0.01349674817174673, -0.060643136501312256, -0.07652963697910309, -0.027520891278982162, 0.04473939538002014, 0.010958671569824219, -0.02507646009325981, 0.04221274331212044, -0.04425104334950447, -0.016686875373125076, 0.06320806592702866, -0.05185411497950554, -0.02515624649822712, 0.02148311957716942, -0.019123168662190437, 0.12429305911064148, 0.03484010323882103, 0.03397517278790474, 0.03804121911525726, 0.09340430051088333, -0.02700791321694851, 0.07265441119670868, -0.003488620277494192, -0.02744096703827381, -0.03131578490138054, 0.14698247611522675, -0.026526425033807755, 0.005477603524923325, 0.06896460801362991, -0.009055937640368938, 0.0668482705950737, 0.04530451446771622, -0.04720616340637207, -0.0012878470588475466, -0.056458327919244766, 0.011258441023528576, 0.006494403816759586, 0.026372263208031654, -0.02941766008734703, -0.06932324171066284, -0.036696068942546844, -0.018083833158016205, -0.014789719134569168, -0.04308779537677765, 0.046282101422548294, 0.01671225018799305, -0.04447771608829498, 0.011447343975305557, 0.021487832069396973, 0.03135348856449127, 0.034371454268693924, -0.039976075291633606, -0.0156574584543705, -0.05244859308004379, 0.053696159273386, -0.005240586120635271, -0.006046657916158438, 0.030823785811662674, 0.006762770935893059, -0.07044399529695511, 0.04037216678261757, -0.05267857760190964, 0.04423520341515541, -0.04621891304850578, -0.026538880541920662, -0.03480228781700134, -0.011549554765224457, -0.0497816801071167, 0.017846548929810524, 0.011787552386522293, 0.042834408581256866, 0.014757485128939152, -0.04479273036122322, -0.035879649221897125, -0.058967266231775284, -0.03531047701835632, -0.025999300181865692, -0.05348978191614151, -0.029402868822216988, -0.06403062492609024, 0.044620662927627563, -0.06528453528881073, 0.048976048827171326, 0.04637514427304268, -0.030509943142533302, -0.0038923013489693403, -0.020973775535821915, -0.024986354634165764, -0.034736983478069305, -0.06275593489408493, -0.043249063193798065, -0.06128285452723503, 0.030106859281659126, -0.03203370422124863, 0.05937181040644646, -0.025740699842572212, 0.03472701460123062, -0.06237254664301872, -0.006937579717487097, -0.012021835893392563, 0.06804697960615158, -0.06304578483104706, 0.013796193525195122, 0.035598013550043106, -0.04074897617101669, -0.05692005529999733, 0.0019063845975324512, -0.046518173068761826, 0.07430396229028702, -0.08925516903400421, 0.00940398033708334, -0.08458961546421051, -0.04075264185667038, 0.03785933926701546, 0.035642970353364944, -0.12573778629302979, 0.017520861700177193, -0.025964928790926933, 0.06339246779680252, -0.04983445629477501, 0.012243353761732578, -0.046765994280576706, 0.009473861195147038, -0.01739175245165825, 0.06230810657143593, -0.10816885530948639, 0.0006297387299127877, 0.01540452428162098, -0.017307134345173836, -0.013531733304262161, -0.014062569476664066, -0.10400371253490448, -0.018982570618391037, 0.0196229238063097, 0.024499155580997467, -0.041071515530347824, -0.034277789294719696, -0.031838975846767426, 0.013500835746526718, 0.0019703388679772615, -0.020281381905078888, -0.020131219178438187, 0.07775884866714478, 0.0020808118861168623, 0.05562259629368782, 0.004998509772121906, 0.027476947754621506, -0.033598393201828, -0.051204878836870193, -0.04193127155303955, 0.04789341241121292, -0.02096780389547348, 0.05718320235610008, -0.030611079186201096, 0.05160875618457794, -0.06265197694301605, -0.008708739653229713, -0.03512822836637497, 0.01154722087085247, 0.017672451213002205, -0.04568424075841904, -0.053326092660427094, -0.008197572082281113, -0.0402207113802433, -0.02385893650352955, -0.04396472126245499, 0.04822088032960892, -0.036242589354515076, -0.028960799798369408, 0.05284706503152847, -0.034091513603925705, -0.047452256083488464, -0.03089958243072033, -0.016899213194847107, -0.01931230165064335, -0.012576946057379246, 0.053680453449487686, -0.01731089875102043, -0.007397523615509272, -0.07336951792240143, 0.0015860144048929214, -0.00758458161726594, -0.061091098934412, -0.00327660096809268, 0.014794189482927322, -0.06179778277873993, -0.0071104723028838634, 0.03592487797141075, -0.06753097474575043, 0.0032640628051012754, -0.04269133135676384, -0.02352220006287098, 0.029039878398180008, 0.0067877802066504955, 0.008823508396744728, -0.051227930933237076, -0.06599362939596176, 0.007628295570611954, 0.005661229602992535, -0.0013904378283768892, 0.047371264547109604, -0.042539674788713455, -0.05717446655035019, -0.005504269152879715, -0.06080907955765724, -0.0659421980381012, -0.05141953378915787, -0.05646844580769539, 0.03629976138472557, 0.0003031147352885455, 0.03514270484447479, -0.014665928669273853, -0.07575960457324982, 0.036164700984954834, -0.0625353753566742, -0.06383294612169266, 0.021885797381401062, 0.04938185214996338, -0.025243708863854408, -0.00775791285559535, 0.06356847286224365, 0.019373450428247452, -0.04408044368028641, -0.041825518012046814, 0.03490166738629341, -0.05928885564208031, -0.014272100292146206, 0.005315976683050394, 0.0267245601862669, -0.011844159103929996, -0.048974864184856415, -0.0016273994697257876, -0.016997186467051506, 0.058312658220529556, 0.046501148492097855, -0.06558148562908173, -0.02009277604520321, 0.0007846855442039669, -0.03565666452050209, -0.01814768649637699, 0.03663070872426033, -0.06402479857206345, 0.037553343921899796, 0.019201762974262238, -0.006067146547138691, -0.19582244753837585, 0.059492599219083786, -0.02465282566845417, -0.004494494758546352, -0.04510566592216492, 0.017334172502160072, -0.02225462719798088, 0.01921764574944973, -0.03472854942083359, 0.046746425330638885, -0.15148663520812988, 0.006352507043629885, 0.03543204069137573, 0.008867747150361538, -0.03586452826857567, -0.015417557209730148, -0.03931286558508873, 0.013690279796719551, 0.06924103200435638, 0.05742599442601204, -0.05138774216175079, 0.011814448051154613, 0.02720482274889946, 0.01228082925081253, -0.0136420838534832, 0.059066206216812134, 0.04784853383898735, 0.08250246196985245, 0.06568797677755356, -0.030601544305682182, -0.03637288138270378, -0.030509723350405693, -0.05272293835878372, -0.04315035417675972, -0.018487118184566498, 0.03632673993706703, -0.0383305624127388, 0.060376670211553574, -0.03259287029504776, 0.0054662530310451984, -0.05068959668278694, -0.06955904513597488, -0.02498551271855831, 0.03954990208148956, 0.03572976216673851, -0.05672862008213997, -0.015003602020442486, -0.06764707714319229, 0.012683275155723095, 0.06181625649333, -0.04528411477804184, -0.05605396255850792, -0.0060019902884960175, -0.06523009389638901, 0.014013942331075668, 0.027363892644643784, 0.00014016212662681937, -0.009579312987625599, 0.06858804076910019, 0.02904365211725235, -0.005549770779907703, -0.05353895574808121, -0.06176663935184479, 0.017698129639029503, 0.04393082857131958, 0.02426564134657383, 0.019231798127293587, -0.030632875859737396, 0.04308842122554779, 2.903358563344227e-06, -0.06489737331867218, -0.04415600374341011, 0.05545851215720177, 0.030266456305980682, 0.03128501772880554, -0.0485115721821785, 0.0036825702991336584, -0.05016806349158287, 0.0036939962301403284, -0.02576487883925438, 0.01298649050295353, 0.00230929022654891, -0.05768232047557831, 0.005840849597007036, 0.006689094472676516, -0.022065378725528717, -0.02427263744175434, 0.0040923054330050945, 0.0144323306158185, 0.012925048358738422, -0.02295251004397869, -0.008094767108559608, 0.05664850026369095, 0.04439602419734001, 0.05332978814840317, 0.04385225474834442, -0.06055155023932457, 0.008159268647432327, 0.05154712125658989, -0.010354151949286461, 0.001548650674521923, 0.0156495850533247, -0.03273634985089302, -0.0086943618953228, 0.06090177595615387, -0.041614823043346405, -0.022007640451192856, 0.007655777968466282, 0.04438410699367523, -0.03246060013771057, -0.07533186674118042, -0.023766331374645233, -0.020049700513482094, -0.05736299604177475, 0.04221044108271599, -0.047485996037721634, -0.034749649465084076, -0.021989766508340836, -0.048544928431510925, -0.062717504799366, -0.014942984096705914, -0.0275273397564888, -0.01760544627904892, 0.03014862723648548, 0.010377433151006699, -0.06310171633958817, 0.031728412955999374, 0.00902473833411932, 0.004430010914802551, 0.04545101523399353, -0.015926111489534378, 0.06741517037153244, 0.059429239481687546, 0.05951282009482384, 0.10126668959856033, 0.051188331097364426, -0.014069481752812862, -0.009633025154471397, 0.03021167777478695, 0.03766396641731262, 0.08747442066669464, 0.051063068211078644, -0.047552306205034256, -0.02146553061902523, 0.07205618917942047, 0.024721281602978706, -0.026243511587381363, 0.0674843043088913, 0.0808589980006218, 0.04230616241693497, 0.00043468084186315536, 0.050077565014362335, -0.014429295435547829, 0.051306795328855515, 0.04241027683019638, -0.02493118681013584, 0.0610346645116806, 0.031135354191064835, 0.025844832882285118, -0.05526691675186157, -0.003546020481735468, -0.050026074051856995, -0.04704124107956886, 0.031518854200839996, 0.041454657912254333, -0.04029900208115578, -0.004432414658367634, -0.05668787285685539, 0.011958842165768147, -0.033663637936115265, 0.029652873054146767, -0.003959755878895521, 0.01280922256410122, -0.03191341459751129, -0.006832812912762165, -0.03684643283486366, 0.04465768486261368, 0.013847026973962784, 0.029696553945541382, 0.03033376857638359, 0.03234400600194931, 0.05514422804117203, 0.020619478076696396, 0.027315614745020866, 0.014461408369243145, 0.02316046692430973, 0.010786425322294235, 0.03919653967022896, -0.023595619946718216, -0.0289897657930851, -0.06798890233039856, -0.02266492322087288, 0.029488399624824524, 0.019773423671722412, -0.006540047936141491, 0.04447340965270996, 0.0011820479994639754, -0.026382608339190483, -0.012490405701100826, -0.0068142227828502655, 0.06544843316078186, -0.017346449196338654, 0.04045294225215912, 0.024677490815520287, 0.004549501929432154, 0.0012660318752750754, 0.006028668489307165, 0.03345901891589165, 0.03217926248908043, -0.036039598286151886, -0.038570333272218704, 0.05167640000581741, 0.047439005225896835, -0.0038739731535315514, -0.007597208954393864, 0.02386215142905712, -0.04759571701288223, -0.0005369774298742414, 0.010205226019024849, -0.025327347218990326, 0.05720492824912071, -0.03678217530250549, 0.06351898610591888, -0.005500440020114183, 0.011814986355602741, -0.06089368835091591, 0.07562427967786789, 0.04241815209388733, 0.04437565058469772, -0.03368145972490311, 0.036983832716941833, 0.043242987245321274, 0.0554555244743824, 0.020162206143140793, 0.08951600641012192, -0.059049274772405624, -0.026119140908122063, -0.01563710719347, -0.005062570329755545, 0.0255132969468832, 0.04020319879055023, -0.00011969184561166912, 0.06501181423664093, 0.03773324936628342, 0.08989991992712021, -0.004575792700052261, 0.05150952190160751, -0.04232444614171982, -0.04087170585989952, -0.0455203615128994, 0.04707993194460869, 0.03357308730483055, -0.0032832669094204903, 0.0719180479645729, 0.032282162457704544, 0.005867539905011654, 0.04781411960721016, -0.0473032221198082, 0.023118650540709496, -0.04463629797101021, 0.00785750336945057, 0.04768621549010277, 