{"conv2d_1": {"bias": [0.2900314927101135, 0.08266329765319824, 0.21253108978271484, 0.001024239114485681, -0.00028621533419936895], "weights": [[[[-0.0054050106555223465, -0.034977104514837265, -0.11516518145799637, -0.03812891244888306, 0.12362731248140335], [-0.17814747989177704, -0.17644453048706055, 0.1624462902545929, 0.0739615261554718, -0.2057729959487915], [0.12966130673885345, -0.22556929290294647, -0.22173430025577545, -0.031029490754008293, -0.036333080381155014], [-0.16280104219913483, 0.09030240774154663, 0.1599075049161911, -0.11257310956716537, -0.11954640597105026], [0.07805287092924118, 0.09061632305383682, -0.11190919578075409, 0.18879544734954834, -0.13700959086418152]]], [[[0.27639180421829224, 0.20818647742271423, -0.009067940525710583, -0.08535752445459366, 0.11457836627960205], [0.00919613242149353, 0.00477404473349452, 0.18224988877773285, -0.020887913182377815, -0.03489147126674652], [-0.03316710516810417, 0.27366530895233154, 0.018666602671146393, 0.03683231398463249, -0.015947310253977776], [-0.08729585260152817, -0.10848459601402283, 0.22702164947986603, -0.08441820740699768, 0.3008311092853546], [0.1733560711145401, -0.0623503141105175, 0.20063920319080353, -0.07170610129833221, 0.15160998702049255]]], [[[0.20415233075618744, 0.15711738169193268, 0.07120459526777267, -0.20240181684494019, -0.03503851220011711], [0.2301335632801056, 0.23057673871517181, -0.06539862602949142, -0.09587403386831284, -0.052072931081056595], [0.13518741726875305, 0.24028262495994568, -0.15812388062477112, -0.285504013299942, -0.05423910170793533], [0.3051465153694153, 0.06240852549672127, -0.19752907752990723, -0.0372203029692173, -0.3005225956439972], [0.201725572347641, 0.2294716089963913, -0.23867063224315643, 0.04999890923500061, -0.29168057441711426]]], [[[0.12252185493707657, -0.05000076815485954, -0.05304456129670143, 0.10413854569196701, 0.10717041045427322], [-0.016281040385365486, 0.4064291715621948, 0.38271772861480713, 0.34254488348960876, 0.1828032284975052], [0.5273890495300293, 0.4495333433151245, 0.6692979335784912, 0.5772860050201416, 0.49871841073036194], [0.3604527413845062, 0.5116931200027466, 0.5060398578643799, 0.49972572922706604, 0.33561083674430847], [0.038166798651218414, 0.0401017852127552, 0.14693357050418854, 0.24012626707553864, 0.27394911646842957]]], [[[-0.16644501686096191, -0.04152461141347885, 0.3216016888618469, 0.32887977361679077, 0.28689369559288025], [0.09772814065217972, 0.21598416566848755, 0.2182994782924652, 0.13095763325691223, 0.1380968540906906], [0.026783371344208717, 0.19506751000881195, 0.520355224609375, 0.5152134299278259, 0.23650023341178894], [0.3109017610549927, 0.36774978041648865, 0.5350121855735779, 0.43832796812057495, 0.1745230257511139], [0.11712831258773804, 0.08019544929265976, 0.06772957742214203, 0.3144358992576599, 0.18886923789978027]]]]}, "dense_1": {"bias": [-0.02282950095832348, 0.05929989740252495, -0.011870835907757282, -0.024718664586544037, 0.0020377894397825003, 0.08285769820213318, -0.01780630275607109, 0.02991744875907898, -0.09411603957414627, -0.0027710802387446165], "weights": [[0.01726621203124523, -0.060352399945259094, -0.07865249365568161, -0.014489550143480301, 0.026422904804348946, 0.08127155900001526, 0.005770054180175066, 0.004502610303461552, 0.029774250462651253, 0.08119026571512222, 0.035663820803165436, 0.0180499404668808, 0.05986848473548889, -0.02791907824575901, 0.011223970912396908, -0.04479842633008957, -0.022917412221431732, 0.0347263403236866, 0.0438355915248394, -0.06064679101109505, -0.0017403214005753398, 0.04983549565076828, -0.03813657909631729, -0.039976123720407486, -0.09293379634618759, -0.007224003318697214, 0.0005052486667409539, -0.07800711691379547, -0.0011173904640600085, -0.08847928792238235, -0.06546874344348907, -0.07908519357442856, 0.07946496456861496, 0.0548367016017437, -0.07999855279922485, 0.08476360142230988, -0.011586960405111313, -0.043433982878923416, -0.10265634953975677, 0.06761996448040009, 0.02943756803870201, 0.015288282185792923, -0.05652405694127083, -0.05805326625704765, 0.012247301638126373, -0.08163809031248093, 0.017024559900164604, -0.07196321338415146, -0.06407361477613449, 0.035789575427770615, -0.006627291906625032, -0.0784706100821495, 0.04144575446844101, -0.03953339532017708, -0.03882032632827759, -0.02499103732407093, -0.0027443883009254932, 0.03092861734330654, 0.06448952853679657, -0.06362035125494003, -0.09284691512584686, 0.020227160304784775, -0.03653588518500328, -0.0551702156662941, -0.07077153027057648, 0.01972445845603943, -0.08496498316526413, -0.06521076709032059, -0.0808444619178772, -0.061254166066646576, -0.05786057189106941, -0.09094172716140747, -0.03922223672270775, -0.012031052261590958, -0.06435371935367584, -0.09227564930915833, 0.039531197398900986, 0.08564959466457367, 0.0018989287782460451, -0.039818961173295975, 0.0010379841551184654, 0.006478296592831612, -0.055434200912714005, 0.05162382870912552, -0.005790357943624258, 0.07669000327587128, 0.07940129935741425, -0.011331194080412388, 0.0448446050286293, -0.07109053432941437, -0.07102391868829727, 0.015548275783658028, 0.04487159103155136, -0.01907392218708992, 0.09329476207494736, -0.013842406682670116, 0.03407030925154686, 0.062438420951366425, 0.04128342494368553, -0.04873361438512802, -0.058621615171432495, 0.006649452727288008, 0.007181793916970491, 0.03352036699652672, -0.04015594348311424, -0.0859699696302414, 0.08152971416711807, 0.0815972089767456, -0.07397382706403732, -0.018609410151839256, 0.068411685526371, -0.04877244308590889, 0.03156394138932228, -0.027773084118962288, 0.08684628456830978, -0.05043001100420952, 0.0446932427585125, 0.06147836148738861, -0.09647083282470703, -0.09039895981550217, 0.046388573944568634, 0.009611024521291256, -0.01652340404689312, 0.023499315604567528, 0.07765525579452515, 0.010502704419195652, 0.042426157742738724, -0.07695896923542023, -0.05391350015997887, 0.05407475307583809, -0.047229282557964325, -0.031550414860248566, 0.036962781101465225, -0.07034832239151001, 0.023615967482328415, 0.08088523149490356, 0.06480233371257782, 0.04331224411725998, -0.09061738103628159, -0.08213187009096146, 0.02754085697233677, -0.012648830190300941, -0.03141024336218834, 0.04595247656106949, -0.06651332974433899, -0.08905647695064545, 0.04435466602444649, -0.00285840081050992, -0.07502835988998413, 0.039701979607343674, -0.0036763204261660576, 0.034663885831832886, -0.0613587461411953, -0.007514314725995064, 0.010118430480360985, 0.0038769689854234457, -0.01193365827202797, -0.08031858503818512, 0.1233089417219162, 0.00524924136698246, 0.05595799535512924, 0.027487343177199364, 0.09256051480770111, 0.06174524873495102, 0.03564484789967537, 0.0262158066034317, 0.04043702408671379, 0.06461846083402634, 0.018526511266827583, 0.022849449887871742, -0.06309527903795242, 0.03212856873869896, -0.06547549366950989, 0.089565709233284, -0.012369065545499325, -0.018814856186509132, 0.026353150606155396, -0.011524103581905365, -0.0945759266614914, -0.031616490334272385, 0.0255491454154253, -0.08219436556100845, -0.011416205205023289, -0.07258761674165726, 0.049489058554172516, -0.07803934812545776, 0.011950884945690632, -0.062276072800159454, -0.052481476217508316, -0.07578887790441513, -0.03080919198691845, -0.011623814702033997, -0.07233899086713791, -0.04737113416194916, -0.08157971501350403, -0.0787060409784317, -0.036267995834350586, 0.03704564645886421, -0.013956832699477673, -0.04630468040704727, 0.03737008199095726, -0.029568465426564217, -0.018684569746255875, 0.0027317877393215895, 0.03485111519694328, -0.013502105139195919, -0.06591206789016724, 0.036284249275922775, -0.016440602019429207, 0.011095443740487099, 0.07603111118078232, 0.048489298671483994, 0.023630265146493912, 0.023692701011896133, 0.058995429426431656, -0.07477742433547974, 0.027664726600050926, -0.09032182395458221, -0.004443449433892965, 0.09139353781938553, -0.07017096877098083, -0.06053001433610916, 0.060732271522283554, 0.14041727781295776, 0.12912358343601227, 0.08087342977523804, -0.00969849806278944, 0.06401962041854858, 0.013265736401081085, 0.12385587394237518, 0.0796421617269516, 0.05200798436999321, -0.043533507734537125, 0.00627098185941577, 0.01383677776902914, 0.08083891123533249, -0.047947026789188385, 0.0982651636004448, -0.06288202852010727, -0.07593783736228943, -0.0928645208477974, -0.06155111640691757, 0.06221361830830574, -0.027495989575982094, -0.044081445783376694, -0.03723931685090065, 0.02449219487607479, 0.06259189546108246, 0.0062500606290996075, 0.0016107183182612062, -0.010671919211745262, 0.028752336278557777, 0.0166942048817873, 0.07851608097553253, 0.024468138813972473, -0.010328629985451698, 0.049892984330654144, 0.01652001217007637, -0.07034116983413696, -0.018983041867613792, -0.02865874394774437, 0.061181578785181046, -0.03540755808353424, 0.06295844912528992, 0.09045210480690002, 0.08985225111246109, 0.0005924100405536592, 0.02491145022213459, 0.06809521466493607, -0.045306771993637085, 0.06041271984577179, 0.07814114540815353, 0.02007356286048889, -0.11275947093963623, -0.08497057855129242, 0.0635032206773758, 0.052686627954244614, 0.05271647125482559, -0.0552218072116375, -0.03681906685233116, -0.04987650737166405, 0.04761306568980217, 0.012343221344053745, 0.0936514213681221, -0.08103519678115845, -0.011095602065324783, 0.018016450107097626, -0.05594371259212494, 0.05991074815392494, -0.014838029630482197, -0.04716840758919716, -0.04919568821787834, -0.06940347701311111, 0.022394880652427673, 0.004023580811917782, 0.03432367369532585, -0.023592276498675346, -0.010828926227986813, 0.024642182514071465, 0.07851339131593704, 0.038445230573415756, 0.08190598338842392, -0.040001288056373596, 0.05992724373936653, -0.03537936136126518, -0.0693754181265831, -0.021165406331419945, -0.09310426563024521, -0.045671720057725906, -0.04522492736577988, -0.08769215643405914, -0.00651978375390172, 0.07541896402835846, -0.023355863988399506, 0.10168478637933731, -0.011846796609461308, -0.003303017932921648, 0.026304779574275017, 0.08600322157144547, -0.02494971640408039, 0.037561364471912384, -0.04345863312482834, 0.016356484964489937, -0.015647687017917633, 0.052658338099718094, -0.058008939027786255, -0.026841677725315094, 0.08100287616252899, -0.05888506397604942, -0.04517314210534096, -0.06831059604883194, 0.00848252885043621, 0.01015560980886221, -0.22801701724529266, -0.1653037667274475, -0.03245984762907028, 0.024920132011175156, -0.09154251962900162, -0.1818147450685501, -0.15017418563365936, 0.07778892666101456, 0.05572664365172386, 0.07084209471940994, 0.029273265972733498, -0.03387412056326866, 0.03880779445171356, 0.0070130713284015656, -0.0046078115701675415, 0.0038485906552523375, 0.02351653389632702, 0.05012095347046852, -0.013794154860079288, 0.026259418576955795, 0.055309660732746124, 0.09755217283964157, 0.025710277259349823, 0.08869164437055588, 0.09110662341117859, 0.10253313928842545, -0.028037240728735924, -0.06038760021328926, -0.018396906554698944, -0.03111330233514309, 0.014204463921487331, 0.05270257219672203, 0.01099720411002636, -0.0075832935981452465, -0.07974553108215332, -0.033161815255880356, 0.011782987043261528, -0.07278834283351898, -0.040382709354162216, 0.06798101216554642, 0.11807302385568619, 0.06481307744979858, 0.058883894234895706, -0.07090993970632553, -0.06867599487304688, 0.0500657856464386, 0.1600531041622162, 0.007289366330951452, -0.09926500916481018, -0.02723432146012783, 0.022625824436545372, 0.060669708997011185, -0.04276205971837044, 0.050968460738658905, 0.0317254438996315, -0.1229252889752388, -0.053028881549835205, 0.06619291007518768, -0.046275705099105835, -0.05518185719847679, -0.22296717762947083, -0.2015075832605362, 0.01451767235994339, -0.11890719830989838, -0.0011672184336930513, -0.11001727730035782, -0.08000501245260239, -0.07144907116889954, -0.09897823631763458, 0.023660514503717422, -0.007282788399606943, 0.10197052359580994, 0.016547322273254395, -0.07855899631977081, -0.007794977631419897, 0.047451265156269073, 0.01809203438460827, -0.050556544214487076, 0.09270266443490982, 0.025019599124789238, 0.07114224135875702, 0.0033393285702914, -0.07953283935785294, 0.08588533848524094, 0.1235543042421341, 0.06950874626636505, -0.039962127804756165, -0.02101549133658409, -0.03995669633150101, 0.07127318531274796, 0.005250793881714344, 0.019701985642313957, 0.012808260507881641, 0.043526243418455124, -0.06178116053342819, 0.10358825325965881, 0.02515813149511814, 0.047058600932359695, 0.10108162462711334, 0.03298249840736389, 0.06293824315071106, 0.028656072914600372, -0.05353831872344017, 0.0022955788299441338, 0.07609571516513824, 0.0467977374792099, 0.03589621186256409, 0.02566104382276535, -0.04292314499616623, 0.03234725818037987, 0.01061598677188158, 0.039728377014398575, -0.040985580533742905, -0.03926930949091911, 0.11095002293586731, -0.1268537938594818, -0.10845932364463806, -0.04283251240849495, -0.002338395221158862, -0.003447126829996705, -0.15906867384910583, -0.1510239541530609, 0.05653567984700203, -0.01890740543603897, -0.08936815708875656, -0.027422862127423286, -0.053806792944669724, -0.06863989681005478, -0.07167993485927582, 0.052083708345890045, 0.07265299558639526, 0.06967587023973465, 0.046560730785131454, 0.03747354447841644, -0.034462764859199524, 0.059964168816804886, 0.02321811579167843, 0.049354325979948044, 0.040531717240810394, -0.06060124933719635, 0.0961039736866951, 0.0680796280503273, 0.04513150453567505, -0.030855044722557068, 0.028703415766358376, -0.020974526181817055, 0.07881149649620056, -0.022126300260424614, 0.016188878566026688, -0.039771728217601776, 0.05120537802577019, -0.04065234586596489, 0.038366351276636124, -0.0433930903673172, -0.01965048909187317, 0.03260263055562973, -0.057219188660383224, -0.021853521466255188, 0.09451838582754135, -0.06077395752072334, 0.10144096612930298, 0.03323749452829361, 0.012006794102489948, 0.07034317404031754, -0.051932789385318756, 0.12554319202899933, 0.07192562520503998, -0.10072632879018784, 0.004781000316143036, -0.016480702906847, 0.06748179346323013, 0.08048710972070694, 0.07448649406433105, 0.06660846620798111, -0.05024532228708267, -0.006408401299268007, -0.05083940178155899, -0.004068910144269466, 0.030948279425501823, -0.08633735030889511, -0.02371256984770298, -0.04140209034085274, 0.04951044172048569, -0.07521950453519821, -0.08513250201940536, -0.01766967587172985, 0.1074090227484703, -0.08999544382095337, -0.022149689495563507, 0.008724827319383621, 0.01594221219420433, 0.11638718843460083, -0.05120469629764557, 0.05592658370733261, -0.00941229984164238, 0.0021257519256323576, 0.04991208389401436, 0.08596647530794144, 0.028652073815464973, 0.007586255203932524, 0.03451159596443176, 0.044502951204776764, 0.06088319048285484, -0.020082855597138405, -0.059998754411935806, -0.029708974063396454, -0.018507735803723335, -0.00034043873893097043, -0.05800630524754524, 0.06686865538358688, 0.008971506729722023, -0.02065182290971279, -0.08254079520702362, -0.021496081724762917, -0.08586390316486359, 0.04746060073375702, -0.02852490171790123, -0.03924717381596565, 0.05447697639465332, 0.08145120739936829, -0.03488076850771904, 0.0319516584277153, 0.0024498947896063328, -0.07628720998764038, -0.01717621646821499, 0.060669898986816406, 0.0717250257730484, -0.012017618864774704, 0.08891020715236664, -0.06340252608060837, 0.10447335988283157, 0.015897519886493683, 0.05046071484684944, 0.06472261250019073, 0.03642755001783371, 0.03178888186812401, 0.08650972694158554, 0.057108692824840546, 0.06792841851711273, -0.09786449372768402, -0.013832367025315762, -0.038793839514255524, 0.03152232989668846, -0.08859140425920486, -0.08046574145555496, -0.02487083710730076, 0.04924062266945839, -0.012451921589672565, -0.06302356719970703, 0.003160776337608695, -0.08832681179046631, -0.09124389290809631, -0.08030010014772415, 0.017706431448459625, -0.07199587672948837, -0.07885609567165375, 0.03209855034947395, -0.0731700137257576, 0.004163126461207867, -0.013270065188407898, 0.0387304425239563, 0.025505343452095985, 0.048366669565439224, -0.04955815151333809, -0.03094775788486004, 0.0702252984046936, -0.050300367176532745, 0.0575723759829998, 0.05818529054522514, -0.0005713431746698916, 0.041070882230997086, 0.02319667674601078, 0.045309171080589294, -0.05552414059638977, 0.04828581213951111, -0.027715222910046577, -0.028459765017032623, -0.055366430431604385, 0.024078380316495895, -0.023050526157021523, -0.05464259162545204, 0.05931100621819496, -0.07058383524417877, 0.07099141925573349, -0.024660266935825348, 0.07035065442323685, 0.05170169100165367, -0.07935327291488647, -0.009195882827043533, 0.0465884692966938, 0.13983580470085144, 0.03434004634618759, -0.018464121967554092, -0.06695908308029175, 0.007745956536382437, 0.12598319351673126, 0.06602779775857925, 0.03139844164252281, 0.07824669033288956, 0.018075717613101006, 0.11217351257801056, 0.06468502432107925, -0.05862462893128395, 0.08163772523403168, -0.015223050490021706, 0.03392026573419571, -0.029769625514745712, -0.023796148598194122, -0.07947857677936554, -0.0266907699406147, -0.03771569952368736, -0.0003194663440808654, 0.026884695515036583, -0.011318343691527843, -0.03280116245150566, -0.021615738049149513, -0.07246718555688858, -0.007671299856156111, 0.06852563470602036, 0.05007955804467201, -0.07087962329387665, -0.031048143282532692, -0.05616767704486847, 0.025832533836364746, -0.06491014361381531, 0.029205869883298874, 0.05373101308941841, 0.008458415046334267, -0.08694673329591751, 0.059393759816884995, 0.005330787040293217, 0.02867973782122135, -0.05351945385336876, 0.025478575378656387, -0.07283929735422134, 0.044296130537986755, -0.03328912332653999, -0.024109147489070892, -0.003653876716271043, 0.07080234587192535, 0.05938621982932091, 0.06887874007225037, -0.06445982307195663, 0.043269991874694824, -0.004308010451495647, 0.016179271042346954, 0.0411783829331398, 0.046784158796072006, -0.011534242890775204, -0.08926142007112503, -0.03397176042199135, 0.06322964280843735, 0.032636888325214386, 0.0034002542961388826, 0.03739871084690094, -0.08742457628250122, -0.02583802491426468, -0.09116871654987335, -0.01551823504269123, 0.04483085498213768, 0.050056327134370804, -0.07256913930177689, -0.05280347540974617, 0.016945039853453636, 0.012323791161179543, 0.004042095970362425, 0.04785999283194542, -0.016286006197333336, 0.07639310508966446, -0.057491399347782135, -0.07588214427232742, -0.07261541485786438, 0.022241882979869843, 0.07189137488603592, -0.09395507723093033, 0.0654924288392067, 0.054787371307611465, -0.0019338300917297602, -0.017558857798576355, -0.002625706372782588, 0.01139448955655098, 0.05429511517286301, 0.03784146532416344, -0.05220871418714523, 0.07733265310525894, 0.026199400424957275, -0.0731009989976883], [0.07377219200134277, 0.01415910292416811, -0.03530021756887436, 0.01750039868056774, -0.07026942074298859, -0.03194710984826088, 0.03395457938313484, 0.020885998383164406, 0.07045574486255646, -0.024703970178961754, 0.0327213779091835, -0.04485343024134636, 0.02926056645810604, -0.042827945202589035, 0.05216009169816971, 0.035238515585660934, -0.06349995732307434, -0.08449924737215042, -0.00977945514023304, -0.000909428286831826, 0.08364597707986832, -0.05724378302693367, 0.09384652972221375, 0.0670309066772461, 0.03569863364100456, -0.07133550196886063, 0.013742976821959019, -0.08056580275297165, 0.0881241038441658, 0.013487308286130428, -0.002662384882569313, -0.03362472727894783, -0.00226540002040565, 0.05352117866277695, 0.09982620924711227, 0.09929118305444717, -0.05920751765370369, 0.027136163786053658, -0.04810057207942009, -0.03969964757561684, -0.05905834212899208, 0.061734408140182495, 0.09111326932907104, 0.024951832368969917, -0.03257442265748978, -0.02831484004855156, 0.05749066174030304, 0.04120263457298279, -0.05603354796767235, -0.011023486033082008, -0.05539695918560028, -0.05470789223909378, 0.020654207095503807, 0.07044646888971329, 0.05486734211444855, -0.010554559528827667, 0.0031899113673716784, 0.08722902089357376, 0.06109097972512245, -0.08286172151565552, -0.08695189654827118, -0.017118224874138832, 0.005702706519514322, -0.0019252152414992452, -0.06047803536057472, 0.024667946621775627, -0.06856251507997513, -0.07218930870294571, 0.03231893479824066, 0.052725084125995636, 0.0408787801861763, 0.05188586190342903, 0.03788139298558235, -0.04301648214459419, 0.05720660462975502, 0.008308116346597672, 0.01575220748782158, 0.011760792694985867, -0.02978990226984024, -0.07990162074565887, -0.00806904025375843, -0.0017500765388831496, -0.05898530036211014, -0.08331236243247986, 0.01718433015048504, -0.04522726684808731, 0.053997963666915894, 0.054447345435619354, 0.0316314660012722, 0.01236730720847845, 0.09241186082363129, -0.09581701457500458, -0.01689840480685234, -0.025747856125235558, -0.012436587363481522, 0.05018670856952667, 0.06403954327106476, -0.012255636043846607, 0.06340675801038742, -0.12349919229745865, -0.031032735481858253, 0.026678981259465218, 0.062078654766082764, 0.019859274849295616, 0.029306456446647644, -0.04687855392694473, 0.011658883653581142, 0.055286556482315063, 0.026020202785730362, -0.006806839723140001, 0.00742444209754467, -0.02550610341131687, 0.09748364984989166, 0.11720802634954453, 0.07969843596220016, 0.0802346020936966, 0.01875876635313034, 0.08340022712945938, 0.009080709889531136, 0.05170862376689911, -0.02100200019776821, 0.0634254738688469, -0.0863872691988945, 0.06289058923721313, 0.06008066609501839, -0.08147180825471878, -0.05887063220143318, -0.023097572848200798, -0.05773698538541794, -0.0630558654665947, -0.062467705458402634, -0.07984615117311478, 0.01129095908254385, -0.10607600212097168, -0.04290046542882919, -0.043283943086862564, -0.017048658803105354, 0.02948562614619732, 0.02570945955812931, -0.11542226374149323, 0.034713517874479294, 0.044819463044404984, 0.03243473917245865, -0.08234735578298569, -0.10660257190465927, 0.041630614548921585, 0.04387617111206055, -0.00021990803361404687, -0.12082189321517944, -0.09538175165653229, 0.04808007925748825, 0.05254349857568741, 0.07325651496648788, -0.08873845636844635, 0.04848506674170494, 0.029654430225491524, -0.0733928233385086, -0.005023975856602192, -0.14499561488628387, -0.1240120381116867, 0.023809796199202538, 0.0442676804959774, -0.015082145109772682, -0.06881949305534363, 0.02450452372431755, 0.021515171974897385, 0.038264594972133636, 0.0682772770524025, -0.04633866995573044, 0.04941992834210396, 0.0017927781445905566, 0.038769736886024475, -0.021268339827656746, -0.007261897437274456, -0.09257742017507553, 0.02491171285510063, 0.05008940398693085, -0.014392311684787273, -0.032384149730205536, -0.09460537135601044, -0.059219006448984146, 0.05195500701665878, 0.018741996958851814, 0.07658037543296814, 0.016739366576075554, -0.05224786326289177, -0.05619718134403229, 0.05066858232021332, -0.007200418505817652, -0.0867447704076767, -0.01598522998392582, 0.05964811146259308, 0.019842419773340225, -0.010125884786248207, 0.0441901795566082, 0.026209235191345215, -0.06241869553923607, 0.009119799360632896, -0.07088249176740646, -0.0706987977027893, 0.01135099958628416, 0.06103081256151199, -0.04518304765224457, -0.029165945947170258, -0.010314678773283958, -0.051261745393276215, 0.09443575888872147, 0.001446389127522707, 0.06975018978118896, 0.05041344836354256, 0.08226402848958969, 0.09489219635725021, 0.06144031137228012, 0.04848138242959976, 0.044095490127801895, 0.05992147698998451, 0.05984065681695938, 0.04780258610844612, 0.061207614839076996, 0.027251111343503, 0.005160769913345575, -0.05851944163441658, -0.009395699948072433, -0.012835401110351086, -0.07375400513410568, 0.04085875302553177, 0.06718572229146957, 0.0424080528318882, -0.053327497094869614, -0.058427199721336365, -0.0707702785730362, -0.09101240336894989, 0.036871761083602905, 0.013516535051167011, 0.031337443739175797, -0.07855882495641708, -0.04462328925728798, -0.04536798968911171, -0.13189978897571564, -0.07167598605155945, -0.004671599715948105, -0.0384281687438488, -0.00025687634479254484, 0.06508265435695648, -0.0908365547657013, 0.030579283833503723, -0.00011500984692247584, -0.0414179190993309, -0.06184990331530571, 0.020764177665114403, 0.0012573846615850925, -0.07001396268606186, -0.07927054166793823, -0.04814843833446503, -0.05995751917362213, -0.06197982653975487, 0.07042521983385086, -0.06229689344763756, -0.03612548112869263, -0.017738649621605873, -0.016820944845676422, -0.03989728167653084, -0.02660488709807396, -0.15869276225566864, -0.0983269065618515, -0.09400433301925659, 0.025554295629262924, -0.0875813290476799, 0.09851657599210739, 0.00765955587849021, 0.05813263729214668, -0.023515773937106133, 0.04723292216658592, 0.1964600384235382, 0.18344882130622864, -0.032167285680770874, 0.024028562009334564, 0.057728081941604614, 0.0706501230597496, 0.019136453047394753, 0.014214688912034035, 0.02419947274029255, 0.01918872632086277, -0.09222875535488129, -0.04050571471452713, 0.05265921726822853, 0.003645357210189104, -0.08091012388467789, -0.0803486630320549, -0.04232661426067352, 0.06731078773736954, -0.0572977252304554, -0.06424328684806824, -0.12693029642105103, -0.0942411869764328, 0.08814852684736252, -0.033685021102428436, -0.03398597240447998, 0.05352378264069557, -0.047549325972795486, 0.011098124086856842, -0.05424213409423828, 0.06523390114307404, -0.007475217338651419, -0.08370842784643173, 0.06939703971147537, 0.008963757194578648, 0.09067293256521225, -0.03078518435359001, 0.04512104392051697, 0.031001318246126175, -0.021532731130719185, -0.003952978178858757, -0.014616754837334156, -0.07864141464233398, -0.07965541630983353, -0.07026741653680801, 0.09495100378990173, -0.11087959259748459, -0.12314465641975403, 0.08706863969564438, -0.09547104686498642, -0.07175031304359436, -0.09403982758522034, -0.19355988502502441, -0.07480259239673615, 0.045701537281274796, -0.09161258488893509, 0.07857684046030045, 0.14891090989112854, 0.0656772181391716, 0.05542377755045891, -0.03966757282614708, 0.218285471200943, 0.10427690297365189, -0.025060147047042847, 0.0568842738866806, 0.07732146233320236, -0.03608941286802292, 0.056226760149002075, 0.021776480600237846, 0.0665612667798996, 0.0622698999941349, -0.10011069476604462, -0.09929197281599045, -0.05402931571006775, -0.06030690670013428, 0.0725112110376358, 0.011749510653316975, -0.01960250735282898, 0.0624200813472271, -0.09744585305452347, -0.0016072883736342192, -0.07985787093639374, 0.014119208790361881, -0.024078594520688057, -0.024199236184358597, -0.08538484573364258, 0.014621181413531303, -0.041169531643390656, 0.05283251404762268, -0.070709727704525, -0.009614864364266396, 0.03038167580962181, 0.02692244201898575, 0.09132110327482224, -0.0901496410369873, 0.031609438359737396, 0.02872634306550026, -0.06143618002533913, -0.04914090037345886, -0.023564979434013367, 2.2434309357777238e-05, -0.0861918106675148, 0.05177397280931473, -0.06271696835756302, -0.019535910338163376, 0.046822093427181244, -0.05627067759633064, -0.06026039272546768, 0.0048820278607308865, -0.08409424126148224, 0.06885439157485962, -0.07575614750385284, -0.16027969121932983, 0.01691053807735443, 0.07343831658363342, 0.0326409786939621, 0.043611567467451096, 0.19649504125118256, 0.0051191020756959915, 0.06650389730930328, 0.1373870074748993, 0.09697720408439636, 0.09151232987642288, -0.044940363615751266, 0.07806706428527832, 0.10308768600225449, -0.036569785326719284, 0.0074311513453722, -0.011494867503643036, 0.038630109280347824, -0.05818356201052666, -0.16818401217460632, -0.11824680119752884, 0.04830043762922287, -0.06754130870103836, -0.047941651195287704, -0.08883128315210342, -0.032070741057395935, 0.020017996430397034, -0.04780491814017296, -0.038756050169467926, 0.02014358900487423, 0.06150948628783226, 0.005935965571552515, -0.0484352670609951, -0.07800216227769852, 0.024800555780529976, -0.06902948021888733, 0.06065039336681366, 0.022224193438887596, 0.029902569949626923, -0.02568313106894493, -0.01164074894040823, 0.09056785702705383, 0.06432630866765976, 0.013951576314866543, -0.013253306038677692, -0.031894054263830185, -0.035474129021167755, -0.06932829320430756, 0.06118181347846985, -0.12015891075134277, -0.08388600498437881, -0.023455319926142693, -0.05428694561123848, -0.06693432480096817, -0.08952587842941284, -0.10553805530071259, 0.06104670837521553, 0.046226538717746735, -0.024035215377807617, 0.04018883407115936, 0.035573843866586685, 0.04789523780345917, -0.05827348679304123, 0.005837160162627697, 0.131894052028656, 0.06565941870212555, -0.029180200770497322, -0.00248092133551836, 0.16304628551006317, 0.08025157451629639, 0.05111866816878319, -0.09060844779014587, 0.005397401750087738, 0.09882330149412155, -0.058014750480651855, -0.08212429285049438, 0.0033071176148951054, -0.01876765675842762, -0.020591210573911667, -0.1395847350358963, -0.11106864362955093, -0.035771600902080536, -0.03153837099671364, 0.049656253308057785, -0.10612624138593674, -0.09604109078645706, 0.06561170518398285, 0.05739797651767731, -0.03313508629798889, -0.014471984468400478, 0.07170414179563522, -0.07842926681041718, 0.03205020725727081, 0.012949889525771141, -0.029764102771878242, 0.033431652933359146, -0.014607025310397148, -0.016941379755735397, 0.03184957429766655, 0.08034732937812805, -0.04329480230808258, -0.049853648990392685, -0.0016887863166630268, -0.0346369668841362, -0.010978106409311295, -0.04839620739221573, -0.040717124938964844, 0.01771192066371441, 0.04491766169667244, -0.06276720762252808, 0.022431859746575356, 0.016724949702620506, -0.009044555015861988, 0.021333787590265274, 0.014806337654590607, -0.03915611654520035, -0.03833399713039398, -0.000953908369410783, 0.09727241098880768, 0.019561171531677246, 0.07198573648929596, -0.04542182385921478, -0.023061702027916908, 0.06364333629608154, 0.12629179656505585, 0.13990922272205353, -0.040376339107751846, -0.028732264414429665, -0.03772275522351265, -0.040653470903635025, -0.02163350023329258, 0.0781005248427391, 0.022542888298630714, 0.06661853194236755, 0.024889802560210228, -0.0168513935059309, 0.0628461167216301, 0.07057102024555206, -0.03993900492787361, 0.00021070138609502465, 0.0064719244837760925, -0.08819478750228882, -0.03164608031511307, 0.045050863176584244, 0.028951356187462807, 0.017083793878555298, 0.05184997245669365, 0.07850860804319382, -0.05716187506914139, 0.06559251993894577, -0.03395763412117958, 0.051259689033031464, -0.08606063574552536, -0.038897231221199036, -0.025129001587629318, 0.02091088518500328, 0.05004732310771942, 0.007510429713875055, 0.07090919464826584, -0.037158090621232986, -0.005142177455127239, -0.06870326399803162, -0.0818558931350708, -0.02649221569299698, -0.015523453243076801, 0.014730088412761688, -0.06740797311067581, 0.011949857696890831, 0.07847721874713898, -0.022242479026317596, 0.014104891568422318, -0.07022296637296677, -0.010858060792088509, 0.04094444215297699, -0.007011175621300936, -0.02522536925971508, -0.01811903715133667, -0.020160499960184097, 0.08967798203229904, -0.08247929066419601, -0.05804909020662308, -0.011280524544417858, 0.0384768508374691, -0.04464403912425041, -0.05868600308895111, 0.09133598953485489, -0.005615553352981806, -0.057426538318395615, 0.08446007966995239, -0.08587690442800522, -0.007828613743185997, -0.004289384000003338, 0.043375320732593536, 0.023705191910266876, 0.03608030080795288, -0.018259841948747635, 0.034081969410181046, -0.06686259061098099, -0.019176749512553215, 0.08496955782175064, 0.12728355824947357, -0.011829234659671783, -0.0805366188287735, 0.0034633283503353596, 0.0027235131710767746, 0.006966112647205591, -0.025734467431902885, 0.053391728550195694, 0.009459353983402252, 0.07749377936124802, 0.01719522662460804, -0.02388700097799301, 0.039743971079587936, -0.023347171023488045, -0.0016851549735292792, 0.009737414307892323, 0.06523112207651138, -0.08007178455591202, 0.08528589457273483, 0.002661751816049218, 0.053203318268060684, -0.07431402802467346, -0.024672139436006546, 0.06635364890098572, 0.09329470247030258, 0.08360487967729568, 0.08850890398025513, 0.09253985434770584, 0.012963606975972652, 0.14591172337532043, -0.018671464174985886, -0.06674308329820633, -0.09393420815467834, 0.11107801645994186, -0.02023470774292946, 0.0867878869175911, 0.08130524307489395, -0.031016357243061066, 0.08249315619468689, -0.005001421552151442, -0.07006601989269257, -0.0839257761836052, 0.02335369400680065, 0.07062084972858429, -0.05623171105980873, 0.01463587861508131, -0.022929275408387184, 0.0387699194252491, -0.029908597469329834, 0.027595961466431618, -0.041497599333524704, -0.008822155185043812, -0.03752976283431053, -0.08005885779857635, 0.01871899701654911, -0.0008285721996799111, -0.033825818449258804, -0.06946737319231033, 0.05081046745181084, 0.10189823061227798, -0.032467447221279144, -0.011326498351991177, 0.06714725494384766, 0.036085281521081924, 0.018717890605330467, 0.041918326169252396, -0.07215772569179535, -0.05421216040849686, 0.04756501317024231, -0.04457629472017288, -0.004503034055233002, 0.010638109408318996, 0.007446711417287588, -0.053751423954963684, -0.049155984073877335, -0.0010744016617536545, 0.019700100645422935, -0.061235517263412476, 0.05974237993359566, -0.044550810009241104, 0.020850224420428276, -0.08580754697322845, -0.00929209589958191, 0.03733654320240021, 0.09046592563390732, 0.07166571915149689, 0.06788130104541779, -0.04654760658740997, -0.02340768277645111, -0.009242242202162743, 0.01605183817446232, 0.06640035659074783, 0.08434589207172394, 0.020420929417014122, 0.029003432020545006, 0.04458601772785187, 0.038362421095371246, -0.029009662568569183, 0.06956686824560165, -0.06050438433885574, -0.07339988648891449, 0.04599333927035332, -0.05518234893679619, -0.024829894304275513, -0.15886002779006958, -0.1462744027376175, -0.02085917443037033, -0.08082078397274017, -0.06096616014838219, -0.002609583782032132, 0.04711402207612991, 0.07747235894203186, -0.07800644636154175, 0.061106014996767044, 0.07431043684482574, -0.03524181619286537, 0.07037165015935898, -0.06760509312152863, 0.061506036669015884, 0.09482333809137344, 0.08722986280918121, -0.026956189423799515, 0.0660373866558075, 0.08854755014181137, 0.08831600844860077, -0.02329694852232933, -0.017045432701706886, -0.026351500302553177, -0.020436139777302742, 0.08683764934539795, 0.04741218313574791, -0.04551403969526291, -0.07527255266904831, -0.0565815344452858, 0.007987931370735168, 0.02431754767894745], [0.03261891007423401, 0.051363877952098846, -0.08209153264760971, 0.07697177678346634, 0.013791588135063648, -0.08597435057163239, -0.0749702975153923, 0.00042059679981321096, 0.04892072081565857, -0.08918488025665283, -0.013626238331198692, 0.04385373368859291, -0.0794496089220047, -0.01921866461634636, 0.06614875048398972, -0.0032595270313322544, 0.02160785347223282, 0.004235590808093548, -0.004353126045316458, 0.06245236471295357, -0.05136256292462349, -0.01544391643255949, 0.038056209683418274, -0.007017749827355146, 0.05449527129530907, -0.014581400901079178, -0.054901912808418274, 0.03016040287911892, -0.0026959660463035107, 0.12377280741930008, 0.04160996899008751, -0.025231335312128067, -0.0684281438589096, 0.002963278442621231, 0.09870380908250809, 0.07120166718959808, 0.09285926818847656, 0.08550110459327698, -0.009739351458847523, 0.03330975025892258, 0.019578924402594566, 0.0577009841799736, 0.03817681595683098, -0.08571527898311615, -0.023778505623340607, 0.01570557989180088, -0.04468707740306854, 0.09157341718673706, 0.039117876440286636, -0.0009701470262371004, 0.06447842717170715, 0.018006570637226105, -0.014790043234825134, -0.05941510200500488, -0.033128660172224045, 0.037585824728012085, -0.0034941891208291054, 0.07790669053792953, 0.015970900654792786, 0.013013679534196854, -0.04663289710879326, -0.011677080765366554, 0.07308360934257507, -0.026918333023786545, 0.0744340792298317, 0.02352243848145008, 0.04103958606719971, -0.07825696468353271, -0.010029388591647148, 0.010172400623559952, -0.046865254640579224, 0.035683151334524155, 0.05150941386818886, 0.06067917123436928, -0.041896410286426544, 0.032957546412944794, -0.022572031244635582, 0.07758888602256775, 0.08462928980588913, 0.04650971665978432, 0.08905349671840668, -0.08027054369449615, -0.08779214322566986, 0.011334883980453014, -0.03818067908287048, 0.023087291046977043, 0.04460003226995468, -0.05866207927465439, 0.0690321996808052, -2.636503631947562e-05, -0.03589469566941261, 0.024433353915810585, 0.04250672832131386, 0.02420787885785103, -0.012180567719042301, -0.03409303352236748, -0.04991701990365982, 0.0378713384270668, 0.07064387202262878, 0.017040736973285675, -0.05617105960845947, 0.04601280391216278, 0.019464239478111267, 0.07701235264539719, -0.045009464025497437, -0.0036081436555832624, 0.055721867829561234, -0.04581461474299431, -0.05687833949923515, -0.026499709114432335, -0.0258567463606596, 0.04654349386692047, 0.06425388157367706, 0.004018435254693031, 0.025697117671370506, -0.06211874261498451, -0.01794332265853882, 0.028832022100687027, 0.0233557540923357, 0.04826560616493225, 0.07256735116243362, -0.035688288509845734, -0.03056296706199646, 0.037811361253261566, 0.07628995925188065, -0.06670933216810226, -0.06787419319152832, -0.06825130432844162, 0.021576860919594765, 0.0623597614467144, -0.07062430679798126, 0.02551267482340336, 0.046281248331069946, 0.044822972267866135, -0.04262911155819893, -0.0808500275015831, 0.06154932081699371, -0.00884106196463108, 0.1167069599032402, -0.017532020807266235, -0.028916792944073677, -0.04580876603722572, -0.09892095625400543, 0.027682475745677948, 0.09040515869855881, 0.04497688263654709, 0.026869753375649452, -0.0638875961303711, 0.09225695580244064, -0.04072745144367218, 0.09686139971017838, 0.027937782928347588, -0.0016907114768400788, -0.024417169392108917, -0.07806885242462158, 0.03331560641527176, 0.023550810292363167, 0.0066986470483243465, -0.029392022639513016, 0.07761145383119583, -0.0005900630494579673, -0.025978567078709602, 0.04689972847700119, 0.041900161653757095, 0.01920998841524124, 0.024477830156683922, -0.024623816832900047, -0.0702132061123848, -0.08305487036705017, -0.007671226281672716, 0.04568282142281532, -0.03316739946603775, -0.037363551557064056, -0.04037415608763695, -0.09175992012023926, -0.030337553471326828, -0.04530581831932068, 0.06034180149435997, -0.09076336771249771, -0.07691138982772827, 0.06525180488824844, 0.04331161454319954, 0.06179259344935417, 0.08273950219154358, 0.024749428033828735, -0.00799774844199419, -0.07884981483221054, 0.034880030900239944, 0.005740466993302107, 0.04733928292989731, 0.05549798905849457, -0.03138378635048866, -0.0669352188706398, 0.0888487920165062, -0.00615561380982399, -0.06449291110038757, -0.05432819202542305, 0.01449665054678917, 0.06850448995828629, -0.05132067948579788, 0.007245088927447796, -0.02873964235186577, -0.05307673662900925, -0.03235906735062599, 0.04247225821018219, 0.014875234104692936, -0.09274791181087494, 0.03729507327079773, 0.06052011251449585, -0.06336698681116104, 0.057569246739149094, -0.03933455049991608, -0.11325723677873611, -0.06224280223250389, 0.01685156673192978, -0.06053254008293152, -0.014647258445620537, 0.07759400457143784, -0.02402273193001747, -0.01956726610660553, -0.042094625532627106, 0.035152506083250046, 0.05373838171362877, 0.1073632761836052, -0.009813054464757442, 0.07643675804138184, -0.03657783195376396, 0.0023414352908730507, -0.03878010809421539, 0.029469845816493034, 0.03629834204912186, 0.016619812697172165, -0.029097991064190865, -0.056453902274370193, 0.06515829265117645, 0.026071175932884216, 0.04938635975122452, -0.03718629479408264, -0.11346660554409027, -0.08513373881578445, 0.054236818104982376, -0.02649076282978058, -0.06419967114925385, -0.03375280648469925, 0.05423274636268616, -0.019746745005249977, -0.10075407475233078, -0.07592854648828506, -0.07709766179323196, -0.0066120317205786705, 0.07449648529291153, -0.06583712995052338, 0.0037849033251404762, -0.12425143271684647, -0.036908749490976334, -0.07128728926181793, -0.01776624470949173, -0.07358834892511368, -0.16484315693378448, -0.10123173892498016, 0.03828980773687363, 0.04746006801724434, 0.031753912568092346, -0.10175959020853043, -0.029465451836586, 0.07475978881120682, -0.05558554455637932, 0.05090172961354256, -0.11652826517820358, -0.11170574277639389, 0.0006668465211987495, 0.022891053929924965, -0.10207202285528183, -0.13301615417003632, -0.03412874415516853, 0.07370784133672714, -0.036050643771886826, -0.08436056226491928, 0.0036274809390306473, -0.08621766418218613, 0.048605114221572876, -0.06480912119150162, -0.04760514199733734, 0.05630531907081604, 0.056696075946092606, -0.013222659938037395, -0.0889635756611824, 0.001206396846100688, -0.029103443026542664, 0.042897097766399384, 0.04432092607021332, -0.011541487649083138, -0.0724107176065445, -0.03478424251079559, 0.031615350395441055, 0.043321650475263596, 0.030499182641506195, 0.044379547238349915, 0.048722539097070694, -0.10101694613695145, -0.07561832666397095, -0.08160097897052765, 0.06988915801048279, 0.048619698733091354, -0.06362975388765335, 0.021499168127775192, -0.04698283225297928, 0.03345964848995209, -0.15991587936878204, -0.018045702949166298, -0.07464669644832611, -0.002337295562028885, -0.025285204872488976, -0.03893344849348068, -0.04484552890062332, -0.0038956315256655216, -0.09150031954050064, -0.14444613456726074, -0.07556281983852386, -0.04195411503314972, 0.01957664266228676, -0.08877286314964294, -0.12584926187992096, -0.1674346923828125, -0.09498684853315353, 0.10360460728406906, -0.006694598123431206, -0.1167907789349556, -0.06546644121408463, -0.01748637668788433, 0.07896251976490021, 0.008503302931785583, -0.06839345395565033, -0.06939193606376648, -0.029254181310534477, 0.03483439236879349, 0.06479822099208832, -0.007801994681358337, -0.08513148128986359, -0.07382375001907349, -0.02171012945473194, 0.044921208173036575, -0.0468929298222065, -0.07203764468431473, 0.004270078148692846, -0.06268882006406784, -0.07824806869029999, -0.021834462881088257, -0.01429236400872469, -0.04255937784910202, -0.045926131308078766, 0.06756196916103363, 0.03348256275057793, 0.023673998191952705, -0.12487457692623138, -0.009978467598557472, -0.08386274427175522, -0.004914344288408756, 0.019752610474824905, -0.022703468799591064, 0.07398172467947006, -0.08814816176891327, -0.04066853225231171, 0.04064737260341644, 0.025964906439185143, -0.04823015630245209, 0.028644561767578125, -0.033878304064273834, -0.001612365711480379, -0.09868764132261276, 0.0668165534734726, -0.07469934225082397, 0.010739724151790142, -0.04788421466946602, -0.013593975454568863, -0.086546890437603, -0.10746552795171738, 0.03163310885429382, 0.03613913804292679, -0.07218384742736816, -0.024784980341792107, -0.06837846338748932, 0.04123343899846077, 0.14613649249076843, 0.0073457276448607445, 0.07403945922851562, 0.03392054885625839, 0.06304559856653214, 0.0678384080529213, -0.0020051533356308937, -0.08381383121013641, -0.003343468764796853, 0.033299800008535385, 0.019754938781261444, -0.013832994736731052, 0.046745602041482925, -0.01177287008613348, -0.055897306650877, -0.034189362078905106, 0.025468865409493446, -0.07057882100343704, -0.0932299867272377, -0.02724272571504116, -0.0003121517365798354, -0.05599996820092201, 0.03813059255480766, 0.07150208950042725, 0.03503361716866493, -0.03461652249097824, 0.04355736821889877, -0.0530710332095623, 0.063334621489048, 0.05992777273058891, -0.09016405791044235, 0.021052204072475433, 0.027682393789291382, 0.06276163458824158, 0.004425130318850279, 0.09747686982154846, 0.09087734669446945, 0.06419762223958969, 0.07238008081912994, 0.04880109429359436, 0.09064579755067825, 0.03822529315948486, 0.019119758158922195, 0.0487392283976078, -0.043426763266325, 0.008614766411483288, 0.05846668779850006, 0.023037588223814964, -0.09823798388242722, 0.018895858898758888, -0.0708846002817154, 0.037976667284965515, -0.06776107847690582, 0.032140713185071945, 0.07089675217866898, 0.020277414470911026, 0.05844207480549812, -0.08090371638536453, 0.005404363851994276, -0.06370503455400467, 0.10101994127035141, 0.12191063165664673, 0.01512032188475132, -0.037438686937093735, 0.08019018918275833, 0.0120907723903656, 0.027237029746174812, -0.02606995403766632, -0.03161505237221718, -0.03524094447493553, 0.14308840036392212, 0.09724238514900208, 0.07729016989469528, -0.08627109229564667, 0.07167810946702957, 0.07232911884784698, 0.04951810836791992, 0.06760765612125397, -0.012422196567058563, 0.06761402636766434, 0.0453854501247406, -0.03699558600783348, -0.03161812201142311, 0.06409265846014023, -0.07322882115840912, -0.016659922897815704, 0.03225739300251007, 0.023485591635107994, -0.028649557381868362, 0.05027037113904953, 0.02715979516506195, 0.12443913519382477, 0.03979494795203209, 0.054810523986816406, -0.0536046102643013, 0.0522485226392746, -0.002468736842274666, 0.01853713020682335, 0.01689964532852173, 0.05766938626766205, -0.004463445395231247, 0.10749220103025436, -0.06254474818706512, 0.03782673925161362, -0.08536943048238754, 0.12550315260887146, 0.12515725195407867, 0.03736124932765961, 0.08132915943861008, 0.005548406857997179, 0.05782275274395943, 0.12313628196716309, -0.04481567069888115, 0.039249237626791, 0.04254379868507385, 0.03824864327907562, 0.014348357915878296, 0.057811543345451355, 0.07447949051856995, -0.013091647066175938, 0.1213163360953331, 0.1284278780221939, 0.031922683119773865, 0.03739587217569351, -0.03773949295282364, 0.06650879234075546, 0.05016456916928291, -0.04543168097734451, -0.04599762707948685, 0.04180352762341499, 0.08785950392484665, -0.006213957443833351, -0.02226315438747406, -0.03553912416100502, -0.08510538935661316, -0.013217638246715069, -0.048435669392347336, -0.030520189553499222, 0.0002196143032051623, -0.0827893391251564, 0.039130061864852905, 0.059083763509988785, 0.04854448139667511, 0.0377657450735569, -0.0655398964881897, 0.01736459694802761, 0.011731806211173534, -0.07160188257694244, -0.053692519664764404, 0.016997620463371277, 0.04977455362677574, 0.03874604403972626, -0.04212860018014908, 0.013657355681061745, 0.01162730436772108, 0.16701728105545044, 0.02065017633140087, -0.027358248829841614, -0.014216259121894836, 0.027102041989564896, 0.005990773905068636, -0.02829734981060028, 0.07148654758930206, 0.09774534404277802, 0.05773156136274338, 0.0367310494184494, 0.09303578734397888, -0.03813336417078972, 0.09307460486888885, -0.017595205456018448, 0.11524834483861923, -0.0033865433651953936, -0.08184019476175308, -0.04328162223100662, 0.00762645248323679, 0.050298575311899185, -0.006985261105000973, -0.03953509405255318, -0.01431356556713581, 0.009762001223862171, 0.025416994467377663, 0.0888984426856041, -0.0380314439535141, -0.07977575063705444, 0.05000774562358856, -0.030446263030171394, 0.007542814128100872, -0.02980758436024189, -0.008428872562944889, -0.0676998496055603, 0.03815069794654846, -0.05302000418305397, -0.0034497040323913097, 0.07627277076244354, -0.07412254810333252, 0.07743031531572342, 0.035332415252923965, 0.05719933658838272, 0.10003726184368134, 0.04771493747830391, 0.12260927259922028, 0.03646025061607361, 0.0010811967076733708, 0.014902466908097267, -0.10497281700372696, 0.17094889283180237, 0.10696866363286972, 0.07141823321580887, 0.03821200504899025, 0.054628048092126846, 0.012765085324645042, 0.023297753185033798, -0.08014652878046036, 0.04626801237463951, -0.0028505863156169653, 0.08591989427804947, -0.013859591446816921, -0.02363625355064869, -0.0609203577041626, -0.07365873456001282, -0.024840710684657097, 0.09732158482074738, -0.05658417195081711, 0.008954614400863647, 0.06088734418153763, 0.03690286725759506, 0.00010169594315811992, 0.0714610368013382, 0.05362895131111145, 0.006746910512447357, 0.04766840115189552, 0.02795753814280033, -0.035582758486270905, -0.07403426617383957, 0.04581461101770401, -0.01705552078783512, 0.020565660670399666, 0.014215509407222271, 0.08799634128808975, -0.01827855594456196, 0.10292017459869385, -0.06491625308990479, -0.03929111734032631, -0.046507131308317184, 0.038749780505895615, 0.06567378342151642, -0.025656547397375107, 0.09081120789051056, -0.08083029836416245, 0.05414598435163498, -0.0011080688564106822, -0.04481641575694084, -0.03343813866376877, -0.04011881351470947, -0.05384015291929245, -0.0494515523314476, 0.025686513632535934, 0.03034265525639057, 0.002889283699914813, -0.033322177827358246, 0.04122773930430412, -0.04922771826386452, 0.032881174236536026, -0.01978594809770584, 0.00854209903627634, -0.012774849310517311, 0.11774548143148422, -0.08374439179897308, 0.05415217578411102, 0.05892210081219673, -0.008378374390304089, 0.06439105421304703, -0.02971084788441658, -0.05884241312742233, 0.04719112813472748, -0.02785765938460827, -0.06203923746943474, -0.06565737724304199, 0.07423485070466995, 0.08506607264280319, 0.04096199944615364, -0.024602282792329788, 0.06839726120233536, -0.008522184565663338, -0.015531848184764385, 0.00375295989215374, 0.030272314324975014, -0.06229088827967644, -0.015512143261730671, 0.036540333181619644, -0.016755057498812675, -0.018866272643208504, 0.038996919989585876, 0.01384533941745758, -0.0797797441482544, -0.09762897342443466, 0.058164533227682114, 0.04952038452029228, -0.040068089962005615, 0.06204625591635704, 0.0004203261050861329, 0.029370788484811783, 0.043366264551877975, -0.007953605614602566, 0.07669015973806381, -0.07186126708984375, -0.10851559042930603, 0.06933871656656265, 0.019145825877785683, -0.02345813438296318, -0.016585303470492363, -0.0610920712351799, 0.024357549846172333, 0.012901343405246735, -0.06723009049892426, 0.02004457265138626, 0.007195998448878527, -0.03181721642613411, 0.0636870488524437, -0.000421654200181365, -0.011717027984559536, 0.03721201419830322, 0.06809689104557037, -0.041191428899765015, 0.07767289876937866, 0.04395158588886261, 0.07365047186613083, -0.040950968861579895, -0.010443801060318947, 0.05474686622619629, -0.07312406599521637, 0.06822561472654343, -0.03401884436607361, -0.021806657314300537, -0.020021064206957817, 0.04735526815056801, -0.07757309079170227], [0.02000492997467518, -0.030558573082089424, 0.013347127474844456, 0.047331783920526505, 0.03590799495577812, -0.013022330589592457, 0.05058363452553749, 0.028258340433239937, -0.030003746971488, 0.07940087467432022, -0.0649442970752716, -0.07588746398687363, -0.021198265254497528, -0.010216767899692059, -0.06858395785093307, -0.056479375809431076, -0.02438618242740631, 0.06597131490707397, 0.10480287671089172, 0.0928150936961174, 0.012834922410547733, 0.07434535771608353, 0.03458487614989281, 0.01117829978466034, -0.05681077018380165, -0.07245194166898727, -0.08555001020431519, -0.07817161083221436, -0.03692644461989403, 0.0750393345952034, 0.002745207166299224, -0.013317346572875977, 0.06749995052814484, 0.019083727151155472, 0.03800535947084427, -0.010061058215796947, -0.07435386627912521, 0.043621163815259933, 0.06027699634432793, -0.015858450904488564, 0.03908912092447281, 0.039462391287088394, 0.039053019136190414, -0.0239289328455925, 0.03440123051404953, 0.026828184723854065, 0.06649099290370941, 0.06627490371465683, 0.015390140935778618, 0.0023143819998949766, 0.08044631779193878, -0.07671691477298737, 0.032484352588653564, -0.01678342930972576, -0.049177803099155426, -0.030497469007968903, -0.03693942725658417, -0.0820847675204277, -0.08330629765987396, -0.08851885050535202, -0.01880754344165325, 0.01681743562221527, -0.03230053558945656, 0.06410496681928635, 0.09969667345285416, -0.0274210087954998, 0.06235076114535332, -0.056338030844926834, 0.00936990138143301, -0.002374995732679963, 0.035906363278627396, 0.051356296986341476, 0.059715185314416885, 0.11625603586435318, 0.00893832091242075, 0.07290521264076233, -0.021180126816034317, -0.00889628753066063, 0.015366939827799797, 0.04763910919427872, 0.057288579642772675, -0.0699402242898941, -0.039208509027957916, 0.074738509953022, 0.038833823055028915, -0.04541873559355736, -0.041923973709344864, -0.019801924005150795, -0.012041857466101646, 0.0326397679746151, 0.04307563975453377, 0.07728998363018036, -0.03620879352092743, 0.03497762978076935, 0.06538671255111694, 0.03964601457118988, -0.06527432799339294, 0.04936850443482399, 0.024551261216402054, 0.06455177813768387, -0.021730827167630196, -0.083342045545578, 0.011110800318419933, 0.029606765136122704, -0.003321036696434021, -0.08808871358633041, -0.07442144304513931, 0.051246870309114456, 0.022154467180371284, -0.03367045894265175, 0.0013942031655460596, -0.06056015193462372, -0.015570313669741154, -0.07357342541217804, 0.01579754799604416, 0.03132729232311249, 0.01631942205131054, -0.05143830180168152, 0.022300317883491516, -0.017219923436641693, 0.017946740612387657, -0.020970314741134644, -0.04255397990345955, -0.01165495440363884, 0.054865531623363495, 0.06507419794797897, 0.028196947649121284, -0.01997200772166252, 0.03451584652066231, 0.021517416462302208, -0.0867328867316246, 0.0017325018998235464, -0.03664778172969818, 0.09772368520498276, 0.05995872989296913, 0.025262726470828056, -0.07216199487447739, 0.03713297098875046, 0.07597897201776505, 0.054783426225185394, -0.06153511628508568, -0.009740003384649754, 0.013149925507605076, 0.08092169463634491, 0.07486787438392639, 0.060342349112033844, 0.06665909290313721, -0.12394518405199051, 0.05716433376073837, -0.011953858658671379, 0.03544357791543007, 0.02830270119011402, -0.10128016024827957, -0.012407557107508183, -0.040451183915138245, -0.044180162250995636, 0.08602616935968399, -0.05344777926802635, -0.03580128401517868, 0.04061165079474449, 0.03847384825348854, 0.004049348179250956, -0.05923477187752724, 0.011392433196306229, -0.020610740408301353, -0.016884611919522285, -0.058635689318180084, 0.06647757440805435, -0.0769319236278534, -0.06750266253948212, 0.010952352546155453, 0.05988653004169464, -0.04655966907739639, 0.036292266100645065, 0.035505179315805435, -0.04361307993531227, 0.0605669766664505, -0.018894508481025696, 0.0034553364384919405, -0.030465953052043915, 0.06439534574747086, 0.05689388886094093, 0.07844039052724838, -0.04064230993390083, 0.043525222688913345, -0.07077796012163162, 0.08194104582071304, 0.03017142228782177, 0.0822354182600975, 0.10813995450735092, -0.06110089644789696, 0.04461197555065155, 0.08076245337724686, -0.008492439053952694, -0.022534869611263275, -0.055123649537563324, -0.0676732286810875, 0.016923081129789352, -0.014692436903715134, -0.10661011189222336, 0.07975153625011444, 0.013473430648446083, 0.018089035525918007, -0.046624138951301575, -0.18110333383083344, -0.04227278754115105, -0.007951643317937851, -0.16150909662246704, 0.012059619650244713, 0.04939248412847519, -0.08703064918518066, 0.05643643066287041, -0.08470138162374496, 0.020457198843359947, 0.09673968702554703, -0.052769795060157776, 0.04497175291180611, 0.030778655782341957, 0.043402958661317825, 0.08295612782239914, -0.06710346788167953, -0.05490259453654289, 0.0726015642285347, 0.15921683609485626, 0.08096476644277573, 0.064598947763443, -0.007817740552127361, -0.06593398004770279, 0.0015295223565772176, 0.12733851373195648, -0.05178064852952957, 0.035243503749370575, 0.025111766532063484, -0.0785294845700264, 0.061662543565034866, -0.09015260636806488, -0.0024686213582754135, -0.02616054192185402, -0.06599997729063034, -0.07211476564407349, 0.032867591828107834, 0.024533603340387344, -0.058165546506643295, -0.0007190342294052243, 0.09888951480388641, -0.03657935559749603, 0.02079392783343792, 0.08909203112125397, -0.000332643830915913, -0.05480599030852318, -0.012254409492015839, -0.07510753720998764, -0.0017749310936778784, -0.10482954978942871, -0.054489415138959885, -0.00952158123254776, 0.053915683180093765, -0.02411501668393612, -0.04669138416647911, -0.16418863832950592, 0.01990525610744953, 0.004342319443821907, -0.04251963645219803, -0.08723902702331543, -0.08458749204874039, -0.07201147079467773, -0.08017882704734802, -0.09300141781568527, -0.027818867936730385, 0.023413438349962234, 0.060273826122283936, -0.05852514132857323, -0.018716486170887947, 0.016295703127980232, 0.040377579629421234, 0.04888397827744484, -0.04831623286008835, 0.035880837589502335, 0.12495002895593643, 0.1299576610326767, -0.05428703874349594, -0.0643443688750267, -0.039152052253484726, 0.06118644028902054, 0.05431823432445526, 0.003981849178671837, -0.04326576367020607, 0.07272513210773468, 0.08522109687328339, 0.06264938414096832, 0.07673539966344833, 0.06544681638479233, -0.008092178031802177, 0.046965695917606354, -0.09736137837171555, -0.019830599427223206, 0.035141997039318085, 0.06905699521303177, -0.046887848526239395, -0.09571835398674011, -0.0763532966375351, 0.0583750419318676, 0.015566791407763958, 0.0636378824710846, 0.0031916871666908264, -0.02509085088968277, -0.0726400837302208, -0.0388297513127327, -0.10301519930362701, -0.053215086460113525, 0.08147461712360382, 0.06416532397270203, 0.07723762840032578, -0.030632708221673965, -0.10586011409759521, -0.069628044962883, -0.10363644361495972, 0.0018880594288930297, -0.051500104367733, -0.04351109638810158, 0.009889277629554272, -0.040305960923433304, -0.06399191170930862, 0.022533852607011795, 0.01954052597284317, -0.020846929401159286, -0.01323670707643032, -0.003299776930361986, 0.16052713990211487, 0.055549003183841705, 0.07149969041347504, 0.053650110960006714, -0.07058988511562347, 0.0737914890050888, 0.12073354423046112, 0.003960174508392811, 0.07005362212657928, 0.05259757116436958, -0.013670454733073711, 0.025573009625077248, 0.04277926683425903, -0.034985970705747604, -0.0711693987250328, 0.019972875714302063, -0.02792685106396675, -0.026064999401569366, -0.08170624822378159, -0.07011809200048447, -0.07482322305440903, -0.06492026150226593, 0.035375338047742844, 0.08951462060213089, 0.06222270801663399, -0.036120373755693436, -0.052195169031620026, 0.01839328184723854, 0.07547613233327866, -0.06700862944126129, -0.039650265127420425, -0.06265240907669067, -0.03619593381881714, -0.060135368257761, 0.0684092566370964, -0.009763971902430058, 0.012662199325859547, 0.07115018367767334, 0.045994505286216736, -0.018546897917985916, 0.04852370545268059, -0.05113032087683678, 0.056921396404504776, -0.0974566638469696, 0.06960814446210861, -0.037665341049432755, -0.15697957575321198, 0.032945867627859116, -0.043852221220731735, 0.07653900235891342, -0.05157952383160591, -0.06855780631303787, 0.002492414554581046, -0.09918302297592163, -0.02078882046043873, 0.07687792181968689, -0.07558255642652512, -0.029232852160930634, -0.03763480857014656, -0.01178214605897665, -0.03873835504055023, 0.11991787701845169, -0.03190697357058525, 0.03284534811973572, -0.03814253956079483, 0.006421724334359169, -0.005697455257177353, 0.01039941143244505, 0.01952408440411091, -0.11222225427627563, 0.03666062653064728, 0.05998705327510834, 0.052944932132959366, 0.032431889325380325, -0.07986386120319366, 0.07187888026237488, -0.04884053021669388, -0.06091921031475067, 0.07043762505054474, 0.02273944765329361, 0.05244831368327141, -0.06605478376150131, 0.056541841477155685, 0.03118108958005905, 0.018863925710320473, 0.06621735543012619, -0.00038670605863444507, -0.01835627295076847, -0.017079826444387436, -0.0014973441138863564, 0.07806330919265747, 0.06438855081796646, -0.03647303581237793, 0.0005444132257252932, -0.018339360132813454, 0.01011007558554411, 0.08312714099884033, -0.013603472150862217, 0.054586417973041534, -0.04266153648495674, 0.052228376269340515, 0.09248582273721695, 0.04510876536369324, -0.08044770359992981, 0.0344146303832531, -0.11710821092128754, -0.055094484239816666, 0.00958898663520813, -0.012299676425755024, -0.012768258340656757, -0.12833702564239502, -0.003544547827914357, -0.02271895483136177, -0.0914430096745491, -0.027994375675916672, -0.056785933673381805, 0.0041987900622189045, 0.08350115269422531, 0.0683327466249466, -0.011356347240507603, -0.12394321709871292, -0.04589242488145828, 0.00935022160410881, 0.09045848250389099, 0.03763030096888542, -0.03099127672612667, -0.10478408634662628, 0.08949319273233414, 0.09279794245958328, -0.04992508515715599, 0.021713916212320328, -0.030439108610153198, 0.007399906869977713, 0.08028304576873779, -0.11224168539047241, 0.10162089020013809, 0.06796465069055557, 0.01685613952577114, -0.0497654527425766, -0.05615048110485077, 0.07730527222156525, -0.02653941884636879, -0.04964188113808632, 0.05771288648247719, -0.02453194372355938, -0.0023800611961632967, 0.04380996152758598, -0.0901433676481247, -0.09141804277896881, -0.07245402038097382, -0.03811292722821236, 0.012013640254735947, 0.0018032895168289542, -0.04487936943769455, -0.07392463833093643, 0.08654872328042984, 0.023377608507871628, -0.08963461965322495, -0.02216695062816143, 0.06002078577876091, 0.14185039699077606, 0.11433520168066025, 0.039305686950683594, -0.008728504180908203, 0.04347929731011391, -0.024466881528496742, 0.04184693843126297, 0.013369502499699593, -0.03445013239979744, -0.10650922358036041, -0.10406829416751862, -0.014331173151731491, -0.06717921048402786, -0.05148473009467125, -0.08064759522676468, -0.07873904705047607, -0.06407748907804489, -0.035428475588560104, 0.016897521913051605, -0.15121258795261383, -0.007523943204432726, -0.10701827704906464, -0.06037303805351257, 0.029275840148329735, -0.1606089472770691, 0.05470535159111023, 0.002576843136921525, 0.0037289229221642017, -0.016934024170041084, -0.019265176728367805, -0.024263130500912666, -0.01919960230588913, -0.06060691177845001, -0.01530980784446001, 0.05904402956366539, 0.1786498874425888, -0.016609253361821175, 0.07011416554450989, -0.017900502309203148, -0.013616702519357204, 0.09060356765985489, 0.11556777358055115, -0.08361897617578506, -0.017303749918937683, -0.05076369643211365, -0.04925650730729103, 0.10136730223894119, -0.04789118468761444, 0.025295566767454147, -0.0659753605723381, -0.048670779913663864, -0.03729270026087761, 0.08791791647672653, 0.022246189415454865, -0.012593532912433147, 0.07108849287033081, 0.008756006136536598, 0.03365529328584671, 0.06587555259466171, 0.08567178249359131, 0.08054785430431366, -0.01460330281406641, -0.02625991962850094, -0.04151376336812973, 0.029536888003349304, 0.07526081800460815, 0.024026768282055855, -0.02776472643017769, 0.0746447816491127, -0.03085646778345108, -0.023916082456707954, -0.010591569356620312, 0.018165040761232376, -0.0836629793047905, -0.05963876470923424, 0.04042874276638031, 0.016245007514953613, 0.040629226714372635, -0.10287702828645706, -0.09161048382520676, -0.07394035160541534, -0.11860503256320953, 0.06735795736312866, 0.06898389756679535, -0.0030163745395839214, -0.016262901946902275, 0.07659624516963959, 0.025126000866293907, 0.04085526242852211, 0.0007020506891421974, 0.06226375699043274, 0.04550858214497566, -0.08433706313371658, -0.0389532595872879, 0.005959261674433947, 0.13889765739440918, 0.08211809396743774, 0.016538122668862343, 0.06480264663696289, 0.05313332751393318, -0.017421944066882133, -0.003470147028565407, -0.06470368802547455, 0.03182545676827431, -0.05566834285855293, -0.021968446671962738, -0.04763752222061157, 0.08418279886245728, 0.04113310948014259, 0.022163130342960358, 0.0037213354371488094, 0.0527886338531971, -0.051687221974134445, -0.054886262863874435, -0.08251804858446121, -0.0058929831720888615, -0.030688809230923653, -0.08786068111658096, -0.02061392366886139, -0.003447439754381776, 0.052069325000047684, 0.049619514495134354, 0.08547231554985046, 0.09853978455066681, -0.0499202199280262, 0.04015728831291199, 0.08229793608188629, -0.08492716401815414, 0.011963983997702599, 0.06102097034454346, 0.049513086676597595, 0.1024758368730545, 0.055776651948690414, -0.040132828056812286, -0.03578629717230797, -0.022503377869725227, -0.06553521007299423, 0.06064683943986893, -0.012276965193450451, -0.09117722511291504, 0.017312413081526756, 0.0013086841208860278, -0.04202328994870186, -0.09437432140111923, 0.06527416408061981, -0.014565006829798222, 0.08644450455904007, 0.02082148753106594, -0.04006090387701988, 0.009756039828062057, -0.05437283217906952, 0.027018150314688683, -0.050606418401002884, 0.05483737587928772, 0.0034431300591677427, -0.07073605060577393, 0.024395817890763283, 0.04564487934112549, 0.08049843460321426, 0.07279466837644577, -0.04835040494799614, 0.06979863345623016, -0.040234893560409546, -0.004297157283872366, 0.04493950307369232, -0.02134782075881958, -0.03918438404798508, 0.04778235778212547, -0.07768503576517105, 0.0017743200296536088, 0.06975124776363373, -0.08398246020078659, -0.0822320282459259, 0.041570138186216354, -0.08576462417840958, 0.10608626902103424, 0.011970490217208862, -0.07416371256113052, 0.021735860034823418, 0.03478609770536423, 0.05859886482357979, 0.007537968922406435, 0.014043718576431274, 0.09086316078901291, -0.03341662511229515, 0.0173936914652586, 0.03056800365447998, -0.08383569866418839, -0.07734128087759018, 0.056114159524440765, 0.07144561409950256, 0.043099790811538696, 0.041010040789842606, -0.007391068153083324, 0.05851141735911369, 0.03189484775066376, 0.054987724870443344, -0.09257597476243973, -0.019249891862273216, 0.045207664370536804, 0.1609242856502533, -0.004523820709437132, -0.060840409249067307, 0.042436547577381134, -0.056576382368803024, 0.05136313661932945, -0.06429586559534073, -0.06544923782348633, -0.01592445932328701, -0.07726346701383591, 0.07669825106859207, -0.05830885469913483, 0.059379640966653824, 0.06393898278474808, 0.03884090483188629, 0.02421971783041954, -0.03683086484670639, -0.006897470913827419, 0.05913674831390381, 0.06450573354959488, 0.043880023062229156, -0.053954921662807465, -0.058350201696157455, 0.04222330451011658, 0.05381353199481964, -0.0888313576579094, -0.06015603616833687, -0.05237511545419693, -0.006216228008270264, -0.05800818279385567, 0.05437738820910454, -0.011515825986862183], [0.009048212319612503, -0.08525744825601578, -0.05190104618668556, -0.0834600031375885, 0.08440875262022018, 0.05334319546818733, 0.05302269756793976, 0.010797380469739437, 0.03873324766755104, -0.04063676297664642, 0.020143866539001465, 0.05261989310383797, -0.003451491240411997, -0.05378580093383789, 0.020298786461353302, -0.032026637345552444, -0.014183985069394112, -0.07779578864574432, -0.09872610121965408, -0.01688852533698082, 0.018010368570685387, -0.08676258474588394, -0.022435547783970833, -0.033900074660778046, -0.09806879609823227, 0.0014443662948906422, -0.056399840861558914, -0.05961154028773308, -0.035312190651893616, -0.005231671966612339, -0.05222892388701439, -0.013798094354569912, -0.08754400908946991, -0.10960719734430313, -0.09236636012792587, -0.062873475253582, 0.0840751901268959, 0.0009569062967784703, -0.06851654499769211, 0.010390764102339745, -0.007545572705566883, -0.07543008774518967, 0.04792766645550728, -0.014248291030526161, -0.05880177021026611, -0.014861739240586758, 0.08172906190156937, 0.03266948089003563, 0.059352606534957886, 0.016730425879359245, -0.005508548580110073, -0.04607098549604416, -0.02736339531838894, -0.016389159485697746, 0.03147314116358757, 0.02225976623594761, 0.04684119671583176, 0.07026950269937515, 0.041517067700624466, -0.029578879475593567, 0.07575982809066772, 0.0523708313703537, -0.017942314967513084, 0.01270661037415266, -0.07105901092290878, -0.01644832454621792, -0.007481072563678026, -0.001362853916361928, 0.06842060387134552, -0.03025307133793831, -0.041415151208639145, 0.03469112515449524, -0.009471988305449486, 0.07211185246706009, 0.007316927891224623, 0.05118018761277199, -0.08389067649841309, -0.0259286817163229, -0.007600889075547457, -0.056375280022621155, 0.09577786922454834, 0.053600527346134186, 0.10720715671777725, -0.06381659209728241, -0.013096355833113194, -0.05224466696381569, -0.10233636945486069, -0.013284959830343723, -0.04534226283431053, -0.030189327895641327, 0.014062768779695034, 0.06232082098722458, -0.055886708199977875, -0.0341179333627224, 0.05827906355261803, -0.07118035107851028, -0.029986662790179253, 0.04549618065357208, -0.05907261744141579, 0.024834170937538147, -0.010878710076212883, 0.047002293169498444, 0.04808083176612854, 0.06610634177923203, 0.04972066730260849, -0.016900286078453064, 0.0640997365117073, -0.004767792299389839, 0.09342529624700546, 0.00608979444950819, 0.07070156931877136, -0.04745900630950928, -0.059594351798295975, -0.007058304268866777, 0.06544066220521927, 0.003612862667068839, -0.08004265278577805, -0.040435582399368286, -0.027958352118730545, -0.010364033281803131, -0.027872560545802116, 0.009989616461098194, -0.08907575160264969, -0.07838346064090729, -0.027499623596668243, -0.0011079289251938462, -0.03369232639670372, 0.04068394750356674, -0.04600408673286438, 0.09086974710226059, -0.06466739624738693, 0.05669670179486275, -0.06611388921737671, 6.0624068282777444e-05, -0.057528987526893616, -0.06783164292573929, 0.03161558508872986, -0.0023059924133121967, -0.0014763394137844443, -0.08231969177722931, 0.05155550688505173, -0.09023014456033707, 0.08901111781597137, -0.019062485545873642, 0.04490344226360321, 0.0772489532828331, 0.06794271618127823, 0.056679047644138336, -0.06601954996585846, -0.04375497251749039, 0.012644077651202679, -0.10629595816135406, 0.10487858951091766, -0.23364605009555817, -0.14493362605571747, 0.02500987984240055, -0.03747906535863876, 0.06879614293575287, -0.17774894833564758, 0.005019999574869871, 0.007985344156622887, 0.04333147034049034, 0.11959003657102585, -0.1102084293961525, 0.07205656915903091, 0.002212445018813014, 0.0346810519695282, 0.08913823217153549, 0.09521207958459854, 0.010748390108346939, 0.028555283322930336, 0.02933809719979763, -0.033337172120809555, 0.09909026324748993, 0.041579339653253555, -0.062259964644908905, -0.011817698366940022, 0.09779879450798035, -0.03615991771221161, 0.07926949113607407, 0.011909066699445248, -0.01380983181297779, 0.04155359044671059, -0.09036335349082947, 0.0363876074552536, 0.021409619599580765, 0.020937766879796982, 0.05075134336948395, 0.0106754619628191, -0.035071391612291336, 0.07741944491863251, -0.052512072026729584, 0.09571024030447006, 0.02968577668070793, -0.07756242901086807, 0.02468077652156353, 0.04521607980132103, 0.04549954831600189, -0.08441638201475143, -0.07670460641384125, 0.013829982839524746, -0.05607668310403824, 0.05333079397678375, -0.0471927709877491, 0.08033851534128189, 0.030570635572075844, -0.02485485002398491, 0.03828531131148338, -0.17804580926895142, -0.12887251377105713, -0.08177949488162994, -0.04598393663764, 0.016608087345957756, -0.13724106550216675, -0.06296884268522263, -0.05526008456945419, 0.02237861603498459, -0.02888759970664978, -0.0773322805762291, -0.005201139021664858, -0.06888037919998169, -0.07107401639223099, 0.11502134799957275, -0.03766026720404625, 0.07950033992528915, 0.01009065005928278, -0.025381825864315033, 0.053690921515226364, -0.049288131296634674, -0.07037688791751862, -0.08474227041006088, -0.08265458047389984, -0.0665915310382843, -0.04279130697250366, -0.005697070620954037, -0.06772152334451675, 0.01135605201125145, 0.06179247051477432, 0.007593260612338781, 0.04049905762076378, 0.0832953155040741, -0.0598481185734272, -0.07440872490406036, -0.013487318530678749, -0.06715051829814911, 0.031058991327881813, 0.07581091672182083, -0.08896706253290176, 0.0026294123381376266, 0.06314623355865479, 0.0560157410800457, 0.07378276437520981, 0.008205830119550228, -0.037671416997909546, -0.04718008637428284, 0.06981585174798965, -0.04060354828834534, 0.07388915866613388, 0.1190839558839798, 0.09489789605140686, -0.07925599068403244, 0.05418418347835541, 0.08724147081375122, 0.13349513709545135, 0.09946376085281372, 0.07530436664819717, 0.07380718737840652, 0.0443250797688961, -0.05276339873671532, -0.008030969649553299, 6.776198279112577e-05, -0.06835127621889114, -0.011600418947637081, -0.01770363189280033, -0.07934655994176865, 0.07727895677089691, -0.08687793463468552, -0.02821054495871067, 0.037538450211286545, 0.14385227859020233, 0.001243855687789619, 0.01348587404936552, 0.07937810570001602, 0.053310442715883255, -0.029672298580408096, 0.07398287206888199, -0.029027782380580902, -0.012635708786547184, -0.08110947161912918, -0.09581916779279709, 0.08106077462434769, 0.04766349121928215, 0.06687601655721664, -0.003529719077050686, -0.023566147312521935, -0.06683873385190964, -0.09077199548482895, 0.07711638510227203, -0.049962643533945084, 0.03533757105469704, -0.09216365218162537, -0.08296160399913788, 0.08140730857849121, -0.007593754678964615, -0.009313233196735382, -0.03601619601249695, 0.011058853007853031, 0.055857427418231964, -0.013995060697197914, 0.0951065644621849, -0.07451026141643524, -0.02413353882730007, 0.053833842277526855, 0.034177422523498535, 0.03906489908695221, -0.009312801994383335, -0.05150953680276871, -0.07880279421806335, 0.2245560735464096, 0.053852323442697525, -0.07267846167087555, -0.07112786918878555, 0.002483593299984932, 0.11205387860536575, 0.09990739077329636, 0.06449664384126663, -0.05618227645754814, 0.0704483911395073, 0.017011400312185287, 0.02223587967455387, -0.024657029658555984, -0.009237860329449177, 0.03373350948095322, -0.08400106430053711, 0.014409776777029037, -0.04572698101401329, -0.05647619813680649, 0.05859444662928581, 0.07399215549230576, 0.15300315618515015, -0.00746100815013051, -0.021847456693649292, 0.02934875711798668, 0.08141589909791946, 0.014080191031098366, -0.08350883424282074, 0.005889226216822863, 0.07531788945198059, -0.07115711271762848, 0.0854446068406105, -0.03977370634675026, -0.0641201063990593, -0.02146284654736519, 0.0257396399974823, -0.03178835287690163, 0.0014640996232628822, -0.040361735969781876, -0.024109531193971634, -0.05898163095116615, 0.06174248829483986, 0.02271883748471737, 0.06409649550914764, -0.04285825043916702, -0.00020700186723843217, -0.05098685994744301, 0.028557604178786278, 0.07090990990400314, -0.02328944019973278, 0.1240849643945694, 0.0677582398056984, -0.006441964302212, 0.0609189048409462, 0.027813458815217018, 0.05542593449354172, 0.03776199370622635, -0.08228085935115814, -0.004193199798464775, 0.05270896106958389, 0.12478896230459213, 0.12715674936771393, -0.002201271243393421, -0.017905957996845245, -0.015199950896203518, 0.09964244067668915, -0.008214537054300308, 0.013019326142966747, 0.06094331666827202, 0.07233183830976486, 0.04753194749355316, -0.09479831159114838, -0.05041385814547539, -0.06890560686588287, 0.018733063712716103, 0.10469764471054077, 0.005485182162374258, 0.08216189593076706, -0.006562270689755678, 0.01922462321817875, 0.07371317595243454, 0.15334191918373108, 0.04479074478149414, 0.08085424453020096, 0.08674778044223785, 0.17009031772613525, 0.11213675141334534, 0.026995539665222168, 0.05620468035340309, 0.01846734993159771, -0.03363938257098198, 0.12266664952039719, -0.015255581587553024, -0.06009712815284729, -0.06965085864067078, 0.10054794698953629, 0.005597925279289484, -0.027693061158061028, -0.09191978722810745, -0.040543876588344574, -0.08151284605264664, -0.08952026814222336, 0.0805366039276123, 0.06289094686508179, -0.07986269891262054, 0.019136425107717514, -0.08239441365003586, -0.04146166518330574, 0.07361599057912827, 0.05805111676454544, -0.007227673195302486, 0.0904536321759224, 0.07551315426826477, -0.0797547921538353, -0.03498608246445656, 0.022068167105317116, -0.011525428853929043, 0.0408114492893219, 0.08742035925388336, -0.03816250339150429, 0.03734591230750084, 0.04880642518401146, -0.06954709440469742, -0.00013562425738200545, -0.005175314843654633, 0.020544998347759247, -0.030453503131866455, -0.063695527613163, 0.010742932558059692, -0.10173018276691437, 0.06768287718296051, 0.018212325870990753, 0.08249995112419128, 0.05557430163025856, -0.06274238973855972, 0.1936340481042862, 0.08013834059238434, -0.02935054711997509, -0.030422234907746315, 0.1278199851512909, 0.10663281381130219, 0.06586765497922897, -0.007775858044624329, 0.002165907761082053, -0.04146023839712143, 0.059346139430999756, 0.051073107868433, -0.004921978339552879, -0.03789322450757027, 0.003574092872440815, 0.06323443353176117, -0.10299165546894073, 0.0007765542832203209, -0.047027185559272766, 0.027920546010136604, -0.10947860777378082, -0.010703008621931076, 0.01601152867078781, 0.037538621574640274, 0.040284447371959686, 0.04222489893436432, -0.008120016194880009, -0.052570901811122894, 0.059827107936143875, -0.06415317952632904, -0.08741220086812973, 0.07010509073734283, 0.07632975280284882, -0.06342092901468277, 0.0676293671131134, -0.027781616896390915, -0.03786022216081619, 0.0563536211848259, -0.05494567006826401, -0.0023001288063824177, -0.12474031001329422, -0.007869102992117405, -0.019701695069670677, 0.02579633891582489, 0.0021627352107316256, -0.03127568960189819, -0.01334722526371479, -0.03813796490430832, 0.029068712145090103, -0.0583491213619709, -0.08966032415628433, -0.09592906385660172, -0.06561069935560226, -0.050343744456768036, -0.08611325919628143, -0.00971974991261959, -0.0578765831887722, -0.07435323297977448, 0.0441373735666275, 0.03511415794491768, 0.009957855567336082, -0.006218611728399992, -0.06067662313580513, 0.07388706505298615, 0.057427778840065, 0.025200307369232178, -0.058774903416633606, 0.066661037504673, 0.0019009276293218136, -0.09750007838010788, -0.03978284075856209, -0.09437999874353409, -0.004768365062773228, -0.0803508311510086, 0.023638837039470673, -0.004579406231641769, -0.0030233673751354218, 0.06567531079053879, -0.001976873492822051, 0.0837150514125824, -0.11618683487176895, -0.027964409440755844, -0.03532252833247185, 0.042137209326028824, 0.06524195522069931, -0.09972339123487473, -0.10992960631847382, -0.015958474949002266, -0.013601195998489857, -0.03745368868112564, -0.05574709549546242, 0.01721026375889778, -0.013804075308144093, -0.01166238822042942, -0.04230343922972679, -0.09564802795648575, -0.04389878734946251, -0.011656313203275204, -0.05264527350664139, 0.006059650797396898, -0.05099023878574371, -0.10422424972057343, 0.016491267830133438, -0.03796539083123207, -0.04923005774617195, -0.09681347012519836, -0.07492801547050476, -0.0006931581301614642, -0.01915384829044342, 0.038133520632982254, -0.18237662315368652, 0.033289093524217606, 0.08371211588382721, 0.011515854857861996, 0.04925043508410454, -0.12611258029937744, 0.0726204663515091, 0.04171120002865791, -0.0141072329133749, 0.05329025536775589, 0.025267191231250763, -0.021425582468509674, -0.02164122276008129, -0.013336554169654846, -0.053839460015296936, -0.02569040097296238, 0.03175889700651169, 0.058622878044843674, 0.006811396684497595, -0.03840891271829605, -0.010239217430353165, -0.10241809487342834, -0.038355693221092224, -0.06799378246068954, 0.0073459153063595295, -0.04343264549970627, 0.03433121740818024, 0.08752008527517319, 0.053220562636852264, -0.07298443466424942, -0.037702661007642746, 0.08596174418926239, -0.08420102298259735, 0.03566025197505951, 0.08397384732961655, -0.09235947579145432, 0.00019919141777791083, -0.04942520707845688, 0.036379411816596985, 0.02865883894264698, 0.04450666159391403, -0.08476224541664124, -0.0033050039783120155, -0.07499714940786362, -0.02495952881872654, -0.018211331218481064, -0.006981920450925827, 0.05887632071971893, -0.0051750363782048225, -0.06456887722015381, -0.11189760267734528, -0.03668278828263283, 0.029571956023573875, -0.06047126650810242, -0.08923116326332092, -0.09633538872003555, 0.00973682850599289, 0.04540783539414406, -0.018762364983558655, 0.07389045506715775, -0.046575047075748444, -0.016631700098514557, 0.046868015080690384, 0.06140507757663727, 0.08511639386415482, -0.026207875460386276, 0.01907619833946228, 0.04927120357751846, 0.023578960448503494, 0.0860888808965683, -0.06423357874155045, 0.01183893159031868, -0.030650107190012932, -0.06961452215909958, -0.019940640777349472, 0.02131657861173153, 0.03927753120660782, -0.09446586668491364, -0.061296939849853516, 0.02886367030441761, 0.059114810079336166, 0.012704666703939438, -0.06549420952796936, -0.06510800123214722, 0.04657386243343353, 0.0329730361700058, -0.04753248393535614, 0.07872671633958817, 0.07202169299125671, 0.04049278050661087, -0.04905044659972191, -0.00470037991181016, -0.010227487422525883, -0.06570538878440857, 0.07554734498262405, 0.06340588629245758, -0.0863988921046257, -0.04955562576651573, 0.033238623291254044, 0.08722484111785889, 0.07078522443771362, -0.022578641772270203, 0.018350161612033844, -0.07220294326543808, -0.04125380516052246, -0.08211623877286911, 0.02533794566988945, 0.011094978079199791, 0.0837150439620018, -0.0015934957191348076, 0.019604360684752464, 0.014378729276359081, -0.05473635345697403, -0.0018197842873632908, -0.04867936670780182, 0.02068043127655983, 0.06745235621929169, 0.0629425048828125, -0.022682316601276398, -0.03077753074467182, 0.01926351524889469, 0.002440911252051592, 0.011316126212477684, 0.0636061504483223, 0.004520083777606487, -0.057573478668928146, -0.13417062163352966, 0.0035729045048356056, -0.059562887996435165, 0.015167197212576866, -0.056221526116132736, -0.1164102703332901, 0.09050107002258301, -0.02690858207643032, 0.08627006411552429, 0.03261073678731918, -0.09956727921962738, -0.007017526309937239, -0.08054498583078384, 0.08401890844106674, -0.007483561523258686, -0.035782862454652786, -0.03471729904413223, 0.056272976100444794, -0.05604739859700203, 0.07244908064603806, -0.07242883741855621, -0.006853102240711451, 0.054150160402059555, -0.04334130510687828, 0.010874678380787373, 0.004448979161679745, -0.05552896484732628, -0.060730669647455215, 0.018838008865714073, -0.021712958812713623, 0.035596515983343124], [-0.05768371745944023, 0.009610860608518124, 0.0358160100877285, 0.01274492684751749, 0.02514372393488884, 0.04772431403398514, 0.05688831955194473, -0.009470549412071705, 0.030214890837669373, -0.03382209315896034, -0.03703775256872177, 0.0038429638370871544, 0.10543854534626007, -0.06560423225164413, -0.041226278990507126, 0.03283499926328659, -0.008432031609117985, -0.058419328182935715, -0.04110163450241089, -0.06760179251432419, 0.05619046092033386, -0.01716301217675209, -0.0015253960154950619, 0.007154302205890417, -0.004158477298915386, 0.07710936665534973, -0.0024411228951066732, -0.05737350508570671, -0.09654588252305984, 0.014271964319050312, 0.07778718322515488, -0.03201136365532875, -0.09898021072149277, -0.024602467194199562, 0.04713371396064758, 0.043465688824653625, -0.05505136027932167, 0.041003793478012085, 0.015212217345833778, -0.019729595631361008, 0.0972648561000824, 0.059725623577833176, -0.04552663117647171, -0.03768007084727287, -0.006156061310321093, -0.058229710906744, -0.03795604407787323, -0.03382415696978569, -0.012658268213272095, -0.012866446748375893, 0.03351699188351631, 0.05745517835021019, 0.09578882902860641, 0.05798913538455963, 0.03809104114770889, 0.09596032649278641, -0.004780443385243416, 0.05626683309674263, 0.07195296883583069, -0.06501162052154541, -0.005023616831749678, 0.040177397429943085, 0.02244831994175911, -0.06045153737068176, -0.055365364998579025, 0.10229998826980591, 0.07669267058372498, -0.028071865439414978, -0.04106910154223442, 0.046651437878608704, -0.022507790476083755, -0.04785793647170067, 0.03967719152569771, -0.038352079689502716, 0.03797315061092377, 0.07199981063604355, 0.060359835624694824, -0.06126417592167854, 0.057246338576078415, -0.0031323162838816643, -0.010443082079291344, 0.07739077508449554, -0.0677146315574646, -0.07858629524707794, -0.04238878935575485, 0.007704288233071566, 0.035966839641332626, -0.020754419267177582, -0.0638614296913147, 0.053627558052539825, -0.08351626247167587, -0.08795945346355438, -0.04482414200901985, 0.02163587510585785, -0.08164845407009125, 0.0808773934841156, -0.00603132089599967, -0.054276853799819946, 0.07436621934175491, -0.011994941160082817, 0.04390694573521614, 0.005109289661049843, -0.015676550567150116, 0.07046820223331451, 0.03778936341404915, -0.05271334946155548, 0.05104313790798187, 0.0013889126712456346, -0.008570663630962372, 0.05098975822329521, 0.0961993858218193, 0.02791615016758442, 0.010817551985383034, -0.0660632848739624, 0.06774264574050903, 0.02151074819266796, 0.10139788687229156, -0.05073535069823265, -0.051110416650772095, 0.007005583494901657, 0.06360740959644318, 0.006970098242163658, -0.030932564288377762, -0.11190632730722427, 0.02558046020567417, 0.035241443663835526, 0.03751872107386589, 0.08968757838010788, -0.001423654961399734, 0.038475777953863144, 0.0019725230522453785, -0.055739596486091614, 0.006718951277434826, 0.014043188653886318, 0.028994906693696976, 0.07986316084861755, 0.05869341641664505, -0.07864796370267868, 0.032878536731004715, -0.05796835198998451, 0.07895181328058243, 0.038247767835855484, -0.025123480707406998, 0.017351806163787842, 0.04399431124329567, -0.01653694361448288, -0.03229489549994469, 0.14801126718521118, 0.012822611257433891, -0.07237394899129868, -0.07213643193244934, -0.10485290735960007, -0.0329989455640316, -0.05610806122422218, 0.017788661643862724, -0.05206410586833954, -0.018454857170581818, -0.025991667062044144, -0.016292402520775795, 0.013449620455503464, 0.046375397592782974, 0.06676534563302994, -0.09269546717405319, 0.1065516471862793, -0.025189679116010666, 0.08315300941467285, 0.039764974266290665, -0.09143636375665665, 0.037707675248384476, 0.040690500289201736, -0.047035329043865204, 0.03456641733646393, -0.0731578841805458, 0.14206381142139435, 0.10038325190544128, -0.04842766001820564, -0.04465793818235397, -0.01993650756776333, 0.06067582964897156, 0.1537611186504364, -0.03820748254656792, -0.02925492450594902, 0.0559634193778038, -0.0946115180850029, -0.00918435025960207, 0.07350461184978485, -0.0921049639582634, 0.040575429797172546, -0.10124020278453827, -0.11805303394794464, -0.0077692605555057526, -0.009544219821691513, 0.04185084253549576, 0.022735344246029854, 0.06724940985441208, 0.05826995521783829, 0.07302207499742508, -0.053655531257390976, -0.03687991574406624, 0.0733773484826088, 0.05519964173436165, 0.06560797989368439, -0.03158925846219063, -0.0015910714864730835, 0.1396537721157074, 0.024120699614286423, 0.019273795187473297, 0.06495495140552521, 0.05307002738118172, -0.03505576401948929, 0.06312179565429688, -0.0032382216304540634, -0.010025733150541782, -0.053473394364118576, -0.09360849112272263, 0.061446961015462875, 0.01799934357404709, 0.04877397045493126, -0.07554157823324203, -0.040404342114925385, 0.060994766652584076, -0.05967925116419792, -0.060009852051734924, 0.00932488963007927, -0.01902882754802704, 0.0328683964908123, -0.05005509778857231, -0.1186983585357666, -0.025425249710679054, 0.04956673085689545, 0.013424500823020935, -0.006384285166859627, -0.06972125917673111, 0.11510894447565079, 0.17774996161460876, -0.0044868942350149155, 0.08469250798225403, 0.05627675727009773, 0.19524407386779785, 0.1671638935804367, 0.0701831579208374, 0.055716972798109055, 0.05590769276022911, -0.05515265837311745, 0.019779153168201447, 0.009530249051749706, 0.08418083935976028, -0.06600645184516907, 0.008738490752875805, 0.051254671066999435, -0.05447078496217728, 0.03980337455868721, -0.0007380414754152298, 0.05370420962572098, -0.02627209760248661, 0.04010624438524246, 0.0794425904750824, 0.10484747588634491, 0.10484648495912552, 0.07449570298194885, 0.08115402609109879, -0.03719296306371689, 0.12334921956062317, 0.04552742838859558, 0.0747312381863594, -0.06714165210723877, 0.01787688583135605, 0.14281600713729858, 0.04898763820528984, 0.09179456532001495, 0.020750079303979874, -0.0009502054890617728, 0.05823017656803131, 0.056719399988651276, -0.06383800506591797, -0.01696745492517948, 0.04373177886009216, -0.07480451464653015, -0.06037936359643936, -0.08572632819414139, 0.02748328447341919, 0.036741387099027634, 0.020602881908416748, 0.021888604387640953, -0.06839710474014282, -0.051286615431308746, -0.09049835056066513, 0.0013254311634227633, -0.13591450452804565, -0.05357186868786812, 0.05572088807821274, 0.04380469396710396, 0.013211356475949287, 0.028796019032597542, -0.06968870759010315, 0.03430461883544922, -0.056329309940338135, -0.04250335320830345, 0.02272714674472809, 0.09810782223939896, -0.020487871021032333, -0.08739661425352097, 0.05565850809216499, -0.023447580635547638, 0.04892218858003616, 0.052870798856019974, -0.08144541084766388, -0.030099574476480484, -0.017114873975515366, 0.009187724441289902, 0.07361491769552231, 0.02196788787841797, -0.07046112418174744, -0.07078766077756882, 0.0569089911878109, -0.06405097246170044, 0.042794544249773026, -0.044117555022239685, 0.021689867600798607, 0.04084404557943344, 0.01833420805633068, -0.0011570565402507782, -0.03205682709813118, 0.21200229227542877, 0.08541997522115707, -0.05629117414355278, 0.09147502481937408, -0.018477972596883774, 0.09149361401796341, 0.1013190895318985, 0.07503165304660797, 0.022806880995631218, 0.08372800797224045, -0.01383572444319725, -0.06603206694126129, 0.03584086149930954, 0.008376091718673706, -0.052509840577840805, -0.049594566226005554, -0.011644112877547741, -0.009897529147565365, -0.06074147671461105, -0.06848694384098053, -0.09855532646179199, 0.020385202020406723, -0.038975466042757034, 0.0729747787117958, -0.038396161049604416, -0.08481673151254654, -0.1575910896062851, 0.013026343658566475, -0.09133219718933105, 0.011970209889113903, -0.11231943219900131, -0.006329011637717485, -0.015439207665622234, -0.06727047264575958, 0.02274801768362522, 0.015817632898688316, -0.014067238196730614, -0.04487811401486397, -0.006517291069030762, -0.05834865942597389, 0.028428949415683746, 0.03980127349495888, -0.05863799899816513, 0.002456080401316285, 0.09204590320587158, 0.04229143261909485, 0.021573087200522423, 0.07349109649658203, 0.05355224013328552, 0.009490091353654861, -0.08732789009809494, -0.08131186664104462, -0.01085832342505455, 0.05192308872938156, 0.059873372316360474, 0.03658464550971985, -0.03428475186228752, 0.09639085829257965, 0.02775632217526436, -0.062108755111694336, 0.06913050264120102, 0.03907220810651779, -0.040855471044778824, -0.003264300525188446, 0.03482840955257416, 0.029013382270932198, -0.042941734194755554, 0.04272150993347168, 0.03957637399435043, -0.052120309323072433, -0.05628666654229164, -0.06944664567708969, -0.04749975726008415, 0.09531071037054062, -0.10933523625135422, -0.11706990003585815, -0.12114326655864716, 0.0030144436750561, -0.041324373334646225, -0.054289594292640686, 0.07575369626283646, -0.08160746842622757, -0.07275310158729553, -0.05467309057712555, 0.07060755044221878, 0.009503539651632309, -0.10672219097614288, 0.0855100080370903, -0.06438539922237396, 0.08659537881612778, 0.046545639634132385, 0.014353247359395027, 0.030520467087626457, -0.022296274080872536, 0.030548276379704475, -0.04470118135213852, 0.03927276283502579, 0.09508475661277771, 0.06290368735790253, 0.019410455599427223, -0.010043753311038017, -0.03848914057016373, 0.06414984166622162, 0.06426453590393066, 0.08798631280660629, 0.07155787944793701, 0.050001051276922226, -0.016570230945944786, 0.09232941269874573, -0.0182972252368927, -0.006527631543576717, -0.01468754094094038, 0.08703400194644928, -0.04538396745920181, -0.01751546375453472, -0.14866159856319427, -0.008116072043776512, 0.07980943471193314, -0.012508198618888855, 0.046732474118471146, -0.034853752702474594, -0.059625670313835144, 0.10302907228469849, -0.01505638100206852, -0.052476994693279266, -0.11864165216684341, -0.022524822503328323, 0.09543569386005402, -0.03427254408597946, 0.026264220476150513, -0.06646492332220078, -0.11665946990251541, -0.062298476696014404, 0.06843804568052292, -0.05637998878955841, 0.01987907662987709, 0.019415535032749176, 0.019007109105587006, -0.08164036273956299, -0.05454564839601517, 0.020880920812487602, 0.06136791780591011, -0.03774268180131912, -0.06294506788253784, 0.08709026873111725, 0.05011314898729324, -0.046543415635824203, 0.017094815149903297, -0.027830608189105988, 0.11147384345531464, -0.059229135513305664, 0.083429254591465, 0.019919028505682945, 0.08336508274078369, 0.03995395079255104, 0.013436062261462212, 0.026573706418275833, 0.10378992557525635, 0.03923163190484047, -0.016356753185391426, 0.05811431631445885, 0.029749393463134766, 0.03747788444161415, -0.033178769052028656, -0.0695459321141243, 0.019167877733707428, 0.01384528074413538, 0.0752677246928215, -0.013825137168169022, -0.06780081242322922, 0.05703749135136604, -0.021083874627947807, 0.03377772122621536, -0.0419728085398674, 0.07068309932947159, 0.05684566870331764, -0.025369685143232346, 0.00468786433339119, -0.04746124520897865, -0.09201034158468246, -0.0017802934162318707, -0.03314860910177231, 0.010577782988548279, -0.0378095805644989, -0.014519769698381424, 0.02785395458340645, -0.06416646391153336, 0.10071811079978943, 0.04250175133347511, 0.09731791168451309, -0.06005873903632164, 0.035010866820812225, -0.016401493921875954, -0.03594810515642166, 0.08631759136915207, 0.060332439839839935, 0.08378499001264572, 0.08694251626729965, -0.06473693996667862, 0.02858256734907627, -0.006043863482773304, 0.005008495878428221, -0.03515055030584335, 0.09159141778945923, -0.04482520744204521, 0.015732496976852417, 0.06725924462080002, 0.027608875185251236, -0.06948141008615494, 0.09005974978208542, 0.07140368968248367, -0.026299068704247475, 0.06785895675420761, -0.038018930703401566, 0.10399038344621658, 0.03309839218854904, 0.022663382813334465, -0.03127937763929367, 0.0775594711303711, -0.051344096660614014, 0.024973537772893906, -0.0074526602402329445, -0.0227210633456707, -0.011887983419001102, 0.05814826488494873, 0.036509931087493896, -0.02100224420428276, -0.031629595905542374, -0.05225931853055954, 0.05102986842393875, 0.1054387167096138, -0.01714215986430645, 0.0490710511803627, 0.1236422061920166, 0.020638590678572655, 0.05997835844755173, 0.07727043330669403, -0.023399678990244865, -0.0528034046292305, -0.01650840789079666, 0.049242712557315826, 0.04927631467580795, 0.07671996206045151, 0.025871096178889275, -0.0384223498404026, 0.11374256014823914, -0.035796891897916794, -0.028505299240350723, -0.012311155907809734, -0.05122539773583412, 0.09598875045776367, -0.08062009513378143, 0.07917160540819168, -0.03478674218058586, -0.07334780693054199, 0.022819586098194122, -0.015208839438855648, 0.1026727706193924, -0.027029840275645256, 0.0960865393280983, 0.04209069162607193, -0.0076766666024923325, -0.014419318176805973, -0.07686840742826462, 0.008535315282642841, -0.018092690035700798, 0.01918361522257328, -0.003653615014627576, -0.07459719479084015, 0.09387940913438797, 0.08061245828866959, -0.03406016156077385, -0.07844400405883789, -0.0076445164158940315, 0.013129119761288166, -0.06362349539995193, 0.06806741654872894, 0.004770531784743071, 0.09201514720916748, -0.06304126977920532, -0.02978016622364521, -0.04443458467721939, 0.014366059564054012, 0.03749062493443489, 0.08416981995105743, 0.009577454067766666, 0.02272055856883526, 0.10792258381843567, 0.03470364212989807, -0.02486465685069561, -0.0902860090136528, 0.06519702821969986, 0.048754215240478516, 0.09627304971218109, -0.045707374811172485, -0.021411636844277382, 0.1077432781457901, -0.050840262323617935, -0.041795484721660614, 0.03349560126662254, -0.023401519283652306, 0.061348382383584976, 0.08917689323425293, -0.013722841627895832, -0.08572839945554733, 0.05764072388410568, -0.019865352660417557, 0.03438016027212143, -0.015201334841549397, -0.06428302824497223, -0.06580460071563721, 0.072772316634655, 0.06898261606693268, 0.06502094864845276, -0.034267883747816086, 0.01654300093650818, 0.039536334574222565, -0.05293045938014984, 0.027610594406723976, 0.033587660640478134, 0.01359287928789854, 0.06436583399772644, 0.0019911075942218304, 0.025283711031079292, 0.09636470675468445, 0.02217843569815159, 0.09934292733669281, -0.04241887107491493, 0.05085825175046921, 0.09690830856561661, 0.013202538713812828, -0.03735272213816643, -0.010648027993738651, -0.059954989701509476, 0.0857018381357193, -0.04698071628808975, 0.015696054324507713, 0.044981300830841064, 0.07347115129232407, -0.03852686658501625, -0.02387639693915844, -0.09632276743650436, -0.0017556464299559593, 0.08611835539340973, -0.06298480182886124, -0.02036471851170063, -0.025742406025528908, -0.020020833238959312, 0.0612519197165966, 0.050150319933891296, -0.08599653095006943, -0.03507239371538162, 0.020625358447432518, 0.007635992486029863, 0.029124651104211807, -0.0031628876458853483, 0.04628048464655876, -0.01703668013215065, 0.05205683782696724, -0.0030390112660825253, 0.025776036083698273, 0.07565028965473175, 0.06438098102807999, 0.09652454406023026, -0.00503248255699873, 0.021635623648762703, 0.05876409262418747, -0.04753332585096359, 0.05581381171941757, 0.0791536271572113, 0.060985539108514786, -0.032893452793359756, 0.0008897625957615674, 0.04772188514471054, 0.05622590705752373, 0.1077771931886673, -0.06409858912229538, -0.010546287521719933, -0.05747442692518234, 0.06629715859889984, -0.0017314678989350796, -0.07589825987815857, 0.03939242288470268, 0.04085007682442665, 0.04321647435426712, 0.06296520680189133, 0.08315982669591904, 0.10198391228914261, -0.0136863486841321, -0.03195318579673767, -0.009436060674488544, 0.07279439270496368, 0.06575698405504227, 0.03200025111436844, 0.0830966979265213, -0.0649387389421463, -0.01730426214635372], [0.05995507910847664, 0.03065454587340355, 0.06614280492067337, -0.018157484009861946, 0.0010761081939563155, -0.0741487517952919, -0.006948333699256182, -0.01456623524427414, 0.09173812717199326, 0.06720231473445892, 0.03136175870895386, -0.04689134657382965, 0.038399260491132736, 0.056832365691661835, 0.02621390111744404, 0.06976097822189331, 0.04915458709001541, 0.08175423741340637, -0.005917039234191179, -0.04204830899834633, -0.06310006231069565, 0.08123763650655746, 0.08838573098182678, -0.001389721524901688, 0.00349659426137805, -0.022506074979901314, 0.09052402526140213, 0.100777268409729, -0.010759417898952961, 0.017272071912884712, -0.03714226186275482, 0.06265434622764587, 0.0016327806515619159, -0.01245157327502966, 0.11129684746265411, 0.018429815769195557, 0.013492533005774021, -0.019038699567317963, 0.14971381425857544, -0.012259665876626968, 0.06459710001945496, 0.04404809698462486, -0.02404658868908882, 0.14154832065105438, 0.01950598508119583, -0.04957986995577812, -0.07134371250867844, 0.01782100833952427, 0.09772469103336334, -0.004590475931763649, -0.03822696954011917, -0.03948920965194702, 0.045346371829509735, 0.04594704508781433, 0.11891170591115952, -0.02138904109597206, 0.08495902270078659, 0.06415622681379318, -0.06379309296607971, 0.01802785135805607, -0.03310341387987137, 0.06433788686990738, -0.029375646263360977, 0.06705482304096222, -0.010822913609445095, -0.04347753897309303, 0.061307016760110855, 0.061476051807403564, 0.028641873970627785, -0.02278750017285347, -0.060756295919418335, -0.03984266519546509, 0.08636315912008286, -0.04570392146706581, -0.03241338953375816, -0.07891883701086044, 0.004820750094950199, 0.002355052623897791, -0.02665022946894169, -0.04862969368696213, 0.03840217366814613, 0.012807030230760574, 0.07372094690799713, -0.12322554737329483, -0.020268116146326065, -0.09675879031419754, 0.05042170733213425, 0.0019104151288047433, -0.02859615348279476, -0.11250832676887512, 0.03820483386516571, -0.052306488156318665, 0.04078812524676323, -0.08437660336494446, -0.07412467896938324, -0.07624883204698563, 0.009878157638013363, -0.05275263637304306, 0.04167956858873367, -0.02504413016140461, 0.04590744525194168, 0.006836595479398966, -0.05356758087873459, 0.06931035965681076, 0.09151805192232132, -0.014728552661836147, -0.016973037272691727, -0.0658746287226677, 0.0634908676147461, -0.03276057168841362, 0.022536782547831535, -0.03264562413096428, -0.068121999502182, 0.09185082465410233, 0.008144902996718884, -0.058452945202589035, -0.04065166413784027, 0.05255606770515442, 0.09398919343948364, 0.013120396994054317, -0.05033276975154877, -0.024453436955809593, 