{
  "conv2d_1": {
    "bias": [
      -0.049547601491212845,
      0.008558646775782108,
      0.03471614792943001,
      -0.03214555233716965,
      0.05495927482843399,
      0.0036553109530359507
    ],
    "weights": [
      [
        [
          [
            -0.1344560980796814,
            0.016375083476305008,
            0.08344906568527222,
            0.0537123866379261,
            0.0011028256267309189
          ],
          [
            0.09940061718225479,
            -0.137432262301445,
            -0.08643259108066559,
            -0.1876932680606842,
            0.15838606655597687
          ],
          [
            -0.14550523459911346,
            -0.06504251062870026,
            0.039733853191137314,
            0.11215732246637344,
            -0.09172814339399338
          ],
          [
            -0.07529181241989136,
            -0.08242505043745041,
            -0.031183909624814987,
            0.09451787173748016,
            0.0328933447599411
          ],
          [
            0.059027526527643204,
            -0.14144887030124664,
            -0.187631756067276,
            0.041500452905893326,
            0.2092938870191574
          ]
        ]
      ],
      [
        [
          [
            -0.2036542445421219,
            -0.19369788467884064,
            0.04793918505311012,
            0.3413395881652832,
            -0.0765266865491867
          ],
          [
            -0.020403843373060226,
            -0.16834567487239838,
            -0.037489041686058044,
            0.3114979863166809,
            0.10762413591146469
          ],
          [
            -0.005247096996754408,
            -0.021703660488128662,
            0.3758968412876129,
            0.45393654704093933,
            0.18932992219924927
          ],
          [
            0.3101975917816162,
            0.32671573758125305,
            0.11750207096338272,
            0.16037417948246002,
            0.40326160192489624
          ],
          [
            0.2978155016899109,
            0.2013213336467743,
            -0.07592464983463287,
            0.06994477659463882,
            0.31693142652511597
          ]
        ]
      ],
      [
        [
          [
            -0.11517257988452911,
            0.06291024386882782,
            0.2689918875694275,
            0.12484335154294968,
            0.15827955305576324
          ],
          [
            -0.08810647577047348,
            0.14149032533168793,
            -0.03575432300567627,
            0.007932309061288834,
            0.08833448588848114
          ],
          [
            -0.15289616584777832,
            -0.1980448216199875,
            -0.0022392882965505123,
            0.4382636845111847,
            0.37622058391571045
          ],
          [
            0.07224778085947037,
            0.286721795797348,
            0.20911173522472382,
            0.5065456032752991,
            0.26733827590942383
          ],
          [
            0.0493026040494442,
            0.2772293984889984,
            0.3278755247592926,
            0.26852038502693176,
            0.27026814222335815
          ]
        ]
      ],
      [
        [
          [
            0.12443297356367111,
            -0.061867162585258484,
            -0.10345045477151871,
            0.14404535293579102,
            0.1595596820116043
          ],
          [
            -0.11001841723918915,
            -0.0008928711176849902,
            0.10444968193769455,
            0.13686686754226685,
            0.01290077157318592
          ],
          [
            -0.19374416768550873,
            0.09149231761693954,
            -0.014040011912584305,
            0.19700480997562408,
            -0.05807273089885712
          ],
          [
            -0.08830377459526062,
            -0.13324321806430817,
            -0.08722124993801117,
            0.13150247931480408,
            -0.11624280363321304
          ],
          [
            -0.13562333583831787,
            0.09487422555685043,
            0.1385359764099121,
            0.0382276251912117,
            -0.035667333751916885
          ]
        ]
      ],
      [
        [
          [
            -0.12960341572761536,
            0.003582520643249154,
            0.16880030930042267,
            -0.14096584916114807,
            0.18655513226985931
          ],
          [
            -0.016844220459461212,
            -0.022579189389944077,
            -0.15298528969287872,
            0.08293717354536057,
            0.08025339245796204
          ],
          [
            -0.15512406826019287,
            -0.009840680286288261,
            -0.14870846271514893,
            -0.18579065799713135,
            0.005767738446593285
          ],
          [
            -0.02819022908806801,
            0.12661223113536835,
            -0.20045261085033417,
            -0.18994826078414917,
            -0.11506354808807373
          ],
          [
            0.12769553065299988,
            0.08605008572340012,
            0.14620505273342133,
            0.14468485116958618,
            0.14274998009204865
          ]
        ]
      ],
      [
        [
          [
            0.28715869784355164,
            0.056378770619630814,
            -0.06997732073068619,
            -0.00690397759899497,
            0.02749716117978096
          ],
          [
            0.18454620242118835,
            -0.04679912328720093,
            -0.018490377813577652,
            0.11732640862464905,
            0.15422624349594116
          ],
          [
            0.22465592622756958,
            0.24616464972496033,
            0.3239441514015198,
            0.4471382796764374,
            0.3427880108356476
          ],
          [
            0.2859349548816681,
            0.3712220788002014,
            0.18688857555389404,
            0.4176458716392517,
            0.26316407322883606
          ],
          [
            0.1659778654575348,
            0.2152595967054367,
            -0.11561679095029831,
            -0.0985386073589325,
            0.3512546420097351
          ]
        ]
      ]
    ]
  },
  "conv2d_2": {
    "bias": [
      0.005989957135170698
    ],
    "weights": [
      [
        [
          [
            0.10726747661828995,
            -0.05543692409992218,
            5.0312988605583087e-05,
            0.015687210485339165,
            -0.1316826492547989
          ],
          [
            0.04510264843702316,
            -0.0471210740506649,
            -0.09287600964307785,
            0.06850845366716385,
            0.0030438860412687063
          ],
          [
            -0.0889645665884018,
            -0.17759966850280762,
            -0.020722121000289917,
            0.20096270740032196,
            -0.10756120830774307
          ],
          [
            0.028881603851914406,
            -0.05282622575759888,
            0.07898470759391785,
            -0.11014581471681595,
            0.00840286910533905
          ],
          [
            -0.12793974578380585,
            -0.16981124877929688,
            -0.12851092219352722,
            0.1265462040901184,
            0.02078065648674965
          ]
        ],
        [
          [
            0.25631555914878845,
            0.4335225224494934,
            0.38065019249916077,
            0.4148765802383423,
            0.06411367654800415
          ],
          [
            0.4617268145084381,
            0.22494876384735107,
            0.17371824383735657,
            0.23777276277542114,
            0.09251180291175842
          ],
          [
            0.05804235115647316,
            -0.1017223596572876,
            -0.11616688966751099,
            -0.17178161442279816,
            -0.049006007611751556
          ],
          [
            0.03300866484642029,
            -0.39488038420677185,
            -0.3529665470123291,
            0.1921830028295517,
            0.039931949228048325
          ],
          [
            0.07367120683193207,
            -0.11237414181232452,
            0.04779914766550064,
            0.02439975179731846,
            0.17433558404445648
          ]
        ],
        [
          [
            0.2792013883590698,
            0.5271533727645874,
            0.32961148023605347,
            0.2534826993942261,
            -0.15666601061820984
          ],
          [
            0.43328383564949036,
            0.36963024735450745,
            0.09000720828771591,
            0.13182203471660614,
            -0.06416886299848557
          ],
          [
            0.2562864422798157,
            -0.33607470989227295,
            -0.3691149055957794,
            0.1364227533340454,
            0.1710243970155716
          ],
          [
            -0.03083578310906887,
            -0.2461845874786377,
            -0.10142095386981964,
            0.08955039829015732,
            -0.04796281456947327
          ],
          [
            0.0701574981212616,
            0.080391526222229,
            -0.09904257208108902,
            -0.05944671109318733,
            0.023797055706381798
          ]
        ],
        [
          [
            -0.1766444593667984,
            0.018672941252589226,
            -0.0797591507434845,
            -0.12083777040243149,
            -0.008794605731964111
          ],
          [
            0.11981390416622162,
            -0.04823197051882744,
            -0.1590903401374817,
            -0.18352258205413818,
            0.10748917609453201
          ],
          [
            -0.14325954020023346,
            0.018184443935751915,
            0.04289214313030243,
            0.08538071066141129,
            -0.0905529111623764
          ],
          [
            0.16218909621238708,
            -0.22000429034233093,
            -0.22779138386249542,
            0.18091124296188354,
            0.07327878475189209
          ],
          [
            0.1666129231452942,
            -0.1634310930967331,
            -0.18693357706069946,
            -0.01262481976300478,
            0.18757130205631256
          ]
        ],
        [
          [
            0.020013630390167236,
            0.0538821741938591,
            -0.14725719392299652,
            0.19764550030231476,
            0.01153663918375969
          ],
          [
            0.08351510018110275,
            -0.17788735032081604,
            0.1442582607269287,
            0.12096595764160156,
            -0.0532911978662014
          ],
          [
            -0.12757831811904907,
            -0.09747333824634552,
            0.16104508936405182,
            -0.07993826270103455,
            0.012124860659241676
          ],
          [
            0.16868557035923004,
            0.03630959615111351,
            0.22474423050880432,
            0.09986066073179245,
            0.0061173164285719395
          ],
          [
            0.19844821095466614,
            -0.07960819453001022,
            0.09755034744739532,
            -0.03785255551338196,
            -0.09615262597799301
          ]
        ],
        [
          [
            0.16031934320926666,
            0.1991150677204132,
            0.4563814699649811,
            0.29878532886505127,
            -0.07792608439922333
          ],
          [
            0.2606218755245209,
            0.3825610876083374,
            0.500883162021637,
            0.4309469163417816,
            0.14503838121891022
          ],
          [
            -0.07516077905893326,
            0.0006605850649066269,
            -0.23784078657627106,
            -0.2321312576532364,
            0.15668410062789917
          ],
          [
            -0.29209256172180176,
            -0.1376543790102005,
            -0.2873510420322418,
            -0.21873542666435242,
            -0.046689473092556
          ],
          [
            0.010442879982292652,
            0.1127418726682663,
            0.21170644462108612,
            -0.12078800797462463,
            0.14709492027759552
          ]
        ]
      ]
    ]
  },
  "dense_1": {
    "bias": [
      0.005519065540283918,
      0.0005741535569541156,
      0.0036818368826061487,
      -0.00044760704622603953,
      -0.00460063898935914,
      -0.0103226313367486,
      0.004463938996195793,
      -0.01243159081786871,
      -0.013380545191466808,
      -0.001384181436151266,
      0.0008055947837419808,
      0.0035724183544516563,
      -0.00034575260360725224,
      0.005668977275490761,
      0.012040858156979084,
      -0.025989240035414696,
      -0.007906761020421982,
      -0.0011974264634773135,
      -0.011567819863557816,
      0.006014951039105654,
      0.00288100796751678,
      -0.016593165695667267,
      0.053796570748090744,
      -0.03401029855012894,
      -0.0042984699830412865,
      0.007929490879178047,
      -0.015194380655884743,
      0.017765017226338387,
      -0.0013951295986771584,
      -0.01493137702345848,
      -0.020724250003695488,
      -0.007881781086325645,
      -0.00024128328368533403,
      0.005544903222471476,
      -0.006055544130504131,
      0.029221748933196068,
      0.026307467371225357,
      0.013643009588122368,
      0.016752908006310463,
      -0.00750918360427022,
      0.023655900731682777,
      8.014751801965758e-05,
      0.04188128560781479,
      0.014117076992988586,
      -0.011906987987458706,
      0.004354539792984724,
      0.004785003140568733,
      0.0020581334829330444,
      -0.018184665590524673,
      0.020554933696985245,
      -0.005429009906947613,
      0.0040568020194768906,
      0.004542232491075993,
      0.001997066428884864,
      -0.0026574069634079933,
      -0.0005223884945735335,
      -0.006168820429593325,
      -0.018379973247647285,
      -0.0009583239443600178,
      -0.03714986518025398,
      0.013893600553274155,
      0.008235491812229156,
      -0.002076181583106518,
      0.0033607741352170706,
      -0.009588436223566532,
      -0.006207263562828302,
      0.009453277103602886,
      0.028673600405454636,
      0.009051207453012466,
      -0.0006594648584723473,
      -0.021618295460939407,
      0.012431527487933636,
      0.00042538944398984313,
      -0.014506688341498375,
      0.016723724082112312,
      -0.0004918721388094127,
      -0.01467914693057537,
      0.02009463682770729,
      0.0008266300428658724,
      0.00546607980504632,
      0.024757085368037224,
      0.009845766238868237,
      0.01074175164103508,
      -0.0008516228990629315,
      0.024489909410476685,
      -0.037361759692430496,
      -0.0006170985288918018,
      -0.005622039083391428,
      0.01259935274720192,
      -0.010406582616269588,
      0.0026253529358655214,
      -0.013658575713634491,
      0.008558803237974644,
      0.0006137704476714134,
      0.025054238736629486,
      -0.004289138130843639,
      0.003565018530935049,
      0.022873131558299065,
      -0.0015495454426854849,
      0.00402101082727313,
      0.005089536774903536,
      0.0021784070413559675,
      0.02614825963973999,
      0.002358458936214447,
      -0.01353362761437893,
      9.754711209097877e-05,
      -0.01662108302116394,
      0.010304167866706848,
      -0.007083658594638109,
      0.009807915426790714,
      0.002252490259706974,
      -0.0045514414086937904,
      -0.001238981494680047,
      0.012140458449721336,
      0.017124393954873085,
      0.02179691195487976,
      0.014992273412644863,
      -0.009420090354979038,
      -0.0006378376856446266,
      -0.0024482596199959517
    ],
    "weights": [
      [
        0.1054123044013977,
        -0.07582265883684158,
        0.03178589791059494,
        0.07728148996829987,
        -0.0318392775952816,
        -0.15387584269046783,
        -0.10287423431873322,
        0.11589640378952026,
        0.04686814546585083,
        0.11352222412824631,
        -0.05338992923498154,
        -0.010856781154870987,
        -0.043721046298742294,
        -0.1183704361319542,
        -0.1391608715057373,
        0.07678212970495224,
        0.07040335237979889,
        0.1169847771525383,
        0.007378706242889166,
        -0.005429536569863558,
        0.01575092226266861,
        -0.05800730735063553,
        -0.07636749744415283,
        0.025395965203642845,
        0.08973320573568344,
        -0.025569183751940727,
        -0.09270942956209183,
        0.07586441189050674,
        -0.060711249709129333,
        -0.1100030243396759,
        0.10866245627403259,
        0.023252170532941818,
        -0.05638580024242401,
        0.1120552122592926,
        0.021454045549035072,
        -0.14427347481250763,
        -0.1480802446603775,
        0.05807115137577057,
        -0.04602285102009773,
        0.0877063125371933,
        0.07195927202701569,
        0.12930035591125488,
        0.002768687205389142,
        -0.13772344589233398,
        -0.07893569767475128,
        0.022657744586467743,
        -0.014179862104356289,
        -0.13369257748126984,
        0.017218375578522682,
        0.06449215114116669,
        0.08108087629079819,
        -0.06846591830253601,
        0.1257912516593933,
        0.037119969725608826,
        -0.07980383187532425,
        -0.010633234865963459,
        -0.10312434285879135,
        -0.06078776344656944,
        0.044945500791072845,
        -0.07602735608816147,
        0.050843723118305206,
        0.08756015449762344,
        -0.07909107953310013,
        0.04141014814376831,
        0.030090700834989548,
        0.04425431042909622,
        0.15042787790298462,
        0.13486061990261078,
        0.08714713156223297,
        0.05935113877058029,
        0.06270686537027359,
        -0.01033007726073265,
        0.029135532677173615,
        -0.007162364665418863,
        0.06066121160984039,
        0.03897467255592346,
        -0.11075466126203537,
        -0.038713809102773666,
        0.03936203941702843,
        0.10176882147789001,
        0.027015987783670425,
        -0.07010085880756378,
        0.052175313234329224,
        -0.031013580039143562,
        0.07987416535615921,
        -0.08090130984783173,
        -0.1067814826965332,
        -0.05043961852788925,
        -0.04817318916320801,
        -0.14559316635131836,
        0.022530589252710342,
        0.06706589460372925,
        0.13275110721588135,
        -0.01436493918299675,
        0.012436780147254467,
        -0.055888038128614426,
        0.09359303116798401,
        -0.08534720540046692,
        -0.06718567758798599,
        -0.030185893177986145,
        0.0635858029127121,
        0.028758065775036812,
        -0.07568918168544769,
        0.030893245711922646,
        0.04274892061948776,
        -0.1563640981912613,
        -0.161838099360466,
        -0.07936473935842514,
        0.046502936631441116,
        -0.04652177542448044,
        0.1388947069644928,
        0.03804638981819153,
        -0.044741857796907425,
        0.13661594688892365,
        0.13417407870292664,
        -0.09837184846401215,
        -0.03652340918779373,
        -0.09854917973279953,
        -0.07662669569253922,
        0.06247933581471443,
        0.14116480946540833,
        0.056977130472660065,
        -0.15512529015541077,
        -0.007898738607764244,
        0.13975463807582855,
        0.05453943833708763,
        -0.013582983054220676,
        0.133980393409729,
        0.126758873462677,
        0.014390622265636921,
        -0.1014394611120224,
        0.02793743647634983,
        -0.0491059385240078,
        0.12412972003221512,
        0.026040151715278625,
        -0.11613515764474869,
        0.05220536142587662,
        -0.08065721392631531,
        0.08183414489030838,
        -0.1038183644413948,
        0.10647469013929367,
        0.1356033980846405,
        0.010403797961771488,
        0.10790102928876877
      ],
      [
        -0.10121750086545944,
        0.019827663898468018,
        0.06736109405755997,
        0.09808032214641571,
        0.0769689679145813,
        -0.14000877737998962,
        -0.010457473807036877,
        -0.026870768517255783,
        0.08793298900127411,
        0.11432965099811554,
        0.10137633979320526,
        -0.07001078873872757,
        -0.07356054335832596,
        0.12469470500946045,
        0.015168306417763233,
        -0.0676688402891159,
        0.0516437403857708,
        0.00208541052415967,
        -0.018609104678034782,
        -0.02036743052303791,
        -0.11888749152421951,
        -0.13679732382297516,
        0.0669059157371521,
        -0.07539957761764526,
        0.15138861536979675,
        0.14769324660301208,
        -0.061607345938682556,
        -0.06001828983426094,
        0.10888780653476715,
        0.1681162267923355,
        -0.1165110394358635,
        0.09287209808826447,
        -0.06899826228618622,
        -0.1574624478816986,
        0.0364832766354084,
        0.08403360098600388,
        0.017787570133805275,
        0.08622395992279053,
        -0.008607588708400726,
        0.09135391563177109,
        -0.0520215705037117,
        0.09860149025917053,
        -0.011024229228496552,
        -0.20146098732948303,
        -0.04718422144651413,
        0.08963456749916077,
        0.05879649147391319,
        0.09848520904779434,
        -0.03371012583374977,
        0.08115804195404053,
        0.12396406382322311,
        -0.026947682723402977,
        -0.15033379197120667,
        0.0765627771615982,
        -0.20601703226566315,
        -0.19618719816207886,
        -0.08725298941135406,
        0.11158981174230576,
        -0.09891073405742645,
        -0.023641323670744896,
        -0.04775165021419525,
        0.14235632121562958,
        0.0568183958530426,
        0.13732247054576874,
        0.11052580922842026,
        0.054388631135225296,
        -0.09998521953821182,
        -0.02977132424712181,
        -0.012839285656809807,
        -0.0958031639456749,
        0.10842475295066833,
        0.08584661036729813,
        0.05928600952029228,
        0.08845270425081253,
        0.127714142203331,
        -0.011058872565627098,
        0.04988649860024452,
        0.11173076927661896,
        -0.13939061760902405,
        0.031361792236566544,
        -0.08336488157510757,
        0.057291071861982346,
        -0.0354551300406456,
        -0.09999000281095505,
        -0.007616390939801931,
        0.00954367220401764,
        -0.07127218693494797,
        0.08838965743780136,
        0.022108037024736404,
        -0.1329757571220398,
        0.0346764400601387,
        0.05000034347176552,
        0.010780527256429195,
        -0.042204007506370544,
        0.04440518841147423,
        0.1480882465839386,
        -0.056414902210235596,
        0.12037178874015808,
        0.10765764117240906,
        0.08310487866401672,
        -0.12837554514408112,
        -0.008619988337159157,
        0.0810406282544136,
        0.019075725227594376,
        0.030409932136535645,
        0.156144380569458,
        -0.08077050000429153,
        0.027191217988729477,
        0.11041877418756485,
        -0.1495647132396698,
        -0.06523748487234116,
        0.050365857779979706,
        -0.02462157979607582,
        0.0317448154091835,
        0.09978432208299637,
        0.10557254403829575,
        -0.11833362281322479,
        -0.12619926035404205,
        0.10684232413768768,
        0.15342456102371216,
        -0.11509507894515991,
        -0.12305782735347748,
        -0.1169004961848259,
        0.016995154321193695,
        0.05593607574701309,
        0.0566956028342247,
        0.029675761237740517,
        0.09052902460098267,
        0.11785702407360077,
        0.02670235186815262,
        0.13045822083950043,
        -0.06706833094358444,
        -0.11730917543172836,
        0.0017967702588066459,
        -0.13786126673221588,
        0.011579450219869614,
        -0.052565474063158035,
        -0.05125582963228226,
        -0.007703191600739956,
        -0.005600690841674805,
        -0.026204098016023636,
        -0.1095157265663147,
        0.1087467297911644,
        -0.03553684428334236
      ],
      [
        0.0679398849606514,
        -0.14233148097991943,
        0.021335117518901825,
        0.07153167575597763,
        -0.0015515455743297935,
        0.11480097472667694,
        -0.10311422497034073,
        -0.07326103001832962,
        -0.08539916574954987,
        0.08476775139570236,
        0.015684956684708595,
        0.08564610034227371,
        0.14139264822006226,
        0.13065756857395172,
        -0.09316151589155197,
        -0.013849840499460697,
        -0.07300609350204468,
        0.08316796272993088,
        0.05548124015331268,
        -0.12477190047502518,
        0.05577955022454262,
        -0.07286737114191055,
        -0.1267845630645752,
        0.10383019596338272,
        0.05501252040266991,
        -0.02024969644844532,
        0.025678273290395737,
        0.12235432118177414,
        -0.05984360724687576,
        -0.04857728257775307,
        0.04773502051830292,
        0.09268023073673248,
        0.1368849277496338,
        0.11577066034078598,
        -0.12610706686973572,
        -0.07904008775949478,
        -0.13371092081069946,
        -0.052844565361738205,
        0.08045688271522522,
        0.111582450568676,
        0.10185353457927704,
        0.11320335417985916,
        -0.042822953313589096,
        0.10299895703792572,
        -0.12580566108226776,
        0.06870719790458679,
        0.026231203228235245,
        -0.06094331666827202,
        0.041642945259809494,
        0.13462549448013306,
        -0.14142820239067078,
        -0.1251954287290573,
        0.0033029525075107813,
        0.142161563038826,
        0.10184217244386673,
        -0.007353771477937698,
        0.08826082199811935,
        -0.06249802187085152,
        -0.05080486088991165,
        -0.017734045162796974,
        -0.09905049949884415,
        0.05615220591425896,
        -0.12334492802619934,
        0.029389668256044388,
        0.0454263873398304,
        -0.09156589210033417,
        0.11496178805828094,
        0.05468263477087021,
        -0.015301322564482689,
        -0.10855194926261902,
        0.11436547338962555,
        0.10287829488515854,
        0.15279869735240936,
        -0.06760245561599731,
        0.028456494212150574,
        -0.013265966437757015,
        0.003234494710341096,
        -0.11484981328248978,
        -0.09109868854284286,
        0.12672331929206848,
        -0.043402303010225296,
        0.033910419791936874,
        -0.11920926719903946,
        0.06912728399038315,
        0.12365809082984924,
        -0.06442828476428986,
        -0.1365596055984497,
        0.08616744726896286,
        0.11699318885803223,
        -0.13848374783992767,
        -0.026585064828395844,
        0.07455841451883316,
        0.03174099698662758,
        -0.05088953301310539,
        0.08021719008684158,
        0.1170569434762001,
        -0.06575611233711243,
        0.001236478565260768,
        -0.05870335176587105,
        -0.0012670524884015322,
        -0.04669133573770523,
        0.08262825012207031,
        0.06978125125169754,
        0.000802655122242868,
        -0.13746240735054016,
        0.05351671949028969,
        0.12163936346769333,
        -0.07375818490982056,
        0.0761508047580719,
        -0.07342949509620667,
        0.11964590847492218,
        -0.10829077661037445,
        -0.032628122717142105,
        0.11488056182861328,
        -0.13985317945480347,
        -0.13288633525371552,
        -0.09608539193868637,
        -0.14304965734481812,
        0.11905549466609955,
        0.012280249036848545,
        0.008730839937925339,
        -0.04118742048740387,
        -0.03092709183692932,
        0.07676301151514053,
        -0.12915055453777313,
        -0.005174039863049984,
        -0.07104585319757462,
        -0.1436634212732315,
        0.09452838450670242,
        -0.04761012643575668,
        -0.10011360794305801,
        -0.09969842433929443,
        -0.05310196429491043,
        -0.06827317923307419,
        -0.12249601632356644,
        -0.11109782010316849,
        -0.147936150431633,
        0.05570392683148384,
        -0.06334543228149414,
        0.10732768476009369,
        0.049550071358680725,
        -0.13486908376216888,
        -0.011201120913028717,
        -0.1256096214056015
      ],
      [
        0.0034372867085039616,
        0.0836729109287262,
        0.13485005497932434,
        0.07565519213676453,
        -0.03158046305179596,
        0.043274976313114166,
        -0.13676747679710388,
        -0.10916131734848022,
        0.08937317878007889,
        0.14333544671535492,
        -0.02157665602862835,
        -0.10825110971927643,
        0.08050902187824249,
        0.053034715354442596,
        -0.07096431404352188,
        -0.04049520194530487,
        0.1009211465716362,
        -0.1146215870976448,
        -0.1438474804162979,
        0.01747821271419525,
        -0.03291746973991394,
        -0.09828568249940872,
        0.04205141216516495,
        -0.047559622675180435,
        0.013074423186480999,
        0.009468626230955124,
        -0.10234976559877396,
        -0.14651550352573395,
        -0.05994439497590065,
        -0.09675154089927673,
        0.12709127366542816,
        0.03698986396193504,
        -0.045386869460344315,
        0.021358858793973923,
        -0.07289166003465652,
        -0.06683642417192459,
        -0.023177411407232285,
        0.05810039862990379,
        -0.03663606941699982,
        0.01811598800122738,
        0.06118384748697281,
        -0.09782401472330093,
        0.09986335784196854,
        0.052609022706747055,
        0.10819272696971893,
        -0.11418068408966064,
        0.10855165123939514,
        -0.12718012928962708,
        -0.09139615297317505,
        0.016420001164078712,
        -0.11679655313491821,
        0.0005318620824255049,
        -0.012075818143785,
        0.0024678667541593313,
        -0.13340717554092407,
        0.0592198483645916,
        0.0225866436958313,
        0.06958268582820892,
        -0.11964193731546402,
        -0.11012625694274902,
        -0.05149271339178085,
        -0.031379230320453644,
        -0.14054709672927856,
        -0.04949601739645004,
        -0.008674276061356068,
        -0.11350661516189575,
        -0.08027523756027222,
        -0.06502556055784225,
        -0.0843411386013031,
        -0.02620564214885235,
        -0.08881937712430954,
        0.032819606363773346,
        -0.13591183722019196,
        -0.0812334418296814,
        -0.06722458451986313,
        -0.03675783425569534,
        0.03275549039244652,
        0.06409743428230286,
        -0.006992040667682886,
        0.03567498177289963,
        0.11793260276317596,
        -0.13134154677391052,
        0.0788528323173523,
        -0.05189921706914902,
        0.04027039185166359,
        0.14465604722499847,
        -0.05614033713936806,
        -0.04150502011179924,
        0.03299177065491676,
        -0.11946138739585876,
        -0.12985584139823914,
        0.13553202152252197,
        -0.10948687791824341,
        0.06634092330932617,
        -0.047535933554172516,
        0.1359604150056839,
        -0.131718710064888,
        0.0332409031689167,
        0.02136259712278843,
        -0.03139548376202583,
        -0.15068674087524414,
        -0.009075199253857136,
        -0.12227217853069305,
        0.05862230435013771,
        -0.09804222732782364,
        -0.08104674518108368,
        0.09223674237728119,
        -0.0768074095249176,
        0.025047024711966515,
        -0.04115615040063858,
        -0.12645240128040314,
        -0.044907096773386,
        0.05832245945930481,
        -0.0405903160572052,
        -0.032654691487550735,
        0.04754972457885742,
        0.07810372859239578,
        0.09203068166971207,
        -0.0524754524230957,
        -0.07067754119634628,
        0.00999592337757349,
        0.03223797678947449,
        -0.0762171745300293,
        0.004700875841081142,
        -0.09120605140924454,
        -0.10751074552536011,
        0.007097476162016392,
        -0.12042000144720078,
        0.14622823894023895,
        0.029294505715370178,
        -0.03192209452390671,
        -0.08673716336488724,
        -0.09476465731859207,
        -0.0895632803440094,
        0.048607099801301956,
        0.04896365478634834,
        0.11167367547750473,
        -0.038344573229551315,
        -0.05862215533852577,
        -0.11731510609388351,
        0.0061915116384625435,
        -0.06280101090669632,
        0.0637010782957077,
        0.06891161948442459
      ],
      [
        0.010247389785945415,
        0.007826297543942928,
        0.05965606868267059,
        -0.028752679005265236,
        -0.05487582087516785,
        0.14526721835136414,
        -0.0037043155170977116,
        -0.10259713232517242,
        0.04251471161842346,
        0.13840246200561523,
        0.054549288004636765,
        0.11081000417470932,
        -0.1050858423113823,
        0.07695943862199783,
        -0.1005052849650383,
        -0.14283959567546844,
        0.10952498018741608,
        0.13953015208244324,
        -0.021978911012411118,
        -0.036204200237989426,
        -0.02239580638706684,
        0.10848263651132584,
        -0.02762535773217678,
        0.039136968553066254,
        -0.13018342852592468,
        -0.09399986267089844,
        -0.018242748454213142,
        -0.0017383957747370005,
        0.014696983620524406,
        -0.041713178157806396,
        0.13104410469532013,
        0.04587888345122337,
        0.0569475032389164,
        -0.13322587311267853,
        0.05340041220188141,
        0.019566897302865982,
        -0.04255393519997597,
        0.13987775146961212,
        -0.08405736833810806,
        -0.1114707961678505,
        0.11890809237957001,
        0.023535961285233498,
        0.10122320801019669,
        -0.11763235926628113,
        0.09156527370214462,
        -0.009508676826953888,
        0.060454387217760086,
        -0.12489153444766998,
        -0.005466687958687544,
        -0.02188311517238617,
        -0.1329556107521057,
        0.0680050253868103,
        0.025332840159535408,
        -0.09361293166875839,
        -0.04224369302392006,
        0.11125657707452774,
        0.1211029514670372,
        0.07115990668535233,
        -0.07322382926940918,
        0.11803238093852997,
        -0.10152579098939896,
        0.09707164764404297,
        -0.1691962331533432,
        0.11798922717571259,
        0.007636966649442911,
        -0.14604271948337555,
        -0.08688850700855255,
        0.05025245621800423,
        0.006435092072933912,
        0.040805358439683914,
        0.08729919046163559,
        0.07649625092744827,
        0.10026921331882477,
        0.1302718073129654,
        -0.041274018585681915,
        0.09124206006526947,
        0.09325353801250458,
        -0.11604660004377365,
        -0.10088355094194412,
        0.011947162449359894,
        0.09083175659179688,
        -0.07258922606706619,
        0.043714992702007294,
        0.140445277094841,
        -0.12619109451770782,
        0.13148212432861328,
        -0.10671243071556091,
        0.09752457588911057,
        0.029556086286902428,
        -0.11413875222206116,
        -0.10450716316699982,
        -0.05070873349905014,
        -0.019618313759565353,
        -0.11366952955722809,
        -0.13784250617027283,
        -0.003956093452870846,
        0.14597159624099731,
        -0.03859031945466995,
        -0.006642702501267195,
        -0.11331848055124283,
        -0.023695219308137894,
        -0.11555342376232147,
        -0.15055601298809052,
        0.06856221705675125,
        0.06609264016151428,
        -0.14659446477890015,
        0.14610835909843445,
        0.052035924047231674,
        -0.11397179961204529,
        -0.1206563413143158,
        -0.043096162378787994,
        -0.0805763378739357,
        0.03771732375025749,
        -0.17343302071094513,
        -0.2157880663871765,
        -0.1983528584241867,
        -0.042917314916849136,
        0.04957751929759979,
        0.0006991004338487983,
        0.1381111741065979,
        -0.09172705560922623,
        0.06681467592716217,
        -0.0320947989821434,
        0.10929274559020996,
        0.15892381966114044,
        -0.010226579383015633,
        0.011722590774297714,
        0.07795711606740952,
        0.1347840279340744,
        -0.11878744512796402,
        0.12969540059566498,
        -0.002734910463914275,
        -0.008503926917910576,
        0.04749585688114166,
        -0.04128141328692436,
        0.04619961977005005,
        -0.05480985343456268,
        0.20409511029720306,
        -0.03178564831614494,
        0.07409540563821793,
        0.14640603959560394,
        -0.02435477450489998,
        0.06844211369752884,
        0.13877911865711212
      ],
      [
        -0.14719268679618835,
        -0.020090952515602112,
        0.1479756087064743,
        -0.033522721379995346,
        -0.12484779208898544,
        -0.001733367913402617,
        -0.07121440768241882,
        -0.10693476349115372,
        0.014380145817995071,
        0.13136743009090424,
        -0.08942122757434845,
        -0.05026434734463692,
        -0.11289248615503311,
        0.05522237718105316,
        0.04628296196460724,
        -0.015416937880218029,
        0.06711684167385101,
        -0.10789669305086136,
        -0.10378102958202362,
        -0.04200464114546776,
        -0.08537710458040237,
        -0.043301817029714584,
        -0.06821531057357788,
        -0.04661201685667038,
        0.08268356323242188,
        -0.03181431069970131,
        0.026450084522366524,
        -0.04545246437191963,
        -0.06298559904098511,
        0.03555280342698097,
        -0.06794226169586182,
        0.13264842331409454,
        -0.0749354213476181,
        -0.12011603266000748,
        0.12460437417030334,
        -0.09380246698856354,
        -0.08566046506166458,
        0.09033921360969543,
        0.13231833279132843,
        0.0978773981332779,
        0.03844919800758362,
        0.019252890720963478,
        -0.028584713116288185,
        0.12030037492513657,
        0.02752104587852955,
        0.11926773935556412,
        0.028150459751486778,
        -0.06991799175739288,
        -0.13012680411338806,
        0.15391293168067932,
        -0.12808428704738617,
        0.16734778881072998,
        0.13726375997066498,
        -0.10279786586761475,
        0.013044632039964199,
        -0.0918997973203659,
        -0.10063769668340683,
        -0.047749217599630356,
        -0.13422851264476776,
        -0.1362876296043396,
        0.05591582506895065,
        0.034965772181749344,
        -0.10434199869632721,
        0.07768046110868454,
        -0.10407599061727524,
        0.0356382317841053,
        0.1161143034696579,
        0.03469757363200188,
        0.1605805605649948,
        0.14035961031913757,
        0.06904329359531403,
        0.008677796460688114,
        -0.10516121238470078,
        -0.04713672772049904,
        0.0378362201154232,
        -0.1303284913301468,
        -0.12054553627967834,
        0.12274153530597687,
        0.0013618211960420012,
        -0.04713759943842888,
        0.11388436704874039,
        -0.012242771685123444,
        0.18919402360916138,
        0.009355654940009117,
        -0.10600151121616364,
        0.03959386423230171,
        -0.07982348650693893,
        0.07998782396316528,
        0.06317874789237976,
        -0.12689712643623352,
        0.07083428651094437,
        0.123958520591259,
        -0.08586756885051727,
        0.030647557228803635,
        0.09892427176237106,
        -0.09207576513290405,
        -0.11213602125644684,
        -0.051106467843055725,
        0.03303874284029007,
        0.07219099998474121,
        -0.13099516928195953,
        0.03332570567727089,
        -0.08625901490449905,
        -0.1462957262992859,
        0.06338395178318024,
        -0.09922564774751663,
        -0.02822829596698284,
        -0.0019136167829856277,
        -0.03266875445842743,
        -0.12510161101818085,
        -0.10378057509660721,
        -0.03524915501475334,
        0.13014033436775208,
        -0.02769663743674755,
        -0.09244371950626373,
        0.09519374370574951,
        -0.09820419549942017,
        -0.007568748202174902,
        -0.16892926394939423,
        -0.01889176107943058,
        -0.07109834253787994,
        0.05540364980697632,
        -0.14270445704460144,
        0.11085502058267593,
        0.06410402804613113,
        -0.07408951967954636,
        -0.16073954105377197,
        -0.05921822041273117,
        -0.10994015634059906,
        -0.016481714323163033,
        -0.14367540180683136,
        -0.12481921911239624,
        -0.025848088786005974,
        -0.05429237335920334,
        0.07287058979272842,
        -0.15482980012893677,
        0.05220389366149902,
        0.11536666750907898,
        -0.0775173008441925,
        -0.033333297818899155,
        0.04983281344175339,
        0.13602514564990997,
        0.05462292954325676,
        0.060613494366407394
      ],
      [
        0.04636475071310997,
        -0.044035959988832474,
        -0.04220949858427048,
        -0.03236660733819008,
        0.12423565238714218,
        -0.13260561227798462,
        0.08845015615224838,
        -0.10084975510835648,
        -0.06039498373866081,
        0.06611273437738419,
        0.07447756081819534,
        -0.05131435766816139,
        -0.07424889504909515,
        -0.14885830879211426,
        -0.14458543062210083,
        -0.01669306494295597,
        0.11002379655838013,
        -0.016463344916701317,
        0.07511845976114273,
        -0.06873258948326111,
        -0.007194878999143839,
        0.06706714630126953,
        -0.06186661124229431,
        -0.060355402529239655,
        -0.08913516998291016,
        -0.06077243760228157,
        -0.11278855800628662,
        0.11816031485795975,
        -0.11924921721220016,
        -0.0359121635556221,
        -0.03147842735052109,
        0.0693865716457367,
        -0.07094404101371765,
        -0.13400135934352875,
        -0.05095447227358818,
        -0.14228962361812592,
        -0.021626021713018417,
        -0.12303172796964645,
        -0.06568724662065506,
        -0.03348507359623909,
        0.13512660562992096,
        0.11883271485567093,
        -0.09040176868438721,
        -0.15898461639881134,
        -0.08363747596740723,
        -0.15814995765686035,
        0.05482710897922516,
        0.025012360885739326,
        0.10736651718616486,
        -0.020721301436424255,
        0.066958487033844,
        0.055042341351509094,
        -0.10294342786073685,
        0.02470153383910656,
        -0.1242005005478859,
        0.08411432802677155,
        0.004418857861310244,
        0.09948291629552841,
        0.02766544371843338,
        -0.08618000894784927,
        0.08115832507610321,
        -0.12321453541517258,
        0.10757948458194733,
        -0.11620371043682098,
        0.15896452963352203,
        0.15745092928409576,
        0.05006878823041916,
        0.09748419374227524,
        -0.08706174790859222,
        -0.03800657391548157,
        -0.08812335878610611,
        -0.06339527666568756,
        0.053353674709796906,
        0.15867666900157928,
        0.12726794183254242,
        -0.006624486297369003,
        -0.03895367681980133,
        -0.11508774012327194,
        0.06752835959196091,
        0.12562295794487,
        0.10975228250026703,
        -0.09455461800098419,
        0.06058453768491745,
        -0.01704486645758152,
        0.15155431628227234,
        0.1306392252445221,
        0.0895553007721901,
        0.06777160614728928,
        -0.1359284669160843,
        -0.04551520198583603,
        -0.0032548794988542795,
        -0.022123221307992935,
        0.0343986414372921,
        0.015063179656863213,
        0.028081748634576797,
        0.026133622974157333,
        0.014948691241443157,
        0.1396676003932953,
        -0.11676335334777832,
        0.009986297227442265,
        -0.06780046969652176,
        0.08895236253738403,
        -0.09372196346521378,
        -0.13155387341976166,
        0.08415472507476807,
        -0.05682651698589325,
        -0.04125717654824257,
        0.09896442294120789,
        0.028857257217168808,
        0.10444150865077972,
        -0.0895964503288269,
        0.0730171948671341,
        -0.10436797887086868,
        -0.0265785064548254,
        0.08418437838554382,
        0.14713770151138306,
        -0.07656800001859665,
        0.09086966514587402,
        -0.11856257915496826,
        -0.027964288368821144,
        -0.13528554141521454,
        -0.11064747720956802,
        -0.06064034253358841,
        0.010590938851237297,
        -0.13468527793884277,
        -0.14666087925434113,
        -0.02440137043595314,
        0.123909592628479,
        -0.11489006131887436,
        0.09669580310583115,
        0.05160176008939743,
        -0.13156600296497345,
        0.0033546886406838894,
        -0.1371961385011673,
        -0.0035890431609004736,
        0.1498534381389618,
        0.07704967260360718,
        -0.10130774229764938,
        0.09466701745986938,
        -0.14341282844543457,
        0.05368635803461075,
        -0.10496271401643753,
        0.03043484501540661,
        0.14056196808815002
      ],
      [
        0.07276751101016998,
        -0.07612486183643341,
        -0.008011650294065475,
        -0.14187787473201752,
        -0.13896939158439636,
        0.07883654534816742,
        0.11597678065299988,
        0.13862530887126923,
        0.1282186508178711,
        -0.008129398338496685,
        0.14765764772891998,
        -0.04153474047780037,
        0.06377663463354111,
        0.04439755156636238,
        0.15833339095115662,
        0.0070118228904902935,
        -0.14589083194732666,
        0.11743222922086716,
        -0.07341700047254562,
        -0.03359523415565491,
        -0.01987065188586712,
        -0.03639153763651848,
        0.0818723812699318,
        0.14057543873786926,
        -0.045002490282058716,
        0.10070550441741943,
        0.07170835882425308,
        -0.037256237119436264,
        -0.005313134286552668,
        0.062348052859306335,
        0.17376548051834106,
        0.1679711490869522,
        -0.04289207234978676,
        -0.12473247945308685,
        -0.030013754963874817,
        -0.16798844933509827,
        0.06611082702875137,
        -0.06756909936666489,
        -0.16206592321395874,
        -0.10701274126768112,
        -0.03182202950119972,
        0.12307597696781158,
        -0.10705023258924484,
        0.15480650961399078,
        0.12489836663007736,
        0.11855070292949677,
        0.08099173754453659,
        -0.07077498733997345,
        0.12932081520557404,
        -0.17463205754756927,
        -0.10911326855421066,
        -0.0447641983628273,
        0.0586121566593647,
        -0.052946802228689194,
        0.08142055571079254,
        0.16079311072826385,
        -0.08277161419391632,
        -0.052762944251298904,
        -0.11599617451429367,
        -0.062146272510290146,
        -0.15497441589832306,
        -0.11034245043992996,
        -0.1473909616470337,
        0.137607604265213,
        -0.016487600281834602,
        -0.12399229407310486,
        0.10878799855709076,
        0.02507656253874302,
        -0.08273326605558395,
        0.012261081486940384,
        0.13693484663963318,
        0.166523739695549,
        0.005491490010172129,
        0.12367929518222809,
        -0.1557752788066864,
        0.048279862850904465,
        0.10876521468162537,
        0.06753262132406235,
        0.04488952085375786,
        -0.08146636188030243,
        -0.05183163657784462,
        -0.0652787834405899,
        0.12038974463939667,
        -0.06653836369514465,
        -0.02140485867857933,
        0.06292179971933365,
        0.05375988408923149,
        0.030622832477092743,
        -0.06068311259150505,
        0.03347760811448097,
        0.10526937246322632,
        -0.05383311212062836,
        -0.07602056115865707,
        0.020170781761407852,
        -0.09413379430770874,
        -0.11918778717517853,
        0.09929002821445465,
        -0.09684305638074875,
        -0.04647647589445114,
        -0.06590811908245087,
        -0.005604016128927469,
        0.11915349960327148,
        0.10826430469751358,
        0.04907126724720001,
        -0.030149513855576515,
        0.07567152380943298,
        -0.07264363020658493,
        -0.010651874355971813,
        0.1683105230331421,
        0.16310963034629822,
        0.04624611511826515,
        0.07529820501804352,
        -0.03598508983850479,
        0.005601410288363695,
        0.10012836754322052,
        0.03394720330834389,
        -0.026307906955480576,
        -0.011605650186538696,
        -0.111590676009655,
        0.04848684370517731,
        -0.011224676854908466,
        0.09865684062242508,
        0.02055124193429947,
        -0.007056230679154396,
        0.09741366654634476,
        -0.04115297272801399,
        -0.01944541558623314,
        0.09628649055957794,
        -0.0379067100584507,
        -0.028679827228188515,
        -0.05905207246541977,
        -0.004480418283492327,
        -0.09508557617664337,
        -0.09976355731487274,
        0.04969017207622528,
        -0.0677332803606987,
        -0.007998837158083916,
        -0.0746535062789917,
        -0.05668361857533455,
        -0.08445759117603302,
        0.0037581713404506445,
        -0.05965662747621536,
        -0.04944164305925369,
        0.018395375460386276
      ],
      [
        0.14378993213176727,
        0.15115469694137573,
        -0.1424456238746643,
        -0.001987191615626216,
        -0.01559786032885313,
        0.04224855452775955,
        0.1398424357175827,
        0.10704246163368225,
        -0.046258773654699326,
        0.09104066342115402,
        -0.018229030072689056,
        0.022377129644155502,
        0.04112116992473602,
        0.11746387183666229,
        0.13537652790546417,
        0.11826696246862411,
        -0.12298242747783661,
        0.077545166015625,
        -0.019132787361741066,
        -0.10069890320301056,
        0.12896601855754852,
        -0.005092189181596041,
        -0.14812025427818298,
        -0.00622216984629631,
        -0.050448693335056305,
        0.025859752669930458,
        -0.03544102609157562,
        0.04907387122511864,
        -0.027437519282102585,
        -0.1267515867948532,
        0.0755309909582138,
        -0.08476170897483826,
        0.16412712633609772,
        0.01972602866590023,
        0.08880764991044998,
        0.10259702801704407,
        -0.13387130200862885,
        0.03527778387069702,
        0.09885739535093307,
        0.13796491920948029,
        0.05581974983215332,
        0.06788352876901627,
        0.12959514558315277,
        0.11541049927473068,
        -0.16494612395763397,
        -0.09144068509340286,
        0.014291085302829742,
        0.026436008512973785,
        0.058308765292167664,
        0.03152528032660484,
        -0.1435743272304535,
        -0.052912596613168716,
        -0.16822293400764465,
        -0.06680285185575485,
        -0.03083811327815056,
        0.05496366694569588,
        -0.10362954437732697,
        -0.14189928770065308,
        -0.11409125477075577,
        0.08639413863420486,
        -0.0824262946844101,
        -0.09331673383712769,
        -0.08256456255912781,
        -0.17259493470191956,
        -0.09994153678417206,
        0.1434573084115982,
        -0.032870158553123474,
        0.12473809719085693,
        0.03491891920566559,
        0.12456975132226944,
        -0.05459192767739296,
        -0.0399911142885685,
        0.07057826220989227,
        -0.05395277589559555,
        -0.11432404071092606,
        -0.1413051337003708,
        0.09925166517496109,
        -0.0690528005361557,
        -0.1012703999876976,
        0.06729498505592346,
        0.06503534317016602,
        -0.045905228704214096,
        0.10024241358041763,
        0.11119057238101959,
        -0.022347670048475266,
        0.06162361055612564,
        -0.0123663991689682,
        0.09635629504919052,
        0.0885278582572937,
        -0.1325458139181137,
        -0.046898677945137024,
        -0.053397879004478455,
        -0.057747144252061844,
        0.16918474435806274,
        0.12463252246379852,
        -0.0010424370411783457,
        0.0031244491692632437,
        0.15074069797992706,
        0.09019764512777328,
        0.09651490300893784,
        -0.05490754172205925,
        -0.004225163720548153,
        -0.14135083556175232,
        0.03510351851582527,
        0.01451792474836111,
        0.016820084303617477,
        0.07991118729114532,
        0.16274608671665192,
        0.08342862874269485,
        0.15825912356376648,
        0.14247992634773254,
        -0.03594042360782623,
        0.03476867824792862,
        0.037852805107831955,
        0.11076214909553528,
        0.0960436686873436,
        0.11756730824708939,
        0.01709654927253723,
        -0.01961301453411579,
        -0.04129435867071152,
        0.10585464537143707,
        -0.05906009301543236,
        0.09360682219266891,
        -0.11298275738954544,
        0.06625062972307205,
        0.07981813699007034,
        0.0911710262298584,
        0.0467558391392231,
        -0.10294625163078308,
        0.11263705790042877,
        0.00821257196366787,
        -0.0897412821650505,
        0.14328905940055847,
        0.043804317712783813,
        -0.0504784882068634,
        -0.09153316915035248,
        -0.008533488027751446,
        0.006701233331114054,
        -0.0589258074760437,
        0.12193698436021805,
        -0.004195318557322025,
        0.089986652135849,
        -0.05361146852374077,
        -0.05216054618358612
      ],
      [
        0.11030760407447815,
        0.0028907584492117167,
        0.07300411909818649,
        0.05527516454458237,
        0.09918683022260666,
        -0.1405775398015976,
        -0.12485451996326447,
        0.02291557751595974,
        -0.1488860845565796,
        -0.035052187740802765,
        -0.02242083102464676,
        0.03584293648600578,
        0.04929878190159798,
        -0.13139179348945618,
        -0.09099322557449341,
        -0.003825879655778408,
        0.02601439505815506,
        -0.0924089327454567,
        -0.07476399838924408,
        0.07350596785545349,
        -0.1213165670633316,
        0.029111457988619804,
        -0.11306264996528625,
        0.0350598506629467,
        0.0019037278834730387,
        -0.03622495383024216,
        -0.1134999692440033,
        0.0742778554558754,
        -0.13898757100105286,
        0.018358832225203514,
        0.07661137729883194,
        -0.12889204919338226,
        -0.13460855185985565,
        0.028473451733589172,
        0.03165043145418167,
        0.10399864614009857,
        0.014455397613346577,
        0.061683930456638336,
        -0.013487346470355988,
        -0.12742312252521515,
        0.12929338216781616,
        -0.12332338839769363,
        0.09333473443984985,
        -0.06965888291597366,
        0.05153234302997589,
        0.09754285961389542,
        -0.06920865923166275,
        -0.09463628381490707,
        -0.14585383236408234,
        0.1410718709230423,
        -0.1463748961687088,
        -0.046208467334508896,
        -0.10001131147146225,
        0.0782371237874031,
        0.010629294440150261,
        -0.048721976578235626,
        -0.05130866914987564,
        -0.07898040860891342,
        0.11615588515996933,
        0.00843165535479784,
        -0.08000893890857697,
        0.09586267918348312,
        0.04554540291428566,
        -0.13283725082874298,
        -0.007867292501032352,
        0.12241861969232559,
        0.12631282210350037,
        0.07651709020137787,
        -0.09756743162870407,
        -0.09614075720310211,
        -0.12002188712358475,
        0.13338778913021088,
        0.026570888236165047,
        0.06712052971124649,
        -0.04010612890124321,
        -0.012739673256874084,
        0.03187384828925133,
        -0.018593527376651764,
        0.10536767542362213,
        -0.10741366446018219,
        0.03898058831691742,
        0.0017332290299236774,
        0.1095631793141365,
        -0.008028777316212654,
        0.0649673119187355,
        -0.05537639558315277,
        0.020924502983689308,
        -0.12570634484291077,
        0.1263013333082199,
        0.1048598438501358,
        -0.08943534642457962,
        -0.016536200419068336,
        0.05253983661532402,
        0.005251212045550346,
        0.04753796011209488,
        -0.025117062032222748,
        0.061370622366666794,
        -0.09542950242757797,
        -0.11829441785812378,
        -0.021009162068367004,
        -0.10857272148132324,
        0.11621346324682236,
        -0.12366488575935364,
        0.019520694389939308,
        -0.13374996185302734,
        -0.023796986788511276,
        0.06963898241519928,
        -0.14861316978931427,
        -0.03959523141384125,
        -0.031119460240006447,
        -0.06660617887973785,
        -0.10937517136335373,
        0.10000669956207275,
        0.04922935739159584,
        -0.14207163453102112,
        -0.11946815997362137,
        0.027682824060320854,
        -0.14367511868476868,
        0.14083068072795868,
        -0.06196937337517738,
        -0.07248149812221527,
        0.041879504919052124,
        -0.13373079895973206,
        0.028237327933311462,
        -0.12065092474222183,
        -0.13576024770736694,
        0.10440006852149963,
        -0.002382110571488738,
        0.13398122787475586,
        0.016108492389321327,
        0.015160191804170609,
        -0.038950834423303604,
        0.12713900208473206,
        -0.07800832390785217,
        -0.023637764155864716,
        0.12237435579299927,
        -0.060879919677972794,
        0.050547096878290176,
        0.08301620930433273,
        0.029388848692178726,
        -0.0888184979557991,
        -0.11664377152919769,
        -0.08816438913345337,
        -0.04789735749363899
      ],
      [
        0.01811635121703148,
        0.14102530479431152,
        -0.13460329174995422,
        -0.11686960607767105,
        0.10615421831607819,
        -0.03814055770635605,
        -0.009020554833114147,
        0.03522621467709541,
        -0.14163623750209808,
        0.0010204550344496965,
        0.11699394136667252,
        -0.123383529484272,
        -0.13425037264823914,
        0.07186847180128098,
        -0.005423762369900942,
        -0.12053395062685013,
        -0.06105745583772659,
        0.006054500117897987,
        -0.11150255799293518,
        0.0890975072979927,
        0.012293307110667229,
        0.02184407040476799,
        -0.016052521765232086,
        0.034592244774103165,
        -0.14304779469966888,
        0.13425122201442719,
        -0.0660707876086235,
        -0.10669134557247162,
        -0.018561506643891335,
        0.05261830613017082,
        0.10035514831542969,
        -0.0674833431839943,
        0.029047809541225433,
        -0.009049552492797375,
        0.0190106313675642,
        -0.14788387715816498,
        0.13733308017253876,
        0.09287124127149582,
        0.02464774064719677,
        -0.009102007374167442,
        -0.06826120615005493,
        0.13777856528759003,
        -0.07416121661663055,
        -0.1521674245595932,
        -0.04544259235262871,
        0.022230736911296844,
        -0.12204325944185257,
        -0.050506629049777985,
        -0.12121489644050598,
        -0.07546967267990112,
        -0.12972725927829742,
        0.037665609270334244,
        0.16065527498722076,
        -0.09038648754358292,
        -0.14261245727539062,
        -0.1126207560300827,
        -0.12659041583538055,
        0.1383872628211975,
        -0.10351221263408661,
        -0.08610094338655472,
        -0.046547647565603256,
        -0.012943699024617672,
        -0.05912768468260765,
        0.09851689636707306,
        -0.02437443844974041,
        -0.10544681549072266,
        0.04124920815229416,
        0.05639497935771942,
        -0.10239920765161514,
        -0.08430884778499603,
        -0.030675755813717842,
        0.04717940464615822,
        0.1314537227153778,
        0.1407175064086914,
        0.048299308866262436,
        0.11166022717952728,
        -0.10416838526725769,
        -0.07140003889799118,
        -0.11373020708560944,
        -0.10049062222242355,
        0.01636691391468048,
        0.053604744374752045,
        0.010107270441949368,
        0.027477039024233818,
        -0.13889992237091064,
        0.03615609183907509,
        0.03886605426669121,
        0.005887359846383333,
        0.04241412878036499,
        -0.0012893971288576722,
        0.07154309749603271,
        -0.06879256665706635,
        0.07323697209358215,
        0.11583440005779266,
        0.03482380881905556,
        0.08817938715219498,
        0.11533290147781372,
        -0.10701839625835419,
        0.07267341017723083,
        -0.008384556509554386,
        0.02553926222026348,
        -0.10719908773899078,
        -0.049163736402988434,
        -0.14015163481235504,
        -0.03414051607251167,
        0.037233561277389526,
        -0.05381089448928833,
        -0.0817580297589302,
        0.1300383359193802,
        -0.05807396024465561,
        0.04284267872571945,
        -0.10157877951860428,
        0.014057674445211887,
        0.03912847861647606,
        0.11724141985177994,
        0.14256930351257324,
        0.05501512065529823,
        -0.1292438507080078,
        0.09249111264944077,
        -0.038341816514730453,
        0.0675835832953453,
        0.049166489392519,
        0.1509123593568802,
        0.0754101425409317,
        0.03412286192178726,
        -0.10758394002914429,
        -0.07215525954961777,
        -0.13094189763069153,
        0.12305189669132233,
        -0.04830506816506386,
        -0.022608622908592224,
        0.12478407472372055,
        -0.08076031506061554,
        -0.11172296106815338,
        -0.08887246251106262,
        0.12702146172523499,
        0.13844631612300873,
        0.13434264063835144,
        -0.02692362479865551,
        0.058492809534072876,
        -0.10461452603340149,
        -0.08739332854747772,
        0.037741828709840775,
        -0.001970348646864295
      ],
      [
        0.12817569077014923,
        -0.13250038027763367,
        -0.09640379995107651,
        -0.05092896521091461,
        0.14112481474876404,
        -0.07010065764188766,
        0.026249412447214127,
        0.1023297905921936,
        -0.06268186867237091,
        -0.05903002992272377,
        -0.0448186881840229,
        -0.12659290432929993,
        0.09598992764949799,
        0.0028654825873672962,
        -0.0621568001806736,
        0.11601579934358597,
        0.14705206453800201,
        0.004731418564915657,
        -0.006443347316235304,
        0.12280348688364029,
        -0.028133900836110115,
        -0.10521120578050613,
        0.0618077851831913,
        0.13951706886291504,
        0.030588794499635696,
        0.04938364401459694,
        0.055779509246349335,
        -0.12858006358146667,
        0.020879946649074554,
        -0.12664765119552612,
        -0.13030849397182465,
        -0.049517542123794556,
        0.09634286165237427,
        -0.06135977804660797,
        0.10285881906747818,
        0.011574205942451954,
        -0.14398159086704254,
        -0.09396517276763916,
        0.10578170418739319,
        0.0435534343123436,
        0.05717639997601509,
        0.05440444499254227,
        0.05729116126894951,
        -0.039615269750356674,
        -0.012866094708442688,
        0.00408278638496995,
        0.02817796729505062,
        -0.10597290843725204,
        -0.021363185718655586,
        -0.1298166811466217,
        -0.030230263248085976,
        -0.10743806511163712,
        -0.05383719503879547,
        -0.07777485996484756,
        -0.13508519530296326,
        -0.1100945919752121,
        0.13759060204029083,
        0.06913883239030838,
        0.09414655715227127,
        0.10867560654878616,
        -0.06107112392783165,
        0.08878172934055328,
        -0.00211062072776258,
        -0.1376653015613556,
        0.08135145902633667,
        -0.09949367493391037,
        -0.11268527805805206,
        -0.08639056235551834,
        0.061916183680295944,
        0.07021833211183548,
        0.042568132281303406,
        0.14644716680049896,
        -0.07728403806686401,
        0.12355104088783264,
        -0.11710517853498459,
        -0.02390085905790329,
        0.09166036546230316,
        -0.032060008496046066,
        -0.04505426436662674,
        -0.03265870362520218,
        0.01695176213979721,
        -0.060743145644664764,
        0.03965974226593971,
        0.14469176530838013,
        -0.08331135660409927,
        0.00022128380078356713,
        -0.056024178862571716,
        0.05110478028655052,
        -0.0737229734659195,
        -0.012630565091967583,
        0.12073087692260742,
        0.14239327609539032,
        0.015143848955631256,
        0.0060232472606003284,
        -0.012196516618132591,
        -0.007050761487334967,
        -0.10461116582155228,
        -0.0007096989429555833,
        0.023725176230072975,
        -0.10157477110624313,
        -0.0883580818772316,
        -0.04521724209189415,
        0.08426287025213242,
        0.13741600513458252,
        -0.08602245151996613,
        -0.08313464373350143,
        -0.09327737987041473,
        0.05597258359193802,
        -0.015413537621498108,
        -0.12641598284244537,
        -0.08805209398269653,
        -0.057268645614385605,
        -0.11030460894107819,
        -0.10815095156431198,
        0.03028949722647667,
        -0.11314378678798676,
        -0.13556689023971558,
        0.06821328401565552,
        -0.13607381284236908,
        0.0720614567399025,
        -0.007870122790336609,
        0.1365176886320114,
        -0.04853222891688347,
        0.106668621301651,
        0.1566961705684662,
        0.09459792822599411,
        0.042624037712812424,
        -0.09685425460338593,
        -0.06463047862052917,
        -0.10551516711711884,
        0.06051754578948021,
        -0.004562821239233017,
        -0.0668301209807396,
        0.0008815375040285289,
        0.07288304716348648,
        0.022872844710946083,
        -0.1025061309337616,
        -0.07126440852880478,
        -0.040010835975408554,
        0.00536722457036376,
        -0.02876313216984272,
        -0.09967554360628128,
        0.07333485037088394,
        -0.014788548462092876
      ],
      [
        0.08702708780765533,
        0.10084141790866852,
        -0.14473360776901245,
        -0.11743602156639099,
        0.058538395911455154,
        0.03126918151974678,
        -0.03677753731608391,
        -0.13935843110084534,
        0.09151255339384079,
        0.029323089867830276,
        0.05069306492805481,
        0.036663614213466644,
        -0.04817638546228409,
        -0.022524211555719376,
        0.08866562694311142,
        0.1414482146501541,
        0.038068987429142,
        -0.059298932552337646,
        0.01955404318869114,
        -0.12531517446041107,
        -0.011903554201126099,
        0.06595021486282349,
        -0.01527955662459135,
        0.08909648656845093,
        0.10355313122272491,
        0.13256609439849854,
        -0.12391933053731918,
        0.14343728125095367,
        0.08440352231264114,
        0.14152966439723969,
        -0.0565483458340168,
        -0.1394958794116974,
        -0.12527291476726532,
        0.13125425577163696,
        -0.08411701768636703,
        0.06029915064573288,
        -0.09172068536281586,
        -0.1004282534122467,
        -0.022359145805239677,
        0.008511515334248543,
        0.03912360593676567,
        0.08788805454969406,
        -0.011643027886748314,
        -0.1038864478468895,
        -0.1485036164522171,
        0.1475837677717209,
        -0.08640770614147186,
        0.06014573946595192,
        -0.0449959933757782,
        -0.06848547607660294,
        -0.018549760803580284,
        0.052515361458063126,
        0.10547560453414917,
        0.053956419229507446,
        0.02764642983675003,
        -0.13550302386283875,
        -0.048995207995176315,
        -0.13211339712142944,
        -0.13831229507923126,
        0.13452614843845367,
        0.08739405125379562,
        -0.10256313532590866,
        -0.10912059992551804,
        -0.11588188260793686,
        0.06497318297624588,
        0.13075309991836548,
        -0.11564543098211288,
        0.04038376733660698,
        -0.0582716204226017,
        -0.1197349950671196,
        -0.012187371030449867,
        0.08479119092226028,
        0.08294295519590378,
        -0.12219644337892532,
        0.08177299052476883,
        -0.10669567435979843,
        -0.10933304578065872,
        0.011318187229335308,
        0.018201785162091255,
        0.005903856363147497,
        0.03868994489312172,
        -0.11468427628278732,
        -0.10270267724990845,
        0.05357001721858978,
        -0.07659274339675903,
        0.01087893731892109,
        -0.0005671864491887391,
        -0.008608934469521046,
        -0.03405187278985977,
        0.08843634277582169,
        -0.09871118515729904,
        -0.14112472534179688,
        0.09130235016345978,
        0.1380358189344406,
        -0.08571150153875351,
        -0.10680748522281647,
        0.10630059242248535,
        -0.014931702055037022,
        -0.028644736856222153,
        -0.0069602071307599545,
        -0.009160774759948254,
        0.10588746517896652,
        -0.040526535362005234,
        -0.06557289510965347,
        -0.09244982153177261,
        0.01336737535893917,
        -0.11153291165828705,
        0.0025334313977509737,
        0.1319824755191803,
        0.12189881503582001,
        0.08246427029371262,
        0.12170267850160599,
        -0.04477330669760704,
        0.08111327141523361,
        0.01828162372112274,
        -0.02142317034304142,
        0.019673634320497513,
        0.12555623054504395,
        0.004875163082033396,
        -0.042191583663225174,
        -0.008441942743957043,
        -0.10581403225660324,
        0.06306742131710052,
        -0.027610842138528824,
        0.05669935792684555,
        -0.039285387843847275,
        -0.03994709625840187,
        -0.10818888247013092,
        -0.05724796652793884,
        0.12942059338092804,
        -0.11007899045944214,
        -0.007520495913922787,
        -0.03150445967912674,
        -0.034268103539943695,
        -0.020649464800953865,
        -0.11932191252708435,
        0.1328357309103012,
        0.042324382811784744,
        0.12614822387695312,
        -0.12949202954769135,
        -0.08010184019804001,
        -0.02712661772966385,
        -0.1299780309200287,
        -0.07154744118452072
      ],
      [
        -0.13746312260627747,
        0.0753781720995903,
        -0.1140323132276535,
        -0.0105529660359025,
        0.09362825006246567,
        0.13011355698108673,
        -0.1314467340707779,
        0.06248921528458595,
        -0.06457522511482239,
        0.02195759303867817,
        -0.1022941917181015,
        -0.08650337904691696,
        -0.014708341099321842,
        0.06021466106176376,
        0.09067525714635849,
        0.07164473086595535,
        -0.0460486002266407,
        0.07064959406852722,
        0.11199287325143814,
        -0.13964559137821198,
        -0.10200503468513489,
        -0.039679139852523804,
        -0.05169970914721489,
        0.0017318619647994637,
        0.1099749431014061,
        -0.1339624971151352,
        -0.06537174433469772,
        -0.14687438309192657,
        0.06980907917022705,
        0.03976912423968315,
        0.032980699092149734,
        0.08300640434026718,
        0.11817144602537155,
        -0.07128440588712692,
        -0.13416318595409393,
        0.04383381828665733,
        0.03218404948711395,
        0.13013941049575806,
        -0.04893892630934715,
        -0.06755737215280533,
        -0.08343996852636337,
        0.030138785019516945,
        0.014513683505356312,
        -0.12066998332738876,
        0.10489561408758163,
        0.07671628147363663,
        0.12429919093847275,
        -0.03391415998339653,
        -0.08729927241802216,
        0.008876039646565914,
        0.04715852811932564,
        -0.15043522417545319,
        0.07398620992898941,
        -0.12488335371017456,
        -0.03729928657412529,
        0.0918186604976654,
        0.15256039798259735,
        -0.07970018684864044,
        0.0932811051607132,
        -0.08354902267456055,
        -0.030009139329195023,
        0.0021481458097696304,
        -0.014025915414094925,
        0.12428861856460571,
        0.05062562972307205,
        0.04568183794617653,
        -0.0972776934504509,
        -0.04064498096704483,
        -0.008005723357200623,
        -0.10884211212396622,
        0.05624624714255333,
        0.11358793079853058,
        -0.09578356146812439,
        -0.1369076669216156,
        0.09522684663534164,
        -0.12455836683511734,
        -0.12042509019374847,
        -0.14364679157733917,
        0.042320556938648224,
        0.09499158710241318,
        -0.04939233139157295,
        0.025011161342263222,
        -0.01500238012522459,
        0.12950095534324646,
        -0.010979358106851578,
        0.013756269589066505,
        -0.06850855052471161,
        -0.13425526022911072,
        -0.038979846984148026,
        -0.13309240341186523,
        0.09831435978412628,
        -0.10150669515132904,
        0.04577087238430977,
        -0.12444750219583511,
        -0.007890982553362846,
        0.03786027431488037,
        0.030946943908929825,
        0.009123217314481735,
        0.007086367346346378,
        -0.13247844576835632,
        -0.09392883628606796,
        0.09762144833803177,
        0.055316124111413956,
        0.11968017369508743,
        -0.13560864329338074,
        0.14962634444236755,
        -0.07520350068807602,
        -0.09136630594730377,
        0.09149456769227982,
        0.09743745625019073,
        0.14337459206581116,
        -0.10501857101917267,
        -0.1112777516245842,
        -0.06892862915992737,
        0.08588461577892303,
        -0.099259153008461,
        0.015933528542518616,
        0.07521076500415802,
        -0.07108110934495926,
        0.02230331301689148,
        -0.017002513632178307,
        0.13421303033828735,
        -0.05570991337299347,
        -0.1217251643538475,
        0.035650696605443954,
        0.05190449208021164,
        0.008773003704845905,
        0.09842216223478317,
        -0.13249260187149048,
        -0.06245867535471916,
        0.13978122174739838,
        0.0477076880633831,
        0.09243915975093842,
        0.056372638791799545,
        -0.043418433517217636,
        -0.14480294287204742,
        -0.12283606827259064,
        -0.0009601729107089341,
        -0.11963854730129242,
        -0.049355749040842056,
        0.08735918998718262,
        0.05287226662039757,
        -0.005270818248391151,
        0.13210229575634003
      ],
      [
        0.08784724026918411,
        -0.0959644764661789,
        0.13949811458587646,
        -0.033719178289175034,
        0.04039542376995087,
        0.08984389901161194,
        -0.07631571590900421,
        0.04310460016131401,
        -0.059420861303806305,
        0.1442938894033432,
        -0.08219917118549347,
        -0.1003854051232338,
        0.03311020880937576,
        -0.04156141355633736,
        0.15495187044143677,
        -0.036746203899383545,
        -0.026141487061977386,
        0.07220321148633957,
        0.12704555690288544,
        -0.10119558870792389,
        0.024294370785355568,
        0.10792635381221771,
        0.17480923235416412,
        0.1120012179017067,
        0.12505416572093964,
        0.0723186731338501,
        -0.05273831635713577,
        0.07325796782970428,
        0.07425964623689651,
        0.07227058708667755,
        -0.1140589714050293,
        0.1547316461801529,
        0.08258891105651855,
        0.07121175527572632,
        0.15975402295589447,
        0.028512809425592422,
        -0.15204603970050812,
        -0.013677297160029411,
        0.14774614572525024,
        0.06234842911362648,
        -0.07676892727613449,
        0.027430487796664238,
        0.07989735156297684,
        -0.060330238193273544,
        -0.09426935017108917,
        0.12342234700918198,
        0.06315524131059647,
        0.05651649460196495,
        -0.0648031011223793,
        0.013203202746808529,
        -0.14755594730377197,
        0.12077626585960388,
        -0.1361263245344162,
        0.11947043985128403,
        0.056878089904785156,
        0.04662899672985077,
        -0.06164275482296944,
        0.1208932101726532,
        0.017833581194281578,
        0.04625983163714409,
        -0.15525029599666595,
        -0.06116531789302826,
        -0.029081817716360092,
        -0.05542966350913048,
        0.03091161884367466,
        0.0163030494004488,
        -0.13821133971214294,
        -0.06271233409643173,
        0.03841404989361763,
        0.07825496792793274,
        -0.04289035126566887,
        0.057173583656549454,
        -0.0721287876367569,
        0.0882708951830864,
        0.03230879828333855,
        0.1546562761068344,
        0.19084423780441284,
        -0.0431712307035923,
        0.06520945578813553,
        -0.012403139844536781,
        -0.14379438757896423,
        -0.01149793341755867,
        0.07079524546861649,
        0.07790039479732513,
        -0.16463710367679596,
        0.0783710852265358,
        -0.003094373270869255,
        -0.016012268140912056,
        -0.010556970722973347,
        -0.10994929075241089,
        0.15761013329029083,
        -0.04762985184788704,
        -0.012501365505158901,
        0.08202430605888367,
        -0.12229782342910767,
        0.056546710431575775,
        0.13102364540100098,
        0.003963654860854149,
        -0.024281207472085953,
        -0.05008416250348091,
        -0.0028439173474907875,
        -0.004174742382019758,
        0.014116175472736359,
        -0.1360323429107666,
        -0.14226382970809937,
        -0.10470176488161087,
        0.008599412627518177,
        0.09352482110261917,
        -0.09412143379449844,
        -0.03486837446689606,
        0.11030519008636475,
        -0.10014119744300842,
        -0.04115930572152138,
        -0.15661920607089996,
        -0.1392364799976349,
        0.02065671794116497,
        0.06163618341088295,
        -0.20203272998332977,
        -0.05092877522110939,
        0.14885014295578003,
        -0.1045273020863533,
        0.09878650307655334,
        0.10302064567804337,
        -0.05344998836517334,
        0.1752665638923645,
        0.13069729506969452,
        -0.06624820083379745,
        0.06983079016208649,
        -0.08301491290330887,
        -0.0675654336810112,
        0.11120830476284027,
        0.1990053802728653,
        0.04447837918996811,
        0.03059796430170536,
        -0.09588612616062164,
        0.180465966463089,
        -0.0804055780172348,
        0.17178291082382202,
        0.20630225539207458,
        0.17650823295116425,
        -0.017370861023664474,
        0.14077183604240417,
        0.08309771865606308,
        0.10170120000839233
      ],
      [
        -0.07958465814590454,
        0.11909979581832886,
        0.13721291720867157,
        0.046623241156339645,
        -0.15638065338134766,
        0.14599990844726562,
        0.12531667947769165,
        0.0692564994096756,
        0.09264607727527618,
        -0.029067810624837875,
        0.10521706193685532,
        0.13990187644958496,
        0.05785784125328064,
        -0.14282594621181488,
        0.034341659396886826,
        0.06513062119483948,
        0.11706109344959259,
        0.12056533992290497,
        -0.03072027862071991,
        0.04763936251401901,
        -0.10118981450796127,
        -0.08854974806308746,
        -0.014825419522821903,
        -0.04346819594502449,
        -0.04128402844071388,
        0.07301955670118332,
        -0.07214571535587311,
        -0.05440825596451759,
        -0.019108837470412254,
        0.11118616908788681,
        -0.03284570947289467,
        -0.008333280682563782,
        0.04223732277750969,
        0.05064685270190239,
        -0.13411059975624084,
        0.11103606969118118,
        0.1311200112104416,
        0.1218048706650734,
        0.17987662553787231,
        -0.05109446123242378,
        -0.050335150212049484,
        0.15552163124084473,
        0.14777062833309174,
        -0.09996747225522995,
        0.04398801550269127,
        -0.045745089650154114,
        0.02183462493121624,
        0.00610735360532999,
        0.13963383436203003,
        0.13419386744499207,
        0.06129426881670952,
        0.14273926615715027,
        -0.015488294884562492,
        -0.013614288531243801,
        0.09850215911865234,
        -0.009295926429331303,
        0.07371621578931808,
        0.0011618122225627303,
        -0.02827523648738861,
        -0.03664519637823105,
        0.019947053864598274,
        -0.01673758402466774,
        -0.15788888931274414,
        -0.016588058322668076,
        -0.13453088700771332,
        -0.03569774329662323,
        0.1202569380402565,
        -0.01625591702759266,
        -0.16884927451610565,
        -0.02295595221221447,
        0.024248873814940453,
        -0.14018245041370392,
        -0.08281901478767395,
        -0.17681889235973358,
        -0.006870205979794264,
        -0.06042346730828285,
        0.01767398789525032,
        -0.07183805108070374,
        0.1697348803281784,
        0.00807193759828806,
        0.013442039489746094,
        -0.0028985661920160055,
        -0.09530237317085266,
        -0.13933919370174408,
        0.0751853659749031,
        -0.09030210971832275,
        0.042899321764707565,
        -0.025632698088884354,
        -0.11448589712381363,
        0.0922175794839859,
        0.0005037870141677558,
        -0.018458498641848564,
        -0.05065440386533737,
        -0.031854186207056046,
        -0.004023886285722256,
        0.05785036459565163,
        -0.09000708162784576,
        -0.015182610601186752,
        0.13332617282867432,
        0.0895257294178009,
        -0.05856279283761978,
        -0.06131164729595184,
        0.0251515731215477,
        0.04250195622444153,
        -0.07643130421638489,
        -0.04909529164433479,
        0.0503358356654644,
        0.12270714342594147,
        -0.011274975724518299,
        0.11841569095849991,
        0.012748250737786293,
        -0.10214266926050186,
        0.028930842876434326,
        0.06629642844200134,
        0.011680821888148785,
        -0.18741679191589355,
        0.07619435340166092,
        -0.0290907621383667,
        0.15038079023361206,
        0.03725087270140648,
        0.050019003450870514,
        -0.10891077667474747,
        -0.14281541109085083,
        0.1422904133796692,
        -0.1348808854818344,
        -0.05742953345179558,
        -0.15173903107643127,
        -0.03530505672097206,
        0.11367855221033096,
        0.008153664879500866,
        -0.02882022224366665,
        0.11913154274225235,
        0.12631940841674805,
        -0.09659106284379959,
        -0.06540326029062271,
        0.11683695018291473,
        -0.07702212780714035,
        0.18626727163791656,
        0.007143298629671335,
        0.08426516503095627,
        0.10430184751749039,
        0.06242271885275841,
        -0.08960766345262527,
        0.016712291166186333
      ],
      [
        0.000605821784120053,
        -0.13459964096546173,
        0.13234533369541168,
        0.10050082206726074,
        0.15000367164611816,
        -0.0683496966958046,
        0.047810230404138565,
        0.03592527657747269,
        0.07316146045923233,
        -0.1468077301979065,
        -0.04883822798728943,
        0.10145311057567596,
        -0.06259740144014359,
        0.07163279503583908,
        -0.14105138182640076,
        -0.02283553220331669,
        -0.05117073655128479,
        -0.12641872465610504,
        -0.09104431420564651,
        0.0458526574075222,
        -0.015430682338774204,
        0.05047990381717682,
        -0.060396019369363785,
        -0.1447427123785019,
        -0.14781393110752106,
        -0.12461714446544647,
        -0.09990500658750534,
        -0.08922051638364792,
        0.08803029358386993,
        0.07417146861553192,
        0.12240789830684662,
        0.12059930711984634,
        -0.07066677510738373,
        -0.07419402152299881,
        -0.07109902054071426,
        -0.10183138400316238,
        0.07572241127490997,
        -0.14792469143867493,
        -0.10197167098522186,
        0.12484339624643326,
        -0.08139780908823013,
        0.13611778616905212,
        0.11878693103790283,
        -0.14622963964939117,
        -0.023659737780690193,
        -0.022085795179009438,
        0.009224737994372845,
        -0.1556672304868698,
        -0.007576176896691322,
        0.047965943813323975,
        0.08746115863323212,
        0.1281740665435791,
        0.027949972078204155,
        0.16379714012145996,
        -0.09705109894275665,
        0.06203628331422806,
        -0.14104364812374115,
        -0.041057683527469635,
        -0.10291670262813568,
        0.06932935863733292,
        -0.121864914894104,
        -0.012174788862466812,
        -0.14583145081996918,
        0.022127922624349594,
        0.07269764691591263,
        -0.017141111195087433,
        -0.00010385233326815069,
        -0.053603120148181915,
        -0.11425575613975525,
        0.12369664013385773,
        -0.012765936553478241,
        0.07608690857887268,
        -0.12726277112960815,
        0.05374964326620102,
        0.04030992090702057,
        -0.026399169117212296,
        0.10175467282533646,
        0.1449929028749466,
        0.06320256739854813,
        -0.061053771525621414,
        0.10509955883026123,
        -0.13424533605575562,
        -0.03370478004217148,
        0.003953468054533005,
        0.09552212059497833,
        -0.11191894859075546,
        0.09317459166049957,
        -0.06930522620677948,
        -0.029629435390233994,
        -0.09390528500080109,
        0.018246136605739594,
        0.029998034238815308,
        0.09938406199216843,
        -0.15035714209079742,
        0.12011183798313141,
        -0.10326650738716125,
        -0.09204556047916412,
        -0.1384444385766983,
        -0.09536504000425339,
        0.0015112592373043299,
        -0.07068325579166412,
        0.1659320890903473,
        0.09728344529867172,
        -0.046881187707185745,
        -0.13986216485500336,
        0.05417361110448837,
        -0.012410365976393223,
        -0.13317416608333588,
        -0.11284659057855606,
        -0.05709388852119446,
        -0.03748271241784096,
        0.09636003524065018,
        -0.00848681852221489,
        -0.1795780509710312,
        -0.013530490919947624,
        0.03297341614961624,
        -0.04538494348526001,
        0.14020046591758728,
        -0.11385215818881989,
        0.11985452473163605,
        0.039680395275354385,
        -0.1520497351884842,
        -0.1353762149810791,
        -0.1241074725985527,
        -0.04953906685113907,
        -0.1353140026330948,
        -0.1559109091758728,
        0.14083901047706604,
        0.12074493616819382,
        -0.09290323406457901,
        -0.002724977908656001,
        0.03350279480218887,
        0.11369945108890533,
        0.0016349413199350238,
        -0.11867664009332657,
        0.004159948322921991,
        0.06543426215648651,
        -0.120351143181324,
        0.12835709750652313,
        0.11247085779905319,
        0.05064152553677559,
        0.05388667434453964,
        -0.08440463989973068,
        0.12049922347068787
      ],
      [
        0.045281559228897095,
        0.08704660087823868,
        -0.12631644308567047,
        -0.11276927590370178,
        0.0016070296987891197,
        0.1353520005941391,
        -0.11335387080907822,
        -0.06441745162010193,
        -0.15006285905838013,
        -0.059875328093767166,
        -0.0888538807630539,
        -0.07675883919000626,
        0.12607441842556,
        0.13912151753902435,
        -0.13265089690685272,
        0.10927551239728928,
        -0.0468904934823513,
        -0.06285813450813293,
        -0.06312230229377747,
        0.05313737317919731,
        0.1639152616262436,
        0.12817654013633728,
        0.16987673938274384,
        -0.06200723350048065,
        -0.08973389118909836,
        0.08781852573156357,
        -0.17066849768161774,
        -0.11621175706386566,
        0.09397859871387482,
        0.07821482419967651,
        -0.04558723419904709,
        -0.10478933900594711,
        0.10322007536888123,
        0.16201026737689972,
        0.14766135811805725,
        0.12134234607219696,
        -0.03983671963214874,
        -0.06735657900571823,
        0.014101977460086346,
        0.012152357958257198,
        -0.05422703176736832,
        0.036193542182445526,
        0.07940777391195297,
        0.06782373785972595,
        0.1257760226726532,
        -0.10052739083766937,
        -0.10671874135732651,
        0.07476435601711273,
        -0.0489862784743309,
        -0.12309658527374268,
        -0.11545052379369736,
        -0.12634733319282532,
        -0.011742413975298405,
        -0.07153762876987457,
        -0.0013528666459023952,
        -0.12325242161750793,
        -0.0548919253051281,
        -0.12268658727407455,
        -0.10705286264419556,
        -0.007142858579754829,
        0.014193587936460972,
        -0.04699380323290825,
        0.09752711653709412,
        0.0900401845574379,
        0.1462610960006714,
        0.11468396335840225,
        -0.014653746038675308,
        0.04460299760103226,
        0.024147920310497284,
        0.08771398663520813,
        0.04932991415262222,
        0.1289055347442627,
        -0.07813659310340881,
        -0.04064202681183815,
        0.006754359696060419,
        0.1634189635515213,
        0.05882279947400093,
        0.11664688587188721,
        -0.07263098657131195,
        -0.08264361321926117,
        -0.11491347849369049,
        0.12471706420183182,
        0.11283306777477264,
        0.08714135736227036,
        -0.03413541615009308,
        -0.11155964434146881,
        0.1022191047668457,
        0.1668149083852768,
        -0.05029699578881264,
        0.05202960595488548,
        0.038070473819971085,
        0.13149312138557434,
        -0.035056207329034805,
        0.06783391535282135,
        0.13726665079593658,
        -0.09378720074892044,
        0.12176189571619034,
        0.11791945993900299,
        0.003969152923673391,
        0.003458104096353054,
        0.012998372316360474,
        -0.10832875967025757,
        -0.1024833470582962,
        -0.08517184853553772,
        0.0007522565429098904,
        -0.04355284571647644,
        -0.035739999264478683,
        -0.013484788127243519,
        0.10411190986633301,
        -0.04298724606633186,
        -0.0034851133823394775,
        0.10503177344799042,
        -0.050236232578754425,
        -0.0047454978339374065,
        0.07549098134040833,
        -0.0909118726849556,
        -0.011358089745044708,
        -0.03917859494686127,
        0.031142301857471466,
        -0.06269481778144836,
        0.10963470488786697,
        -0.06671199947595596,
        -0.15095297992229462,
        -0.12634335458278656,
        0.09756147861480713,
        0.06879846006631851,
        0.058851610869169235,
        -0.08655577152967453,
        0.09926369041204453,
        -0.02465556189417839,
        0.016576986759901047,
        0.13631102442741394,
        0.12806349992752075,
        0.09552767127752304,
        0.14519742131233215,
        0.09164423495531082,
        0.13714540004730225,
        -0.07868215441703796,
        -0.12384241819381714,
        0.06390067934989929,
        -0.07895006984472275,
        0.00527684111148119,
        -0.08268648386001587,
        -0.14218798279762268
      ],
      [
        0.14570264518260956,
        0.022492175921797752,
        0.01994807831943035,
        0.019089017063379288,
        -0.11389787495136261,
        -0.06352075934410095,
        -0.1393343210220337,
        0.03024430200457573,
        0.10399778187274933,
        0.08575943112373352,
        -0.024424294009804726,
        0.11495562642812729,
        -0.014739788137376308,
        0.010989436879754066,
        0.10477983951568604,
        -0.14225859940052032,
        -0.06988801062107086,
        -0.05267884209752083,
        -0.14608579874038696,
        -0.09745865315198898,
        0.012945837341248989,
        -0.03926268219947815,
        0.11129485070705414,
        -0.1218336969614029,
        -0.08842156827449799,
        0.10025957971811295,
        0.07311089336872101,
        0.02472706139087677,
        0.14090940356254578,
        0.10793475061655045,
        -0.02131069079041481,
        -0.1246059238910675,
        -0.0018961775349453092,
        0.14086532592773438,
        -0.04079897329211235,
        -0.1271970421075821,
        -0.010527374222874641,
        0.12742716073989868,
        0.0019244771683588624,
        -0.10458644479513168,
        0.05509410426020622,
        0.022210560739040375,
        0.07564783841371536,
        0.02179829031229019,
        -0.11511961370706558,
        0.03607117384672165,
        0.05982149764895439,
        0.070139579474926,
        -0.1378851681947708,
        0.04300814867019653,
        0.01073283888399601,
        0.14873136579990387,
        0.026188526302576065,
        -0.16268178820610046,
        0.09696133434772491,
        -0.12816156446933746,
        -0.035206280648708344,
        0.02890677936375141,
        0.06956826895475388,
        -0.028181102126836777,
        0.019022781401872635,
        -0.0965721383690834,
        0.04192383214831352,
        0.006985368672758341,
        -0.016713278368115425,
        -0.11306239664554596,
        -0.18568021059036255,
        0.07738317549228668,
        0.09332136809825897,
        -0.02814658358693123,
        0.023475876078009605,
        -0.13429908454418182,
        -0.0249331034719944,
        -0.08365426957607269,
        0.061728015542030334,
        0.06368416547775269,
        0.12417158484458923,
        -0.12402927130460739,
        0.011932996101677418,
        -0.0707663893699646,
        -0.17237406969070435,
        0.03836400806903839,
        0.14043928682804108,
        -0.027468513697385788,
        -0.07938220351934433,
        0.04708859696984291,
        0.03675422817468643,
        0.06683545559644699,
        -0.05062362179160118,
        -0.07882925122976303,
        0.06336081773042679,
        -0.06023253872990608,
        0.12210038304328918,
        0.14534194767475128,
        0.10350009053945541,
        -0.12105973064899445,
        -0.13222858309745789,
        -0.16748753190040588,
        0.06523273140192032,
        -0.11305924504995346,
        -0.015435946173965931,
        0.09600015729665756,
        0.12884534895420074,
        0.000769655336625874,
        0.17271913588047028,
        0.053306933492422104,
        -0.12089862674474716,
        -0.15000507235527039,
        -0.08218062669038773,
        0.04251158609986305,
        -0.06911704689264297,
        0.0034308789763599634,
        0.1559472680091858,
        -0.11729998886585236,
        -0.13096864521503448,
        -0.09447015076875687,
        0.14900532364845276,
        -0.09488549828529358,
        -0.03521117568016052,
        0.10256149619817734,
        0.10874393582344055,
        0.081317238509655,
        -0.02704557590186596,
        0.1368899643421173,
        -0.05071041360497475,
        0.00795403029769659,
        0.012521922588348389,
        0.11440727114677429,
        0.1316661834716797,
        -0.017044536769390106,
        -0.1322871595621109,
        -0.14522425830364227,
        0.13062560558319092,
        -0.06532043218612671,
        0.13342733681201935,
        -0.026988187804818153,
        -0.02374946139752865,
        0.09015341848134995,
        0.10639940947294235,
        0.1304699331521988,
        0.07020585983991623,
        -0.0934949666261673,
        0.02401539497077465,
        0.026640571653842926
      ],
      [
        0.13746272027492523,
        0.009091422893106937,
        -0.026645176112651825,
        -0.020532671362161636,
        0.026996424421668053,
        -0.1202666163444519,
        -0.14170600473880768,
        0.06670141220092773,
        -0.07147464156150818,
        0.11370536684989929,
        -0.05990971624851227,
        0.045077212154865265,
        -0.13575483858585358,
        0.0485091470181942,
        -0.05482755973935127,
        0.07930433750152588,
        -0.05678728222846985,
        -0.13661134243011475,
        0.08899343758821487,
        -0.11010181903839111,
        0.06978868693113327,
        -0.11601666361093521,
        -0.03954436630010605,
        0.05009659752249718,
        0.07075568288564682,
        0.12520267069339752,
        -0.06650745868682861,
        -0.0006150115514174104,
        0.03506433963775635,
        0.010492631234228611,
        0.15706443786621094,
        0.014064706861972809,
        -0.039552025496959686,
        0.15082837641239166,
        -0.07577814906835556,
        0.005448749754577875,
        -0.12580931186676025,
        0.14211389422416687,
        0.1755106896162033,
        0.08870887756347656,
        -0.12068289518356323,
        0.2001846879720688,
        0.029747771099209785,
        -0.15400901436805725,
        -0.14301860332489014,
        0.0727570578455925,
        -0.0011545426677912474,
        -0.12202522903680801,
        0.10188537836074829,
        -0.07216169685125351,
        -0.05938117206096649,
        -0.005592361558228731,
        -0.04297453910112381,
        0.07408910989761353,
        0.08254645019769669,
        0.08480537682771683,
        0.03753580152988434,
        0.08275281637907028,
        0.10601428896188736,
        0.040037743747234344,
        0.11396068334579468,
        -0.1352802813053131,
        0.0666533038020134,
        0.05458822101354599,
        -0.09707265347242355,
        -0.13486528396606445,
        0.08053769916296005,
        -0.137558251619339,
        -0.14694954454898834,
        -0.09337940067052841,
        -0.055156953632831573,
        0.027382321655750275,
        -0.1141996905207634,
        -0.05802997574210167,
        0.10681471228599548,
        0.018572987988591194,
        -0.027837909758090973,
        0.1218508780002594,
        0.014200136065483093,
        -0.08287696540355682,
        0.0660475417971611,
        0.05050153285264969,
        0.05840982124209404,
        0.0649319663643837,
        -0.10032226145267487,
        0.08365599066019058,
        0.12860918045043945,
        0.051567669957876205,
        -0.07017252594232559,
        -0.030685150995850563,
        0.07266729325056076,
        0.10193423181772232,
        0.06021329388022423,
        -0.007187903858721256,
        -0.1339024305343628,
        -0.039491426199674606,
        -0.038399484008550644,
        0.10523524880409241,
        0.059147853404283524,
        0.09616914391517639,
        0.13213707506656647,
        -0.06646887958049774,
        0.017072293907403946,
        0.030372533947229385,
